3666 100
abbey 0.02721 0.00189246 -0.000652163 -0.025581 -0.0605941 0.0559462 -0.0196507 0.0760376 -0.0697279 0.0214531 -0.00561899 -0.00335458 -0.0381335 -0.0330673 0.030157 -0.0160976 0.0164932 -0.0277021 0.0111069 0.0417285 -0.0143327 -0.00137626 0.0110201 -0.040202 -0.0230167 -0.0348633 0.00828503 0.0123653 0.0404382 -0.0105686 -0.00734285 -0.00462259 -0.0119235 0.0183953 0.0383405 0.0413284 -0.0260923 0.0328451 -0.0228844 0.00573444 0.0862737 0.0375506 0.00520447 0.0211598 -0.0258744 0.00766226 0.0357905 0.0213952 -0.0473587 0.0210399 -0.0112909 -0.0406026 -0.0166796 -0.0602022 -0.0328579 0.00617719 0.00273667 -0.000921865 0.0275351 -0.0596346 0.0170733 -0.0142008 0.083682 0.0113461 0.020871 0.0174793 0.020031 -0.0063881 0.0372903 0.0294287 -0.00153351 -0.0461681 0.0524904 0.0112319 0.0244927 0.02562 -0.00481856 -0.00772155 0.0619707 -0.0647141 0.0534794 -0.0225068 0.0196287 0.00555582 -0.0337053 0.0240222 0.0232562 0.0232759 0.0487329 0.0428565 -0.0341238 -0.0275078 -0.0159156 -0.0453633 -0.0209794 0.0401953 0.0289608 0.029496 -0.0368236 0.0419361
abc 0.0580141 0.046735 -0.00595469 -0.0696817 -0.0457102 -0.00275345 0.0216073 0.000191782 -0.0412866 0.000703681 -0.0573005 -0.0409922 0.00558404 0.0131711 0.0674195 0.00107386 -0.0180611 -0.0157236 -0.0404764 0.0674101 0.0157142 0.0194005 -0.0406898 0.0245327 -0.00802666 -0.0317831 -0.00878613 -0.0302048 -0.0183357 0.0515724 -0.0490351 0.00870338 0.00891802 -0.0214534 0.004424 0.0398786 -0.0426713 0.0223317 -0.0513557 0.0224324 -0.0107101 0.0193892 -0.040138 -0.0111534 -0.0593934 -0.0197739 -0.0150475 0.0663757 -0.00220531 -0.0254704 0.00741286 0.0134171 0.0571195 -0.0183368 0.014537 -0.0456457 -0.0345106 -0.059502 -0.0273088 0.0172083 0.00698987 -0.038049 -0.0233499 0.000902645 0.00177334 0.0222283 0.0655591 -0.00729507 0.0237948 0.0378297 0.0307474 -0.0461271 -0.0445382 0.0192679 -0.0394833 0.0185261 -0.0192803 0.0452767 0.0663887 -0.0354804 0.0347 0.0537504 -0.0278779 0.0205493 -0.0586223 0.0281165 -0.0139289 -0.0276723 -0.00771368 0.0218205 -0.0300536 0.0203467 -0.000680604 -0.0121678 0.00180265 0.0724878 0.00196018 0.00744663 -0.0468699 -0.0163363
abercorn -0.0436861 -0.0589668 0.0373475 -0.0230586 -0.00739744 0.00661076 0.0263184 0.0440056 0.0583696 0.0273986 -0.05737 0.0190741 -0.0540149 -0.00734304 0.0377081 -0.0594191 -0.0149573 -0.0682056 -0.0415833 -0.0282462 -0.0437892 -0.0447352 0.00572534 0.0257384 0.0095261 0.00643155 0.0481287 0.00484785 0.0619661 -0.0209594 -0.0526182 -0.0168682 0.00978594 -0.00238196 -0.0287896 0.0162114 -0.0386702 0.0179572 -0.0535308 -0.0202583 -0.00890157 -0.0212054 -0.0328373 -0.0212237 -0.0252841 0.0621213 -0.00278519 0.0125721 -0.0276527 0.0294165 0.0334329 -0.0789163 -0.0570344 -0.0376159 0.025603 8.42847e-05 0.0156958 -8.04132e-05 -0.0154547 -0.00961674 -0.028082 -0.00246157 0.0311613 -0.00446291 0.00646384 0.0232275 0.0264672 -0.0582356 0.0409752 0.0576662 -0.0355724 -0.0165332 0.0783737 0.0389313 0.00514787 0.00722884 0.0425357 0.000440194 -0.0521118 -0.00268953 -0.00459313 -0.0172175 -0.0146267 -0.0254066 -0.00979041 -0.0166156 0.0499043 0.0293489 -0.0579374 0.0589204 -0.0543365 0.0167076 -0.00446457 -0.0373137 0.0193299 -0.0113605 -0.00808357 -0.0271418 -0.00829051 -0.034133
abit 0.0223974 -0.0118609 0.0484418 -0.0466772 -0.0309212 -0.0111366 -0.0168603 -0.0555401 0.0722552 0.0300304 -0.0234712 -0.0121061 -0.0276565 0.0393193 0.022826 -0.0388465 -0.0169485 -0.0312718 -0.0166032 0.0342707 -0.0630188 -0.0189896 0.0370044 0.00313212 -0.0152373 0.0563118 -0.0030991 0.0528969 -0.0217736 0.0126141 -0.0219113 0.0225106 0.00433027 0.00392221 -0.00500339 -0.00998833 0.0413236 0.00782499 -0.066016 -0.0406062 0.0612341 0.0424377 -0.0479917 0.0245846 0.0279691 0.00751444 -0.011633 -0.00770393 -0.0407709 0.0443048 -0.0461431 -0.0428335 0.0614236 0.013563 0.0359945 0.0159663 0.00922395 0.0316357 -0.0470063 0.00582861 0.0521579 -0.0688843 -0.0241976 0.0231403 -0.0201411 -0.0683314 0.0521649 0.0332511 -0.00645071 -0.0412597 0.0110261 0.000220433 -0.0364951 0.0153685 0.031111 -0.014718 -0.0551541 -0.0328265 0.0279964 0.0305785 -0.0397906 0.0325525 0.0420679 0.0124522 0.00498292 0.0225685 0.0382046 -0.0245138 -0.0127172 -0.0343794 0.00778815 -0.0351764 0.0109149 -0.0110082 -0.0337416 0.0124057 -0.0498005 -0.00705972 -0.0256442 0.0189458
able -0.232219 -0.10929 -0.147882 -0.114591 0.0654577 -0.0340648 0.219744 -0.210833 0.120217 0.0760514 -0.215604 -0.17946 0.00387559 0.0205698 -0.162613 0.211112 0.00348333 -0.127869 0.162933 -0.206358 -0.0975676 0.153592 -0.202671 0.111757 0.313322 -0.281391 -0.0712119 -0.028065 0.309216 0.0718404 0.238933 -0.0972886 0.163893 0.238499 0.0280903 0.208978 0.365758 0.281109 0.0338574 -0.0588902 -0.0737349 -0.105278 -0.240036 0.05119 -0.237875 -0.354053 -0.0365085 -0.213911 -0.262903 0.203922 -0.069903 -0.484804 -0.203277 0.0389913 0.346683 0.0217728 0.308205 0.0810353 0.0518274 -0.288658 0.173574 -0.274558 -0.360558 0.263164 -0.385579 -0.0781371 0.055683 0.263286 0.322665 0.243864 0.108137 0.264392 -0.144221 0.00567833 -0.144599 -0.178172 0.399187 -0.144662 0.287723 0.210448 0.257445 0.228801 -0.21351 0.126759 0.263064 0.127495 0.00948448 0.211699 0.0540578 0.227203 0.0178621 0.262103 0.0339369 0.164216 -0.0883469 0.0174839 0.261812 -0.186489 -0.043856 -0.206859
abolished 0.0624246 0.0856376 -0.0199903 -0.059038 0.0190693 0.0485525 -0.0123524 0.0205825 -0.0125444 0.0197176 0.034296 -0.00273254 0.00071234 0.0240538 -0.0258834 -0.0310561 0.0114695 0.0341264 -3.98187e-05 -0.0309336 0.0310635 -0.0027486 0.0397192 0.0459462 -0.0314827 -0.0117537 0.0204641 -0.00620488 -0.00796507 -0.0316913 -0.0387562 -0.0278898 0.0504301 0.00458127 0.0301381 0.0572586 -0.0256505 0.0350115 0.0237282 -0.00205234 -0.0222167 0.050111 -0.00231365 0.0162208 -0.0493195 -0.0322712 0.000164193 -0.000798906 0.0583243 0.0387884 0.056106 0.055221 -0.0301245 -0.018801 0.0471193 -0.0209966 0.0642415 -0.0101668 -0.0261685 0.0234319 -0.0508873 0.0318384 0.0117498 -0.00532216 0.0206796 0.0213407 0.0566275 0.0423121 0.0344888 0.0483299 -0.0695893 0.0247988 0.0329388 0.0391877 -0.0335331 0.0051862 -0.04026 -0.00445886 0.00181224 -0.0181434 0.0116236 0.0907775 0.0308296 -0.0181355 -0.0268339 -0.03156 0.0714195 0.017796 0.00716092 0.00546202 -0.00836708 0.00387255 0.075221 -0.0420609 -0.0533679 0.0219391 -0.00767355 0.0614828 0.0504459 -0.0186958
abouts 0.013704 0.0563216 0.0188772 0.0205738 -0.0138168 0.0078302 0.000230205 0.0242346 -0.0537409 0.0239246 -0.036752 -0.0223006 -0.0399811 -0.0330412 -0.0113907 0.00496847 -0.00957251 -0.00920237 -0.0655621 0.0453532 -0.0140181 0.00810924 0.0483461 -0.0298071 -0.0755876 0.0385584 -0.0294659 0.0401087 -0.0331879 0.0242782 -0.0167444 -0.035921 -0.041383 0.0147999 -0.0116597 -0.0508003 -0.0175763 0.00865314 -0.045382 -0.0042968 0.0389972 -0.000852719 -0.0694755 0.0369274 0.0134095 0.0131439 0.00859344 -0.0224681 -0.044933 -0.0283603 0.0330229 0.00556537 0.0156278 -0.04866 0.0418589 -0.0933091 -0.0361581 0.0232073 -0.0325694 -0.000506338 0.0343796 -0.0550835 -0.0195236 0.0281744 0.0474793 0.035759 -0.0011449 0.0437352 0.0211613 0.0303362 -0.00451861 -0.00718028 0.0441137 -0.0539473 0.00753442 -0.00484937 0.053355 -0.0417498 0.00980402 -0.0279938 0.0374254 -0.0323789 -0.0355767 0.031726 -0.00996302 -0.0442832 0.0523603 0.0410799 -0.0269415 -0.00701514 0.0247658 -0.0347594 0.0166769 -0.0463137 0.00471479 0.0600546 -0.0361326 0.0107445 -0.048096 -0.00404321
abroad -0.0215882 0.0886936 0.0490046 0.023649 -0.0902647 -0.01064 0.00937911 -0.0331903 -0.0111899 -0.0486546 0.0256498 -0.00500998 0.0311699 0.033078 0.0399176 -0.0249894 0.00979885 0.0281054 -0.0327639 0.00790619 -0.0688424 -0.0135563 0.0623806 -0.00273993 -0.0852202 0.0196867 -0.00731299 0.0430394 -0.0049179 -0.0123084 0.00139081 -0.0539947 0.016011 0.00398967 0.0144093 0.001036 0.0269366 0.0413261 0.0387762 0.0288752 -0.0374959 0.00923561 -0.015534 0.0331169 -0.0599173 -0.0234172 0.00416797 0.0667054 -0.0206201 -0.0258588 0.0432741 0.0229813 0.0317432 0.0540992 0.044342 -0.0162674 0.0517701 0.0258289 0.0359979 0.0124409 -0.0245841 0.0459666 0.0394991 0.0153583 -0.0199411 0.0422179 0.0391563 0.0260819 0.0401747 0.0334259 -0.0767741 -0.0334149 -0.00871283 0.0105833 0.0443444 -0.00285085 0.0229347 -0.00509891 0.00519222 -0.0674229 0.00352466 0.0739191 0.031944 0.0758769 0.0248736 -0.00385554 0.0477644 -0.00195815 -0.0515855 -0.0201178 -0.00854668 -0.0115793 -0.00247804 0.0148681 -0.00664231 -0.00427897 0.0348191 0.0128101 -0.0276971 0.0323002
absoloutly 0.0405716 0.00216992 0.0506548 0.00852817 -0.0272376 -0.0410237 0.042612 -0.0415657 0.0263811 -0.039307 -0.00800504 -0.0229461 0.052508 0.0125609 0.000356399 -0.041466 -0.0947152 -0.00453664 0.00327767 -0.0407779 -0.0420896 -0.00804043 0.00985066 -0.0293228 -0.0142557 -0.0198527 -0.0337705 0.0730529 0.0107389 -0.0125416 0.0167584 -0.00156906 -0.00159687 0.0872511 0.0288626 0.0394551 -0.0766 0.0708891 0.0454302 0.0172181 -0.00476633 0.0521289 -0.0211445 -0.0117558 -0.034614 -0.0111072 0.0722459 0.0199103 0.0176798 -0.0465664 0.0226452 -0.00857554 -0.0065374 0.0188608 0.062991 -0.0112853 -0.00406424 -0.0393436 0.0248944 -0.0405297 -0.00794058 0.0228803 0.0138379 0.00599572 0.0376705 -0.0226206 0.0115019 0.00527355 0.00548371 0.0153443 0.00652078 0.0198362 -0.0195289 0.0259419 0.013447 0.0553324 0.00381268 0.0210169 -0.0266095 0.0378268 0.0311351 -0.0421072 0.0116772 0.0313166 -0.0814705 -0.0270193 0.00844979 -0.0270986 0.0288734 -0.00309545 -0.0582323 0.0164451 0.0434335 -0.0127553 -0.0122598 -0.0407043 -0.015905 -0.00256514 0.0235276 -0.0156711
absolute 0.0560693 0.0342027 0.00432633 0.0175058 -0.0180021 0.0681065 0.0228376 0.0144372 -0.00654186 0.0231691 0.0284589 0.0053742 0.0193629 0.0257514 0.0368223 -0.0200963 -0.0585136 0.00733427 -0.00521754 -0.0212403 -0.034489 0.0276178 0.0557937 -0.0565954 -0.0872808 0.0527789 -0.0349146 0.0396225 0.0366116 -0.0558191 -0.0336387 -0.015334 -0.0178882 0.0452598 -0.016187 -0.0415151 -0.0102615 0.00646618 -0.0334384 0.000900595 0.0160032 0.0556311 0.0435723 0.0420924 0.028615 0.0159906 -0.0368181 0.0601735 0.03011 -0.050116 0.0484854 0.0149695 -0.0336388 -0.0376369 0.0407076 0.00307861 0.0309537 -0.0385789 -0.00127879 -0.063807 -0.00850664 0.0315193 0.0735899 -0.00972923 -0.0661511 0.0439923 0.0226347 0.0465773 0.0661204 0.0503193 -0.0487304 -0.0560667 0.0061064 0.0379102 0.0170499 0.0462257 0.0586265 0.0216862 0.0166383 -0.0603341 0.0386901 -0.0404334 0.0235106 -0.00301296 -0.0203202 0.0464372 -0.0509896 -0.0324431 0.00586538 0.0614373 -0.00764727 -0.00448223 0.0201324 -0.029474 -0.0460578 6.85696e-05 0.0444833 0.0170792 0.0117858 -0.0486985
absolutely 0.00163165 -0.0475773 0.0235961 -0.021747 -0.0308168 -0.0119297 -0.0594746 0.0576482 0.015731 -0.041534 -0.0139026 -0.0405372 -0.00152288 0.00773822 -0.0241385 -0.0372386 -0.00607141 -0.0342478 0.026347 0.06035 0.0201679 -0.0512047 -0.00713733 -0.060783 -0.0735626 0.0119804 0.0737292 0.0550884 0.0362799 0.0226051 0.00378807 -0.020094 0.0579441 -0.018995 0.000673376 0.019787 -0.065549 -0.0324063 0.0160471 0.0677644 0.023374 0.0708702 -0.0155151 -0.0252472 -0.0112357 0.0145121 0.00279064 -0.0111128 0.0511165 0.000253724 0.00566905 0.0017327 -0.0289932 -0.0240967 0.0577914 -0.0558813 0.0335303 -0.068246 -0.0683951 -0.0370953 0.0387173 0.0635192 0.00589684 -0.0275355 0.00896955 0.040182 -0.00669119 0.0709158 0.0431163 0.0100246 -0.048148 0.0107968 0.0474198 0.0157325 0.00956628 0.000457308 -0.00883993 -0.00958377 0.0355877 0.0431367 0.0631818 0.0183415 0.00761208 0.0748955 0.0369052 -0.00272966 0.0124703 0.0334157 -0.0322257 -0.00403154 0.0172754 0.0132237 0.0154652 0.0640882 -0.0131041 0.00707829 0.0042164 0.0343135 -0.00285182 0.0482985
academy -0.0530494 -0.0590386 0.0458796 -0.0271726 -0.0794444 0.0707648 -0.0498068 0.0460234 0.0551479 0.0673369 -0.00538667 0.012743 -0.0453868 0.0229368 -0.0884385 0.0453102 0.0273953 0.0706671 0.0318631 0.0339313 0.0928868 -0.0704259 -0.0206149 0.0328231 -0.032909 -0.0522429 -0.0181402 0.00814597 -0.0959466 -0.0210539 -0.00954786 0.0216711 -0.0152354 0.0361291 0.0848407 -0.051805 0.00107634 -0.0229665 0.0469551 0.0882452 0.0186682 -0.0228905 -0.0170614 0.0651602 -0.0547691 -0.016579 0.00326041 -0.0288477 0.0688107 -0.0943984 -0.00112014 -0.0202658 0.0648317 0.0271742 0.0117649 -0.0360166 -0.0729189 0.0346668 -0.0372543 0.0133111 -0.0212108 0.0195631 0.0449295 0.0440454 0.00958632 0.0360537 -0.0446951 -0.0631804 0.0123504 -0.0244201 -0.039204 0.0199155 0.0925357 0.00287467 0.0672376 0.0500123 -0.0419182 -0.0389367 -0.0308998 -0.0342773 0.102211 0.0405198 0.0256879 -0.0307084 -0.0122462 0.0057471 0.0781257 0.0296645 -0.142837 -0.0363822 -0.0170294 -0.0514195 0.0389681 0.0806732 0.0661873 -0.00643475 0.154122 0.111389 -0.0947343 0.0165395
accent -0.0569546 0.0813306 -0.160609 0.111659 -0.0358628 0.104322 0.0968457 -0.092943 0.0400541 -0.148625 0.177616 -0.153606 0.167443 0.115688 -0.11487 -0.00283391 0.121774 -0.0092149 -0.0765866 0.315638 0.0328635 0.0207773 -0.0945256 -0.0706788 -0.0481518 0.29713 0.223089 0.00321449 -0.192249 0.110175 0.0280891 0.100034 -0.0762835 -0.0892036 -0.0570328 -0.038809 -0.244642 -0.299121 0.0931104 -0.0542521 -0.136833 0.0400122 -0.227248 0.00868304 -0.142865 0.0325835 -0.282938 -0.225071 -0.111194 0.14234 -0.214796 0.157654 0.0196729 -0.130389 0.129632 0.14983 -0.188854 -0.140933 0.063822 0.0955319 0.259837 0.195457 -0.226289 0.100996 0.117961 -0.109462 -0.236766 -0.150024 0.139145 -0.0182809 -0.114718 -0.111518 -0.216654 -0.309711 -0.0430785 -0.0565545 0.186907 -0.0310652 0.0406985 0.0367505 -0.0511401 0.0106874 -0.102586 -0.298795 0.204458 0.0920958 0.0383777 -0.230565 0.0720494 -0.172738 -0.155071 -0.201814 -0.201479 -0.0620584 -0.00901207 0.174432 0.173256 -0.169119 -0.0998299 0.11
accepted 0.047279 -0.040998 -0.0124333 -0.00145024 0.00127367 0.00685454 0.0254587 0.0322709 0.0214209 -0.0112157 -0.0317461 0.0142748 0.00405975 0.0124178 -0.00320847 0.00960656 -0.0548736 -0.0235929 -0.019591 0.0229781 -0.0700021 0.000372688 -0.0535184 -0.023735 -0.0288147 -0.0334666 0.0582569 -0.00728639 0.0272314 0.0200277 -0.0383399 -0.0620608 -0.0150674 0.0284331 -0.00627191 0.00762248 -0.060647 -0.0161722 -0.0350073 0.0188455 -0.0464732 0.0270938 -0.0267528 0.00885863 -0.0518969 -0.0437916 -0.0196731 -0.0127302 -0.0186822 0.0238047 0.0206727 0.0505633 -0.0494754 -0.0591748 0.0540729 0.036048 -0.00195089 0.00145898 0.013192 -0.0610913 0.0269203 -0.00457466 0.0120731 -0.00145799 -0.00293505 -0.0402412 -0.0138754 -0.00234724 0.0362556 -0.0216656 -0.0455986 0.0129604 -0.00426895 -0.0158249 0.0121994 0.00379873 0.0139426 -0.00743221 -0.00361087 -0.0272635 -0.0125053 0.0228857 0.00532466 -0.0305268 -0.0141295 -0.0398887 0.0570087 -0.0310659 -0.0368952 -0.0201825 -0.0870289 -0.0284103 -0.0399335 -0.0197936 -0.0282954 0.00902988 -0.0240589 -0.0450012 -0.0560168 0.0190398
access -0.122657 -0.304181 0.0020825 -0.146006 0.586809 -0.271289 0.0201503 0.127146 -0.0236984 0.052985 0.530992 -0.26387 0.267698 0.229253 -0.61216 -0.0204645 0.0516505 0.127985 0.500569 -0.440849 0.197843 -0.00103009 -0.0575868 0.0748745 0.0313665 0.0215632 -0.201611 0.00810741 0.0771375 -0.0530351 0.0593784 -0.0815223 -0.123303 -0.0512607 -0.369099 0.162358 0.327104 -0.241349 0.145247 -0.0642059 -0.152064 0.0460438 -0.347429 0.0665462 -0.082517 -0.0122391 0.00786287 -0.288117 0.130262 0.187038 -0.210719 -0.423217 -0.39179 -0.0723314 0.0128099 0.24374 -0.38715 -0.00866111 -0.175707 -0.028234 -0.141129 -0.14295 -0.413275 0.0913548 -0.0308253 0.114621 -0.139493 0.415542 -0.249168 -0.417905 0.204607 0.631703 -0.30528 0.274104 0.503453 0.00426827 0.156913 0.038699 -0.488834 -0.169523 0.439202 0.0455864 0.16063 0.199077 0.213372 0.243305 -0.0576909 0.0215731 -0.141759 -0.188734 -0.0508609 0.0834772 0.0637447 -0.0873381 -0.22882 -0.412845 -0.262326 0.501281 -0.0694979 -0.653735
accessible -0.136595 -0.0950226 -0.0617506 -0.0346934 0.0275343 0.192897 0.588702 0.0253901 0.0650753 -0.127574 -0.0485241 0.155044 -0.269772 -0.0210318 -0.0211996 -0.177941 -0.171787 -0.0648203 -0.146133 -0.278997 0.139614 0.186221 0.0491058 -0.0708793 0.0538815 0.285039 -0.029241 0.0168754 0.094445 0.129155 0.150731 -0.0765119 0.019014 0.103284 -0.0906445 0.0813149 -0.10901 -0.0910212 0.183566 -0.0254876 -0.0823652 -0.263235 -0.245414 -0.0316765 0.0820523 -0.308757 0.205972 0.120838 0.0550523 0.054408 -0.123078 0.0832589 0.0302181 -0.0790595 0.0503411 0.13834 0.192202 0.0247071 0.0857514 0.00800355 -0.0380674 -0.18685 0.048779 0.0383293 0.0687514 -0.244356 0.232284 0.0570742 0.0802855 -0.123551 0.0670923 0.0629064 -0.0436481 0.224653 0.0312889 0.155234 -0.105442 0.188102 -0.00796391 0.101185 -0.12395 0.00125954 0.0432435 -0.119261 0.0308252 -0.0241094 -0.157251 0.0626635 0.0194831 -0.125072 -0.133909 -0.0125059 -0.14953 -0.0700368 -0.126619 -0.0979121 0.00887199 -0.24013 0.0543306 0.00710311
accession 0.01066 0.0254307 0.0303316 -0.0121794 -0.0633914 0.00438419 -0.031842 0.0624684 -0.0143452 0.00938334 0.0253715 -0.00924267 0.0663088 -0.0417576 0.00588497 0.0521837 -0.0984081 0.00304655 -0.00929582 0.0475116 -0.016874 0.0237747 0.00903708 0.0148464 -0.0166999 -0.00514139 0.000174648 -0.0625607 0.0177577 -0.0123186 -0.0490216 0.0598999 0.0337829 0.00754927 0.0655804 0.0266188 -0.0170111 0.0465526 -0.0106131 0.0425243 0.00791265 -0.0408894 -0.00539921 0.00418324 -0.0208032 0.00761081 0.0669975 0.00238299 -0.0221963 -0.0523974 0.0473559 0.0100753 -0.0166301 0.0284135 0.0249195 -0.0412766 0.0174805 0.0107182 0.00413802 0.0315137 0.0419788 0.0200214 -0.0282239 0.0032827 0.00465721 -0.00487839 0.0500952 -0.0158676 0.00830171 -0.00584547 -0.0105574 -0.0788856 0.0360301 0.0280757 0.00476231 0.0500257 0.0328802 0.0239707 0.00382135 0.0556246 -0.0445432 -0.00318859 0.00121714 -0.00109366 -0.0400419 -0.0244737 0.0438264 -0.0120927 -0.0160551 -0.000176137 -0.0114981 -0.0136747 0.0663716 -0.029726 -0.00918172 -0.031221 -0.0497558 0.0557441 -0.0396902 -0.0242198
accommodation 0.0221395 0.0041437 0.0171949 0.0428395 -0.0452645 0.0664773 0.0306758 0.0118545 -0.0211745 -0.0309556 -0.0598377 -0.00846393 0.0411585 -0.0947683 0.0398411 -0.0354054 -0.0222164 -0.0398643 -0.0192266 0.0160243 -0.0129417 -0.0340941 0.0296865 0.0329533 -0.0872876 -0.0400315 -0.0114854 -0.000126785 0.0501012 0.009496 0.0182953 0.0301655 0.00638255 0.0667565 0.0214726 -0.014688 0.0271125 0.0129945 -0.094652 -0.0261593 0.0782054 0.0221441 -0.0334721 0.0638965 -0.0316845 -0.0704045 0.0483037 -0.0499648 0.01566 -0.0464215 0.0353491 -0.0564401 0.0292026 -0.0438101 0.0354204 -0.00602283 0.0167586 0.0131046 -0.0489802 -0.0394383 0.0653429 -0.0413143 0.00411642 0.0560848 0.0329912 0.0225556 0.0250382 0.0108001 0.0252633 0.00742426 -0.0317272 0.0501162 -0.0092248 0.0409743 -0.0163754 0.0242844 0.0296669 0.0222881 -0.0384456 -0.0885887 0.0256972 -0.0199998 0.0254904 0.0137915 -0.0516112 -0.0568949 0.0495451 0.022371 0.0592256 0.0244502 -0.00466249 0.0136683 0.0301965 0.00884885 0.0306789 0.0203163 0.0417883 -0.000701068 -0.00941017 -0.0283879
accomodation -0.0464337 0.0271732 -0.00181166 0.0241094 -0.00367547 -0.0347686 -0.0912152 -0.00910043 -0.016493 0.0624057 -0.0091831 0.00855367 -0.0123043 0.0201465 -0.0035473 -0.00782047 0.0440483 -0.0405659 0.0375803 0.0298736 -0.00901228 -0.0144335 0.0113839 0.0162682 -0.0457553 -0.08917 -0.0052647 0.00453332 -0.0310736 5.93234e-05 0.00192336 -0.0558539 0.0387231 -0.0014153 0.0394162 -0.0474321 -0.0763166 0.0804319 0.019026 0.0290535 0.0324491 0.0314028 0.0373802 0.00968505 -0.0198532 -0.0310746 0.0590831 0.0410603 0.00304662 -0.029267 0.0718031 0.00240409 0.00436157 0.00832717 0.0126935 -0.0182987 0.0211849 0.00662121 -0.0287338 -0.0130882 0.0506393 0.0626949 0.00191791 0.0391718 -0.0363022 0.0605328 -0.000956614 -0.0049161 -0.031828 -0.031425 -0.035364 0.0285049 0.0157045 0.04535 0.0895166 -0.0518571 -0.000524773 0.0114619 0.0190053 0.0203246 0.0678031 0.0143391 0.0269169 0.0320212 -0.0287803 -0.0915441 0.0445087 -0.0163394 -0.0263406 0.0324368 0.0513729 -0.00849183 0.0436526 0.0443364 0.00614481 0.0454469 -0.0427612 -0.0349887 0.00489872 -0.0287087
accomopdation 0.0661053 0.0316716 0.0487327 0.00682318 -0.0580614 0.00897838 -0.0189982 0.0073036 0.0246444 0.0317692 0.00472861 -0.0113479 -0.0142163 -0.00853103 -0.0210648 -0.0420043 -0.0289025 0.0128604 -0.0533203 -0.0164361 -0.0343152 -0.0102501 -0.035027 -0.0446016 -0.0158981 0.0115483 -0.0457059 0.0351909 -0.00825292 -0.0226942 0.0127343 -0.0497087 -0.0196448 -0.00146299 0.0191186 0.0733856 0.0220018 0.0140952 0.0222461 -0.0319315 0.0469159 0.0325422 -0.0461811 -0.0378029 -0.0284451 0.00217303 0.0506552 0.0584223 0.00818071 -0.00805386 0.0154895 -0.0151782 0.0252804 0.0273465 0.00592111 0.0548107 0.0260622 0.0222043 0.0657345 -0.0516633 0.018099 -0.0665622 -0.0362354 -0.00937636 -0.00199202 0.0297802 0.0304459 0.00965338 0.0115431 0.0310224 0.0317979 -0.0085308 -0.0030465 -0.00140018 0.028041 0.021372 0.0209277 -0.0280346 -0.00738678 -0.00498726 -0.0150052 -0.00252321 0.0462283 0.0340871 -0.025152 0.0260214 -0.0190388 0.0136492 -0.0120628 -0.0420491 0.00268446 0.0604823 -0.0170675 -0.0419318 0.0343731 0.00634951 -0.0493633 -0.0209122 0.0455606 0.0231493
accompanying 0.0378167 0.0478807 0.0163386 -0.0609773 -0.0333341 -0.00584629 -0.0340605 -0.000397481 -0.0381841 0.00919481 -0.0140145 -0.0118577 -0.049978 -0.0155982 0.0104244 0.0179304 -0.0336214 0.0259319 -0.00489525 0.0148903 -0.0614857 -0.0365386 0.0136253 0.0432124 0.0165704 -0.0129238 -0.0377858 0.0388819 -0.0414131 0.0261915 0.0445533 -0.0482954 0.0248919 0.0203655 -0.01804 0.0210134 -0.0212368 -0.0174647 -0.00917065 0.00286308 -0.0295938 -0.0303771 -0.0252489 0.041187 0.0319668 0.0191469 0.0239574 0.0127456 0.00392119 -0.00133252 0.0351182 0.0391833 -0.0146551 0.0125406 -0.0447159 0.000229556 -0.023518 0.00300691 0.0316505 -0.0112617 -0.00564607 -0.0137959 -0.0132133 0.0368332 0.000240647 0.0704298 0.0248995 -0.0200603 -0.0136663 0.0312129 0.0123524 -0.042221 0.0555373 0.016505 -0.00136764 0.0439477 0.00602848 -0.0348288 -0.00860735 0.0128984 -0.0334973 0.0572638 0.0534626 0.0341789 0.0329154 0.0496991 0.0748348 -0.00224863 0.0136815 -0.00110281 -0.0193467 -0.0533999 0.0323019 0.0586938 0.0502297 -0.00327263 0.0105772 0.0237786 -0.0516419 -0.0283315
accomplished -0.00568025 -0.0223463 0.0114152 0.0248218 -0.0372903 -0.0168311 -0.0440227 0.00495745 -0.0154259 -0.000213524 -0.0541434 -0.00707367 -0.0146902 0.0517162 0.0105045 -0.027513 -0.0033866 -0.0638861 -0.0591635 -0.000414137 0.0278833 -0.00977008 -0.00368022 0.00340722 -0.0260778 -0.0228771 -0.0703666 0.0125719 0.0588611 0.032867 -0.0263591 -0.0361353 0.00720065 0.0555845 -0.0042865 -0.0441267 0.0423418 -0.0299821 -0.0290004 0.00596567 0.000819694 0.031295 0.0551602 -0.0085499 0.0253964 0.0179695 -0.0256104 -0.000167485 -0.0447731 -0.00308071 -0.0512218 0.0244788 0.0607396 -0.00856286 0.0106533 -0.016952 0.0101556 -0.0411008 0.0376104 -0.048031 0.0549483 -0.00323304 -0.0446432 -0.0277651 -0.0579713 0.0178449 0.00134252 0.0533732 -0.0356353 -0.00388134 -0.0324137 0.0507749 0.0349074 0.0388966 0.0448686 0.0415022 -0.0276509 -0.0197621 0.00947277 -0.0576476 -0.0574046 0.0525602 0.0103082 -0.0202536 0.00699409 0.0030433 0.0410233 -0.0395995 -0.0746509 -0.00625774 0.0449064 -0.0386227 0.0214757 -0.0223901 -0.0303336 -0.0513247 -0.0325265 0.0059179 -0.0503 -0.0200939
according -0.0112745 0.0652327 -0.161922 -0.104822 -0.258703 0.197799 0.124462 0.0736457 -0.0184146 -0.302694 -0.126235 -0.105981 0.219575 0.165209 -0.324456 0.169921 0.0448109 -0.099844 0.0344003 -0.169888 -0.0584922 -0.0370714 0.0358489 0.360879 -0.164924 0.0017764 -0.169624 0.181905 -0.420246 0.00614031 0.388967 -0.108683 0.0828481 -0.252493 -0.145314 -0.19393 -0.0788244 0.257195 0.114021 0.0165276 -0.125647 0.00579629 0.0368662 0.494351 0.0399524 0.0628287 0.22171 0.0116563 -0.360307 -0.0935302 -0.157847 0.10297 -0.47793 0.142534 0.436897 -0.140173 0.0380356 -0.0764455 -0.0341245 0.163165 -0.0307049 -0.146431 0.113552 -0.0752458 0.00132817 -0.063457 0.0556893 -0.169888 0.1836 -0.22243 0.0933365 -0.110762 -0.226361 -0.137546 0.414011 0.0150644 -0.110597 -0.214459 0.085944 0.184907 0.23878 -0.00381283 0.108825 0.0471422 -0.12902 -0.107334 -0.0274661 -0.103511 0.0852471 -0.27094 0.243313 0.113676 0.10283 -0.0395191 -0.161209 0.131255 -0.0385365 0.212531 0.0183451 -0.104557
accosted 0.0431608 -0.00380751 -0.00588255 0.0204072 -0.0593388 0.00618104 0.022402 -0.0351828 -0.0310597 0.0324868 0.00718393 -0.0463366 -0.0552139 -0.0337382 0.0374296 0.00229128 -0.0312777 -0.072124 -0.0526629 -0.0277668 -0.00847454 -0.0568471 -0.0117815 -0.0708758 -0.0587073 -0.0775949 0.00334222 -0.00303058 0.0361121 -0.0146361 0.0196979 0.0734928 -0.00850166 0.0229801 -0.0404694 0.0225914 -0.0175089 -0.0106842 -0.055883 0.0709605 -0.0117004 0.00293981 0.032462 -0.0336316 -0.00390582 0.0439697 0.0938734 0.0134243 -0.0488374 -0.0778513 -0.0170338 0.00932362 -0.00890236 0.00602901 0.0119952 0.0356062 -0.0135444 -0.037591 -0.0331845 -0.0277811 0.0118199 0.00667579 0.0536603 0.0430032 -0.013018 0.0107618 0.0113875 0.0315019 -0.0260029 0.00226597 -0.0359081 -0.0382812 0.0253604 -0.044373 -0.0251579 0.070392 0.0257797 0.0526456 -0.0218041 -0.0650753 -0.0402522 0.00441952 0.00213477 0.0430053 -0.00453534 0.00237945 0.0349712 0.0764363 -0.0114109 -0.00235895 -0.0550858 -0.0446265 -0.0358808 0.0261344 0.0124355 -0.0332336 0.00406315 -0.00968402 -0.015648 0.00814462
accountancy -0.0528098 0.039483 0.00701849 0.0668426 0.0218658 0.031672 -0.0466044 -0.00232922 0.00301824 -0.00922744 0.021333 -0.0517521 0.0212116 0.0226643 -0.000449038 0.013402 -0.059854 0.0275746 -0.0177427 -0.0273659 -0.0395281 -0.00484804 -0.0412445 0.0487675 0.00606953 -0.053022 0.0030817 -0.00573831 -0.0161001 0.0401042 -0.028225 -0.0379808 0.0664716 -0.00845449 0.0364638 0.0405938 0.0365446 -0.0304144 -0.00229949 0.0190657 0.0158345 -0.0347594 0.0332642 -0.0253087 -0.021724 0.0214665 -0.0301827 -0.0242287 -0.0385468 0.0155679 -0.0356983 0.0538609 -0.0547207 -0.00892875 0.000837408 -0.000902629 0.016815 -0.00486769 -0.0224284 -0.00147837 -0.0804555 -0.0029563 -0.0328663 0.036429 -0.0673219 0.0113118 -0.00101988 0.00357136 -0.000569841 0.0371909 0.000331635 -0.0318264 0.027511 0.017107 0.0379277 0.0357748 -0.0645827 0.0192307 0.0193659 -0.0266695 -0.0445746 0.0356209 0.00591849 -0.0321612 0.034436 0.043602 -0.034571 -0.0164286 -0.0559714 -0.034745 -0.0831605 -0.0651037 -0.00912223 0.0188791 -0.0113848 0.0226759 -0.028974 0.0462453 0.00752966 -0.0105956
accurately 0.0253541 0.051587 0.0564548 -0.0402568 -0.0336702 -0.036569 0.00555763 0.00949607 -0.021303 0.0781824 -0.0486491 0.0004867 -0.0227144 0.000400202 -0.00857589 -0.0408467 -0.0204854 0.0515597 -0.0523039 0.0119451 -0.0212651 0.0154021 -0.00143772 -0.0248059 -0.0148654 0.00529326 -0.0132217 0.0116665 -0.0479153 0.0356017 0.00463228 -0.0668345 -0.00613039 0.0158745 0.0460506 -0.0417258 -0.00965209 0.0171345 0.0429311 0.032043 -0.00607773 0.0153335 0.0225036 -0.0117319 -0.0188701 0.061498 0.00438982 0.0247425 -0.0071432 0.0108924 0.0390827 0.0398102 0.0279879 -0.0231226 -0.0282123 -0.0421793 -0.0441742 0.0227659 0.0100519 0.0316756 0.043532 0.0666083 0.0751236 0.0319313 0.0590262 0.0733337 0.00195056 0.0313836 -0.0110163 0.0141821 -0.0120288 0.00556336 0.00111044 0.0173754 -0.00194016 0.0753931 -0.0629211 -0.0359537 -0.00325535 -0.0321627 0.0594297 -0.030883 -0.0262691 -0.0470831 0.0353513 -0.0563349 -0.0120161 0.0425211 -0.013136 -0.00878884 -0.001493 -0.000242446 -0.0686961 0.0136041 -0.015938 -0.0303542 -0.0577719 0.0770104 -0.0397946 -0.00687853
ace 0.0420321 -0.0355615 0.0451558 0.0293275 -0.0630288 -0.00426602 -0.000354587 -0.041289 0.0301481 -0.0163638 0.054946 0.00271132 -0.00830539 -0.0402585 -0.0119314 0.046498 0.064389 0.0230738 -0.0236614 -0.0466848 -0.0531628 0.0377693 0.0325877 0.0104156 0.0719525 0.0258 -0.00502208 -0.0623365 -0.0648759 -0.0157597 0.0141316 -0.0032863 0.0421386 0.0208109 -0.0315367 0.0284221 -0.0165807 -0.0302487 0.0275511 0.0168432 -0.0364445 0.0380449 0.0373083 -0.0111678 -0.0159399 0.0152753 -0.0197779 0.0698147 0.0175199 -0.0209023 0.0158381 0.0611362 -0.0154577 0.0115538 -0.000874763 0.0312894 -0.0349558 0.025987 -0.00573031 0.0379373 0.0115904 -0.0532048 -0.0023945 0.0351249 0.0462839 0.0494261 -0.0242926 -0.0523545 0.0440947 0.0396296 0.0392903 0.041576 0.0347119 0.0423885 0.0189462 0.0364536 0.0201351 -0.0051735 -0.000271399 -0.0272707 -0.0337314 0.000294225 -0.0329755 -0.058364 -0.0259157 0.0358281 0.0597916 -0.0035324 0.0184318 0.0631885 0.0662193 0.0512917 0.0273453 0.0710106 0.0357776 -0.0202746 -0.000246728 0.0157535 -0.0331282 -0.0406117
acne -0.0148333 0.0222145 0.0276907 0.00674723 0.0541149 0.00797353 0.00528099 0.0126202 -0.0426887 -0.046844 0.0181837 -0.00838501 0.0168562 0.0182433 -0.0582109 0.00262319 0.00295208 0.0375844 0.0307006 -0.0122653 0.0651742 0.0484191 -0.0228394 0.0201096 0.0370909 0.00316029 -0.00664095 0.063895 0.0403762 -1.809e-05 0.0423586 -0.0239569 -0.0593791 -0.00596469 -0.0518231 0.0155754 -0.00286308 -0.0636192 -0.0570329 -0.00771669 -0.0171806 -0.0169233 0.019858 0.0831749 0.00338544 0.0371815 0.0217312 0.0174114 -0.0158873 0.00893433 0.0715604 0.000222063 -0.0241824 0.000124954 0.0082224 0.00167708 -0.0581044 -0.0213353 -0.00918922 0.00190619 0.00826557 -0.0247183 0.0371934 -0.0368382 -0.000222441 0.0231605 -0.0495721 0.0102099 -0.0264872 0.0335953 0.0285713 -0.043797 -0.0290853 0.0286175 0.0223725 -0.0515394 -0.0636332 0.0606955 0.0095542 0.042172 0.0299311 -0.00126915 -0.0160763 -0.0309973 -0.0258886 -0.0112279 -0.0273297 -0.0413808 0.0415678 -0.0487332 -0.0378581 -0.0271736 -0.0474953 -0.0403269 -0.030185 -0.0287511 0.0313966 0.0136801 -0.0290319 0.0449266
acre -0.00506248 0.0338019 -0.0355258 -0.0929023 -0.0596373 0.027583 0.0188585 0.0424726 -0.0562358 0.0263728 0.025203 -0.0196956 0.00626542 -0.0245456 -0.0177869 0.0150509 0.00101365 -0.0251617 -0.0126449 -0.0177732 -0.0476536 -0.11676 0.0351735 0.0167178 -0.00254855 0.0438499 0.0241216 -0.053147 -0.0509813 -0.0530331 -0.00344741 -0.0106795 -0.0126185 0.0168702 -0.01331 -0.00550092 -0.0222602 0.041104 -0.0550584 0.0191185 -0.0347105 0.0437737 -0.0405067 0.0612064 0.0297589 -0.02978 -0.00360503 0.00211341 0.0396806 -0.0428655 -0.0387104 0.0631132 0.0388327 -0.00271432 -0.0238257 -0.00395943 -0.0365814 -0.0526371 -0.00725647 -0.00647945 -0.0731533 0.0746697 0.0214594 0.00155759 -0.0276164 0.0564769 0.107432 0.0547259 0.0422353 -0.000314996 0.00315101 -0.0761278 0.0504409 0.0207617 -0.0537156 -0.00893525 0.0513612 0.0347959 -0.0263376 -0.0433597 0.0205099 0.00615652 0.0719467 0.0551647 -0.0181473 0.0147412 -0.0160272 -0.0158964 -0.0218485 0.0291624 -0.0646849 -0.0400366 0.042676 -0.0408604 -0.027878 0.0219855 -0.0324688 0.0359259 -0.0509543 -0.0357399
across -0.16625 0.0738571 0.127185 -0.0910642 0.105557 -0.0227139 0.165927 -0.0876759 0.108537 0.0231278 0.0993832 -0.359804 -0.0325504 0.0934345 -0.0392943 0.111411 0.101539 -0.0417731 0.055027 0.139717 -0.0820896 0.130256 -0.135167 -0.199221 0.00926553 0.0880167 0.0123473 -0.0728959 0.12294 -0.0590318 0.00544067 -0.10741 0.0922922 -0.00994272 -0.0368515 -0.0347479 0.0198551 -0.0827349 -0.0167888 0.0714003 -0.173005 0.0305278 -0.0417971 -0.234062 -0.0590672 -0.0474022 0.0120425 -0.0596341 0.0314841 -0.0531445 -0.0216464 -0.150433 -0.0205273 0.0673787 0.0499418 0.0536577 -0.106969 -0.00107405 0.0616126 0.146408 0.0658993 -0.0125814 -0.108801 -0.0385884 0.130777 0.00800791 -0.0976927 -0.202427 0.0531919 0.0338534 0.142491 0.116937 -0.123257 -0.0130614 -0.145749 -0.00106556 -0.0246098 -0.0446718 -0.120596 0.104345 -0.0798634 -0.00570615 -0.0388267 -0.027121 0.0524206 0.0671424 -0.13068 -0.0736598 0.0723008 -0.0822469 -0.196319 -0.137621 -0.0651604 -0.0123639 0.206065 0.128292 0.0544318 -0.244588 0.213377 0.249282
act -0.0206063 0.00370041 0.0233001 0.00025611 -0.0209396 0.019498 0.0203021 -0.0328818 0.0701397 -0.0071679 0.0444919 0.0619467 -0.00142762 -0.0303328 0.0470675 0.0296814 -0.0711705 0.0580808 -0.0325163 -0.00244604 -0.0305292 0.00669198 0.0447212 -0.0870537 -0.0468385 -0.0120992 0.0216152 0.0289599 -0.0158534 0.0295696 0.00260189 0.0456674 -0.0359056 0.0474912 -0.00732246 -0.0240379 -0.031198 0.0381488 -0.0278607 -0.0306755 -0.00609429 -0.0192938 0.0141998 0.0147637 -0.043712 -0.0442009 0.0269209 -0.0225501 -0.0259442 0.0451685 -0.00903896 0.00222993 -0.00972751 -0.0176575 -0.00179631 -0.0073058 -0.0027723 -0.0322048 -0.0482546 0.00666348 0.00058035 0.0183527 0.0454623 0.00623158 0.00754418 0.0496656 -0.0286701 0.0367227 0.0298396 -0.00849579 0.0466253 -0.0113535 -0.0102635 0.0152898 -0.00612366 0.0800385 0.0584549 0.0742224 0.0223205 0.00604272 0.0201267 -0.000979958 0.0568703 0.0124727 -0.010955 -0.0361191 -0.0276362 0.0295836 -0.00549125 0.0424348 0.0354583 0.0155746 -0.0136776 0.0322612 -0.0249841 0.0316163 0.00858932 -0.0299967 0.0549611 -0.0634714
action 0.0104184 0.0473032 0.047194 -0.0454647 -0.0778166 -0.0221039 0.00757979 -0.0504709 -0.0109328 -0.0388459 -0.0174333 0.0340758 -0.0381205 -0.0357791 0.0421908 -0.0710722 0.0152918 -0.046144 -0.0834187 0.0298699 -0.0427441 -0.0375976 0.0134153 -0.0240529 -0.0360955 0.00320612 -0.00286242 0.0300914 -0.0011831 0.0333318 0.0027882 -0.0761712 0.0601953 0.00526874 -0.0152394 0.000860079 -0.013263 -0.0119659 -0.0435889 0.00268102 0.0569046 0.0380283 -0.0365997 0.0237922 -0.00505303 0.0106046 0.0530428 0.067964 -0.00734371 0.000298888 0.0558642 0.0147719 0.0473324 -0.000399634 -0.00740198 -0.0218844 -0.0101487 0.0210665 0.0390557 0.0301622 0.0270769 0.0312388 -0.015662 0.0536877 -0.000170967 -0.0184439 0.0207985 -0.0290654 0.0266614 -0.0344746 0.019344 0.00572373 0.0188111 0.00244187 0.00727325 0.00174858 0.0411329 0.0668251 0.0275924 0.00430119 0.013382 -0.0140538 0.0790102 0.061634 -0.000718007 0.00649406 -0.020544 0.0637731 -0.0166709 0.01045 -0.0129344 -0.0253653 0.029603 -0.0474884 -0.0128254 0.027494 0.0170772 0.0441172 -0.00544883 -0.033741
active 0.0280775 0.0204686 0.0383197 -0.042182 0.0292749 -0.0476476 -0.0425469 -0.045311 0.0138468 -0.0414347 -0.0128189 -0.0579381 -0.00889857 -0.00380093 -0.0337775 0.00615025 -0.0513895 -0.00186833 0.00591473 -0.0115302 -0.0312697 -0.0255877 0.0162778 0.035575 -0.0559037 -0.019898 -0.047971 -0.00595021 0.0236456 0.0564641 -0.0187764 0.0257557 0.060886 0.010036 -0.0138551 -0.0359599 -0.00359112 0.0303575 -0.0205151 -0.0207898 0.0046579 0.0520865 0.00876531 -0.0140619 -0.0457968 0.0168553 0.00348776 -0.0120388 0.0515404 -0.00840243 -0.038734 0.0472047 0.0243132 -0.00805146 0.0514819 0.0326553 -0.0162018 -0.0198469 0.0491844 -0.00304842 0.0112159 -0.0605282 0.00517718 -0.0384028 -0.0302096 0.0141073 -0.0284143 0.0324756 0.0301158 -0.0247343 -0.0409144 -0.016904 0.0557808 -0.0334826 -0.0490778 -0.041817 -0.0463819 0.0186102 0.0240987 -0.0422857 0.0335222 -0.0212872 -0.0431537 0.0660537 0.0493765 -0.00965716 -0.0277062 0.000136233 0.0459347 0.0368285 -0.0178085 0.00984389 -0.0162157 -0.00865228 0.0128682 0.0345048 0.015964 -0.0111575 -0.0156504 -0.00251933
activeties -0.0132889 0.0396471 0.020177 0.0137277 -0.00853463 -0.0566272 -0.0415668 -0.0233887 0.0251863 0.0266819 0.0178576 0.0354845 0.0147833 0.0469648 -0.00434324 0.0139801 -0.0353799 -0.0137189 -0.0143859 0.0441709 -0.0395373 0.0331575 0.00144394 0.0284665 0.00555802 -0.000786579 -0.0108535 -0.0355305 0.00752106 -0.0478292 0.0644139 -0.0158348 0.0254777 0.0134578 0.00530954 0.0153997 0.0110391 -0.0612454 0.024635 0.0190781 -0.0409001 0.00841388 -0.0163786 0.0606051 0.0249518 0.0154625 -0.0114854 0.019246 0.0326238 -0.0196752 0.0491082 -0.0457256 -0.0319862 -0.0181699 -0.0213094 -0.057103 -0.00513526 -0.000963065 -0.0334799 -0.0269255 0.00531462 0.00238762 0.0260201 0.0142 0.00982799 0.0233139 -0.0192257 -0.0114989 -0.0341006 0.000699575 0.0122971 -0.0522961 0.0190826 0.0573901 -0.0204329 0.0571427 -0.0461839 -0.0126582 0.0427116 -0.0482744 0.00997398 0.0495726 -0.0233913 0.0289246 -0.00383534 -0.064501 -0.0609349 0.00898051 -0.0416648 0.00362309 0.0209552 0.00829668 -0.00937533 0.000758545 0.00290382 0.0359445 -0.047713 -0.027926 0.0396794 -0.00937148
actor 0.0214881 0.0595526 -0.000911626 0.0628503 -0.0641214 -0.013175 -0.0187329 0.06493 0.0029377 -0.0263184 -0.0254837 -0.00308366 0.000607646 -0.0239678 0.0300348 0.0123288 -0.0614508 -0.0167983 -0.0321444 -0.0157034 -0.0250994 -0.0360181 0.0231993 0.000849862 0.00290086 0.00671313 0.0294865 -0.00410601 0.0449385 0.040309 -0.00760416 -0.0218486 0.0108631 -0.0458779 0.0273553 0.0100841 -0.000820279 -0.0538506 -0.0216824 0.016772 -0.0233472 0.0375412 -0.0594979 -0.0359418 0.0275844 0.0222441 -0.0124528 0.0470409 0.0388568 0.0460045 0.0710229 0.0224041 0.00875507 0.0140396 0.0110701 0.00991109 -0.0475788 -0.0615875 -0.0405122 -0.0650848 0.0277893 -0.0272736 0.0483394 0.00571039 -0.000992529 -0.0575056 0.0205473 -0.0288862 -0.0116105 0.0118261 0.00733067 0.0573693 0.0720389 0.0393236 0.0363907 -0.0117483 -0.0719492 -0.0122368 -0.0318906 -0.0565795 0.00388859 0.0506776 0.0309461 0.0469478 -0.0383614 -0.0319066 -0.0694253 -0.00289495 0.0165491 -0.0185399 -0.00659702 -0.00272139 -0.00412218 -0.000812683 0.0085963 0.00507609 -0.00526161 -0.0797153 0.0443227 0.0469737
actual -0.0344892 0.0705316 0.0747061 0.00740246 0.0146337 0.0452905 0.00185116 0.0267217 -0.0284168 0.0218409 -0.00511435 -0.0314074 -0.0381886 0.00755101 0.0713203 -0.0837197 -0.0418736 0.0198983 0.0513041 -0.0105655 0.035231 -0.00252783 0.051635 -0.0636574 -0.0221573 -0.0710712 0.0540194 -0.0407414 0.00218145 -0.0319753 -0.0210865 -0.0010153 0.0194433 -0.00151327 -0.0224706 0.0133487 0.0442026 -0.0111139 -0.0137465 0.0162541 0.0307708 0.0257569 -0.0072072 0.00635722 -0.00358078 -0.0132097 0.00448086 0.0170292 -0.0581531 -0.00529955 -0.0252177 -0.00661898 -0.00494722 0.0503718 -0.0163962 -0.0235852 0.0119091 -0.044547 -0.0906113 -0.0558284 -0.0101151 0.0202896 0.00485757 0.0385437 -0.00793082 0.0400614 -0.00150794 -0.0356969 -0.0427821 0.00636419 -0.0487753 -0.0628489 -0.0126045 0.0195261 0.0441825 -0.00430149 -0.00654934 0.0365524 0.0281934 -0.00365114 0.00887864 0.0331108 0.0088691 -0.0278581 -0.0279533 -0.0141895 0.0322562 -0.00403854 0.0159245 0.0148512 0.0302292 0.00172325 0.0613368 -0.0265215 0.0273829 -0.0167418 -0.00502936 -0.0634759 -0.0506003 -0.0465943
actually -0.171859 -0.280803 -0.213705 0.0430554 -0.173046 -0.365331 0.246497 -0.125516 -0.104161 0.0332134 -0.118922 0.354846 -0.481017 -0.249009 -0.302944 0.1993 0.256623 0.146264 -0.00228862 -0.25085 0.0497419 0.359778 0.147922 -0.0542623 0.256087 0.207375 0.0943738 -0.0951115 0.284039 -0.140703 0.461987 -0.301964 -0.317787 -0.248247 -0.0751189 -0.212591 -0.0306437 -0.0347496 0.4619 0.119972 0.250831 -0.0208322 -0.0990122 0.092859 0.202329 0.136616 -0.238311 -0.176871 0.222007 0.352523 -0.384079 0.317951 0.261705 -0.13003 0.221405 0.180959 -0.176814 -0.0314543 -0.13902 0.267443 -0.0594506 -0.0405773 0.0622154 -0.347421 0.0483076 0.192406 -0.111635 -0.094831 0.0034162 -0.158378 -0.0798574 0.171817 -0.0650307 -0.0265437 0.0950848 0.241864 -0.21327 0.269228 0.176961 0.0531792 0.00377044 0.249172 -0.0972082 0.440345 0.309937 0.260575 0.0433925 -0.0166201 0.212615 -0.190612 -0.0745044 0.0596158 -0.427776 -0.200513 0.00494534 0.275918 0.180958 -0.329983 0.306864 -0.250899
ad 0.039273 0.057193 0.0174506 -0.00687122 -0.00266231 0.0710702 -0.0466937 0.0256629 -0.0113932 0.0192739 -0.097053 -0.0341352 0.0285379 0.00800515 0.00016388 -0.035266 0.00893878 -0.0498156 -0.0157387 0.00584178 -0.024907 -0.0294846 0.0226997 0.0136328 0.09473 -0.0685524 -0.0679786 -0.0143538 -0.019418 -0.033343 0.0792921 -0.0157998 0.0457589 -0.0365548 -0.0132012 0.0843264 -0.0231459 0.0453038 -0.0412965 -0.0520316 0.069562 -0.0443517 0.0769363 -0.0131021 -0.02835 0.0156691 0.0229214 0.0204299 -0.0131068 0.0332254 -0.0111094 -0.0236634 -0.0127851 -0.036481 -0.0127414 -0.0201173 0.0218128 -0.0775845 -0.0920098 0.0188551 -0.0250326 0.0834725 0.00133768 0.00684306 -0.0110908 0.117614 0.0732326 0.00611127 -0.00530964 0.00605307 -0.0110197 -0.0341325 -0.0282973 0.0648182 0.0730896 0.0428453 -0.00131055 0.00313666 0.0207817 0.00237822 -0.0308603 0.0184962 -0.00180398 0.0850746 -0.0254632 -0.00571549 -0.0135831 0.0088152 0.0277779 0.0398497 -0.0266484 0.0313395 0.0533502 -0.00278689 0.030337 -0.0349676 -0.0593366 0.0475109 0.0581595 -0.0327334
adam -0.0101468 -0.0279131 0.0103445 0.0157949 -0.0570385 0.0136055 -0.0140584 -0.0393653 -0.00927048 -0.0266766 -0.0124847 -0.0100485 -0.022245 -0.0652333 -0.0140305 0.0202233 -0.0015312 -0.040433 -0.00601137 -0.0587246 0.00206077 -0.0475893 0.0397707 0.0183918 -0.0248224 -0.0640858 0.0128345 0.00209525 0.00376316 -0.0141907 -0.0199191 -0.041769 0.0268248 -0.0167763 0.055826 -0.00327353 -0.0173756 0.00718026 0.00864536 -0.00826902 0.0305596 0.0604793 0.0432574 0.0111202 -0.0233471 -0.0274032 -0.0226452 -0.0077312 -0.0243735 -0.0699095 0.00193037 -0.0665539 -0.0120441 -0.00541133 0.0113215 0.0321852 -0.000569596 0.0187917 -0.0535502 -0.00986881 -0.037404 -0.013159 -0.0040255 0.0238634 -0.00278359 0.0549896 -0.00484917 -0.0305244 0.0157651 -0.0266792 -0.00591083 -0.00664927 -0.00364716 0.0103797 -0.00364343 0.0136873 -0.0375418 0.000436038 0.011503 -0.0395823 0.0145855 -0.0235492 0.0616006 0.0568262 -0.00155417 -0.00267881 0.0549773 0.00744295 0.0130906 0.0340902 -0.0243203 0.0040712 0.0293899 0.0155766 -0.0274893 -0.0253993 -0.0586651 -0.0221284 -0.0308879 0.0171339
add 0.0375464 0.0230905 -0.00299091 0.0359863 -0.0848658 0.032914 -0.0167267 0.00418145 -0.0537451 -0.0286967 -0.0284072 0.0690336 -0.00533558 0.00598591 -0.0262414 0.0423387 -0.0597825 -0.0326033 -0.015961 -0.00212719 0.0149368 -0.0145177 0.0262241 -0.0582884 0.0126463 -0.0339014 0.0527837 0.0635489 -0.000556334 -0.0453103 -0.00185636 -0.0330594 0.00161951 0.0362898 0.0234048 0.0682202 -0.029105 0.0105617 0.0163497 -0.00340334 -0.0213069 0.00111466 0.00339598 0.0614798 0.00125525 0.00704653 0.0198115 0.0289766 0.0125772 -0.0100301 0.0245264 -0.0505643 0.00308318 0.0209903 0.0858247 -0.0139161 -0.00523941 0.0130037 -0.00575247 0.0314033 0.045935 -0.0122681 -0.00776747 -0.00915979 0.0476866 0.0581724 0.00437002 -0.0228982 0.0732909 0.0384945 -0.00766198 -0.0122333 0.0116814 0.0101973 -0.00174694 -0.021817 -0.00944867 0.0466214 -0.00060769 -0.0187386 0.0162588 -0.00876703 0.0139231 0.0342061 -0.0214523 -0.0199091 0.0515749 0.0338143 -0.0475168 -0.0437911 0.0048953 0.052392 0.081634 -0.0279423 -0.0251087 0.013475 -0.037481 0.0279253 0.0498048 -0.0496456
addition -0.0150642 0.0329813 0.00684658 0.0489631 -0.0360924 0.0166102 -0.0539342 0.0604619 0.0177127 0.0819041 -0.0336109 -0.0342997 -0.0431706 -0.0522591 0.0191048 0.0466458 0.00573662 -0.00243034 -0.0376811 0.0682696 0.0181224 -0.0178581 -0.0153389 -0.00189739 0.0148271 -0.0445702 0.0213539 0.053991 -0.0127072 -0.0274756 0.00177779 0.000650718 -0.0125082 -0.000858281 0.0367925 0.0226735 -0.0385288 0.0320364 -0.0364928 0.0263836 -4.95901e-05 0.0180152 -0.0127533 0.0374241 -0.0132438 -0.0610894 -0.0415948 -0.00815078 0.016165 -0.0260183 0.0219127 0.0410533 0.0015335 -0.0359125 0.0396023 -0.00848285 -0.036463 0.0629212 -0.0548853 -0.0457578 -0.0293705 -0.00620182 -0.00518428 -0.0113362 0.0517882 0.0383557 0.0566005 -0.0128676 0.0451651 -0.010227 -0.0118429 0.0421978 0.0104458 0.0700911 0.0145234 -0.00247082 0.0219421 0.0299988 -0.0500381 -0.0386153 0.0116782 -0.0151739 0.00290071 0.0273988 0.00848348 0.0417989 -0.00429187 0.000732536 -0.0433951 0.0323924 0.0189629 -0.0215041 0.015398 -0.0234846 -0.0624884 -0.0339839 0.00133648 0.022919 -0.0749491 -0.00339261
additional 0.0185439 0.00905189 -0.0405577 0.00258657 0.0234059 0.0558444 0.00556179 -0.0247851 -0.00844507 0.00621953 0.0252165 -0.00594226 0.0510255 0.0250476 0.00473089 -0.0483164 -0.0407718 0.00184199 -0.00669178 -0.0678943 -0.00932604 -0.0134012 0.0242726 -0.00562477 0.0622585 -0.0175507 0.00988485 0.0396808 -0.0189064 -0.0145011 0.021597 -0.0282507 0.0230274 0.0627426 -0.0151688 -0.0432087 0.0274372 -0.0344856 -0.000621878 0.0458492 0.0353948 -0.017655 0.0552761 -0.0220849 -0.0128713 -0.0455472 -0.00439506 0.0212494 0.00969948 0.00486828 -0.063606 0.00588363 -0.0662395 -0.0599135 -0.00904767 0.0460743 -0.0401729 0.0540781 -0.0596224 0.00975876 0.0303193 0.0145291 -0.00520031 0.0104347 0.00742393 -0.0602237 -0.0485491 -0.0359572 0.00968878 -0.0394838 -0.00713999 -0.0248674 0.0588055 -0.0457023 0.0414672 -0.0101742 -0.00666012 -0.00667948 -0.0441845 0.000477962 -0.0320434 0.0337151 0.0603101 0.0709388 -0.0568543 0.0467434 -0.00717101 -0.0134541 -0.022128 0.027726 -0.0606515 0.00697516 0.0174697 -0.0277526 -0.00818498 0.00828908 0.00933593 -0.0683808 0.0243708 0.00269307
additionally 0.017807 -0.0219459 0.0184868 0.0744107 -0.039138 0.0314216 -0.010091 -0.0452446 -0.0187053 0.00936434 -0.0144484 0.00129263 -0.057285 0.0366529 -0.00642384 -0.055494 0.0354837 0.051676 0.01112 -0.00369457 0.0583235 -0.021899 0.0290302 -0.040009 -0.0145071 0.0253419 -0.000774356 -0.0635576 -0.00981515 -0.0150738 0.0173385 0.0198442 0.0071185 0.0379475 0.00287334 -0.00318432 -0.0147116 -0.0100935 0.0198148 -0.0601771 0.0153118 0.00375301 -0.00139592 -0.0255302 0.0154611 0.0279357 -0.0200977 -0.00982209 0.000185245 -0.0412917 -0.00343574 0.029345 -0.0374488 -0.0149103 0.0789774 0.0190957 -0.0218939 0.0573501 0.0328597 0.0185797 0.0505813 0.0148357 0.010887 0.00986583 0.0180022 0.0796458 -0.0503649 0.0216648 0.0248027 0.00554553 0.0248053 -0.0329638 -0.00311302 0.000893127 -0.0387271 -0.0500683 0.0411436 0.0769312 0.0630038 -0.0627013 -0.0136407 -0.0135834 -0.0460409 0.0488884 -0.0426084 0.0299111 -0.0409397 -0.0421679 0.0229001 -0.0131951 -0.00124695 -0.015907 0.0552859 0.0247057 -0.00987556 -0.0063059 -0.0629567 -0.0263468 -0.0367325 -0.0191132
address 0.0282313 0.141436 -0.0132783 0.020048 -0.010148 -0.281681 0.511773 -0.139877 -0.0350403 -0.240489 0.164341 0.141772 0.0679241 0.0137908 0.064399 -0.464085 0.263433 -0.313758 -0.28398 -0.552267 0.0532064 -0.0237388 -0.0929574 0.130251 -0.134024 0.591384 -0.0447588 -0.493716 0.145307 -0.127356 -0.371907 -0.105161 0.0698528 0.243141 0.0796845 -0.392335 0.56278 -0.0943035 0.399127 -0.171819 -0.00115296 -0.159831 -0.366944 -0.439208 0.152047 -0.113175 0.540429 -0.0024285 -0.215679 -0.216579 -0.135834 -0.102695 -0.299418 -0.0385686 0.0231057 0.155406 0.274825 0.0609009 -0.0202463 0.180024 0.239679 -0.0922847 -0.020944 0.133978 0.30301 -0.168161 -0.232693 -0.0121681 -0.514816 0.292598 0.44809 0.108088 0.032879 0.148446 0.357451 -0.195765 0.30821 -0.304145 0.0128079 0.0894997 -0.248326 -0.251193 -0.202855 -0.0553804 0.208661 0.472251 -0.129064 0.14735 -0.189667 -0.332546 0.1967 -0.265823 -0.252346 0.133733 -0.105033 -0.253363 0.194294 -0.285295 0.479659 0.177032
adelaide 0.0506312 -0.00638287 -0.0167193 0.00981658 -0.0277003 0.00762185 0.0339864 0.00923883 -0.0458894 -0.0524786 -0.064158 -0.0422828 -0.0198052 0.00702032 -0.0359428 -0.0276878 -0.065761 -0.00979162 0.0038668 -0.0518068 0.0387873 -0.0132807 0.0390277 -0.0307744 0.0274841 0.0427195 0.00661959 -0.0354522 0.045017 -0.0185317 0.0517979 0.0302716 0.0534902 0.013423 0.0336169 -0.0116439 0.000173885 -0.00453241 -0.0215148 0.040137 0.0523444 0.0312602 -0.0161924 0.0660588 0.0277651 0.00576934 -0.0141204 -0.0228201 0.00596336 0.0151843 0.00549752 -0.000441939 0.0129388 -0.0119973 -0.000314412 -0.0128335 0.00430584 -0.0141246 0.0106994 0.0030496 0.0325416 -0.0129281 0.0241485 0.0288688 0.030395 -0.0045975 0.0252102 0.0566684 0.0173676 0.0039265 0.0109426 0.0204352 -0.00446434 -0.0259913 -0.0242594 0.0499892 -0.0211536 0.0220438 0.00237814 0.00700854 -0.0328087 0.0239102 0.0243935 0.015619 -0.0444438 -0.00809272 0.0222744 -0.0296776 0.0327396 0.0277645 -0.022724 0.0221888 0.0260776 0.0044548 -0.0165325 -0.0378833 -0.0280095 0.0328161 0.00854153 -0.00711289
adjoining 0.0429827 -0.00390327 0.0130261 -0.0526972 -0.0115739 -0.0433127 0.0521252 -0.0112123 0.0439158 -0.00174412 -0.00137958 -0.0411966 -0.0273443 0.0169424 0.0211632 0.00141376 -0.0198468 0.00459597 -0.031596 -0.0365457 0.00308379 -0.071189 -0.0131587 0.0387604 -0.0117294 -0.0214817 0.0628145 -0.0179943 0.051832 0.0188782 -0.0118261 -0.0517818 0.011387 -0.0110043 -0.0136944 0.00304654 -0.00946177 0.0146376 0.0534401 -0.0295579 0.00624913 -0.0185488 -0.0450695 -0.0431058 0.0266677 0.00890228 0.0417048 0.0159738 -0.017272 -0.0199456 0.0361846 0.0180061 -0.0277635 -0.0264861 0.0342601 -0.00546698 0.0220942 -0.0431319 0.0123949 0.0267593 -0.0099683 -0.0466357 -0.0184036 -0.042186 2.45627e-05 0.0127229 -0.0639083 -0.0610274 0.0131536 0.00264009 0.0302821 0.0218533 -0.0409768 0.0104317 -0.00868149 0.0507938 -0.01399 0.0104446 -0.0385839 -0.0584056 -0.051594 0.0290596 0.0304875 0.0451403 -0.0257624 -0.0516856 -0.000473436 0.000207221 0.00533631 0.0122054 0.028404 0.00509831 0.00997081 0.0371082 -0.0631154 0.0337596 -0.00143505 0.024992 0.00941865 0.022333
administrative 0.127237 -0.091203 -0.281777 -0.0168446 -0.132621 -0.0691338 0.278117 -0.0239361 -0.13134 0.0554987 -0.0610253 -0.144526 -0.136408 -0.0174292 0.162571 -0.133139 -0.117557 0.082203 0.0155044 0.132914 0.0365263 -0.0713239 -0.00787801 0.0924597 -0.0468689 -0.0817408 0.121528 -0.0469216 0.0272155 0.082793 -0.134788 -0.0370221 -0.120885 -0.0390044 -0.133351 -0.152996 0.253211 -0.0535147 0.0269024 -0.0436025 0.225201 0.0958102 -0.133016 0.0118112 0.142166 -0.0223405 0.0204254 -0.104405 -0.0697902 0.0723346 -0.162811 -0.0680003 0.200748 -0.113626 0.122579 0.0223914 -0.0461318 0.0134496 -0.141613 0.0502024 -0.0547109 -0.0980333 0.0202322 -0.121944 0.213993 0.0630814 0.124848 -0.0852554 0.0182058 0.104913 0.155979 0.0207638 0.00430774 0.261029 -0.0616823 -0.0927065 -0.00560531 0.213357 0.130571 -0.115409 -0.0302001 -0.0125554 -0.106587 -0.0163798 -0.0360105 -0.029032 -0.0751835 0.078849 -0.0717931 -0.0497343 -0.0621915 0.0826332 0.112539 -0.102737 -0.0368695 0.0467404 -0.0636613 0.135432 -0.0058929 -0.0285281
administratively -0.0102637 0.0159235 -0.00010854 0.0153114 0.0350944 0.00793219 -0.0462098 0.00543011 -0.0378356 0.00251564 -0.0461054 -0.0432699 0.0024315 -0.0129692 0.0134749 0.0293536 -0.0480019 -0.0245724 0.0324274 0.00748176 -0.0279433 -0.0560492 0.0335189 -0.0491032 -0.0204781 -0.0302108 -0.0186447 0.0318165 0.0676494 -0.0376274 0.0280145 -0.0412098 0.0806238 -0.0211259 0.0142278 -0.0366177 -0.034611 -0.0130298 -0.00267882 0.0203598 0.00958217 0.00548049 0.0383697 -0.0297432 -0.0212982 -0.00636606 0.07579 -0.0188254 -0.0700306 0.00888136 0.0455271 0.0136587 -0.0248247 0.0386539 -0.0264731 -0.0355999 0.0664874 0.04632 -0.0306802 -0.037596 0.0623699 0.0696173 -0.0423248 0.036778 -0.0213226 0.0174065 -0.0099799 -0.00798209 0.045214 0.0754679 -0.0354394 -0.00258431 -0.00728243 -0.0104781 -0.0179936 0.0299475 -0.0114329 -0.065 -0.0048119 -0.0248666 0.0012122 0.0558514 0.016727 -0.0235844 4.29768e-05 -0.0471537 0.0606773 0.00549395 -0.000477106 0.0509183 -0.0128115 -0.00351743 0.000581393 -0.068934 0.0419522 -0.00296371 -0.0110089 0.020718 -0.0109452 -0.0271344
admission 0.0178069 0.0733743 -0.00486867 -0.0462138 0.0311308 -0.004599 -0.00379176 -0.0142055 -0.0227779 0.0350538 0.0218696 -0.0291576 -0.0446526 -0.0632012 0.00968866 -0.00843222 -0.00752347 -0.0725699 0.0287019 0.0382901 0.0196554 -0.0469817 0.0523218 -0.0586208 -0.0337033 0.0520929 0.0392596 -0.0182763 -0.00877959 0.0196922 -0.0161203 0.0101791 0.0327689 -0.0113376 -0.0267833 0.0268077 -0.0449149 0.00893484 -0.0126617 -0.0233329 0.031025 0.0355915 0.0120391 -0.0347082 -0.0358299 -0.00175117 -0.0233948 -0.0059328 0.00162588 -0.0400973 -0.00444515 0.0152242 0.0211187 -0.0264837 0.059764 -0.0643888 0.0158348 0.0319685 0.00309942 0.0398334 0.022479 0.024168 0.0267807 0.0758632 0.0370242 0.0154117 0.0108775 -0.0316795 0.01474 0.0520214 0.0192766 -0.00791823 0.0100996 0.0501111 0.0297576 0.00336633 0.0311562 0.0209035 0.0023848 -0.0583805 0.0469905 0.0582375 0.012187 0.0101004 0.0219064 -0.049927 -0.0578724 0.030574 -0.0547411 0.0250722 -0.0257492 0.0506506 0.01784 0.0626515 0.0100646 0.0421829 -0.0843622 0.0318568 -0.0672288 -0.0479807
adn 0.0122549 0.00913654 0.0628843 -0.00366765 -0.00538553 0.00584144 -0.0050774 -0.0015241 0.0150311 -0.00909836 0.0483627 0.0497462 0.017485 -0.0493394 0.0463559 -0.000894492 -0.070909 -0.0441593 -0.0365641 -0.0112271 0.0179606 -0.056529 0.00784006 -0.0213527 0.0285286 0.0343359 0.0691054 0.041327 -0.00253447 0.0091975 -0.058714 0.00588378 -0.0178854 -0.043664 0.0191919 -0.0192753 -0.0127157 0.0485979 -0.0342868 -0.0135316 -0.0183434 -0.00307712 -0.0184488 0.0760847 -0.00504921 -0.0360689 0.0124281 0.047864 -0.0169983 -0.040807 0.07389 0.0106048 -0.0176463 -0.0162494 -0.0427638 0.0357465 -0.00944193 -0.0596622 0.00794774 -0.0389355 0.0399681 0.0201011 -0.000324754 0.0319287 -0.0354063 0.064067 0.0114219 0.0664985 0.0806507 0.0379559 -0.0486681 -0.00316321 0.0316974 0.0239007 0.0598437 0.0120788 0.0285355 0.00173355 -0.00202501 -0.0587597 0.0366962 0.0216196 0.0114827 0.00157229 -0.0322082 -0.0133994 -0.00554899 -0.0251068 -0.0135521 -0.0461103 -0.0596262 0.0122585 0.0191573 0.0103581 0.011673 -0.0332875 -0.0745053 0.013753 -0.0197221 -0.00562736
adore -0.000939354 -0.00783647 0.0389963 -0.0394967 0.00428065 0.0339193 -0.0214972 -0.000489758 -0.00576329 0.0408954 -0.0231788 -0.0110423 -0.0455426 -0.00405397 0.054681 0.00862078 0.0360484 -0.0474991 0.0143567 0.038785 -0.0462674 0.0432378 0.0139847 -0.0212057 -0.0893397 -0.0239633 0.026196 -0.0204579 0.0320403 -0.0231697 0.000740321 0.0220168 -0.0225041 0.0173797 -0.00312047 0.00036029 -0.0793236 0.02383 0.0386368 -0.00287325 -0.0268211 0.0572546 -0.0599289 0.00203977 -0.0426151 -0.0141927 0.0218677 0.0257018 -0.0099917 0.0131376 -0.0327749 -0.0590538 -0.0619568 0.0282536 -0.0138983 -0.000168584 0.0208788 -0.0162292 -0.0822772 0.0215327 0.0272684 0.0276081 -0.0466471 -0.0102667 -0.0864066 -0.0435887 -0.0219355 0.0178039 0.0346703 0.0906865 -0.00305948 -0.0316348 -0.00621536 0.00163001 0.0574287 0.042552 0.0304921 -0.0329231 -0.0588 -0.0163907 0.024191 0.00319653 -0.00593857 0.0142092 0.00192734 -0.0614096 0.0224216 0.0196986 0.0556482 -0.0142215 -0.0220418 0.00394327 0.0565486 0.024581 -0.0241717 -0.0112949 -0.076408 -0.0806759 0.0537778 -0.0395132
adored -0.0170149 -0.0138926 -0.0241232 0.0311742 -0.0227167 -0.00673974 -0.04315 0.00695925 -0.0483991 0.0459862 0.0472473 -0.0118548 0.00879197 -0.0411576 -0.0538701 -0.00405621 0.0114038 0.00431117 -0.0502422 0.0251842 -0.0134127 -0.0222198 0.0510137 -0.0424047 -0.0143637 0.037051 0.0188612 0.0335387 -0.0132098 -0.0229647 0.0519266 0.00634423 0.0443868 0.0538349 0.00778937 -0.0248152 -0.020456 -0.0362996 -0.0701232 -0.0021688 -0.00106888 -0.00462117 -0.0178795 -0.0107619 0.0466469 0.0304562 -0.00658086 -0.0245793 0.00625933 -0.0164629 0.0495505 0.00665746 0.035867 0.00236792 -0.0174927 -0.0512353 0.0249234 -0.0297554 -0.0423816 0.00518118 -0.00629997 0.0573028 0.0295457 0.0118363 -0.0678116 0.07356 -0.00874904 -0.00372183 0.00484472 0.0104043 -0.0140791 0.00152122 0.0403272 0.0607987 -0.00856124 0.0469325 -0.0351402 -0.0012303 -0.0092221 -0.0563217 -0.0412986 -0.0128726 0.0350446 -0.000333222 0.0105088 0.0326811 0.035576 -0.0421336 0.0254657 0.00817901 0.0111539 -0.00817777 -0.00334969 -0.0177309 -0.0118491 0.00232319 -0.0642642 -0.0768759 -0.0489723 -0.059717
adult 0.343856 0.178492 -0.276253 -0.517798 0.310882 -0.220779 0.0476312 -0.0942581 0.0180364 0.243569 0.511805 -0.134228 0.308524 -0.0493021 0.0768419 0.33072 0.316572 0.100224 0.107806 -0.330314 0.0424988 0.316898 0.142749 -0.176477 -0.253391 0.0606234 0.148726 0.239065 -0.0105573 0.194538 -0.0464728 0.260617 -0.259955 0.19824 0.0701981 0.26058 0.09749 0.0386377 0.0780683 0.310513 -0.267392 0.167573 -0.0669155 0.316895 -0.0679282 -0.195861 0.210877 -0.308943 0.182553 -0.285411 0.27188 0.479329 0.0947234 -0.182762 0.0263396 0.270584 -0.0192666 -0.0377491 0.0465349 -0.248607 -0.121384 -0.199093 -0.46306 -0.217168 0.161892 -0.515487 -0.241256 -0.247596 -0.119436 0.255852 -0.249166 -0.242609 -0.0941803 0.101394 -0.00262193 0.510742 0.294471 -0.259291 0.180808 0.0471316 0.0249758 -0.200143 0.048691 0.46794 0.240748 0.0929072 -0.169335 0.039074 -0.167747 0.169439 0.0531189 0.109444 -0.165343 -0.194767 -0.285048 -0.206327 0.0684091 0.267315 0.152501 -0.237128
advance 0.038999 0.0283083 -0.0213191 -0.0317512 -0.0173537 0.0823462 0.0129679 0.0281023 -0.0397623 -0.00437891 0.0267564 0.00415761 -0.0154182 -0.0258925 0.0643124 -0.0441523 0.00208289 -0.0384414 -0.0249132 0.00640553 -0.0365631 0.00891774 -0.0269268 -0.0559568 0.0181736 0.00671154 0.00337551 0.00330809 0.0210693 -0.0205876 0.0170199 0.0235049 0.0595728 -0.017358 0.00895091 0.0303452 -0.00355578 0.00341595 0.0240124 0.0289126 0.03534 0.028975 0.023375 -0.0477368 0.00174061 -0.0386178 0.0739837 0.0194711 -0.015523 -0.0346784 0.00459895 -0.0374988 0.0213832 -0.0418768 0.0692144 -0.0495444 0.0327313 -0.0343123 -0.0130373 0.0269771 0.0167137 -0.00364313 -0.0280422 0.0762314 -0.0453708 0.0335617 -0.0160794 0.00561569 -0.0227339 -0.045221 -0.0249061 0.0262478 0.0566972 0.0488957 -0.0442966 0.0537519 0.0151656 -0.0099617 -0.0161419 -0.0196906 0.0326622 0.0294349 0.0430351 0.0231932 -0.0186893 -0.0428835 0.0457039 0.0168655 -0.00268052 0.0283205 -0.0211544 -0.0359489 0.0441784 -0.00854784 -0.0302269 -0.0305289 -0.0332975 0.0157651 -0.00423189 0.0403815
advantage 0.00815887 0.0489162 0.00104354 -0.0318987 -0.074403 0.0200224 -0.0380144 -0.0195097 0.0173361 0.0538136 -0.000544158 0.0165671 -0.0126487 0.0309149 -0.0182909 -0.0699134 -0.0164757 -0.100001 -0.0502173 -0.0343961 -0.0132486 0.0103942 0.0594061 0.0254957 0.00746734 0.00767401 0.0402839 0.0264271 -0.0104292 -0.011453 -0.0085727 -0.00671656 0.0112591 0.0372014 0.00678422 0.0578296 -0.00788445 -0.0109701 -0.0258892 0.0502449 0.0118746 0.0266082 -0.0141306 0.00346434 0.000431143 0.0467776 -0.00810052 0.0292853 -0.0200536 -0.0153369 0.0436961 -0.0350877 0.00557205 -0.0320703 0.0759022 0.00301397 0.00306565 -0.0212987 -0.00779701 0.0178011 0.0565924 0.0586575 0.0255239 0.0009966 0.00711338 0.0551946 0.0714186 0.071518 0.00452947 0.059373 -0.0482894 -0.00465303 -0.00719302 0.0155144 -0.0321825 -0.0294219 -0.0156334 -0.00369928 -0.0254276 -0.0361327 0.0666895 0.029573 -0.0240214 -0.000615397 -0.0384447 0.00254158 -0.0114625 0.0457472 -0.00892882 0.0238961 -0.0125623 -0.0280057 0.00335732 0.0416886 0.0190135 0.00644235 0.00749331 -0.03681 0.00801806 0.0144747
advertising 0.00251322 0.0648608 0.0511268 -0.00889695 -0.0145106 0.0563571 -0.0691527 0.0360287 -0.0349671 0.00556899 -0.0305786 -0.0294378 0.0819038 -8.34172e-05 0.0613917 0.0079303 0.00203968 -0.0711191 -0.0135923 -0.0680502 0.0445375 0.00827784 0.0186561 0.0342481 0.028393 -0.0120413 -0.0793503 0.0257622 -0.000822764 -0.0762656 -0.00562414 0.0037548 -0.0418508 -0.0379218 -0.0061979 0.0640216 0.0282755 -0.0196948 -0.00441685 0.0109296 0.0456116 0.0419896 -0.0175884 -0.0835943 -0.0137249 0.0528039 -0.0245646 0.00617631 -0.0415222 -0.0431344 0.0448414 0.0180615 0.0113384 0.00422776 -0.0309244 0.0215198 0.0206361 -0.0583275 -0.0404348 0.00187386 -0.0558628 -0.0264592 -0.0537947 0.0197183 0.0272356 0.0970737 0.0369483 -0.00215026 -0.00509731 -0.0302003 -0.0794885 -0.0489739 0.0551062 0.0385362 -0.00720647 0.00901205 -0.00584498 0.0466029 -0.0519524 0.0346261 0.0118482 -0.0120941 -0.0109692 0.0164189 0.0160037 -0.0456669 -0.0647782 -0.00162501 -0.00439993 0.0671588 0.0443757 0.0130971 -0.00776977 0.00781302 0.0142493 -0.0585486 -0.0267121 0.051849 0.0565902 -0.0288161
advice 0.089097 -0.0777502 0.157445 -0.0372093 -0.0445117 0.0299952 -0.0721791 -0.092134 0.124148 0.108961 -0.0777932 -0.117594 -0.0534165 0.0565555 -0.0201354 0.0129325 -0.0496664 0.0789158 -0.0436516 0.00582922 -0.148446 -0.00901096 -0.035964 0.121785 0.0344759 0.041633 -0.0129979 0.0097654 -0.00212996 -0.148018 0.0790713 0.0268084 -0.0510933 -0.0245327 0.0395417 0.0813186 0.0884631 0.0449791 0.0111298 0.0803123 0.0207855 0.0809796 0.026669 0.055279 0.0397721 0.127299 -0.00216865 0.0793174 -0.074009 0.035217 0.104062 0.0645639 -0.0924938 -0.0302568 -0.0113786 0.019741 0.0717998 -0.055723 -0.0589498 0.138376 0.141402 0.0116071 0.107997 0.0311253 -0.0635545 -0.0358872 0.126955 -0.0110452 -0.091572 -0.0129451 -0.0176679 -0.0671072 0.0202128 0.0625557 0.0331498 0.0857139 -0.126786 0.00267374 0.088429 -0.131487 -0.0470095 0.0361214 -0.0543906 -0.0671336 0.0453506 0.0092495 0.0852668 0.0871404 0.0239202 0.0731328 0.154514 0.0779647 0.00941659 -0.0297824 0.0814055 0.069312 0.0257752 0.0203677 0.0406141 0.0478761
advise -0.0594264 0.28899 0.248707 0.0914361 -0.0050702 -0.0293539 -0.0633559 -0.035411 -0.0213633 -0.0197227 0.00492089 0.0500487 0.256873 -0.0477867 -0.0708219 0.13655 0.0819057 -0.0818715 -0.0564289 -0.278389 -0.0225824 0.243481 0.0828629 0.119916 0.181385 0.134625 -0.124571 0.174893 -0.0734927 0.0211568 -0.0712636 0.0181392 -0.0601906 -0.116323 -0.0135473 -0.00589201 -0.0263269 -0.136795 -0.196683 0.159403 0.138675 -0.0985199 0.149034 0.155895 -0.0162651 -0.0723543 -0.177008 -0.0486913 0.0369561 0.0131862 0.0121891 0.049198 0.032896 -0.0295374 -0.098116 -0.0198909 0.100468 0.0140859 0.00440178 0.117404 -0.0762892 -0.0348084 0.0303442 -0.0213569 -0.0873515 -0.112955 -0.0331567 0.0308753 -0.0671113 -0.0194014 -0.0378098 -0.0247571 -0.0551323 -0.0491518 -0.0109171 0.200742 0.0764053 -0.208877 -0.009756 -0.0587302 -0.112639 -0.0899789 -0.0454702 0.070288 -0.00088482 -0.0437718 -0.0528207 -0.193323 -0.0411547 0.157063 0.208797 0.120241 -0.100382 -0.0206664 -0.0611138 -0.17206 0.182146 -0.139562 0.13654 0.110253
advised 0.0192647 -0.00979563 -0.042185 -0.0377814 -0.0588895 0.0431381 -0.010314 -0.0142723 1.32797e-05 -0.0165353 -0.0603288 -0.0612693 -0.00470206 0.0483741 -0.0266576 -0.00698811 -0.0232862 -0.0603287 -0.0401255 -0.0237895 -0.0276069 -0.0240784 0.027771 0.0185727 0.0365012 -0.0586011 0.0204392 0.0899176 0.00924136 0.0308177 -0.0463775 -0.0529661 0.0718176 0.0419676 0.00591267 0.00252275 -0.0292427 0.0661528 -0.0286432 0.00819463 0.0236696 -0.0352443 -0.00816257 -0.0145103 -0.014574 0.0469252 -0.00848756 0.0105694 -0.0213968 0.0346385 0.0150947 0.0369071 -0.00316783 -0.0536477 0.0419667 -0.0356479 0.00650983 -0.0198789 -0.0237084 0.0194657 -0.0150653 0.0541758 0.0404812 0.0149746 0.0119376 0.0169195 0.0381684 0.00379408 -0.00600213 -0.03113 -0.00550956 0.00107856 0.00506386 -0.00091668 -0.00677541 -0.00713068 -0.00677554 -0.0145842 0.00391541 -0.0185051 0.0580489 0.0553366 -0.0054401 -0.0145608 0.0315834 -0.00172695 -0.00240007 -0.016745 -0.0113668 -0.0294553 0.0358397 0.00486965 -0.0325628 -0.0183947 -0.0355339 -0.0354288 -0.0413478 0.0588167 0.043985 0.0239924
aerial -0.000635234 0.0411773 0.0604007 0.00560173 0.00528257 0.0290394 0.00376924 -0.019735 -0.0346942 -0.0455646 0.0581734 -0.029228 0.0152927 -0.0635382 -0.00421148 -0.0242272 0.00595112 0.0102197 0.0432785 -0.00235735 0.00209785 -0.00102269 -0.00829103 -0.0376255 -0.0602983 0.0208396 0.0532534 -0.00527492 -0.0249779 0.0053133 -0.043114 -0.00376301 0.0109962 0.0245644 -0.0208671 -0.054213 -0.0143254 -0.0741031 -0.0204871 -0.0123987 0.0506919 0.0572198 -0.0094163 0.0123407 -0.00507764 0.0587273 -0.0937323 -2.42144e-05 -0.0374368 0.00270922 0.0622617 -0.0219304 0.00467086 0.0370105 0.0105836 0.0428119 -0.0142212 0.00725726 -0.0489884 -0.00637311 -0.0342487 0.0791656 0.00431803 0.0757198 -0.0528113 -0.0232341 0.0375746 0.0070263 -0.00340658 -0.0169255 -0.0647545 -0.0212086 0.0383497 0.0178711 -0.00846075 0.00394786 0.0109325 -0.0249906 -0.0396812 -0.0443514 0.0280199 0.0587383 -0.0390733 -0.0234411 0.0493137 -0.00618843 -0.0392764 0.0425612 -0.0221664 -0.050373 -0.0291021 0.00148642 0.0238896 0.0303538 0.0452846 0.0484596 0.00181529 -0.0743287 -0.0171384 -0.041262
affardoble -0.0437563 -0.0138876 -0.0102151 -0.00736639 -0.0555204 -0.00308022 -0.0296453 -0.0364015 -0.00147199 0.0123354 -0.0258639 -0.0388774 -0.00659843 0.013257 -0.0133711 -0.025148 0.0340218 -0.0477735 -0.013059 -0.0348623 0.00687189 -0.0651467 -0.0273708 -0.0329327 -0.038545 0.0358059 0.052387 -0.0152494 -0.0457708 -0.025858 -0.0171225 0.00741803 0.0789333 -0.0300633 -0.0102016 0.00306312 0.023071 0.0137832 -0.0364889 0.0127239 -0.0166813 -0.0542135 0.0605202 0.0210672 -0.000353182 -0.0130564 0.0674359 0.0764268 0.00544133 0.00892538 0.0263181 0.0668802 0.0199434 0.055579 0.0642299 -0.0397409 0.0135924 0.0283862 0.0135588 -0.0363852 -0.0421282 0.0019414 -0.0151191 0.0206747 -0.0679195 0.0186027 0.0519476 0.0609315 -0.0102051 0.0144951 -0.0401325 -0.0712788 0.0187253 0.0163102 -0.00962363 0.000209714 0.00821665 0.0146164 0.0461525 -0.0443633 0.00321162 0.0076743 0.0240999 -0.00677315 -0.0538496 0.0185839 0.0222797 0.0130935 -0.0197884 0.063401 0.00810867 -0.026967 0.0501306 0.046759 -0.0254967 0.0495708 0.0304298 -0.0160532 -0.0187318 -0.000163502
affluent 0.0672378 0.0266002 -0.0921096 0.01325 -0.12708 0.0434814 0.0578404 -0.124877 -0.038926 -0.280257 -0.112913 0.0155901 -0.0704335 0.0924546 0.101067 0.0676139 -0.163299 0.248235 -0.0654151 0.0711045 0.29216 0.0298538 -0.193543 0.27945 -0.0140317 -0.0411075 -0.217636 0.101998 -0.190466 0.597089 0.0403823 0.130486 0.0659524 -0.135725 0.0354942 -0.0650593 0.164788 -0.132466 0.0345002 -0.198954 0.0825685 -0.260867 -0.0691049 0.129062 0.169167 0.150132 0.000347726 -0.156166 -0.0638841 0.0557497 -0.168035 0.0901158 0.0595412 0.0453546 -0.120438 0.113419 -0.120934 0.0833787 0.215336 0.164477 -0.21444 -0.155836 0.0621708 0.093531 -0.0272965 -0.106767 0.104125 -0.270193 -0.251979 -0.0475892 -0.142258 0.0822117 0.00459024 -0.0373448 -0.2325 -0.13724 -0.141861 -0.146411 -0.0985629 0.415402 0.187775 0.0103703 0.054342 -0.0605342 -0.00438519 0.154751 -0.0807591 -0.197733 0.052051 0.032085 0.0576588 0.206339 -0.15755 0.164164 0.0479206 0.112966 0.108885 -0.247987 0.00242665 -0.025173
afford 0.0517697 0.0799788 0.353132 0.150022 0.112279 -0.380194 -0.642925 0.0762273 0.37656 -0.284017 0.093574 0.0090061 -0.0299918 -0.0975464 -0.110362 -0.174206 -0.0791982 -0.421072 0.105881 -0.0561026 0.322259 0.172462 0.00314383 0.38041 0.120474 0.167153 0.00288621 -0.101792 0.0618613 -0.163287 0.285377 0.294279 0.226515 -0.186153 0.281215 0.0657494 0.455545 -0.405367 0.402055 -0.133178 -0.0531658 -0.0493721 0.245742 0.0944228 0.199856 0.203738 0.293951 -0.194643 0.269219 0.243274 -0.154064 -0.392817 0.140951 -0.0627016 -0.182874 -0.0370284 -0.153613 -0.047521 0.0742842 0.207025 -0.0587536 -0.338004 -0.0189543 0.1242 -0.390225 -0.076996 -0.0552362 -0.189659 -0.328569 0.324991 0.58637 -0.24062 0.0716762 -0.2916 -0.514607 -0.0166094 0.116848 -0.148616 -0.101093 -0.00843184 0.458861 -0.345157 0.132484 -0.196362 -0.166416 -0.134788 -0.411336 -0.46755 0.073055 0.669037 0.353952 0.393497 -0.180284 0.344029 0.324203 -0.245068 0.0597593 -0.22703 0.284286 0.180127
affordable 0.045612 -0.160498 -0.417038 0.469938 0.269246 -0.21086 0.184443 -0.261964 -0.354437 -0.420765 0.144032 0.0149918 -0.214467 -0.0780974 -0.0372535 0.0463291 0.0803345 -0.0657406 0.126409 -0.207514 0.177284 -0.197438 0.222143 -0.0435441 0.274352 0.217728 -0.0944203 0.00769811 0.184892 0.373298 0.098351 0.145349 0.055626 0.138569 -0.527756 0.298912 -0.281221 -0.0450568 -0.202933 -0.102573 0.0743584 -0.44995 0.116113 -0.214057 -0.0852639 -0.153665 -0.305943 -0.166578 -0.0886188 0.0119643 -0.429211 0.416525 -0.165125 -0.0524119 -0.435378 0.418788 0.0549431 0.281698 -0.141629 -0.0631096 -0.446619 -0.483788 0.129952 -0.376515 0.440289 -0.0488431 -0.374649 -0.212384 -0.36897 -0.30614 -0.0962115 0.486626 0.1064 -0.0441584 0.44052 -0.159834 -0.370302 -0.257818 -0.081612 -0.00832457 -0.0728272 -0.373987 -0.145805 0.306265 0.399655 -0.0147875 0.115692 -0.596358 0.285314 -0.158731 -0.343775 -0.0532069 0.207664 0.133841 -0.220433 0.0751445 0.247394 -0.236561 0.175497 -0.171303
aforementioned 0.0619009 -0.00112356 0.0318771 -0.028667 -0.0336625 0.0124215 -0.000265529 0.0289854 -0.0162002 0.046562 0.00184395 -0.0544331 0.0212288 0.0146936 -0.0175397 0.0122903 0.0547969 0.0181891 0.0172083 0.035937 0.0366397 0.0111448 0.0227929 -0.0287894 0.0267776 -0.00666966 -0.00901836 0.0348297 -0.0396746 0.00213846 0.0395032 -0.0135577 0.0371601 0.0384057 0.00983135 0.0242342 -0.0130623 0.0717678 -0.0319373 0.0106219 0.0772189 -0.00461159 0.0122684 0.0565324 -0.0205962 -0.026598 0.0521077 -0.0160632 -0.0390247 0.0070763 0.0840046 0.0295816 -0.0601503 -0.034095 0.0304263 -0.0262524 -0.00674579 -0.0252552 -0.080488 0.0243688 0.00104827 0.0490113 0.0118854 -0.00331552 -0.031186 0.0330818 0.00336002 0.0450717 -0.0168285 -0.014874 -0.0622763 -0.0259358 -4.90751e-05 0.0100228 0.0453682 0.0572879 0.0130151 0.0234986 -0.0295207 -0.0301451 0.0279305 0.0226297 0.0264378 0.0345175 0.0526286 -0.036525 -0.0259183 0.0168552 -0.00945502 -0.022219 -0.00362815 0.00860177 0.0183792 -0.011043 -0.00325895 -0.0354165 -0.0512218 -0.0458816 -0.0484264 -0.0275835
afraid 0.00391089 0.0206874 0.0164532 -0.043286 0.0457448 -0.132101 0.156851 0.0691512 0.0813185 0.0246232 0.0521749 0.121345 -0.125881 -0.0026281 0.0134026 0.0498262 0.00830433 0.0334207 0.0184978 -0.0459819 -0.0306135 0.0279457 -0.0213636 0.00273168 -0.00523564 0.0300267 0.000513555 -0.0723588 0.154958 -0.0255836 -0.0291429 -0.00296247 -0.0174117 0.0716465 -0.0677983 -0.0490955 0.00229181 0.0441099 0.0235925 -0.0390687 -0.0405555 -0.0417494 -0.170169 -0.0276377 0.00239765 -0.16726 0.0241623 -0.0607937 0.0106896 -0.0454156 -0.0135 -0.14739 -0.143528 0.00607079 0.000292257 0.0364683 -0.122116 -0.0418999 -0.0345358 0.0227144 -0.0706684 -0.0523862 0.00106142 -0.0592731 0.0493864 0.0425838 -0.0931957 0.0366728 -0.0807469 2.85544e-05 -0.00400397 0.0898093 -0.000486135 0.0148339 0.175637 0.0085417 0.0436054 0.0136495 -0.0120137 -0.0785437 -0.013487 0.00882174 0.00901288 -0.0210239 0.0181644 -0.00299687 -0.0271787 0.0445529 -0.104779 -0.0520838 0.090194 -0.0162528 0.0469205 0.0144092 -0.0818507 -0.0154132 -0.0451279 -0.0770177 0.00921396 -0.204312
africa -0.00468165 -0.0221484 -0.0209285 0.0151675 -0.0749946 0.0247324 -0.0672622 -0.0161427 -0.0764843 0.00723705 -0.00501229 -0.0213706 0.0239036 -0.0241328 0.0469463 -0.00289244 -0.0328099 -0.0207294 0.0150036 -0.00295852 -0.0177084 0.00373895 0.00187529 -0.0322005 -0.0193143 -0.0582809 -0.00794974 -0.0643779 -0.0418634 0.00827347 0.00175476 -0.055439 -0.0478357 0.0380487 -0.0157603 0.00239411 -0.00776819 0.010968 -0.0407078 -0.0117212 0.00896248 0.0258497 -0.00531202 0.05364 -0.0346593 -0.0330963 0.0394693 0.0377374 -0.0159181 0.0217141 0.0220638 0.0289975 -0.0202444 -0.0135219 0.0687979 -0.0183889 -0.000387606 -0.0257829 -0.0226207 0.0105643 -0.00479734 -0.0218974 -0.0127659 -0.0365296 -0.00874351 0.0163901 -0.00112816 0.0563107 0.0016319 0.0319677 -0.00670616 0.00668639 0.0408503 -0.0358282 -0.00355205 0.0290453 0.0214197 -0.00789542 0.0159936 0.0319256 -0.00810791 -0.0383621 0.0512726 0.0302272 -0.0401166 -0.0503102 -0.0318667 0.0642226 -0.0131254 -0.0287678 -0.0205093 -0.0729758 0.0325579 -0.0155577 -0.0583495 0.060303 -0.020906 -0.015101 -0.0615781 0.0279942
african -0.0564764 0.0393565 0.0424828 -0.00135631 -0.0364968 0.0567486 0.0706525 -0.0228307 0.0398104 0.0246567 -0.0286551 0.016763 0.0171924 -0.0369213 0.0582781 0.0199318 -0.0436265 0.00699264 -0.00692159 0.010772 0.0426227 -0.0582321 -0.0197451 0.00666304 -0.0301911 -0.015917 0.0251752 -0.00191438 -0.00456931 -0.0618033 -0.022629 0.00218478 0.0449869 0.0269913 -0.0519566 0.00719443 -0.0234739 -0.0218989 -0.0192227 -0.0152091 0.00122293 0.0318286 0.0607132 -0.0096517 -0.00936377 -0.0482462 -0.00010597 -0.00550426 -0.0310649 -0.0184767 0.0257327 0.0136801 0.0242937 0.00868271 0.00454499 -0.0495513 -0.0523673 -0.0106443 -0.0136232 0.0252849 0.0237652 0.00255422 -0.0250123 -0.0685936 0.0346415 0.0755877 -0.0136189 0.0733247 -0.0137521 -0.0156066 -0.0238013 0.01417 0.0125748 0.0455624 0.0467791 0.036061 -0.014644 0.0551552 -0.0119938 0.043234 -0.0318775 0.0130712 -0.0142832 0.0679611 -0.00996332 -0.0353134 0.0311437 0.0353338 -0.00262611 0.0129307 -0.0225466 -0.0210021 -0.0431561 0.0194475 -0.0822657 -0.0232165 -0.0347089 0.0439592 -0.0600168 0.014214
afro 0.190806 0.033918 -0.19266 0.167188 -0.08016 0.069866 0.0665366 0.0582478 0.0899965 -0.220279 -0.163827 0.163184 -0.238693 -0.0139663 0.307653 -0.0146503 -0.00564863 0.0657158 0.252877 -0.140414 -0.246907 0.123836 0.206733 -0.113207 -0.123067 -0.094054 -0.109575 0.00709651 -0.0428224 0.200252 0.199735 0.0278471 -0.183874 0.31105 -0.168933 -0.0752459 0.0578653 0.247259 -0.175233 -0.184743 -0.0829061 0.177693 -0.179471 -0.0363895 -0.0806699 0.0473159 -0.0517871 0.0418392 -0.323965 0.14014 -0.0618588 0.217114 -0.0605095 -0.0439841 0.138957 -0.0562152 -0.106711 -0.12756 -0.180596 -0.103878 0.0325808 0.17607 0.0583988 0.229694 -0.0226901 -0.33278 -0.10304 0.163356 0.102387 -0.0223545 -0.120306 0.139436 -0.0725267 0.345149 -0.0444098 0.0771063 -0.00958067 0.0532784 0.109177 -0.0292323 0.174955 0.117157 0.221907 0.0961881 0.121432 -0.308577 -0.0190094 -0.241734 -0.193353 -0.07973 -0.0882738 -0.184293 0.143286 -0.216643 0.065322 0.0684802 -0.122363 -0.315181 0.0547887 0.311015
afternoon 0.0109116 0.07792 0.0236545 -0.0131101 -0.00499953 -0.00217138 -0.04006 -0.00292465 -0.0331958 0.019948 0.0159775 -0.0439981 -0.0450518 -0.0253007 0.000357689 0.0262876 -0.0388836 -0.00282675 -0.0094914 -0.0383851 -0.00118697 0.0100811 -0.0108234 0.0240016 -0.0460437 -0.00978802 0.0141326 -0.000307467 0.0193109 -0.0131355 -0.0285141 -0.0401005 0.0406112 0.031599 0.0210897 -0.0323659 0.0165634 -0.013128 -0.0259726 0.0174858 0.0136585 -0.0253899 -7.84043e-05 -0.0480127 -0.0361132 0.00973174 0.076178 -0.0234915 -0.00743579 0.00402637 -0.002454 0.0114176 0.0383017 -0.0172801 0.0328461 -0.0187254 0.00190177 -0.00674126 -0.0146365 -0.0190639 0.0117739 0.0752969 -0.00335756 -0.0162242 -0.0059035 -3.16398e-05 0.0676095 -0.0032284 0.00161065 0.0298467 0.019726 -0.0374321 -0.0464545 0.0514283 0.0497184 0.011246 -0.00092838 -0.0104004 0.02034 0.0217659 -0.0241832 0.066177 0.0477491 -0.0453665 -0.0328831 0.0125621 -0.0288395 -0.0285735 -0.0175986 -0.045527 6.55726e-05 -0.0141644 0.0206563 -0.02983 0.0383499 0.0469909 -0.0482084 -0.0140892 -0.00134964 -0.0248877
age 0.0228838 0.0491673 -0.0250394 -0.0352834 -0.0387094 -0.0626917 -0.00767416 -0.000857245 0.00185247 -0.000592161 -0.0187692 0.021751 0.00156327 0.0337757 0.0418052 -0.0413156 -0.0528051 0.0161975 0.03113 -0.0376738 -0.0207156 0.000791196 0.0174545 -0.0204295 -0.0392828 0.0166738 -0.0523545 -0.0650601 0.0184629 -0.0251821 0.0303939 -0.043912 -0.00343785 0.00340615 0.00079247 -0.0431826 0.0384301 -0.00914625 -0.0486383 -0.0232867 0.0121095 -0.055855 0.0580398 -0.0278775 -0.0674482 0.031789 0.0573653 0.0263113 -0.0158996 -0.0197092 0.0198985 -0.00725795 0.0363066 0.0211919 0.0503003 -0.0466258 -0.040295 -0.0496337 0.0118311 0.0287677 -0.0202396 -0.0283774 0.027607 -0.0493474 -0.00838224 0.0546386 0.0447818 -0.0236724 0.00409891 -0.00373731 -0.00639798 -0.00512169 -0.0456591 0.00360633 0.0104431 4.42602e-05 0.025517 0.0178176 -0.0465721 -0.0732696 0.0216187 0.0716441 0.0148667 -0.0337352 -0.0484868 -0.0417117 0.000256058 0.01165 0.0685948 0.00685449 -0.0697405 -0.0117776 0.0250234 0.0481654 -0.0176476 -0.0476647 0.00945208 0.0234031 -0.0426477 -0.000531422
aged -0.00196956 -0.00214888 0.0718455 -0.00604842 -0.0362387 0.0306622 0.0175336 0.0145605 -0.0548503 0.068737 -0.00942964 0.00357905 -0.0389883 -0.0200798 0.0240395 -0.0579511 0.00656821 -0.0659526 -0.0483393 0.0405782 -0.0312072 -0.0341287 0.0398299 -0.0225244 -0.0497185 -0.0767674 -0.011929 -0.0135019 0.0530105 0.0392042 -0.0180038 -0.0150602 0.077879 -0.00247128 -0.0195907 -0.0212724 0.0155021 0.00577392 -0.070947 0.0165649 0.0463513 -0.0480507 -0.00180032 -0.00230622 0.0155364 -0.0170588 -0.0261172 0.0380911 -0.047607 0.0398257 0.000156503 -0.00563055 -0.0375934 -0.00437952 -0.015505 0.0204326 -0.0215624 -0.0139597 0.008455 0.0662459 0.0612832 0.0901246 -0.0118549 0.0620653 -0.012752 0.0478358 -0.0320605 0.0501603 -0.0165859 0.0126077 -0.0407686 -0.00405597 -0.00586306 0.0576389 0.0136476 0.00982089 0.0227469 0.0098461 0.012917 0.00300881 0.0143191 -0.0282966 0.0637091 0.0633043 0.0158739 -0.0271119 0.0160847 0.00400505 -0.0412327 0.0245551 -0.0120624 -0.0471003 -0.000544865 -0.00564161 0.023957 0.0273982 -0.0814425 -0.00207896 -0.00988023 0.00924184
agency -0.107357 0.0974907 -0.0474528 -0.0386429 0.057116 -0.0744226 0.242546 0.0468779 0.00995376 0.0381354 0.105955 0.074445 -0.0708845 -0.160636 -0.0123912 -0.0717583 0.0575769 -0.0161062 0.115422 0.139996 0.00763384 -0.0894468 -0.147885 -0.140309 -0.307202 0.115096 0.237437 0.0339295 0.101246 0.0580798 -0.272996 -0.110143 0.0133115 0.0323784 0.136995 -0.241311 -0.204219 0.170725 0.105166 0.0605974 -0.197556 -0.0932865 -0.117265 0.267334 -0.0536023 -0.272525 0.0533777 0.0676158 -0.0624193 -0.0615822 0.0108659 -0.192833 0.093002 0.00111876 0.0301819 -0.0428492 0.0044034 0.134718 0.121195 -0.0597238 0.228554 -0.101856 0.139169 -0.130333 0.0639326 -0.247538 -0.0715161 0.111745 0.0615448 0.0647882 0.0300049 -0.0314983 -0.0765204 -0.000939693 -0.0173131 -0.00800972 0.129519 -0.146578 0.016774 -0.125024 -0.0999388 -0.102319 0.128702 0.0388189 0.072614 -0.106671 0.0227568 0.118578 -0.148426 -0.124704 0.208965 -0.06716 0.0772295 -0.172909 -0.0816956 0.160406 -0.0452174 -0.0608338 -0.0666354 -0.0847974
agent 0.260698 -0.0591094 0.0409085 0.0953931 -0.104756 -0.0187945 0.00378756 -0.0357515 -0.0164926 0.0772013 0.0438037 0.332699 0.0593191 -0.021837 0.207178 -0.0432559 0.170687 -0.141585 -0.132451 -0.189084 0.263851 -0.0400729 -0.403587 -0.00852969 -0.0665907 -0.00513757 0.141339 0.0059634 -0.0213002 0.263567 -0.386119 -0.203341 0.314025 0.339594 -0.182857 0.114308 -0.199079 0.217999 -0.0111194 -0.136765 -0.1864 -0.32251 0.281905 -0.473383 0.457038 -0.14789 0.123312 -0.188394 0.139979 -0.105418 -0.110755 0.313861 0.0877258 -0.125212 -0.10309 0.0142853 0.131434 0.0448333 0.26047 0.0466542 -0.0776193 0.244304 -0.0940294 -0.117736 0.0038166 0.239738 -0.0678713 -0.31496 -0.202689 0.25922 -0.117008 -0.102315 0.190404 -0.0859631 -0.05337 -0.133773 0.230103 -0.123625 0.246194 0.164177 -0.224556 -0.0188444 0.0744532 0.0147565 0.00568146 -0.073023 -0.1076 -0.0417205 -0.0206694 0.159675 -0.11501 -0.105483 0.155527 0.14708 -0.217244 -0.0519006 0.131739 -0.108367 0.128307 0.356917
ager -0.0589269 -0.00393115 0.0486446 0.00207721 -0.0175377 0.0896499 0.057849 0.0174926 -0.0706879 0.00604528 -0.0329313 -0.0877798 -0.0229343 0.0341989 -0.00899337 -0.0172583 0.00526634 -0.00403373 -0.057841 -0.0280472 -0.0145859 -0.0285924 -0.00250681 0.026695 -0.0172996 0.0622136 -0.0160564 -0.0364099 -0.0277408 -0.0187988 -0.0259367 0.0317868 0.0180907 0.00285477 -0.0523481 0.0749321 0.00321028 0.0490995 0.00771499 -0.0376896 0.0775243 0.0413764 0.0214318 0.0214825 -0.0158095 -0.000257768 0.039 0.084043 -0.00828252 0.0092379 0.0206045 0.00826836 -0.00998556 -0.0131526 0.0459385 0.0227734 -0.0127829 -0.0220859 -0.0600711 -0.0587138 -0.0632048 0.0379719 -0.0217665 -0.0441752 -0.0215812 0.00950788 -0.0423645 -0.0350792 -0.0106303 0.0119257 -0.020116 0.0399589 -0.0284717 0.0428502 -0.0352273 0.00350435 -0.0297354 -0.011964 -0.0127476 -0.0368599 0.0101629 -0.0328624 0.0433997 -0.034706 0.0349345 -0.0395131 -0.050725 0.0193502 0.0283947 -0.0142353 0.0374674 0.0312388 -0.00977907 0.0134532 -0.0433076 -0.0595572 0.0581447 0.011416 -0.0498688 0.0320634
ago -0.135249 -0.121812 -0.254117 -0.109405 0.109011 -0.100164 0.271424 -0.283662 -0.168483 0.0514838 -0.14184 0.394567 0.0400256 0.0304262 -0.00191608 0.0175291 0.0916126 -0.260058 0.01744 -0.109787 0.258056 -0.0921663 0.0569148 0.0349061 0.100964 0.159644 -0.0036752 -0.177792 0.383117 0.037117 -0.0040617 -0.172578 0.24693 0.0333866 0.0880563 -0.222317 0.335796 -0.0111192 0.280646 -0.00874574 0.172949 -0.0607884 -0.185714 -0.223833 0.0809073 0.346704 -0.121055 -0.132547 0.137863 -0.0971883 0.307121 -0.191734 -0.026013 -0.0554184 -0.0802132 -0.0926617 0.218227 -0.272731 0.100151 -0.30902 0.251507 -0.100183 0.0131038 -0.222679 -0.0162521 -0.0945118 0.127204 -0.104716 -0.214188 0.112532 -0.116245 -0.111234 -0.180433 0.31297 -0.215135 -0.307265 -0.0610236 0.132223 0.0836674 -0.0124973 0.0292501 -0.0472043 -0.212062 -0.160995 -0.0196102 0.217097 0.193532 -0.112468 0.137446 0.229174 0.00356624 0.095882 -0.177998 0.171105 0.0802351 -0.20523 0.0177126 0.0215005 0.257974 0.0126068
agree -0.193907 0.276538 -0.17827 0.106727 0.328607 -0.0919988 -0.355285 0.302137 0.308279 -0.0744978 0.249082 0.236154 0.522422 0.260298 -0.268267 -0.323096 0.0753232 -0.197332 0.328848 -0.721388 -0.272379 0.150416 -0.2833 -0.121821 0.174274 0.231246 -0.0471295 -0.173262 -0.202119 -0.242154 0.113791 -0.0123925 0.412964 0.119325 -0.201529 0.410353 0.227724 -0.00596494 0.213042 -0.408011 -0.137529 0.204589 0.0601051 -0.376203 0.202804 -0.30748 -0.166646 -0.269451 0.317984 -0.148702 -0.0245842 -0.149014 0.231354 -0.153788 -0.266575 -0.149478 0.340989 0.298019 -0.117251 0.0744784 0.0478996 0.0798161 -0.238061 0.152198 0.163699 -0.296348 -0.0111723 0.43631 0.00650325 0.418215 -0.0111667 -0.323134 0.259113 -0.300649 -0.03808 0.470248 -0.0117431 -0.182016 0.0261944 -0.160012 -0.286319 -0.184245 -0.200613 0.0103299 -0.362362 0.0308795 -0.31377 -0.187948 -0.0862289 0.188374 0.147062 -0.0290405 0.11145 0.401474 -0.191625 -0.276322 0.0561623 -0.107169 0.285565 0.249593
ah 0.0477765 -0.00193007 0.00287174 -0.00633179 -0.0114661 0.035451 0.0255337 0.0135986 -0.00198553 0.0532287 -0.00224197 0.0218752 -0.0315109 0.0115181 0.00583837 -0.0752544 -0.024423 -0.0250361 -0.0340651 -0.0265031 0.0116523 -0.0367915 -0.0287903 0.00382796 -0.0255255 -0.0156501 0.0268366 0.0194893 -0.014546 -0.0494777 -0.024805 0.00445815 0.0115965 -0.0234046 0.0123376 0.0110684 -0.0291867 -0.0803797 -0.0548967 -0.00623834 0.047721 -0.0123775 0.0136537 -0.00937174 0.0431438 -0.00566012 0.0112494 -0.03041 -0.0431864 0.00404868 0.0250473 0.0330507 0.00946356 0.00194317 -0.0290044 -0.00627116 0.00874149 -0.00941292 -0.0190541 0.0629029 0.0265387 0.0562883 0.0402847 0.0493365 0.0263313 0.0262914 -0.000452923 0.0189657 0.00558345 0.0046282 -0.0282839 0.0486182 0.0320929 -0.00931862 0.0049479 0.0258936 0.011978 -0.00146067 0.00523089 -0.0574362 0.0174141 0.0192848 -0.00407832 0.0349577 0.0104772 -0.0352123 0.0430088 0.0638104 -0.0197891 -0.0230201 0.0161156 0.0456828 0.0508325 -0.00945452 -0.00929496 -0.00571492 0.019039 0.0381695 -0.0300773 -0.0524408
ahead -0.00267055 0.00788102 -0.0251413 0.0281803 -0.0408483 0.000601374 0.0536415 -0.0610475 -0.0112037 0.0440095 0.0225119 -0.0693172 0.0630246 -0.0175168 0.0549073 -0.100194 -0.00715795 0.093265 -0.0224261 0.0424431 -0.000596445 -0.0241745 0.0274391 0.00638142 -0.0448432 -0.0143219 0.0382695 -0.0277795 -0.024049 -0.0543378 0.00803647 0.0167691 0.029288 -0.0166031 0.0222058 0.0294129 -0.0425821 -0.0723015 -0.0371865 0.0793766 0.00743674 0.0754679 -0.0417982 0.0534864 0.0073332 -0.0315313 0.010013 0.0136188 0.0499766 0.0323397 0.0452279 0.0173667 -0.107225 -0.0257134 0.0755009 0.0385268 -0.0328879 0.0207703 -0.0238668 -0.0628105 0.093013 0.0422175 -0.065001 -0.033948 -0.0486773 0.0818819 0.13179 0.00465384 0.0821268 0.00338095 0.0108528 -0.00496993 0.0431595 0.0815605 0.0608921 -0.0584118 -0.00705677 0.0458761 -0.0837503 -0.00403848 0.0150408 -0.0409893 0.00237745 -0.0171021 0.0141421 0.033606 -0.00149748 0.052999 0.022282 -0.0162586 -0.0219505 0.014551 -0.0334435 -0.0452747 0.0527568 -0.0419096 -0.00699571 -0.0399458 -0.0117524 -0.00138036
ai 0.0043419 -0.0133156 -0.0242807 -0.0109104 -0.0165226 0.0170711 0.00159603 -0.0389696 0.0108039 0.00973837 0.00489347 -0.0299326 0.0166406 -0.00865099 -0.0391878 -0.0276161 -0.0354949 -0.0133079 -0.0146981 0.00402035 -0.0511367 -0.0110523 0.0452371 -0.0457792 0.0410934 -0.0174518 0.0108636 -0.0508241 0.00752535 -0.00793195 0.0281258 0.00256751 -0.0586613 0.00545422 -0.00181314 -0.0273611 0.0467594 -0.0053869 0.00275705 -0.0483639 -0.00212284 0.0341459 -0.024397 -0.0309126 0.035638 0.00669007 -0.0277457 -0.021869 0.0229804 0.0117764 -0.0423701 0.0115102 0.00726357 0.0307446 -0.0703812 -0.0343006 0.0215672 -0.0452397 0.0351566 -0.0105268 0.00834124 0.072712 -0.0219563 0.0245795 -0.0189911 0.00437691 -0.0164875 -0.0162923 0.0666089 0.0120652 -0.0504032 0.00600861 0.0271443 -0.0235464 0.0123026 0.0200368 0.0549875 0.00750116 -0.0224958 0.0440799 0.0218072 -0.024766 -0.0148182 0.0212772 0.0215762 -0.0118352 -0.033482 -0.00706676 0.00117185 0.0188082 0.0526567 0.00413323 0.0499829 0.0575771 -0.000731539 0.0407053 0.0418499 0.0253296 -0.00257485 0.00265166
aimless -0.0526297 0.0753575 -0.0540073 0.0115583 0.0544502 0.0297508 0.000879319 -0.0237375 0.00703972 0.042091 0.0112496 -0.00745667 0.0160445 -0.0107819 -0.00307623 0.0266571 -0.0641375 0.0438932 0.0476315 -0.0389571 0.027992 -0.0302684 -0.0376706 -0.00331763 -0.104382 -0.0884403 0.0787999 0.0656551 -0.0122864 -0.00400457 -0.0247653 -0.00987062 -0.015872 0.0312931 0.0352525 0.062654 -0.0371751 0.00273086 -0.022912 -0.034096 0.00379401 -0.0195442 -0.0496342 0.0576905 -0.0136891 0.0326974 -0.0193446 0.0863755 -0.0766983 -0.0406962 -0.0297425 -0.0259364 -0.0421076 -0.0233126 0.0395354 -0.0251674 0.0212247 -0.0158797 -0.0131373 -0.0846218 0.00137932 -0.00873573 -0.0137292 0.0614493 0.0348193 -0.0295674 0.0214484 0.0205207 0.0240761 -0.010051 4.98252e-05 -0.00548024 0.038603 0.0401688 -0.00330047 -0.0447067 0.0125053 -0.0290247 0.0116266 -0.0547073 -0.0139993 0.00656983 0.0522993 0.037197 0.013936 0.00866809 -0.0117964 0.0397308 -0.0181146 0.0388661 -0.0592754 -0.0414766 0.0793893 -0.0124653 0.00586197 0.0391626 0.0147505 0.00517939 -0.0277132 -0.0678362
aint -0.0272818 -0.00100052 0.00253031 -0.0208355 -0.0196123 0.0124204 -0.0173334 -0.000935622 -0.0296745 0.0315186 -0.021331 -0.00997225 0.0128874 0.0261781 0.0521039 0.00553417 -0.0250123 -0.0396351 -0.0126779 0.0101416 -0.0324831 -0.0826982 0.0217208 0.0561073 0.0166813 0.021235 -0.0347484 0.0578265 0.0125096 -0.0501387 -0.0359101 0.0405566 -0.0373368 0.081542 0.0567189 -0.00778642 0.0331585 -0.0314086 -0.0260275 0.0519684 0.0520887 0.0112223 0.0315716 0.0478574 0.0133971 -0.0183324 0.0415115 0.0278764 -0.0558004 -0.0079368 0.00793625 0.0650139 0.0571575 0.0102344 0.0263507 -0.0223832 0.00605485 -0.0400826 -0.0615335 0.0177284 0.0303858 0.0664247 0.0737965 -0.066994 -0.0083223 0.0212387 0.0570649 0.0116981 0.0267742 0.0185382 -0.0738422 -0.0305355 0.00739138 0.00127422 0.0750367 0.0174064 -0.00078265 0.0427498 0.0423759 -0.0288258 -0.0506301 -0.0524621 0.0030433 0.0562303 0.0236802 0.0254178 0.0546356 0.0310806 0.0210328 -0.00233856 0.0289792 -0.0389402 0.0807509 -0.0325708 -0.0229334 -0.0322778 -0.00947785 -0.0271935 -0.0335539 0.0246444
aircraft 0.00444358 0.00432273 0.028997 0.0321708 -0.0197438 0.0249026 -0.0777801 -0.00632852 0.0145145 -0.0490315 0.0136128 -0.0010065 0.07063 0.0609435 -0.00283352 -0.00546808 0.0538003 0.032016 0.0473253 0.0254466 -0.00958001 -0.0403858 -0.00578875 0.00149214 0.0647974 -0.00957799 0.0383727 3.54722e-05 0.0457481 0.0129181 0.0453625 -0.0070485 0.0350264 0.00314852 0.0179003 0.0502053 0.0142396 -0.00778806 0.0279556 -0.0325311 0.0125125 0.0472692 -0.00702078 0.0434715 0.0119027 -0.0798998 0.0444837 -0.0615214 -0.0340948 0.015987 0.034496 0.0326927 -0.0426357 -0.0344412 -0.019774 -0.0296782 -0.04422 0.0250144 -0.0247667 0.0156436 0.0461818 0.0154218 0.0249736 -0.00984895 0.00857105 -0.00723691 -0.00922794 -0.0369847 0.0668263 0.0415289 0.00313686 -0.0318419 -0.0445651 -0.0259353 0.0427708 -0.0724776 -0.0427578 0.00398724 0.00859103 -0.00550914 0.0186223 0.0222434 -0.0293677 -0.0630571 0.000301361 -0.0230654 -0.00251051 0.00290301 -0.0155417 0.028045 -0.0213073 -0.0300442 0.00354198 -0.0149391 0.00102827 -0.0530094 0.0273286 0.0374587 -0.0228209 -0.0372834
airliner -0.0112837 -0.0487911 -0.00302644 0.0349675 0.0151517 -0.0204205 0.0413301 0.00750037 -0.0217667 -0.00568572 -0.023766 0.0117046 -0.0355978 0.0148813 0.00164188 0.0430273 -0.00931633 -0.000603397 -0.0696214 -0.037415 0.021636 0.00341114 0.0518477 -0.033093 -0.0242886 -0.00341845 -0.0618541 -0.0103164 0.0457565 -0.0871061 0.0277052 0.0139622 0.0413575 -0.000532066 0.0172938 0.00381532 -0.0227679 0.0339287 0.00502293 0.0280914 0.0574654 0.0532492 0.00963811 -0.0121266 -0.00940095 -0.0259301 0.0063532 0.0106666 -0.0234307 0.0244639 -0.0143311 -0.0123265 -0.00295776 0.0288153 -0.00264247 -0.0282002 -0.0169742 0.0278601 -0.020038 0.031951 -0.0071337 -0.0394898 -0.0169693 -0.0127234 0.051228 -0.0333407 0.024418 -0.0532298 -0.00631765 -0.0122868 0.0539768 0.0236305 -0.0120149 0.0426185 -0.00697174 -0.0209535 -0.028502 0.0170727 -0.020513 -0.0625595 -0.0210657 0.0233314 0.0235626 -0.0187346 0.000321295 -0.0698039 0.0140559 0.0161334 0.0289571 -0.0164866 0.0126134 0.0287547 0.019035 -0.0489666 -0.0403851 0.0201184 -0.0144173 0.0141242 -0.0608036 0.0465898
airport 0.11982 0.0938354 0.189317 -0.118948 0.137861 -0.173392 0.547519 0.108037 0.133222 -0.195209 -0.0811215 0.202418 0.318885 0.0159488 -0.255035 -0.112036 0.0330181 0.0166301 0.119807 -0.33217 0.0445578 -0.322863 -0.0467568 -0.118838 0.0575067 0.117779 -0.016242 0.0589759 0.313475 0.0155322 -0.00331334 0.189398 -0.285039 0.238325 -0.17965 -0.310384 0.0752601 0.0931968 -0.190111 -0.365339 0.0321504 -0.1387 -0.101208 -0.348028 0.106142 -0.119069 0.22233 -0.259108 0.160637 -0.0706797 -0.428058 -0.387403 -0.0771273 0.0140908 -0.150067 0.0421445 -0.0745047 -0.423164 0.0455779 0.108291 0.0290058 0.0915128 -0.0350579 -0.206232 -0.00441043 0.0394953 -0.309505 0.0271801 -0.0724695 -0.0154508 -0.337871 0.431494 -0.124934 -0.170932 0.0663566 0.0695615 0.153938 -0.2417 -0.12451 -0.0552055 -0.104343 -0.0729758 0.133351 -0.203413 0.024426 0.0154708 -0.0859782 -0.0303147 0.192696 -0.118472 0.0251425 -0.120027 -0.113574 0.155207 0.079501 0.0280902 0.123584 -0.205225 0.296273 0.0156548
airway -0.060625 -0.0159613 0.00939269 -0.00907895 0.0532423 -0.0444452 0.0277647 0.00446709 0.0312905 0.0100948 0.0456052 -0.026456 -0.0028479 0.0323014 -0.0190208 0.0278691 -0.0367175 -0.018497 0.0191525 -0.0011166 0.00970951 0.0299025 0.0132285 -0.0490764 -0.0495011 -0.00888229 0.0133715 -0.0081434 0.0223875 -0.0113216 0.0437411 0.00879556 0.00720028 0.0263819 -0.0284346 0.0510707 0.0341906 0.0145513 -0.0076839 0.0220534 0.040212 0.0248719 -0.0413255 0.0371607 0.0583335 0.00649285 0.0270705 0.0709287 -0.0596813 0.0574396 -0.0221243 -0.0269666 0.00717661 0.0204998 0.0358002 0.021027 -0.0210967 -0.00514835 -0.010427 0.0654234 0.0116919 0.0497963 0.0313324 0.0653194 0.014873 0.0518318 -0.0711463 -0.00498387 0.0259163 0.0100791 -0.0252409 0.0340355 0.0147504 0.0210738 -0.0455787 0.0257436 -0.0230398 0.00358997 -0.0231591 0.00156328 -0.0123692 -0.0168554 0.00277625 -0.0163482 0.0281734 -0.0509269 -0.00823891 0.0257357 0.0378865 0.00171099 0.0143032 -0.0285661 0.0165553 0.00628878 -0.0240968 0.0189462 0.0373053 -0.0504615 -0.0370076 0.0241306
al -0.0580032 -0.026303 0.0127164 -0.0309205 0.0506968 -0.0194402 0.0385942 -0.00808619 0.108515 -0.076782 0.0139855 -0.0446919 0.0417076 0.0436636 -0.0844664 0.0203393 0.0302012 0.0210462 0.0810268 0.0237641 0.0275009 0.0230775 -0.086481 0.0508287 0.0670147 0.0591357 -0.0265023 -0.0322807 0.139013 0.0714894 0.0167799 0.00195859 -0.0874669 -0.0653887 -0.139402 -0.0156875 0.0332725 -0.0611532 0.0199245 -0.0790771 -0.0148699 -0.0525454 -0.0124713 -0.0442047 0.057732 0.00299703 -0.0139756 -0.0821954 0.0401532 0.0821432 -0.0127218 -0.140205 0.0238624 0.0774667 -0.0576071 0.0123532 0.0171352 0.00192663 0.0369832 0.0656808 0.00202279 -0.00500877 -0.0330045 -0.0844731 0.00431911 0.0302757 0.0021646 0.0259754 -0.0264873 -0.0291807 0.033996 0.0883834 -0.110722 -0.0626175 -0.0633237 -0.0979706 -0.060879 -0.0423043 0.0216355 0.0441798 0.113951 0.0112118 0.033751 -0.0074829 0.0738956 -0.0190399 -0.0752258 -0.102937 0.115332 0.133242 -0.0413224 -0.00447384 -0.0773929 0.0853875 0.0300582 0.0475666 0.017074 -0.12935 0.0661506 0.0573739
aladdin 0.0383372 0.0255485 -0.0308855 -0.0534888 0.0325561 -0.0420129 -0.0150763 0.0190629 0.00253871 0.0127276 -0.0356573 -0.0375251 -0.0106994 -0.0645208 0.0309201 -0.0739035 0.0190015 0.0472231 -0.0160479 0.0426176 0.00486246 -0.00461187 -0.0228948 0.0272955 0.0600967 -0.0102991 -0.000709116 0.00375353 0.0223909 0.0600011 -0.0542852 -0.0626181 0.0354825 -0.0347254 0.00583459 -0.00232844 -0.0241582 0.0325121 -0.0147318 0.0460721 0.00344063 0.0356708 0.0581642 0.0104713 -0.0677256 -0.00390936 -0.000790906 0.0274076 -0.030174 0.0297227 -0.00821644 -0.0373219 0.0339126 0.0242523 -0.0159983 -0.00538849 0.0327175 -0.00923133 -0.0649229 0.0174497 0.0455185 -0.0304258 -0.00626747 0.0434495 0.0404664 0.0671316 0.0495344 0.0089855 0.0208637 0.0324364 -0.0564827 -0.00546228 0.0137955 0.0174002 0.00498272 -0.0168788 -0.0240128 0.0577454 0.0147879 0.026833 0.0160585 0.0425371 0.00832555 0.061531 -0.0466721 0.000625321 -0.0104004 0.0147374 0.00209313 -0.0304973 0.0513346 -0.00494587 -0.0398865 -0.0549866 0.0338532 -0.0929821 0.0349724 -0.0150334 -0.0183655 -0.000609858
alan 0.0274944 0.0139154 0.00943452 -0.0816865 -0.00890804 -0.00372465 0.00242065 0.00630234 -0.0256647 -0.0287237 -0.042666 0.0283425 -0.0213596 -0.0482311 0.0199029 -0.0293764 -0.0281117 -0.0754403 -0.0179874 0.0134128 -0.0162206 -0.0209357 0.0228042 -0.00932735 -0.0453829 -0.0209353 0.0497071 0.0431005 -0.0268021 -0.0106653 0.035577 -0.0400015 0.00693882 -0.00955578 -0.0396903 -0.0141082 0.0289226 0.0214054 -0.0308355 -0.0428633 0.0688272 0.0322238 -0.0263009 0.0195726 0.0403983 0.00830485 -0.0198435 -0.0114281 -0.0721532 -0.0108276 0.0509542 0.0571242 0.0464319 -0.0125351 -0.0259336 0.0199899 -0.0180701 0.00232968 -0.0203199 0.00382404 -0.00360022 0.0237399 -0.00205289 0.0589822 -0.0132344 0.0500038 -0.0109866 -0.0364032 0.0250773 -0.0170541 -0.0397141 -0.0733012 0.0432563 0.0161585 -0.0195874 -0.0146745 0.0229467 -0.0329668 -0.0123692 -0.0500212 0.0291604 0.0279973 0.0941221 0.0370211 -0.0739351 0.0108884 0.0389301 -0.0119985 0.0444325 -0.00918351 -0.00593525 -0.015276 -0.00845252 0.0200561 0.0464564 -0.0112806 -0.0680462 -0.0050218 -0.0142044 0.00218756
albans 0.141429 -0.0715329 -0.0962655 0.0512017 -0.039288 -0.0750195 -0.102661 0.0170581 0.0599716 0.0964365 -0.132477 0.00933116 -0.0309162 0.161082 0.0759655 -0.0312676 -0.0671643 -0.130497 -0.0874328 0.218263 0.0237708 0.0452419 -0.0514019 -0.107017 0.069506 -0.105939 0.0316844 -0.0204663 -0.0328856 0.0508646 0.0331526 0.223488 -0.012026 -0.091556 -0.0130007 0.153528 0.0852501 -0.0250004 -0.00432021 0.0119551 -0.129597 -0.0188234 -0.080311 -0.0502895 0.0184908 0.157593 0.0485693 0.0994024 0.0551479 0.039043 -0.120405 0.0106363 -0.0451553 0.0227383 -0.00196335 0.0771187 0.0299559 -0.022975 -0.0187544 -0.0279212 0.0672941 -0.0395391 -0.105838 0.127716 0.0609772 0.0243757 0.0412946 0.0202955 0.0949664 -0.131941 -0.134242 0.062048 0.0112939 0.0698279 0.0761272 0.0251435 -0.144539 0.0920317 0.0784796 0.0736768 -0.0181148 0.133862 -0.0129846 0.034979 0.11347 -0.00717431 0.00784747 -0.0993301 -0.0382634 -0.118962 0.0581374 0.0413959 -0.105313 0.116129 0.0585075 0.0855769 0.0226443 -0.0636275 -0.00507701 0.071246
albeit 0.0515499 -0.00241956 0.0664653 0.0230164 -0.0300573 0.0199728 0.0553724 -0.0503853 0.0349863 0.0585497 -0.0279965 0.0150751 0.0144176 0.0362003 0.0217628 -0.0619407 -0.0592548 -0.029583 -0.0613903 0.0261124 0.0509926 -0.0774984 0.0267207 0.022887 -0.00758517 -0.0514262 0.0280332 0.000870965 0.0371109 0.0213386 -0.00997785 -0.0545271 0.0305364 0.0752151 0.0419257 0.0317667 -0.0284355 -0.0118317 0.0430278 -0.0503487 0.0225743 0.0436577 -0.00997781 -0.0075938 0.029432 0.004533 -0.00776569 -0.0248579 0.0484108 -0.0326847 0.0192391 -0.0691745 0.0355281 0.0401032 0.0514613 -0.00997452 0.0292626 0.00407176 -0.0211351 -0.0496461 0.0597865 0.0366458 0.00894485 0.0279504 -0.0121183 0.00610244 0.00429886 0.0596805 0.0584713 0.0342962 -0.00323501 0.000562534 0.0171246 0.0543257 -0.0212391 0.036533 -0.0299489 -0.018604 0.00994941 -0.0600169 -0.0726476 0.0280123 0.00135066 0.0418464 -0.0168278 -0.0345648 0.048848 0.011762 -0.0598703 0.0359178 0.022684 0.0146035 0.0098811 0.0299354 0.0177867 0.0346333 0.0355718 -0.0108639 -0.0395166 -0.00832577
albert -0.00965567 0.0701116 0.0329329 0.0294469 -0.0107155 -0.000297799 -0.0465145 0.0484798 -0.0290303 0.0278395 0.0642064 -0.0149595 0.0098602 0.0213195 0.0910225 -0.027797 -0.0279806 0.0223686 -0.0142423 0.0361738 0.0258979 -0.032915 -0.020128 0.0131003 0.0370344 -0.0619098 0.0270485 -0.0695029 -0.064248 0.00966434 -0.00826248 -0.0160859 0.0788405 0.0398514 -0.0133356 0.00813234 -0.0757681 0.034897 -0.0167638 -0.0115295 -0.0296245 0.0508765 -0.0264575 0.0125327 -0.0153786 -0.0649801 0.00634268 -0.017666 0.0387596 -0.00510628 0.00442041 -0.00107231 -0.022261 0.0204186 -0.0376149 -0.039652 -0.0169648 -0.0542348 -0.047795 0.0335865 0.0384203 0.0410931 -0.0342909 -0.0190563 -0.0176464 0.100234 0.0126328 0.0435237 0.0375285 0.0511273 -0.0686284 -0.0770022 -0.000872895 0.0476395 0.00147713 0.0577175 0.0216725 0.0443205 0.0152218 -0.0499527 0.0742624 0.0203956 0.012557 -0.00848451 -0.0282334 -0.0614207 -0.0296251 0.0400398 0.0248516 -0.0259745 -0.0178586 -0.0201728 0.0929805 -0.0401727 -0.0423038 -0.0175637 0.033527 -0.00212789 -0.00706213 -0.0273407
aldgate -0.00169448 -0.0309869 0.0780118 0.00709613 -0.0492271 0.00939129 -0.034802 -0.0336963 -0.0438681 0.00926697 0.0449509 -0.014974 0.0284281 -0.0170974 -0.0214538 -0.0315545 0.0407475 0.0440118 -0.0626067 0.0451623 -0.00304307 -0.0386179 0.0123898 -0.000700816 0.0308236 -0.0509137 -0.042247 0.0218261 0.0124181 0.0290034 -0.0144195 -0.0625226 -0.068927 -0.00769261 0.0223974 0.0503748 0.0280043 -0.0498552 0.0399402 0.0400902 0.0225903 -0.000978454 -0.0373686 0.0320028 -0.0305002 -0.0291716 -0.00848473 0.0486548 0.0262247 -0.0209657 -0.024831 0.00480559 0.00234177 -0.0778171 0.0183825 -0.00927046 -0.0489961 0.0254374 0.0259393 0.017519 0.0153655 0.0438711 0.0147916 0.0375055 -0.0207758 0.0595878 0.0383181 0.00432159 0.00774176 0.0186491 -0.0527735 0.0435182 0.0475952 -0.0687766 0.0148048 0.0279769 0.0952853 0.0690226 0.00924744 0.015512 -0.0260334 -0.0150638 -0.011937 0.0392213 -0.0514577 -0.0874973 0.000256755 -0.0377447 0.0422049 -0.0293622 0.00800295 -0.017478 0.0156846 0.0391016 -0.00590938 0.0234084 0.0495407 0.025849 0.0566839 -0.00673237
algate 0.0399382 0.0374949 -0.00725901 -0.0187049 0.0595014 -0.0494422 -0.0295388 -0.009265 -0.0188183 -0.0142518 0.0300675 -0.031885 0.0395472 -0.0188389 -0.00460661 0.00457265 0.0264626 -0.0175359 -0.0298744 -0.00282432 0.0515146 0.0144572 -0.0154588 -0.011527 -0.0362851 0.0188952 -0.00099723 -0.0245486 -0.0132433 -0.0133658 -0.0331631 0.0173268 0.0283569 0.0214536 -0.00156334 0.0424701 0.0413295 -0.00591423 0.0302011 -0.000828695 0.0437775 0.0760639 0.0115308 -0.0731819 -0.0389452 -0.0251296 0.0259257 0.0527813 0.0194498 -0.00653261 -0.00518078 0.0531504 0.0265609 0.0147885 -0.0504199 -0.0101644 -0.0580802 -0.00951019 0.0100652 -0.0427673 -0.0378657 -0.00842416 0.0193956 -0.0235776 0.0486829 -0.0347671 0.0112065 -0.0426829 0.012516 -0.0340539 0.0485013 -0.0509332 0.00599278 -0.01818 -0.0491399 -0.0197509 0.0685379 0.013069 -0.0108169 0.0512357 0.00173916 0.00653664 -0.00656039 0.000511155 -0.0293356 -0.0177071 -0.0168245 0.015 0.016761 -0.0134776 -0.0102185 -0.00502977 -0.0394451 0.0508759 0.0100951 -0.0676283 -0.0497352 0.0515771 -0.013669 -0.0664967
