location1 0.231639 -0.758944 -0.336697 -0.533645 -1.519917 1.200093 -0.541214 -0.455888 -0.924832 0.193412 -0.997287 0.670667 -0.161900 0.447126 1.006656 -1.319180 0.541656 -0.341871 -0.454711 0.690250 0.419921 0.202138 -0.991270 0.170285 -0.233873 0.260320 0.051067 -0.790470 0.043321 0.042888 0.414842 0.043905 0.355537 1.022418 -0.081645 1.036704 0.381085 -0.373177 -0.565652 -0.129822 -0.321887 0.438879 -1.116388 0.701559 -0.362928 0.387760 -0.076980 0.471653 0.126972 1.069064
location2 0.545406 -0.503879 -0.097244 -0.852776 -0.615836 0.864373 -0.919540 0.173563 -0.970179 -0.045451 -0.732966 1.148261 0.070094 0.118139 1.014278 -1.230409 0.138155 0.252356 -0.490602 0.487602 0.283321 0.302437 -1.049242 -0.554902 -0.275982 0.324058 -0.098097 -1.443199 0.294883 -0.100848 -0.413613 0.083122 0.533670 1.549891 -0.082850 0.440681 0.345343 -0.219677 -0.608809 -0.489279 -1.093034 0.439632 -1.394745 1.373044 -0.970080 0.380876 -0.302144 -0.145351 0.559760 0.944390
london 0.385891 -0.922987 -0.806171 -1.508562 -0.993069 -0.073496 0.462877 0.788465 -1.746452 -0.014374 -1.595995 1.115129 0.677033 1.081771 0.430641 -1.393781 0.046851 -0.042417 -0.150099 -0.366855 -0.544980 -1.401854 -0.606996 -0.348973 -1.370424 -0.114280 -0.309032 -0.583139 -0.132676 -1.046113 -0.007091 0.786706 -0.292193 1.449201 0.011583 0.410119 -0.609868 -0.247675 -1.151184 0.456124 0.661789 -0.048007 -0.084747 0.703853 -0.502828 0.848880 -0.461438 -0.519477 -0.307247 1.701657
area 1.215416 -1.170782 -1.519330 0.273135 -2.139479 1.244475 0.100868 -0.610615 -0.572189 -0.584939 -1.323440 0.123234 -0.050319 0.928333 0.780545 -1.483383 -0.072697 -0.475484 -0.686527 -0.003652 -0.674235 -0.385327 -0.228319 0.377977 0.379232 0.852512 -0.226407 -1.618640 0.874239 -0.647054 -0.179256 -0.030275 -0.242419 0.049584 0.086606 0.530860 -0.165717 0.506233 0.265571 -0.856260 -0.289105 1.206844 -0.787824 1.096436 0.148860 -0.251978 -1.068695 0.648175 -0.406333 0.666690
live 0.377910 -1.029390 0.086098 0.082215 -1.269567 -0.268805 -0.934067 -0.171197 -1.319294 -0.351172 -0.856705 -0.486756 0.779353 0.095678 0.005750 -1.552385 0.582191 0.107944 -2.015792 -0.603542 0.309499 0.695755 0.128207 0.206448 -0.188700 0.923070 0.239065 0.304159 -0.422650 -0.015694 0.785084 0.263320 0.797597 0.793455 0.531781 1.348241 -0.573578 0.731179 -0.707776 -0.413173 -0.644849 -0.054745 -0.788983 0.776429 -1.713833 0.775327 -0.068847 0.987842 -0.194547 0.681925
place 1.106384 0.466274 -0.512486 0.508153 -1.513804 -0.085025 0.316314 0.213790 -0.740590 -0.167366 -0.530748 0.961912 0.552120 1.617020 0.320488 -0.614702 0.242640 1.423469 -0.875815 0.808979 0.409919 0.490086 -0.316406 -0.377145 0.238443 -0.098595 0.395276 0.207171 0.204831 0.662271 0.661545 -0.111308 0.400200 0.692197 -0.096366 1.240399 0.058728 0.527437 -0.443765 -0.507079 -0.666689 -0.330954 -0.657668 0.002720 -0.084849 1.169641 -0.244856 -0.079088 -0.133838 1.692312
nice 0.482315 0.185616 -0.372218 -0.437376 -1.565330 0.573234 -0.978538 0.190323 -0.173886 -0.585526 -0.837425 0.949620 -0.059339 1.028161 0.800474 -0.898878 -0.801878 0.566651 -0.232646 0.885559 0.021549 0.336772 -1.012354 -0.223881 -0.142367 0.419600 -0.335666 -0.946271 0.942629 -0.455310 -0.230292 -0.161895 0.804111 -0.040496 0.917125 0.941473 -0.714182 0.064298 -0.558145 -0.061175 -0.512083 0.386749 0.261757 -0.108356 -1.024859 0.657381 -0.599846 0.608436 0.417218 1.015762
good 0.043992 0.200748 -0.114073 -0.135035 -0.594754 -0.169408 -1.374032 -0.748158 -0.328311 -0.480190 -1.437391 -0.257693 0.496423 1.069975 0.603444 -0.527999 -1.084989 0.324520 0.089221 1.152423 0.567376 -0.405249 -1.398745 -0.683431 -0.315353 0.504494 0.138140 -0.986459 -1.295270 0.817192 0.998806 -0.307940 -0.318639 0.045024 0.238589 -0.038779 -0.272843 -0.141574 0.319762 -0.558325 -0.269210 -0.093601 -0.611498 0.957590 -0.794250 -0.898594 -1.022727 0.869057 -0.156132 1.192285
like 1.428751 0.384213 -0.353652 -0.431127 -1.224660 0.324709 -0.444142 -1.289799 -0.532629 -0.291534 0.210711 -0.089385 0.558173 0.316369 0.185081 -0.537074 0.268690 0.406021 -2.375189 1.201789 0.312692 -0.405212 -0.338757 0.377596 -0.643037 -0.480947 0.354654 -0.429295 -0.381382 -0.314267 -0.743149 -0.123986 0.570544 1.248318 -0.113288 -0.195240 -0.652589 0.582943 -0.117810 -0.001738 -0.946431 0.644101 -0.380190 -0.180651 -0.767549 -0.608509 -0.111612 -0.623702 0.372046 0.727372
would 0.184629 -0.394709 -0.871864 -0.533047 -0.565356 0.440460 -0.407076 0.655737 -0.291210 -0.401814 -0.872453 -0.213576 1.066821 0.251672 -0.591131 -0.390598 0.188343 0.498203 -1.418370 0.310367 1.108301 0.908805 -0.125706 1.198271 0.816867 -0.018602 -0.573968 -0.788031 -0.173773 1.937139 0.560575 -0.612817 -0.626167 0.575939 0.050468 0.442264 -0.373930 0.386557 -0.512913 0.195387 0.465746 0.838236 -1.115411 1.309862 -0.909487 0.090535 -0.042937 0.168631 -0.028962 0.823132
also 0.811890 0.318958 -0.051142 -0.637663 -0.606671 0.374385 -0.704608 0.059240 -0.454436 0.286142 -0.558062 0.794490 0.064816 0.602831 0.233931 -0.802012 0.333145 -0.303467 0.060477 0.832849 0.285982 -0.127283 -1.038350 0.487885 0.382218 0.549904 0.436874 -0.770895 -0.747462 -0.454707 0.475860 0.262861 0.504200 0.220338 0.735162 -0.131062 -0.726554 0.724412 -0.265339 0.459779 -0.338820 0.648183 -0.452809 0.456380 -0.323100 -0.248931 0.168361 0.394408 -0.613293 1.179479
expensive -0.282758 0.214239 0.289670 -0.021878 -1.349502 0.082860 -0.331630 0.900062 -0.421066 -0.619044 -0.140192 0.421810 0.558795 0.142312 1.027005 -1.961546 -0.557144 1.328188 -0.612036 0.656406 -1.097141 0.493957 -0.791714 0.032432 0.381743 -0.807217 -0.686803 -1.447545 0.230570 0.216540 -0.084313 -0.139660 0.305197 0.281205 -0.105802 0.314423 0.004769 0.860337 -0.279201 0.816393 0.777996 0.086827 -0.596115 -0.324903 -0.538528 0.022147 -0.034672 0.787203 -0.770920 0.709108
part 0.120929 -0.308496 0.381162 -0.555150 -1.969099 0.060550 -0.569470 0.150007 0.111155 0.021799 -0.141531 1.373618 0.222234 -0.001425 0.435260 0.110078 -0.007557 0.179366 -0.353457 0.702267 -0.455956 -1.173782 0.023923 0.233875 -0.432932 -0.269647 -1.485120 -0.460647 0.110514 -0.598752 -0.580950 0.674247 0.032378 0.677279 0.434798 0.275682 -0.507029 0.861997 0.123875 -0.171683 0.801225 0.400386 -0.614170 0.164643 0.105134 -0.575938 0.079035 0.482677 -0.737222 1.375181
lot 0.827992 -0.591892 -1.139670 -0.062698 -0.043719 -0.507560 -0.820497 -0.607135 -0.563854 -0.002206 -1.025265 0.549508 -0.459228 0.877101 0.471562 -1.209592 0.098277 0.959204 0.315454 0.465375 -0.268934 0.215722 0.018383 0.285762 -0.172128 0.483647 0.206062 -0.359843 -0.501633 -1.008274 0.547000 -0.642823 0.081980 0.159260 0.686300 0.127340 0.012823 0.284066 0.052551 -0.557900 -0.810643 0.096583 -0.133378 0.101212 0.239196 0.562389 0.258201 1.728868 -0.626437 -0.163094
around 0.554005 -1.045478 -0.622244 -0.224502 -0.809145 0.591969 -0.523928 -0.158765 -0.662428 0.037029 -0.326674 1.036797 0.583712 0.101553 -0.416173 -0.377440 0.212438 0.000243 -0.028752 0.374958 1.025392 0.616568 -0.472574 0.496287 -0.480595 0.244299 -1.103832 0.007413 0.515263 0.283190 0.381135 -0.110328 0.058881 -0.063645 0.157579 -0.382942 -0.180304 0.585542 -0.256653 0.144174 -0.795965 0.401243 -0.087474 0.490792 -0.645513 0.896546 -0.182577 0.354315 0.256767 -0.045299
one 0.544942 0.243646 -1.147653 -0.110747 -1.017213 -0.149838 0.313977 0.153323 -0.917456 -0.226581 0.148265 1.595505 -0.590579 0.680896 0.872257 -0.243271 0.386800 0.290964 -0.068539 -0.429646 0.792268 -0.005781 0.531269 0.601648 0.429860 -0.774874 -0.143537 -0.333355 0.791194 0.045632 -0.399804 0.491009 -0.302528 0.492600 0.282484 0.769046 -0.012997 0.201910 0.097392 -0.329866 0.086763 0.255977 -0.302355 0.587695 0.238843 1.336615 -0.145384 0.015553 0.111119 0.836035
great -0.182198 -0.448508 -0.280965 -0.568026 -0.385113 -1.060522 -0.857027 -0.079661 -0.028010 -0.231766 -0.498400 -0.076289 -0.243876 0.985766 0.610160 -0.335391 -0.206794 0.451665 -0.759164 0.407474 0.250535 0.862470 -0.457705 0.038707 -0.541915 0.651374 0.540571 -0.692202 -0.005158 0.185512 1.478735 -0.987533 -0.350929 0.974273 0.009906 0.004407 -0.091560 0.773268 0.609233 -0.032026 0.088598 0.018845 -0.418319 0.028730 0.301494 0.089264 -0.243696 0.090791 -0.593813 0.640376
central 0.222399 -0.400067 0.110622 -0.273359 -0.276760 0.131570 -0.132201 0.848332 -0.280472 -0.859338 0.362092 0.128282 -0.418234 0.973548 0.413269 -1.208415 -0.659055 0.408828 -0.414790 0.582187 -0.042429 0.077581 -0.804516 -0.832949 -0.837927 -0.114737 0.018588 -0.569244 -0.085506 -0.223298 0.830969 -0.048560 -0.205485 0.251407 -0.258230 0.492751 0.005176 -0.691001 -0.844437 0.491259 -0.350171 0.054942 0.429061 0.486062 -1.053712 -0.188865 -1.481916 0.028356 -0.594253 0.720758
go 0.353810 -0.880659 -0.216958 0.128868 -0.510027 0.326378 0.004465 -0.380031 0.245734 0.015808 -0.197792 0.792222 0.845395 1.184740 0.447524 -1.294009 0.286700 0.316419 -0.883950 -0.230478 0.568522 0.426404 0.333726 0.025653 -0.678279 0.293887 0.809729 -0.334040 -0.460304 0.445288 0.606705 -1.072425 -0.524217 0.636411 -0.529115 -0.090210 0.598698 -0.421349 0.053045 -0.187589 -0.051321 0.181668 0.494945 0.605160 -0.209272 0.094830 -0.322695 -0.363144 -0.095949 0.837659
quite 0.152314 -0.909301 0.485166 -0.144649 -1.351951 0.882524 -0.825213 -1.172183 -0.481486 -0.647302 -0.182744 0.151047 0.103492 0.170761 0.947076 -1.009884 -0.400600 1.146898 0.377045 -0.340484 -0.635418 -0.483531 0.156520 -0.654279 -0.437169 -0.324958 -1.042354 -0.345572 0.542995 -0.100037 -0.559861 0.002499 0.286184 -0.216367 0.369651 0.552269 0.165824 -0.056875 0.067607 -0.994454 -0.063247 -0.486870 -0.973745 0.213632 -0.404125 -0.292995 -0.713416 1.082183 0.435640 0.753168
really 0.846012 -0.504544 -0.386110 -0.408359 -1.708392 -0.009034 -0.921303 -0.225197 -0.202215 -0.438243 0.678200 0.575315 -0.006422 0.951365 0.266721 0.515069 0.285590 0.718913 -0.814643 0.386289 -0.205908 -0.388036 -0.131509 0.552300 0.338636 0.503710 -0.213284 -1.406271 -0.349976 0.083180 0.084819 -0.211892 0.006965 0.549323 -0.042381 0.844981 -0.209688 0.798090 -0.279505 -0.940975 0.537174 0.184499 0.278612 0.026565 -0.691812 -0.090214 0.095636 -0.350493 0.093971 -0.202243
lived 0.367193 -0.072720 -0.159287 0.153876 -1.191856 0.255010 -0.265801 0.182766 -0.625321 0.084092 -0.934871 -0.030265 0.006418 -1.336418 -0.687431 -0.245607 1.035673 -1.026956 -0.187710 0.466008 0.373535 0.139278 0.059362 0.361711 0.055837 0.246810 -0.523927 0.144566 -0.860466 -0.538726 -0.280912 0.010046 0.000068 0.184381 0.434926 1.043661 -0.225943 -0.899402 -0.571479 -0.242797 -0.609806 0.226502 -0.154916 0.910242 -0.745290 0.849838 -0.045811 -0.126713 -0.212578 0.481531
get 1.015782 -0.759155 -1.013814 -0.199906 -0.042037 -0.205265 0.086141 0.212993 -0.234416 -0.670608 1.037867 1.267621 -0.086437 0.474271 -0.131096 -1.096808 -0.125703 0.598611 -0.438098 0.647983 0.460739 -0.923920 -0.290960 0.149196 -0.240029 -0.606574 -0.524385 0.010231 -0.397566 -0.172003 0.769091 -0.284754 0.171280 -0.393770 -0.458474 0.661225 0.566619 -0.494628 -0.700528 0.000205 -0.326690 0.314436 -0.100225 0.401588 -0.755779 -0.248358 -0.225494 0.557278 -0.155095 0.619869
bit 0.548722 -1.131748 0.314278 -0.428906 -0.510964 1.165867 -0.067033 -0.544227 0.540780 -0.585988 0.251328 -0.249785 -0.461495 -0.410436 1.040445 -0.611384 -0.907862 0.743989 -0.910861 0.695981 0.523830 0.232992 0.184100 -0.156985 -0.081578 -0.715603 -0.694305 -0.031586 -0.021961 -0.245727 -0.766876 0.065817 0.773499 0.432545 0.576828 0.166596 -0.311393 -0.216593 0.309887 0.427846 -0.028357 0.409169 -0.133439 0.120852 -0.273616 -0.936319 -0.505653 0.306961 -0.084108 0.863983
near 0.256682 0.087103 0.122215 0.224996 -0.286848 0.470149 -0.699490 0.232942 -1.087884 -0.278371 -0.199394 -0.118825 0.499664 0.204599 0.465617 -0.630942 0.213710 -0.420706 -0.960974 0.397689 0.049211 0.687432 -0.774810 -0.519865 -0.864913 0.369033 0.634453 -0.038288 0.444024 0.200294 -0.150395 0.466331 -0.049213 0.486451 -0.587062 0.497790 -0.440111 -0.160768 -0.453494 0.601920 -0.806100 0.278782 0.236023 0.433476 -1.218965 0.772178 -0.143288 -0.030592 0.375513 0.431731
people 0.111220 -0.783804 -0.828761 0.287364 0.001497 0.628099 -0.219981 -0.139189 0.012175 -0.305775 -1.260001 0.276360 0.460055 0.407941 -0.210554 0.079983 -0.441983 0.235856 -1.429472 -0.034393 -0.029318 -0.243244 -0.311213 0.514813 -0.420188 0.551878 -0.674678 -0.973137 -0.478907 -0.293913 -0.011109 -1.038320 0.868645 0.395420 0.441255 0.426687 -0.791098 -0.160137 -0.494267 -1.132522 0.122829 0.832702 -0.107136 -0.769902 -0.535463 0.114560 0.761248 0.910734 0.660748 -1.087831
south 0.613146 -0.846240 0.565285 -0.953437 -0.323130 0.652303 -0.148590 0.447010 -0.174176 -0.410767 -0.436118 0.001965 0.150999 0.178014 0.371441 -0.363527 0.504911 0.190383 -0.303900 -0.847502 0.035531 -0.526880 -0.252710 -0.552810 -0.385308 0.410547 0.861055 -0.281656 0.790830 -0.069353 -0.018908 0.364885 0.858371 1.156536 0.032487 0.462510 -0.437612 0.120477 -0.754149 -0.490263 -0.524281 0.742759 -0.065368 0.010769 -0.195408 -0.506509 -0.003672 -0.682601 0.057377 0.759134
tube -0.248206 0.178755 -0.880260 -0.395398 0.321818 -0.490727 -0.508405 -0.017007 -0.514630 -0.341476 0.687179 0.235733 -0.989186 1.460560 0.183306 -0.155977 -0.113362 0.184812 -0.476662 -0.616099 0.648340 -0.450387 -0.302375 -0.030611 -0.777741 -0.497051 0.596543 -0.465868 0.267529 0.079472 1.059634 0.197868 0.418370 0.507158 -1.107987 0.025128 -0.256134 -0.602679 -0.297207 0.515858 -0.017019 0.179450 -0.577881 0.366755 -0.365549 0.209359 -0.277459 0.703064 0.495443 0.887501
think 0.382170 -0.618417 -0.546592 0.659416 -0.220672 0.380200 0.058423 0.415366 -0.144794 0.090394 -0.670526 0.232723 -0.367773 -0.221747 0.569014 -0.626519 -0.060460 0.268953 -1.522885 0.220686 0.205529 0.371663 -0.248222 -0.037101 0.453565 -0.080126 0.008743 -1.309314 -0.789525 -0.578958 0.477248 0.083247 0.037016 1.002434 -0.068554 0.364459 0.079546 -0.138314 -0.044162 -0.130357 0.438508 0.514944 -0.379654 0.257953 -0.775349 0.345621 0.667728 0.294800 -0.205622 -0.006797
well 0.107733 0.046336 -0.582411 -0.111205 -0.125265 -0.374079 -1.038032 -0.808556 -0.080129 0.798923 -0.120865 0.138764 -0.271632 0.970140 0.148673 0.155455 -0.000096 0.034647 0.098410 -0.291049 -0.214540 0.009287 -0.389062 0.650939 -0.240057 0.318925 -0.355326 -0.782495 -0.666273 -0.545100 0.451266 -0.113276 1.060745 0.369577 -0.274390 -0.374205 -0.447828 0.323906 -0.269710 0.281487 0.794051 -0.429617 -1.248886 0.415718 0.307049 0.293542 0.142653 0.031683 1.081927 0.769397
much -0.412087 -0.042554 -0.110771 -0.840843 -0.398929 0.317645 0.641124 0.272863 -0.127812 0.230923 0.940182 0.216990 -0.528912 0.392779 0.254426 -1.308215 -0.406013 0.496013 -1.002150 1.015291 0.242377 0.223642 0.149215 -0.322564 0.680813 -0.193117 -0.490186 0.074294 -1.482444 -0.298435 -0.470259 -0.050486 -0.280867 0.920526 0.356235 0.713697 -0.188642 -0.135045 -0.354011 -0.428801 -0.645533 -1.005959 -1.213970 0.315860 0.036927 0.007921 -0.753262 0.814598 0.113575 -0.692673
station -0.238365 -0.041921 -0.307543 -0.226795 0.493642 -0.007767 -0.342104 -0.048198 -0.912147 -0.022051 0.266338 0.092580 -1.153804 1.154806 0.634394 -0.378906 -0.048383 0.043264 -0.226435 -1.077653 0.988220 -0.090693 -0.460034 -0.428043 -0.441579 -0.269606 1.033510 0.084783 0.558900 0.445214 1.424608 0.539672 0.098014 0.579823 -0.496593 0.116586 0.009047 -0.393504 -0.332881 0.506118 -0.436918 0.381729 -0.547063 0.502456 -1.099093 0.685726 -0.393034 0.454031 0.813640 0.420732
year -0.086065 -0.077431 -0.562529 -0.397464 -0.762244 -0.722423 0.453182 0.293481 -0.317836 0.314326 -0.775930 0.079095 -1.000397 -1.284462 -0.295124 -0.447580 0.908638 -0.578612 -0.678623 0.214977 0.121199 -0.353859 0.917053 0.918333 -0.004349 -0.414669 -0.419958 0.389810 -0.088341 -0.275445 -0.365025 -0.803073 0.072827 0.547601 0.506873 1.175815 -0.225088 -1.126189 -0.156488 0.424898 -0.229859 -0.147008 0.192434 -0.338554 -0.286932 1.395411 -0.009415 0.514644 0.011656 0.703035
best 0.879541 -1.248716 -0.409377 -1.261508 -0.091712 -0.175081 0.400599 0.023516 -0.558731 -0.472582 -0.282015 0.394295 -0.102882 0.505927 0.358835 -0.108556 0.168718 0.634905 -0.704212 -0.110646 -0.031751 -0.501988 -0.303414 0.352156 0.449598 -0.234346 -0.302184 0.831852 0.466679 0.404398 1.433272 0.291723 0.610025 0.059411 -0.313131 1.075302 0.080736 0.797874 0.207740 -0.804794 0.314447 0.798711 -0.611903 0.324028 0.803198 0.080888 -0.203571 -0.690362 0.896301 0.482155
safe 0.061009 -0.078415 0.339482 -0.076295 -0.641951 0.676210 -0.594588 -0.266112 -0.233562 -0.674816 -0.177373 -0.176239 0.680271 0.323565 -0.367033 -0.732172 -0.188218 0.941368 0.157483 0.949171 -0.272183 0.193493 -0.228769 -0.627440 -0.357693 -0.210844 -0.634644 0.598421 0.317336 0.138397 0.148405 -0.016474 -0.162391 -0.318462 -0.087988 0.662396 0.000164 -0.029720 -0.404651 -0.971255 -1.003301 0.481670 -0.634370 0.771585 0.183210 -0.329028 -0.068464 0.712292 -0.179744 0.566789
street -0.190234 -0.761524 -0.306146 0.238567 -0.289193 0.454726 -0.202926 -1.034090 -0.974037 -0.001937 0.314270 0.789200 0.476750 1.166422 0.293487 0.335446 0.122587 -1.236944 -0.433326 1.142201 0.166752 0.095338 -0.369297 -0.311691 -0.984688 0.482655 -0.604707 0.318979 0.648268 -0.009312 0.717461 -0.642101 -0.649546 -0.164838 -0.528226 -0.103773 0.526545 0.286960 1.316493 -0.258329 -0.591558 0.368136 -0.180087 -0.111453 -0.179621 0.502226 0.359561 1.210390 0.958987 0.367833
line -0.486956 0.356412 -0.444266 -0.932365 0.029439 -0.294972 -0.311811 -0.395854 -0.470814 0.166197 0.601902 0.336956 -0.828193 0.195725 0.804169 -0.669733 0.280916 -0.319875 -0.033653 -0.976801 0.960807 -1.421226 -0.133545 -0.121253 -0.293591 -1.301090 0.293162 -0.515679 0.447704 0.232547 0.496298 1.061641 -0.761911 -0.054117 -0.146694 -0.384569 0.661059 -0.627399 0.021644 0.831496 0.015146 0.325922 -0.418614 0.466633 -1.590010 0.193607 -0.328754 0.191459 0.690281 1.031685
road -0.801722 -0.209996 -0.027521 -0.813568 -0.563762 0.791029 -0.015440 -0.015079 -0.851040 -0.073133 0.556265 0.082476 0.037043 -0.416743 0.293478 -0.138538 0.157667 -1.352316 -0.404053 0.627411 0.424129 -0.072550 0.033298 0.163511 -0.941892 -0.022419 -0.844736 0.526010 0.435067 0.024514 0.358445 0.435052 -0.379444 0.514272 0.365138 0.182385 -0.829278 0.542402 0.620471 -0.139029 -0.538907 0.281069 -1.100928 -0.506700 -0.226399 0.511261 0.103600 0.642166 0.247898 0.036830
want 0.506430 -0.490410 -0.234289 0.261639 -0.875128 0.085881 -0.323551 -0.065033 0.197746 -0.163491 0.005826 0.712078 1.474779 0.949382 -0.206880 -0.538463 0.243900 0.561899 -0.401075 -0.251250 0.158144 -0.313134 0.243211 0.183334 0.295551 0.787656 0.138008 -0.215135 -0.150954 0.643960 -0.378284 -0.843696 1.575144 0.153304 -0.179405 0.684372 0.153159 0.014792 -0.594882 -0.120059 0.289104 -0.240009 0.345654 -0.399901 -1.384675 -0.008774 0.681557 0.405997 0.612340 0.639649
train -0.796022 -0.215167 -0.330733 -0.333924 0.519674 0.043265 0.199712 0.187167 0.096489 -0.292518 0.533306 0.589719 -0.803644 0.269844 0.016896 -0.404194 -0.566038 0.265196 -0.362010 -0.757059 1.278209 -0.124673 -0.145195 -0.515537 -0.463673 -0.466144 0.140856 -0.772916 -0.017209 0.263931 0.640313 -0.040788 0.462263 0.711828 -0.535922 -0.609492 0.806016 -1.157852 -0.432787 0.955395 -0.514835 -0.050195 -0.732299 0.612490 -1.235751 -0.411574 -0.068195 0.755332 -0.092270 1.422312
crime 0.030303 -0.419355 -0.403194 0.782438 -0.152156 0.247539 0.151973 -0.568616 -0.371548 0.355711 0.273505 0.460463 0.153113 1.239456 0.796584 0.016386 0.378962 0.533872 0.131385 -0.090993 -1.234516 -0.426769 1.065664 0.089249 -0.077884 -0.004165 -0.233436 -0.016247 -0.225305 -0.061584 -0.590097 -0.762983 -0.531369 0.514266 -1.011859 -0.154894 -0.057111 0.055792 0.852537 -1.085062 0.367762 -0.738771 -0.838266 0.855572 0.484318 0.559938 -0.373185 0.923620 0.857734 0.441841
restaurant -0.128113 0.319499 -0.762810 -1.101350 0.506333 -0.434405 -0.990250 -0.352210 0.034096 0.028976 -0.555093 0.233959 -1.306411 0.938573 1.184493 0.087607 -1.657419 0.497164 -0.226646 1.172119 0.234745 -0.511371 -0.735798 -0.220614 0.436576 0.755655 0.337404 -0.075965 -0.617314 0.261316 0.028103 -0.396375 0.181860 0.619791 1.012292 0.863733 -0.895172 -0.076813 0.525720 -1.041505 -0.272400 0.041050 -0.117422 0.057957 0.251198 0.119669 -1.116859 0.762988 0.986381 -0.360233
west 0.299539 -0.396289 0.852983 -0.850876 -0.201856 0.172555 0.075511 1.115952 0.007001 -0.682647 -1.164857 0.190033 0.579514 0.225556 0.676155 -0.854973 0.567233 -0.232601 0.168734 -0.248041 -0.709138 -0.210135 -0.312602 -0.366887 -1.030556 0.145266 0.619363 -0.203627 0.565106 -0.202983 0.449649 0.275388 0.045223 1.230401 -0.345476 0.383457 -0.417729 -0.061917 -0.495322 -0.223243 -0.314010 0.500394 -0.422394 0.269668 0.422281 -0.456503 -0.258869 -0.812693 -0.887315 1.218378
close -0.074270 0.481987 0.044027 0.350624 -0.199355 -0.430049 -1.041815 0.800447 0.006276 -0.437452 -0.246860 0.814478 0.691458 0.777894 0.223776 -0.582486 -0.404772 0.256501 0.095961 -0.388448 -0.983296 -0.166232 -0.270258 -0.026144 -0.218946 0.191148 -0.097341 -0.278445 0.071638 0.222359 0.122761 0.321273 0.375293 -0.304433 -0.499504 0.848351 -0.351967 0.154831 -0.600711 -0.661436 0.068555 0.475987 0.153989 0.482796 0.055346 -0.167013 -0.104327 0.450354 -0.307986 0.131494
try 0.826495 0.615954 0.358634 -0.593170 0.078639 1.111853 -0.611199 -0.749205 0.289863 0.393884 0.272551 0.714215 0.404200 0.074811 0.612238 -0.982394 0.822494 0.768747 0.307481 -0.009812 0.366472 0.151179 -0.212760 0.108233 0.961494 -0.211611 0.572512 -0.665239 -0.440674 0.446620 -0.407772 0.137734 0.702620 0.258513 -0.010212 -0.479025 -0.470383 0.266164 -0.187318 -0.037351 -0.229617 0.480235 -0.643773 0.730442 0.085672 -0.664594 0.744353 -0.407954 0.492514 1.057394
bad -0.219592 0.056069 -0.100688 0.357103 -0.413708 0.587308 -0.638779 -0.420231 -0.093534 0.279999 -0.451438 0.049413 -0.302531 -0.516547 0.945577 -0.384629 0.076672 0.323337 0.369923 0.485941 -0.104750 -0.609548 -0.385462 -0.462136 0.762014 -0.124859 -0.217290 -0.711470 -0.489979 0.044865 -0.244284 0.364487 0.543737 0.183648 0.546767 0.524328 -0.033857 -0.273327 0.130810 -0.833694 0.138517 -0.195124 -1.120339 0.037357 -0.830566 -0.065256 0.675756 1.481211 0.461655 -0.078367
centre -0.144470 0.816485 0.056404 0.454763 -0.339699 -0.604994 -1.236583 0.538510 0.472423 -0.246951 -0.772014 1.636368 0.521458 0.413234 0.462829 -0.222495 -0.670789 -0.499641 -0.507126 0.096739 -0.300699 -0.672873 -0.420717 -0.192910 -0.300171 0.179947 0.581802 -0.262002 -0.091272 0.501830 0.264573 0.255877 0.386401 0.366008 -1.103378 0.470901 0.143526 -0.564951 -0.022197 -0.486446 0.200722 1.095584 -0.154988 0.907319 0.250968 -0.669210 -0.020910 0.091325 -0.089139 1.155745
know 0.531256 -0.615062 -0.316670 -0.713696 0.153489 0.617491 0.210565 -0.402066 0.078002 0.200929 -0.044568 0.136853 -0.070360 -0.071629 -0.026284 -0.376357 -0.034943 -0.262156 -0.595313 0.141808 0.356886 0.207471 0.246345 0.841747 0.140672 0.383792 -0.044130 -0.055630 -1.004899 -0.664853 -0.268067 -0.483941 0.699991 0.538626 0.458133 0.615562 -0.258221 -0.365141 -0.691092 -0.807633 -0.275105 -0.137560 -1.122550 0.707614 0.238995 0.329133 -0.276295 -0.068827 0.519535 0.524050
borough -0.403448 0.631855 -0.163436 -0.641435 -0.668973 0.143755 0.191745 1.115973 -0.288535 -0.417754 -0.520369 1.140867 0.902956 0.592690 -0.255037 0.441171 -0.498017 0.003078 0.078560 -0.675840 -0.896965 -1.161025 -0.367160 -0.403854 -0.122042 -0.158338 -0.709148 -0.825063 0.770757 -0.227049 -0.578597 1.085389 -0.159130 0.322013 -0.056346 0.315713 -0.297499 0.375290 -0.891185 -0.816720 0.546834 0.463582 -0.752480 0.475100 0.261665 0.100786 -0.037021 -0.394462 -0.359932 0.432940
north 0.182645 -0.929061 0.960602 -0.816381 0.135373 0.709208 -0.488982 0.528852 0.416974 -0.325825 -0.614290 0.312301 0.795848 -0.231522 0.666602 -0.318790 0.218590 -0.321645 0.211675 -0.426490 -0.414272 0.466711 -0.282146 0.026998 -0.554812 0.361033 0.262968 0.071688 0.749195 -0.063850 0.474718 0.203459 0.738218 0.779112 -0.355203 0.351958 -0.083347 0.213577 -0.654503 -0.486643 -0.289698 0.609278 -0.682578 0.251643 0.433614 -0.394416 -0.044263 -0.790724 0.397238 0.733609
look 1.459344 -0.919095 -0.044422 -0.310579 -0.562693 0.412246 -0.484791 -0.041630 0.841053 -0.205075 0.565684 1.119575 0.695239 0.004169 0.184538 -0.662112 0.825713 -0.058585 0.480548 0.731361 0.772216 0.154150 -0.565092 0.903694 0.168455 0.386498 -0.544167 -0.513814 0.434641 -0.160146 1.030624 0.057389 0.957919 -0.577023 0.000327 -0.367961 0.072252 0.990696 -0.478370 0.309158 0.043585 0.052318 -0.537992 0.121982 -0.409400 -0.159405 0.061887 -0.397175 0.210573 0.270623
park 0.506076 0.550498 0.108109 -1.207008 -0.675173 -0.663547 -1.532849 -0.871500 -0.025311 0.557156 -0.100460 0.083952 -0.782639 0.030619 0.275073 0.570722 0.111410 -0.076098 -0.124808 0.486477 0.009364 0.253035 -0.642707 -0.298411 -0.046534 0.301548 0.219610 -0.010709 1.063776 0.088769 0.226081 0.333440 -0.512898 -0.173032 0.413893 0.246357 0.282131 0.352462 -0.035733 -0.113975 -0.321434 0.406369 0.514353 -0.163248 0.280211 0.777387 -0.527587 -0.330448 1.328792 0.544966
pretty 0.040405 0.496209 -0.000036 0.300270 -0.737494 0.702268 -0.336703 0.101073 -0.631230 0.190684 -0.123556 0.258645 0.366664 0.501142 0.433112 -0.581169 -0.421643 0.517257 0.327012 0.301963 -0.190428 0.493920 -0.723596 -0.840810 0.612237 0.035257 -0.554033 -0.555038 -0.349754 -0.480158 -0.181330 1.120911 -0.288882 -0.262928 0.281611 0.260499 -0.363812 0.828021 -0.601529 -0.609886 -0.389170 -0.480426 -0.814895 0.846592 -0.137080 0.354817 -0.480547 0.327311 0.102982 0.035354
shop -0.368461 -0.427748 -0.721614 -0.355537 -0.189145 -0.412749 -0.687862 -0.433103 -0.490309 0.114744 -0.020801 0.326266 -0.205712 1.365585 0.806039 0.074756 -0.581178 0.043475 0.505162 0.887815 0.202351 0.068874 -0.062786 -0.208116 -0.364925 1.126346 -0.038228 0.386631 -0.059365 0.450057 0.304167 -0.688563 -0.729073 0.174770 0.635501 0.553491 -0.592298 0.158883 0.917467 -0.719434 -0.278591 -0.554888 0.403026 -0.150286 0.084969 0.573713 -0.553769 1.100267 0.610339 -0.100554
bar 0.335389 -0.344735 -0.883822 -0.699782 -0.732617 -0.351098 -0.586000 -0.574589 -0.340105 0.224502 -0.323157 0.282511 -1.043660 1.486926 0.573906 -0.055036 -0.550071 0.904599 0.418466 0.820871 0.812663 0.473959 -0.273870 -0.053440 0.153847 0.942374 0.555418 0.201675 -0.306231 0.418415 0.116748 -0.651456 0.289418 1.001526 0.979092 0.765914 -0.686266 0.230101 0.313088 -0.656550 -0.482719 -0.405176 0.174035 -0.028219 0.985133 -0.040069 -1.002239 0.242532 -0.148921 -0.412263
house 0.206070 -0.330864 -0.431464 0.957287 -0.020266 -0.116124 -0.497061 -0.120520 -1.324471 -0.077376 -0.200448 0.325470 -0.302161 0.591030 0.686878 -0.035671 -0.630170 0.867130 0.287379 -0.403253 0.834410 1.468714 -0.254409 -0.603604 0.287499 -0.067726 0.082246 -0.246764 -0.064697 0.043691 -0.170910 0.377396 0.336696 0.101203 0.612196 -0.250530 -0.035115 0.567941 0.554455 0.612055 -0.126172 -0.555124 0.495646 0.665018 -0.445211 0.350401 0.057403 0.012038 -0.390483 -0.021108
many 0.226181 -0.291065 -0.717526 0.617613 -0.300392 -0.302036 -0.748795 -0.329489 0.069987 0.226681 -1.149778 0.460542 -0.396482 0.719925 0.167042 0.142083 0.205819 0.585638 -0.619192 -0.162741 -0.237263 -0.571378 0.580595 0.364090 -0.597210 0.216631 -0.045475 -0.152149 -0.970666 -0.628070 -0.296835 -0.718270 0.541751 0.798340 0.046294 0.300251 -1.012443 -0.486635 -0.033449 -0.572254 0.339397 -0.318993 -0.071348 -0.058289 -0.082962 0.596745 0.048349 0.900737 0.509192 0.238501
time -0.218270 -1.231344 0.243442 -0.530565 -0.795122 0.006577 0.020465 0.583534 0.001163 0.052885 0.181965 1.054639 0.091105 -0.156985 0.042104 -0.854105 0.147443 -0.593449 -0.020945 0.104974 0.252014 -0.321399 0.499414 0.149790 -0.671604 0.191264 -0.481271 0.345705 -0.347377 -0.516105 0.306596 -0.137144 -0.682500 0.021357 0.303780 0.261557 0.435541 -0.250733 0.238949 -0.052305 -0.206082 0.416507 0.975818 -0.005793 -0.619022 0.305440 -0.147431 0.221811 -0.558738 -0.357714
living 0.243486 0.113741 0.042033 0.458606 -0.274853 0.562312 -0.561130 -0.348072 -0.207611 0.124959 -1.104368 -0.228066 0.382834 -0.323042 -0.083493 -0.057411 0.532518 0.354212 -0.450516 -0.533532 -0.320754 0.056748 -0.335480 0.103057 0.089778 0.371744 -0.173383 -0.926125 -0.167389 0.227621 -0.567583 -0.160958 0.285103 0.553184 -0.159810 0.106315 -0.158315 -0.310449 -0.804045 -0.489324 0.012761 0.120450 -0.239059 0.182808 -0.911082 0.501028 0.396177 -0.099524 0.683220 -0.386160
say 0.128248 0.160743 -0.340150 -0.124904 -0.339130 -0.081043 -0.106818 0.149246 -0.165006 -0.030421 -0.830460 -0.051354 0.978887 0.350839 0.031000 -0.456449 0.301109 0.495014 -0.536077 -0.324273 0.127282 0.180544 -0.042529 0.321382 0.187687 -0.213076 0.063451 -0.281632 0.081486 0.436498 0.157723 -0.132085 0.222811 0.571127 -0.165803 0.174766 -0.242991 0.307962 -0.613558 -0.095573 0.251896 0.259045 -0.855288 0.297809 -0.243940 0.363017 0.495372 0.051265 0.097654 0.662014
could 0.755145 0.316680 0.598494 -0.402708 0.127014 0.548140 -0.376727 -0.103264 -0.451672 0.276654 0.399599 0.611676 0.548961 0.057285 0.740009 -1.553967 0.760232 0.548557 0.005647 -0.367294 0.349166 0.812928 -0.257702 0.143108 1.279948 0.023775 0.934819 -0.592756 -0.419001 0.291343 0.254215 0.011743 0.561426 0.282262 0.613830 -0.060155 -0.467371 0.353955 -0.348762 0.608103 -0.159580 0.005055 0.103185 0.450154 -1.004537 0.154491 0.572534 -0.569788 0.265000 0.361121
going 0.082443 -0.171343 -0.204223 -0.812864 0.091069 -0.471298 0.387369 -0.251165 -0.320111 0.289791 -0.778650 0.337286 0.047453 -0.413251 0.485109 -0.968890 -0.236083 0.314644 -0.457298 -0.369576 0.643140 0.171153 -0.181421 0.003725 -0.182598 -0.555304 0.068267 -0.422160 -0.513869 0.065241 0.222618 0.082453 -0.325826 1.000067 0.594771 -0.848943 0.433557 0.343417 0.309288 0.073250 -0.291597 -0.339853 -0.876925 0.166882 0.041491 -0.289584 -0.269474 -0.399422 -0.902658 -0.415061
night -0.442263 -0.522195 -0.571658 -0.478138 -0.320348 -0.400336 -0.298451 -0.611926 0.459832 -0.173992 0.011782 0.699574 -0.744402 0.845128 -0.356157 -0.542537 -0.408404 0.428087 0.355146 -0.503975 1.450591 0.688154 0.814687 0.152076 -0.940785 -0.137180 -0.373458 0.587510 -0.188474 0.636971 0.476551 -0.717729 0.500337 0.556970 0.080923 0.017434 0.107067 -1.086369 -0.017324 -0.293168 -0.541988 0.540076 -0.130894 0.516369 0.952058 -0.855156 -0.580311 0.399174 -0.349884 0.266309
still 0.694770 -0.497757 0.168298 0.570429 0.142811 0.529704 -0.322449 -0.042190 -0.280240 -0.473566 -0.279509 -0.075162 -0.294204 0.150726 0.742565 0.067447 -0.052942 0.399073 -0.077065 1.219192 -0.758813 -0.583031 -0.570099 -0.221050 -0.663741 0.043974 -0.438177 -0.420246 -0.274588 -0.920791 0.211558 -0.263826 -0.195576 0.229058 0.019348 0.140338 -0.437766 -0.062761 0.099202 -0.325531 0.128161 -0.102906 0.086125 0.061325 -0.497742 -0.309239 -0.053883 0.917376 0.010873 0.807455
transport -0.165851 -0.015577 0.438542 -0.593767 0.581504 -1.218934 -0.978513 -0.593952 0.089611 -0.254931 -0.569544 0.391476 -0.482529 -0.629062 0.962385 -0.381020 -0.492403 -0.123036 -0.045319 -0.102739 0.284343 -0.460898 -0.381221 -0.022039 -0.557585 -0.450339 0.059710 -0.499565 -0.988049 -0.036024 1.694082 -0.320097 -0.922973 0.205343 0.314972 -0.778290 0.184535 0.024339 0.822698 -0.664691 0.054459 0.253718 -1.011260 0.936832 -0.085047 -0.611675 -0.560112 0.425540 -0.618228 1.068323
far 0.374704 -0.941614 0.558172 -1.036535 0.143765 1.294900 0.379104 0.199551 0.056277 -0.540562 0.416350 -0.086757 0.024430 0.615165 0.753495 -0.786080 -0.702161 0.232391 -0.395699 -0.050923 -0.302374 -0.007394 -0.206922 -0.041140 0.162408 0.230257 -0.130757 -0.246622 0.157619 0.027410 0.199631 -0.129514 0.253234 0.046226 0.320601 0.891789 0.032480 -0.032067 -0.638110 -0.556233 0.152318 -0.127388 -0.301061 0.237371 -0.722904 -0.384248 -1.369758 -0.800579 0.581876 0.344721
better -0.163111 -0.020265 -0.380926 -0.780014 -0.382464 -0.055302 0.285325 0.310663 -0.457499 -0.284373 0.273575 -0.233634 -0.637999 -0.458278 0.550499 -0.797617 -0.584965 0.180107 -0.945353 0.003477 -0.201037 0.628604 -0.063177 0.429166 0.940505 -0.271057 -0.247390 -0.540395 -0.310353 -0.346997 -0.011107 0.278296 -0.112627 0.580144 0.546629 0.763059 -0.060880 0.243042 -0.480815 -0.107363 0.238564 -0.240109 -0.713971 0.286175 -0.481444 0.550627 -0.537007 -0.021762 -0.035752 -0.606398
probably 1.278678 -0.854820 -0.402634 -0.263408 -0.538716 0.637695 0.757656 0.010283 -0.425516 -0.061009 -0.283144 0.582964 -0.117764 0.088733 0.542667 -0.691808 -0.167592 1.191998 -0.869494 0.435784 0.055824 0.117789 -0.369905 -0.003576 1.046490 -1.082055 -0.476296 0.359472 0.624242 0.131491 0.211693 0.580255 0.265224 -0.143698 -0.023992 0.588849 0.670843 0.939413 0.379071 0.419885 0.404019 0.642107 -0.319484 0.299640 0.585048 -0.160522 0.020181 -0.588295 0.088276 0.508865
east -0.485828 -1.045860 0.449244 -1.407437 -0.670594 0.439140 0.175188 0.212206 -0.086870 -0.096806 -0.394204 -0.612552 0.482517 0.406503 1.049437 -0.626342 0.355600 -0.109906 0.017787 -0.943011 0.304342 -0.386991 0.097508 -0.230396 -0.558574 0.422356 0.678620 -0.174466 1.113802 0.950075 -0.035373 0.225531 -0.106225 1.430923 0.114438 0.191536 -0.334630 0.403309 0.154126 -0.032294 0.197425 0.478618 -0.185936 -0.220835 -0.242086 -0.579570 -0.182520 -0.489151 -0.161374 0.591188
find 0.909005 -0.467634 -0.344730 1.647110 0.457562 0.722096 0.819210 -0.519406 -0.343910 0.015461 -0.522164 0.732125 1.242918 0.656947 0.070177 -0.960079 0.100941 0.323206 -0.206607 0.697210 0.093189 0.134665 -0.673708 -0.775168 0.892652 0.372084 0.324843 -0.230601 -1.024839 -0.162394 0.308953 -0.338930 0.743308 -1.005639 0.476388 -0.272787 0.540596 0.230640 0.158605 -0.107041 -0.005114 -0.283165 -0.002859 0.241147 -0.957678 0.050046 0.596224 0.164322 -0.090808 0.059907
market -0.021779 -0.121220 -0.297590 -0.404358 -0.108656 -0.255734 -0.233092 -0.020530 -0.249792 -0.119793 0.313720 0.229226 0.165971 1.037035 0.080455 0.124030 -0.289393 -0.137937 -0.369538 1.613084 0.128544 0.530630 -0.925804 -0.127903 -0.265700 0.893980 0.336566 0.596906 0.480002 0.503639 1.260316 -0.140021 -0.070963 0.034658 -0.197630 0.421370 0.323863 0.827004 0.408692 0.126157 -0.366587 0.452708 0.093914 -0.611131 0.719067 0.190440 -0.052883 0.247638 0.000945 0.078537
used -0.342990 -0.682492 -0.109970 -0.768901 -0.139158 0.330891 -0.131976 -0.348985 -0.358132 0.309143 0.309657 -0.579444 0.271690 -0.039756 0.312562 -0.368452 0.123297 -0.722663 -0.783740 -0.185305 -0.153362 0.291231 -0.214358 0.427811 -0.077444 0.785836 0.108624 -0.326869 -0.455214 -0.352397 0.344801 0.104960 -0.171392 0.482046 0.229308 0.448076 0.135903 0.171361 -0.638108 -0.312939 0.098071 -0.600023 -0.395610 -0.141483 -0.904054 0.643460 0.115647 0.144533 0.529374 -0.655091
right 0.773202 -0.661480 0.872102 -0.233672 0.530704 -0.038798 -0.973480 0.145827 -0.254042 0.364123 0.098882 -0.487467 -0.041001 0.544681 0.845532 -0.373848 0.725529 0.286298 0.124789 0.163868 0.038118 0.919202 -0.458014 -0.330526 -0.124577 0.629043 0.930611 -0.046164 0.178955 0.163394 1.185103 0.589099 -0.339165 0.636825 -0.253490 -0.045090 -0.333457 1.082746 -0.205538 0.052510 -0.106538 0.480123 0.515851 0.877563 -0.434920 0.410940 0.105333 -0.460141 0.650526 -0.019850
take -0.164868 -0.256972 -0.253462 -0.286024 -0.111484 0.424026 0.051791 -0.021661 -0.091988 -0.058049 0.947699 1.005735 -0.240009 0.345850 -0.566793 -0.390828 0.111143 -0.295550 0.764772 -0.569306 1.059718 -0.307877 -0.091123 0.347070 -0.214000 0.033851 -0.241997 -0.142369 0.518204 0.284807 0.611106 0.019984 0.535275 -0.412098 -0.487443 -0.726693 0.431220 -0.398901 -0.441801 0.540001 -0.658333 0.172239 -0.278848 0.393083 -0.680406 -0.278083 -0.345720 0.632476 -0.127948 0.426850
town 0.217606 0.691051 0.186855 0.328446 -0.467271 -0.375574 -0.897218 0.877474 -0.264978 -0.309635 -0.509828 1.173199 0.147589 0.296560 0.228852 -0.417890 -0.170980 -0.066154 -0.714338 0.637000 -0.146596 -0.710728 -0.803653 -0.266137 -0.040541 -0.115344 0.111035 0.163611 0.215441 0.152645 0.577263 1.082298 0.227287 -0.218332 -0.272580 0.843650 -0.166550 0.230249 -0.300529 0.035110 -0.015179 1.338796 0.055299 0.213289 -0.275621 -0.211923 0.378160 0.430216 -0.343039 0.576614
cheap 0.881111 -0.119694 0.298696 0.112400 -0.113009 0.233368 -0.664224 0.285409 -0.106384 -0.756173 -0.388757 0.052062 0.957200 0.371123 0.292283 -0.712466 -0.460451 1.305641 0.367941 0.332330 -0.340408 0.432136 -0.454594 -0.670673 0.371049 0.008107 0.106859 0.077500 0.393404 -0.114684 0.073471 0.336355 0.535684 -0.280612 0.104172 0.760843 -0.202880 0.705430 -0.445233 -0.905607 -0.300908 0.365904 -0.118728 0.278811 0.146240 -0.287811 0.283171 -0.418401 -0.081408 0.225203
lovely 0.503475 0.821060 0.306699 0.381009 -0.858703 0.164261 -0.985220 0.064975 -0.001492 0.343998 -0.150616 1.058433 -0.191884 -0.178716 0.337584 -0.114455 0.575803 -0.732137 -0.203290 1.152343 -0.407977 0.019700 -0.355441 0.179164 0.207557 0.403876 0.200595 -0.310030 0.044839 -0.526693 -0.267897 0.460097 0.235988 0.363727 0.130174 0.494324 -0.383305 0.322673 -0.038847 -0.137136 -0.412242 0.648961 0.044247 0.037729 0.182443 0.224165 0.494220 0.268956 -0.126615 0.362991
shopping -1.058555 0.504936 -0.193925 -0.256772 -0.353681 -0.146345 -0.522885 0.383528 0.340270 0.235360 -0.618234 1.737213 0.306235 0.191929 0.821730 0.210527 -1.129463 -1.407922 -0.267173 0.491446 0.111759 -0.411189 -0.541829 0.084816 0.203989 0.032966 -0.373471 -0.261614 -0.332917 0.801371 -0.085504 0.419780 -0.938482 0.358256 -0.103144 0.275945 0.189934 -0.272698 0.788082 -0.847909 0.416786 0.648913 -0.203816 0.980738 0.832097 -0.653082 -0.528495 0.185903 -0.310355 -0.007521
etc 0.366941 -0.403836 -1.013680 -0.928154 0.134396 -0.533670 0.038127 0.146603 -0.457083 -0.060496 0.162595 0.406020 -0.362053 0.845867 -0.033067 0.153761 -0.733134 0.199342 -0.403547 1.400085 0.844445 -0.460935 -0.673971 -0.005148 -0.308185 0.439904 -0.372742 -0.042728 -0.515713 0.108318 0.498364 -0.433799 -0.451370 0.563587 0.634365 0.197571 -0.566344 0.338663 0.233266 -0.080700 -0.346080 -0.567733 0.420782 -0.084937 -0.361522 0.017429 -0.765792 0.206566 -0.004623 -0.219559
cheaper 0.294580 -0.498129 -0.191816 0.242213 -0.469989 0.345563 -0.189648 0.259355 0.148054 -0.410643 0.055940 0.075374 -0.867636 -0.647682 0.272971 -0.368804 -0.581222 0.221273 -0.676642 0.430680 0.314923 -0.596337 -0.353949 -0.034536 0.588411 -0.031421 -0.087959 -0.467334 -0.324554 -0.701192 -0.078379 0.278469 0.904614 0.031784 0.506199 0.719940 0.085766 -0.208066 -0.230887 0.248322 0.076576 0.623982 -0.114139 0.058180 -1.163250 -0.567844 0.112167 0.875168 -0.232404 0.081758
even -0.341395 -0.102666 -0.216793 -0.016636 -0.144405 0.427524 -0.137961 0.326316 0.489518 0.283959 -0.660584 0.310908 -0.108774 -0.256318 0.198624 -0.418829 -0.265763 0.178037 -0.175978 0.008270 -0.408828 0.124883 -0.390508 0.289045 0.608999 -0.548636 -0.509708 -0.566446 0.061539 0.194624 -0.021737 -0.105188 0.918836 0.296162 -0.359875 0.647131 0.611589 -0.537896 -0.564143 -0.057286 0.938805 0.404082 -0.646811 -0.148210 0.090989 0.263503 0.488112 -0.207887 0.232937 -0.190083
feel 0.373049 0.203571 -0.491730 0.287368 -0.831014 0.203740 0.101597 -0.563670 -0.151454 -0.468438 -0.289329 -0.909008 0.732835 0.342647 -0.873760 -0.405635 -0.168316 1.156093 -0.715189 0.164936 -0.414262 -0.243943 0.493455 -0.126239 -0.477764 -0.664641 -0.850734 0.261949 0.024102 -0.104112 -0.570830 -0.236465 -0.165385 -0.242116 -0.506597 -0.031600 -0.066827 0.140673 -0.233955 -0.501833 -0.103569 0.030601 -0.519508 0.446486 0.234835 -0.632046 -0.436040 0.306914 -0.604618 0.569641
flat 0.613229 0.046558 -0.608838 0.888885 -0.634937 -0.187397 -0.696218 -0.231009 -0.163287 -0.373148 -0.472887 0.353435 0.224722 -0.837758 0.625060 0.132142 0.048887 0.330190 0.605241 0.462267 1.483362 0.707543 0.014692 -0.055487 0.386676 -0.110746 -0.425730 -0.095644 0.039639 -0.120115 -0.597027 0.301180 0.200248 0.019008 1.447239 -0.034510 -0.321214 0.399257 0.421445 -0.304253 -0.328553 -0.122267 0.325280 0.480870 -0.635926 0.469115 0.354201 -0.660287 -0.445675 -0.263026
suburb -0.125030 0.154881 0.315726 -0.215178 -0.957965 0.000447 0.200037 1.001668 -0.394325 -0.365749 -1.003020 0.212392 -0.205357 0.593837 0.505534 -0.357719 -0.489871 -0.122647 0.008842 0.073775 -0.159569 -0.266495 -0.423404 -0.289947 -0.121242 -0.191766 0.305035 0.045768 0.095772 -0.350819 -0.649299 0.578902 0.218778 0.836931 0.013136 0.837123 -0.770197 -0.132311 -0.529673 -0.349674 -0.003799 0.251622 0.323225 0.018641 0.565379 -0.325753 -1.017940 -0.660398 -0.429032 -0.327117
though -0.609354 0.209163 -0.095948 0.175515 -0.568890 0.065546 -0.681518 -0.025719 0.404344 -0.272745 -0.226559 -0.085714 0.079764 0.281289 0.062755 -0.408276 -0.893460 0.629795 -0.438501 -0.301170 -0.324191 0.083683 -0.228836 -0.216911 0.282160 -0.428410 -0.240120 -0.306752 0.171803 0.531611 0.456944 0.001845 0.501136 -0.253692 -0.596009 0.695744 0.635817 -0.356225 -0.440591 -0.104558 0.708331 0.217609 -0.772962 -0.048987 -0.221526 -0.135884 0.121581 0.120221 0.399278 0.103653
avoid -0.183947 0.448815 -0.263815 -0.538747 -0.081441 0.693086 -0.121006 0.101294 0.224525 0.299322 0.091198 0.401409 -0.182493 0.188728 0.171895 -0.144681 0.257969 0.096562 -0.066377 0.217112 0.339103 0.188032 -0.281523 0.211409 0.483717 -0.068463 0.100793 -0.185720 0.766361 0.373152 -0.218198 0.122307 0.523323 0.670855 -0.135884 0.488976 0.057156 -0.053188 -0.386845 -0.383654 -0.502342 0.619132 -0.861660 -0.110431 0.574045 0.359225 0.346935 -0.054012 0.821252 -0.149595
bus -0.049289 -0.233458 -0.460650 -0.153779 0.593140 -0.447650 -0.172720 -0.154594 0.295963 -0.052730 0.498042 0.543657 -0.385547 0.972019 -0.241025 0.049276 -0.161652 0.126699 0.416455 -0.427213 0.595685 -0.324105 -0.076786 -0.165140 -1.293291 -0.082398 0.412217 -0.480245 -0.466273 -0.162411 0.725943 -0.634295 0.256643 0.570892 -0.994034 -0.860745 0.477538 -0.948590 -0.322796 0.455231 -0.128577 -0.113449 -0.314382 0.660208 -0.083631 -0.540390 -0.317671 0.004221 -0.108774 1.075388
high -0.308065 -0.427928 0.332717 -0.005277 -0.305460 0.747674 0.085545 -0.603789 -0.933434 -0.141808 -0.266705 -0.282450 0.583029 0.486103 0.817655 0.319196 0.269271 -0.834600 0.259257 0.456285 -0.663018 -0.121637 -0.045708 -0.301020 -0.735171 0.099972 -0.354411 0.094785 0.391811 -0.031250 -0.322700 -0.183299 -0.899660 0.503676 -0.648059 -0.477552 0.006419 0.585046 1.041476 -0.583275 -0.276128 -0.353530 -0.761974 0.481206 0.063641 0.148368 -0.301620 0.748091 0.862045 0.561652
somewhere 0.729879 -0.174949 0.447115 -0.438131 -0.512104 0.694209 -0.030368 -0.671484 0.066754 0.227880 0.848590 -0.307815 0.994817 -0.289432 -0.074028 -0.857955 1.068897 0.483698 -1.057127 0.035188 0.306089 0.219779 0.338858 0.336183 0.595838 -0.036278 0.395613 -0.002030 -0.293287 0.393559 -0.575605 -0.235437 0.603219 0.526722 -0.301871 0.218855 -0.280259 0.216817 -0.503520 0.088989 -0.342221 0.091615 -0.284869 0.040027 -0.515030 -0.263462 0.511828 -0.539697 0.876072 0.465361
link 0.124820 -0.185029 0.252815 -0.234518 0.255779 -0.818418 -1.167557 -0.537594 0.291308 -0.150631 -0.590794 0.839974 -0.172915 -0.166296 1.114566 -0.604775 -0.300477 0.088626 0.380147 -0.049349 0.717195 -0.414276 -0.716847 0.013360 -0.439983 -0.103646 0.299754 -0.635156 -0.596279 0.033173 1.194593 0.173082 -0.059468 -0.062260 -0.025581 -0.690704 0.190763 -0.059908 0.402573 0.448602 0.098112 0.366860 -0.260133 0.521301 -0.672570 -0.844388 0.147303 0.552772 -0.435587 1.124538
looking 0.483403 -0.248630 -0.249716 -0.483019 -0.543972 0.720721 0.272376 -0.506268 -0.233843 0.338287 0.270385 -0.074308 0.715349 -0.117236 -0.126814 -0.475177 0.610550 0.359605 -0.390909 -0.229006 -0.008003 0.422200 0.424873 0.572009 0.498452 0.198162 -0.556157 -0.401391 -0.065786 0.370558 -0.656012 -0.170153 -0.290476 0.188769 -0.505468 -0.497421 -0.063873 0.312466 -0.171434 0.128115 -0.132010 -0.372614 -1.028094 0.638439 -0.062009 0.267194 -0.123707 -0.080490 0.713713 0.121902
large -0.623714 0.352594 -0.018697 0.930405 -1.262419 -0.171929 -1.091003 -0.749043 -0.667979 0.263294 -0.816090 0.718909 -0.021869 0.111165 -0.425296 0.455192 -0.678633 -0.430122 -0.080325 -1.112639 -0.266336 -0.099843 -0.141028 -0.988487 0.161718 0.612053 -0.102847 0.238157 0.283180 0.168448 -0.499594 1.043274 -0.631637 -1.080763 0.213477 0.606487 0.949582 -0.416036 -0.280461 -0.227385 -0.170662 -0.260864 0.625836 0.782913 -0.571304 0.420091 -0.245296 0.389910 0.173259 0.038991
minute -0.432595 0.135003 -0.458021 -0.656154 0.200117 -0.041448 0.995715 0.557490 0.029839 -0.055560 0.367499 0.558543 -0.460127 -0.094247 -0.708853 -0.033382 -0.747082 -0.671513 -0.222218 0.192226 0.541643 -0.248876 -0.465720 -0.484851 -0.957329 -0.106964 -0.244149 0.183099 0.782248 -0.100707 -0.239786 -0.054037 0.781326 0.610119 -0.751915 -0.194521 1.253202 -1.431977 -0.958118 1.341509 -0.600380 -0.021828 -0.012425 -0.334336 -0.414815 -0.143033 -0.710261 -0.215121 -0.458616 0.727323
life -0.137753 -0.120503 0.098287 -0.369238 -0.550553 -0.151106 -0.579776 0.181275 0.095126 -0.170736 -0.518425 0.198786 -0.130321 -1.082659 0.009425 -0.172318 0.831851 -0.805593 0.030665 0.242007 0.440740 0.257514 0.028030 0.431737 -0.521833 0.203234 -0.020153 0.203026 -0.359790 -0.145138 0.168558 -0.091380 -0.225765 0.522242 0.257671 0.537874 -0.282847 -0.490466 -0.113402 -0.509334 -0.566938 0.780033 -0.147155 0.549139 0.445172 0.079769 0.386704 0.321919 -0.612693 0.428391
need 0.893616 -0.640655 -0.372949 -0.135564 -0.459416 0.227543 0.448032 0.212057 0.489074 -0.174749 0.262661 0.377375 0.399765 0.623761 -0.536135 -1.115891 0.277539 0.706939 -0.076215 0.043092 0.604401 0.575949 0.022353 0.846535 -0.060784 0.125209 -0.194007 -0.263174 -0.530825 -0.371618 0.995599 -0.463210 0.230139 -0.444817 0.330071 -0.327632 -0.121545 0.404572 -0.741773 0.158524 -0.130591 -0.145707 0.488354 -0.259616 -0.204116 0.363560 -0.219915 -0.628588 -0.449298 -0.576371
big 0.187701 -0.136517 0.442339 -0.151553 -0.263915 0.428366 -0.356529 0.117632 -0.150608 0.754214 -0.341593 0.884288 -0.131490 0.030783 0.266933 0.661568 0.656620 -1.005389 -0.172888 0.693988 -0.003186 0.496043 0.317795 0.430254 0.224762 0.462648 0.394829 0.368152 -0.744763 -0.061355 -0.675150 0.037679 -0.232602 0.892582 0.552286 0.144165 -0.347505 0.337301 0.690065 -0.347517 0.112129 0.384411 0.831500 0.568706 0.835498 -0.123579 0.392678 0.175621 -0.184971 0.118647
end -0.593196 -0.641280 0.353611 -1.525426 -0.483891 -0.095338 -0.334168 -0.350352 -0.112497 0.356352 -0.316469 -0.515906 0.008700 -0.163287 1.207850 -0.516966 0.591331 -0.616078 0.465282 -0.910456 0.955239 -0.662600 0.023366 0.128318 -0.430220 0.251145 0.847171 -0.155302 0.832431 0.661538 -0.104189 0.446108 -0.611231 1.195001 0.815606 -0.112972 -0.384763 0.410477 0.555755 0.145783 0.200068 0.556034 0.195251 -0.359491 -0.471958 -0.351590 0.044418 -0.477298 0.231326 -0.210499
village 0.424408 0.482691 0.466792 0.429773 -1.060984 0.005565 -0.465819 0.076552 -0.071931 -0.311170 -0.336979 -0.479189 0.426656 -0.026982 -0.569419 0.149943 0.471356 0.167736 -0.383093 1.036821 -0.417641 -0.216790 0.045247 -0.125239 -0.514236 0.138068 -0.433169 0.053774 -0.435904 -0.414965 -0.510463 -0.166832 -0.700553 -0.013433 0.068420 0.061673 -1.011206 0.109131 -0.152573 0.354483 -0.158631 0.011895 0.462674 0.490272 -0.505161 -0.303222 -0.228420 -0.092015 -0.428989 0.636239
way -0.529002 -0.375713 0.207733 0.024342 -0.572460 -0.032355 0.348382 0.216394 -0.439020 -0.548044 0.743697 0.697292 -0.340955 -0.451361 0.255091 -0.941333 -0.169128 -0.054774 -0.424432 -0.256652 -0.058047 0.179202 0.494064 -0.303435 -0.381537 -0.732303 -0.328359 0.107355 0.539346 0.138121 -0.204454 -0.118826 -0.868379 0.344375 -0.305513 0.214975 1.067160 -0.614118 0.320132 0.001738 -0.152987 -0.473327 -0.543913 0.430711 0.288489 -0.025872 -1.016900 0.307910 -0.600954 0.315448
never 0.323453 -0.224830 -0.562434 0.880999 -0.384268 0.109088 0.392423 -0.187245 -0.326087 0.507724 -0.154879 -0.024301 0.008320 -0.965031 -1.221651 -0.681061 0.996666 -0.477659 -0.196397 -0.170816 0.095299 0.297296 0.503184 0.473114 0.542575 -0.187723 -0.421499 0.043703 -0.721749 -0.174179 -0.260922 -0.359916 0.203497 -0.404317 -0.368135 -0.169221 0.880229 -0.855580 -0.181206 0.726426 -0.089468 -0.205380 -0.325423 0.950723 -0.753811 0.828554 0.087666 0.368843 -0.020782 0.136973
rough 0.137793 -0.190052 -0.036752 0.242091 -0.993806 0.238494 -0.535752 -0.366054 -0.216959 -0.121896 -0.044948 -0.077830 -0.420263 -0.303371 0.923089 -0.379651 -0.265547 0.482820 -0.223050 0.046844 -0.147779 0.311849 -0.079244 0.147505 0.500227 -0.406950 -0.496627 -0.667726 0.077043 -0.222243 0.139811 0.385396 -0.173518 0.113355 0.200422 -0.216262 -0.024410 0.710491 0.548644 0.299732 0.438113 0.072837 -0.677525 0.630819 -0.340134 -0.037404 -0.332386 0.144142 -0.134614 0.684535
price 0.240753 -0.621806 -0.421272 0.729641 0.062672 0.742721 0.538250 -0.550053 -0.609916 0.070873 -0.274119 0.151671 0.054086 0.463848 0.938016 0.010314 -0.547116 0.147376 0.794258 0.001932 0.348384 0.772361 -0.243533 -0.198188 -0.160070 -0.428870 -0.568402 -0.644776 0.024434 -0.100574 -0.035832 0.003036 -0.573605 -0.137885 0.333075 -1.127333 0.094264 0.572778 1.064136 0.116840 0.063840 -0.760548 -0.012495 0.237770 0.264327 0.259743 -0.534753 -0.082792 -0.138806 -0.255593
pub -0.018441 0.187760 -0.265646 -0.235150 -0.295898 -0.462421 -0.989272 -0.352765 -0.293717 0.139637 -0.498180 -0.214075 -1.081047 0.460629 0.777808 0.025932 -0.667752 0.359047 0.052205 0.839554 0.504605 0.757403 -0.250047 -0.158895 0.132708 0.909931 0.708491 0.308122 0.054524 0.179406 -0.184612 -0.304299 -0.157151 0.424748 1.139820 0.562820 -0.947052 0.206010 0.506619 -0.191209 -0.573902 -0.180517 0.771022 -0.042844 0.262751 0.222534 -0.691815 0.518187 0.043033 -0.426713
see 0.178209 0.226713 0.090592 -0.068666 -0.250627 -0.573865 0.263673 0.288109 0.062664 0.161846 -0.801298 0.817712 0.949248 0.024822 0.721335 -0.608546 -0.009780 -0.158086 -0.439821 0.455025 -0.188308 0.025875 0.067277 0.364280 -0.256543 -0.176476 0.349774 -0.425567 -0.341855 -0.002108 0.089265 -0.214061 -0.625480 0.436679 0.126152 -0.260796 0.289817 0.472743 0.409016 0.101486 0.319737 -0.385664 -0.175802 -0.372444 -0.114997 0.334055 0.216815 -0.186107 -0.555287 0.660179
might 0.711733 -0.141170 0.227764 0.388702 -0.107150 0.240613 0.280561 -0.287712 0.176526 0.058562 -0.311518 -0.114714 1.331315 -0.134322 -0.281415 -0.615786 0.584861 -0.240171 -0.439998 1.065953 0.580549 -0.270777 -0.762524 0.245522 0.407969 0.077270 0.159367 -0.122984 -0.713992 0.484830 0.466032 -0.179874 0.788481 -0.203762 0.083772 -0.256894 0.204637 0.180153 -0.243344 0.528026 0.159627 0.064384 -0.499120 -0.111968 -1.172979 -0.387175 0.649862 0.128559 0.110497 0.770434
walk -0.806292 -0.363636 0.143964 -0.859407 0.005174 0.297596 0.007612 0.239539 -0.240014 -0.130202 -0.050154 0.101467 -0.213975 0.080279 -0.073393 -0.161174 -0.704051 -0.819659 0.008956 -0.453724 0.573722 -0.008789 -0.322750 -0.302751 -0.986897 0.022398 -0.890149 0.027636 0.784293 0.307440 0.533860 0.356827 -0.149634 0.101523 0.129193 -0.219216 0.224277 -0.275332 -0.207477 0.452099 -0.238510 0.357441 -0.556856 0.097940 -0.637278 -0.035090 -0.720937 0.159384 0.101418 0.185737
away 0.044793 -0.158981 0.524682 -0.798421 0.026394 1.328432 0.868256 0.330121 0.308390 -0.349639 0.853143 -0.172816 0.139105 0.146860 0.052383 -0.220921 -0.347553 0.092383 -0.207896 0.291547 0.201498 -0.195484 -0.197022 -0.028447 -0.119519 -0.168144 -0.156796 0.018856 0.450578 0.551213 -0.273181 -0.462937 0.326348 0.081884 -0.160861 0.285564 0.641698 -0.676205 -0.721445 0.208284 -0.194707 -0.291243 -0.625970 -0.039020 -0.966578 -0.103324 -0.878576 -0.673314 0.509934 1.291380
day -0.147896 -0.905121 -0.183499 -0.304887 -0.310129 -0.103601 0.134367 0.095385 0.215542 0.034426 0.174820 0.579291 0.086208 0.047353 0.361851 -1.014205 -0.703254 0.010745 0.229215 0.647136 0.351251 0.689326 0.151974 -0.129494 0.076905 0.128931 -0.207620 0.720371 -0.261636 -0.183515 -0.038826 -0.594715 -0.363390 -0.404176 0.795535 0.854505 0.971499 -0.265678 0.068201 0.034075 -0.104336 -0.622481 0.839693 -0.213844 0.476116 0.364424 -0.237452 0.187019 -0.414356 0.151464
love -0.127579 -0.360921 -0.068480 -0.139528 -0.129438 -0.057752 0.162132 0.279618 -0.181885 0.135452 -0.543937 -0.110330 0.291966 -0.147292 -0.096094 -0.148973 0.246737 -0.010730 -0.856998 -0.027196 0.361007 0.711195 -0.024940 0.111059 0.405395 0.417244 0.060479 0.033440 -0.398852 0.524230 0.221877 -0.244991 0.036186 0.714531 0.123007 0.543765 0.106056 0.028184 -0.307397 -0.222390 -0.190729 0.016453 -0.251630 0.001090 -0.248746 0.432264 0.271937 -0.035375 -0.060185 -0.600493
always -0.120425 -0.442682 -0.199027 -0.028385 -0.510769 -0.088274 -0.199662 -0.350327 0.046302 -0.109887 -0.759603 0.228250 0.862142 0.068762 -0.508717 -0.354469 0.047422 -0.462534 -0.339812 -0.085764 0.543972 -0.278593 0.081762 -0.000655 -0.353489 0.646309 -0.023200 0.049184 -0.566271 0.437137 0.321678 -0.304858 -0.789177 0.097225 0.185560 0.007601 0.141460 -0.073478 0.102526 -0.650900 -0.321301 0.492104 0.081445 0.609469 -0.309166 -0.462356 0.119033 0.014398 -0.768081 0.012712
easy 1.351295 -0.400017 -0.249296 -0.080908 0.626447 -0.168513 0.181859 0.390221 -0.311120 -0.857467 1.101696 0.538371 -0.294946 0.738619 -0.007247 -0.436241 0.287950 0.367949 0.235553 0.686174 0.032752 -0.950894 -0.642100 -0.183700 -0.566887 0.133167 0.298226 -0.624483 -0.553228 -0.943984 1.239193 -0.139282 -0.546936 -0.234100 -0.420650 -0.520650 -0.064092 0.148761 -0.181083 0.074105 -0.370917 0.037448 0.576320 0.362528 -0.809522 -0.705670 -0.536106 -0.423623 -0.782759 0.218037
stay 0.424392 0.279945 0.786332 0.157779 0.037004 1.017580 0.575267 0.159092 -0.028692 0.261101 0.621952 0.268353 0.874208 0.364644 -0.038840 -0.236445 0.456769 0.095915 -0.235584 0.060123 -0.097747 0.330942 0.226646 -0.014262 0.285373 0.296681 0.308613 -0.318576 -0.474542 0.756715 -0.292566 -0.465767 -0.206326 0.021697 -0.309402 -0.042595 0.292708 -0.150490 -0.307814 -0.107602 -0.187972 -0.302916 -0.032489 0.624638 -0.656671 0.339849 -0.719619 -1.215418 0.363112 0.629216
work 0.081111 -1.170290 -0.082804 -0.285136 0.250214 0.418671 0.569533 0.080804 -0.446389 -0.130415 0.353357 -0.297837 0.060301 -0.163335 0.011338 -0.441723 0.191136 -0.778467 -0.658705 -0.088934 -0.026236 -0.332479 -0.165176 0.059938 -0.302056 0.354440 -0.167437 0.088305 -0.403132 -0.549598 0.733655 0.033886 -0.367137 0.005353 0.186829 0.282924 0.027424 -0.078270 -0.194784 -0.036481 -0.180266 -0.262137 0.029725 -0.054406 -1.008957 0.227075 -0.155285 0.152616 -0.002828 -0.384446
either -0.108634 0.287707 -0.575778 -0.004616 -0.702814 0.409482 -0.122497 0.023668 -0.251831 0.057309 0.230573 0.177497 -0.271859 -0.325607 0.450779 -0.355538 0.109241 0.008573 0.456140 0.277938 0.573326 0.079511 -0.330171 -0.105637 1.352503 -0.427826 -0.351430 -0.491807 0.165175 0.472804 -0.091665 0.536360 0.128929 -0.147962 0.238034 0.478837 0.380585 -0.080738 -0.025124 -0.179992 0.035951 -0.135640 -0.979707 0.590832 -0.487110 0.278219 -0.114768 0.449532 0.599109 -0.044577
come 0.188508 -0.720004 0.156785 0.425079 -0.075574 0.365765 0.486598 0.385929 0.215623 0.066489 -0.856055 0.434136 0.423372 0.006170 0.117992 0.380620 0.685994 -0.449578 -0.734966 -0.860613 0.214625 0.286495 0.592149 0.098864 -0.371891 0.418756 0.716671 -0.067497 0.411896 0.179682 -0.144839 0.023490 -0.133971 0.944613 -0.287688 0.215480 0.090785 -0.302601 0.087674 -0.405806 0.263440 0.438260 0.301253 -0.366295 0.218845 0.443420 0.841325 -0.340044 0.050140 -0.086087
however 0.137467 -0.368128 0.433339 -0.146711 -0.494307 -0.056839 -0.092745 0.335653 -0.181890 -0.167843 -0.349863 0.606279 0.219212 -0.621254 0.094607 -0.701152 0.298066 0.074991 -0.494742 0.453911 -0.671771 -0.687811 -0.098542 0.131863 -0.006544 -0.330066 -0.612898 0.141412 -0.468567 -0.547979 0.344721 0.162684 0.412324 0.012689 0.092554 0.462006 -0.174461 0.349197 -0.056313 -0.274593 0.065163 0.306565 -0.495938 -0.208446 0.307650 -0.197647 0.268969 0.553794 -0.533618 0.517297
money 0.342593 -0.137301 0.204150 -0.264994 0.831860 0.313777 -0.440229 0.530137 0.426541 0.103536 -0.155926 -0.513590 0.442223 0.411740 -0.339200 -0.735015 -0.264651 0.372614 -0.002820 0.237116 -0.200482 0.851604 -0.342389 0.228816 0.727611 0.391671 0.181695 -0.203740 -0.282059 0.207521 0.905788 -0.047412 -0.267791 -0.601296 0.245973 0.163246 -0.191590 0.733049 -0.404684 -0.173608 0.071325 0.413599 -0.020052 0.666953 -0.004324 -0.096517 0.092207 0.277049 -0.089149 -0.639652
thing -0.183832 -0.362855 -0.249786 -0.272328 -0.116937 0.028076 0.363999 -0.163404 0.063429 0.155947 0.054538 0.411780 0.002134 0.306236 -0.117316 -0.180930 -0.355304 0.193865 -0.537736 0.432686 0.564026 -0.245766 -0.275194 0.117226 0.198359 -0.504733 -0.527709 0.472939 -0.577114 0.070018 0.518217 -0.103959 0.555527 -0.059560 0.039771 0.476438 0.441781 -0.167145 -0.258470 -0.214703 0.103777 -0.059971 -0.367077 -0.517115 0.343165 -0.153906 0.108677 -0.067886 0.342318 -0.408792
called -0.136226 -0.085580 0.166639 0.049589 -0.545868 -0.399144 -0.283311 0.167011 -0.501570 0.265432 -0.641558 0.472808 -0.070054 0.277364 0.295135 0.609015 -0.130049 -0.433638 -0.184149 -0.293635 0.074721 0.078951 -0.232281 -0.312284 -0.060951 0.601497 0.742384 0.728576 0.449272 0.440583 -0.175570 0.843261 0.302345 0.312949 -0.023394 1.263534 0.026621 0.024550 -0.013920 -0.501400 -0.056441 -0.048494 0.393652 -0.064703 0.596189 0.395758 0.094275 -0.505941 0.161722 -0.006826
rent -0.290352 0.286855 0.079093 0.396125 -0.943686 0.333117 0.765894 -0.149058 -0.582792 -0.186604 -0.633809 -0.759388 0.932921 -0.108666 0.225522 -0.115304 0.098067 -0.036709 0.154277 -0.134515 0.152106 0.368417 -0.016088 0.144122 0.395651 -0.448564 -0.422890 -0.240294 0.263462 0.695262 -0.481418 0.151229 -0.372965 -0.141011 0.135351 -0.736970 0.008251 0.478330 0.742430 0.560153 0.276047 -0.526703 -0.375520 0.250922 -0.322683 0.118934 -0.530619 0.112685 -0.344181 0.776566
full -0.327439 0.031523 -0.043671 0.021709 -0.140554 0.746272 -0.113508 -0.032895 0.712682 0.280552 0.309678 0.355779 -0.257900 0.521771 -0.045409 0.254514 -0.018738 -0.076351 -0.110128 1.278438 -0.358018 -0.120400 -0.287853 0.242547 0.092720 0.568267 0.009614 0.374789 0.305110 0.017423 0.112991 -0.433920 0.443454 -0.046774 -0.064738 0.645531 -0.075526 -0.114258 0.104370 -0.699780 -0.300919 0.706723 0.319179 -1.036906 0.620933 -0.004181 0.423617 0.597705 0.581502 -0.865089
little 0.443288 -0.003445 0.233665 0.013781 -0.325952 0.364013 -0.114254 0.257969 0.139247 0.056250 0.735182 0.625065 -0.654934 0.018619 0.339548 0.023378 0.340955 -0.384459 -0.301384 0.903388 -0.243216 -0.088536 -0.045665 -0.073467 0.436126 -0.149006 0.003931 -0.361584 0.455845 -0.285753 -0.148388 0.101460 -0.335934 0.172311 -0.041652 0.392878 0.049501 0.258758 0.328225 0.141781 -0.006962 0.416406 0.309110 0.100166 0.205883 -0.108420 -0.068362 -0.102018 -0.026652 -0.068360
afford -0.181369 0.400462 0.185314 0.217035 -0.210155 0.113141 -0.022926 0.511388 -0.389833 0.174128 -0.466535 0.195772 0.637937 -0.249233 -0.091852 -0.864644 0.562331 -0.070215 -0.314786 -0.552097 -0.032564 0.902689 0.075688 0.426964 0.877469 0.092989 0.355396 -0.381799 -0.342124 0.589526 0.165691 -0.258898 0.208717 -0.364198 0.234333 0.195000 -0.159763 0.139115 -0.081906 0.558634 0.363581 -0.065262 -0.149231 0.213102 -0.325265 0.520907 0.485874 -0.068192 -0.244237 0.429706
community 0.049823 0.366897 -0.316202 0.690839 -0.790440 -0.012984 -0.055690 -0.164591 -0.455979 -0.031810 -0.696912 0.282101 -0.183912 0.091334 -0.713702 0.681367 0.157850 -0.397000 -0.247420 -1.271771 -0.244472 -0.346869 0.054764 -0.292058 0.140268 0.499408 0.075268 -0.173593 0.070421 0.044060 -0.549624 0.937222 -0.249202 -0.413330 -0.033323 0.259826 -0.029101 -0.452320 -0.453360 -0.432372 -0.258613 0.175459 0.195449 0.784513 -0.039701 0.207564 -0.400637 -0.208848 -0.345234 -0.216583
kent -0.496625 0.256215 0.366763 -0.842623 0.134135 0.261313 -0.109039 0.623893 0.169204 0.083905 0.102880 0.730077 0.327635 -0.233101 0.359464 0.549303 0.229108 -1.007505 0.399134 0.807535 -0.331188 -0.640935 -0.386970 0.378307 -0.487396 0.068909 -0.503760 -0.477407 0.162709 -0.404034 -0.552421 0.013237 -0.053031 1.142997 0.374804 -0.163458 -0.839295 -0.096971 -0.529798 0.118268 0.710921 -0.239945 0.305677 -0.628964 -0.019150 -0.229694 0.266225 0.027682 -0.031197 0.149479
load -0.007590 -0.046130 -0.475633 -0.060779 -0.352622 -0.620645 -0.740152 -0.264836 -0.118326 -0.080057 -0.692099 0.235902 -0.268822 0.635808 0.143193 0.389981 -0.113654 -0.245795 -0.032935 0.627242 0.729663 -0.016870 -0.524148 -0.153992 -0.339328 0.730491 0.236005 -0.205761 -0.553613 0.293299 0.389714 -0.096478 -0.553715 0.434366 0.456851 0.058631 -0.569700 0.033557 0.315478 -0.435344 -0.084478 0.380689 0.382656 0.323964 0.261094 -0.154501 -0.399645 0.038548 -0.248626 -0.070369
location -0.173053 0.049120 1.108802 -0.594755 0.218691 0.222328 -0.150181 0.837916 -0.082699 -0.512143 -0.443441 -0.339837 0.646685 0.015133 0.723054 -0.383357 0.233278 -0.335482 0.279820 0.259629 -0.833854 0.106311 -0.812787 -0.451858 -0.349875 0.168612 0.365735 -0.542432 0.187228 -0.012150 0.573526 0.157400 -0.021126 0.537428 -0.209766 0.057284 -0.375337 0.363662 -0.502394 -0.171009 0.092466 0.305526 -0.104702 0.003461 -0.037671 -0.285070 -0.140383 -0.739922 -0.211327 0.142019
old 0.105490 -0.037668 -0.276156 -0.179053 -0.477537 -0.040271 0.524843 0.494535 -0.623283 -0.236665 -0.092907 -0.248566 -0.638490 -1.038369 -0.245083 -0.113986 0.826970 -0.721051 -0.645672 -0.336227 0.228985 -0.313731 0.454412 0.668563 -0.229929 -0.463116 0.168247 0.628235 0.602046 -0.409478 -0.227180 0.150183 0.375122 0.201351 0.162439 1.142010 -0.375503 -0.662253 -0.238160 0.699412 -0.242525 0.362829 0.344713 -0.719489 -0.161822 0.781349 0.328208 -0.066888 -0.040113 0.543562
affordable 0.639538 0.028895 0.332622 1.058716 -0.024521 0.348027 0.149188 -0.216887 -0.297162 -0.528933 -0.195064 -0.027854 0.695132 0.192143 0.420059 -0.359631 -0.456640 0.643933 0.301479 0.002824 -0.635969 -0.127206 -0.385220 -0.784855 0.306135 0.085265 0.034189 -0.102622 0.111835 -0.258757 0.111284 0.398621 0.157481 -0.880482 0.076487 0.080257 0.234858 0.502433 0.106608 -0.801562 -0.020637 -0.138954 -0.076908 0.181888 -0.187916 -0.059534 -0.160498 -0.127772 -0.226314 0.199783
museum 0.437855 -0.620112 -0.844185 0.133777 0.268629 0.409397 1.149376 -0.211740 -0.014745 0.230319 0.293807 -0.703388 0.544507 -0.009810 0.310794 0.110698 0.006422 -0.551618 -0.520136 0.360604 0.507270 0.342640 0.322674 -0.292295 0.204833 -0.301214 0.305895 -0.216848 0.973744 0.336588 -1.182187 -0.380786 -0.655038 0.332320 -0.235234 0.135355 0.706209 -0.143602 0.620540 0.456483 -0.379913 -0.958874 -0.810620 -0.718573 0.663398 0.006072 0.624536 -0.310855 0.497118 0.385424
river 0.067838 -0.580908 1.247141 -0.990804 0.371250 0.343750 -0.473068 0.790209 0.176526 -0.584042 0.005738 -0.131000 0.201190 -0.068119 0.723918 -0.031374 0.452442 -0.505934 0.143396 -0.284167 0.061470 0.363937 -0.640100 -0.357932 -0.351648 0.791316 0.961875 0.257943 1.254003 0.671808 0.602008 0.489142 0.590087 0.821342 -0.316465 0.595585 -0.478232 0.341616 -0.319782 -0.195917 -0.761583 0.808490 0.463448 0.021941 0.078684 -0.513643 -0.529711 -0.911451 0.167563 0.262071
young 1.010293 -0.028487 -0.540584 0.539499 -0.081290 0.821916 0.493751 -0.902878 0.339470 -0.025046 -0.794759 -0.697384 -0.050847 0.193191 -0.181468 -0.167638 0.398107 0.661157 -0.085570 0.559718 -0.622003 -0.589858 0.256255 0.311557 0.132353 0.213555 0.286114 0.008478 -0.081658 -0.519958 -0.600784 -1.076498 0.076010 -0.580396 0.383563 -0.241399 -0.215359 -0.209020 0.424037 -0.512052 -0.674445 0.219592 0.482650 -0.855956 0.261097 -0.003343 0.353639 0.788360 0.081359 -0.008140
born 0.189781 -0.073226 0.609015 -0.042192 0.450208 0.283197 0.042170 -0.020336 0.259186 0.708703 0.292027 -0.157840 -0.018087 -0.907716 -0.314054 0.135828 1.056479 -0.963773 -0.124598 0.128235 0.243525 0.117346 0.309856 0.244946 -0.389002 0.482572 0.389726 0.388550 -0.328612 -0.358780 -0.388246 -0.209596 0.241483 0.508366 -0.042920 -0.336411 -0.134037 -0.407694 -0.143450 0.280197 -0.557885 0.009986 0.040426 0.036483 -0.228103 0.095266 0.381700 -0.259917 0.307081 -0.065667
club 0.266156 0.157877 -0.490878 -0.300489 -0.436063 -0.889913 -0.224821 -0.412501 -0.003018 -0.023308 -0.407087 0.304276 -0.984193 0.858924 0.179621 0.443911 -0.239878 0.665057 0.145282 0.168167 0.544467 0.230578 0.216165 -0.136718 -0.295399 0.302351 0.464810 0.466821 -0.063584 0.154829 -0.077407 -0.157308 0.364385 0.700200 0.148882 0.292192 -0.505929 -0.000540 0.339538 -0.164522 -0.044744 0.062308 0.470927 0.074664 1.518671 -0.353986 -0.630403 -0.401040 -0.463516 0.008211
greater -0.378774 0.054035 0.010617 -0.614244 -0.390987 -0.221074 -0.419222 0.746207 -0.367738 -0.028184 -0.032136 0.760402 -0.180794 -0.207421 -0.347652 0.493204 -0.035231 -0.164104 0.060171 -0.023637 -0.362823 -0.885735 -0.148573 -0.448661 -0.925109 0.346565 -0.782163 -0.328677 0.131789 -0.702929 -0.207540 0.643599 -0.350975 0.738136 0.338506 0.102018 -0.565532 0.166519 -0.643523 -0.256715 -0.108602 -0.360457 -0.199780 0.213904 -0.501092 0.338616 -0.281287 0.031775 -0.447979 0.247326
surrey -0.528954 0.114896 0.002583 0.089799 0.045569 -0.160982 -0.249512 0.175530 -0.065995 0.222656 -0.358702 0.222474 -0.385871 -0.588635 0.000787 0.619094 0.017851 -0.210240 -0.211168 0.231738 -0.327525 -0.210257 0.092793 -0.073857 -0.317984 -0.214317 -0.621126 0.161744 -0.099251 -0.276500 -0.136853 0.102646 0.201105 0.600347 0.157249 0.277294 -0.068099 -0.232911 -0.110377 0.085715 0.320562 -0.105586 -0.443168 -0.488538 0.012577 0.208050 0.641287 0.421164 -0.172055 0.037670
actually 0.126863 -0.181602 0.175685 0.135919 -0.473166 0.266139 0.004547 -0.137743 0.137669 0.000605 -0.161413 -0.214535 0.092215 -0.490090 0.325467 -0.191234 0.279941 0.165411 0.210208 0.210194 0.153011 -0.083927 0.173711 0.067121 0.338405 -0.039290 -0.121923 -0.070222 -0.249958 0.034031 -0.455544 0.098433 0.325398 0.085573 0.353723 0.090697 -0.123662 0.053032 0.195265 0.015482 0.023602 -0.087545 -0.426717 -0.048050 -0.299735 -0.293332 0.233428 0.444856 -0.192173 0.387339
le 0.064318 0.502097 -0.111183 0.080256 -0.469587 -0.077862 0.242203 0.049214 0.047851 -0.398394 0.314815 -0.471635 0.240200 0.160312 -0.157636 -0.565651 -0.743415 0.636404 -0.162658 0.538855 -0.500125 -0.276251 -0.293946 -0.115257 0.060934 -0.827272 -0.520003 -0.038228 0.333399 -0.078623 -0.323848 0.056871 0.127888 -0.506443 -0.305813 -0.000869 0.379870 0.209601 -0.056050 0.451967 0.113976 0.060317 -0.137875 -0.216099 0.082717 -0.355965 -0.308511 0.193153 -0.237332 0.425377
move 0.462888 0.480223 0.439361 -0.049127 -0.570542 0.339487 0.405525 -0.178339 -0.182954 0.119193 -0.038401 -0.360228 0.816839 -0.299506 -0.434781 -0.733939 1.052710 0.369328 -0.640469 -0.297355 -0.602151 0.115325 0.473265 0.504891 0.262184 -0.369806 0.045861 0.073702 -0.092232 0.404374 -0.380942 -0.428552 -0.262169 -0.136686 -0.458675 -0.064077 0.027103 0.160109 -0.045816 0.177144 -0.047779 -0.158121 -0.333313 -0.014851 0.245102 0.208223 0.126258 -0.301019 0.020510 0.629345
ok 0.078236 0.075893 0.413696 0.187732 0.177516 0.112843 -0.178084 -0.226601 0.141594 -0.266566 0.327128 -0.486009 0.020523 0.241453 0.047770 -0.369088 -0.133653 0.460104 -0.306116 -0.137715 -0.146020 0.248746 -0.199607 -0.173142 -0.051858 -0.089516 0.306609 -0.101038 0.076373 0.245655 0.480737 -0.137033 0.160638 -0.300515 -0.419989 -0.099684 0.306477 0.084183 -0.069861 0.323845 -0.147704 0.106770 -0.105835 -0.015500 -0.204231 -0.445520 -0.024375 0.216218 -0.103471 0.481262
school 0.334819 -0.102249 0.196801 -0.024270 0.387800 -0.135410 0.106056 -0.367460 -0.467050 -0.088121 -0.334086 -0.427452 0.354578 -0.117539 0.340374 0.347113 -0.005942 -0.409921 -0.047607 0.716108 -0.588874 -0.181441 -0.706050 -0.017334 0.089357 0.447866 0.199049 -0.288904 -0.668721 0.086918 0.770007 -0.237314 -0.974569 -0.255033 -0.083996 0.015782 0.451903 -0.071241 0.262932 -0.484177 0.165939 -0.572289 0.284544 0.147862 -0.770655 0.254053 -0.101669 0.068983 0.042996 0.498173
two 0.209943 0.786082 -0.903187 0.226129 0.008825 -0.377583 0.205835 0.389700 -0.122639 0.173858 -0.865155 0.378601 -0.027477 -0.095207 -0.393162 0.267997 0.377268 -0.159179 -0.361374 -0.399152 0.468662 -0.140411 0.018532 0.251604 0.742280 -0.270495 0.409551 -0.245628 0.114130 0.326389 -0.031072 0.229142 -0.003304 0.047403 0.069145 0.244842 -0.055266 -0.359973 -0.300446 0.050675 0.187684 0.134095 -0.336357 0.379447 -0.115726 0.755774 0.391636 -0.238914 0.200999 0.405285
generally -0.206848 -0.290566 -0.062718 -0.113521 -0.637450 0.534185 0.133814 0.453429 -0.082363 -0.507768 0.306858 -0.073723 -0.507055 0.379754 -0.044419 -0.247109 -0.574607 0.537102 -0.638908 -0.159247 -0.133929 -1.012814 -0.086099 -0.470692 -0.003516 -0.346299 -0.277967 0.058104 0.683327 -0.088117 -0.195153 0.999357 0.374737 -0.130432 -0.137642 1.052429 -0.191354 0.069646 -0.357734 -0.344243 -0.024903 0.551391 -0.353165 0.063873 -0.339976 -0.394161 -0.448252 0.492427 0.000431 -0.050651
got 0.026707 0.714468 0.023264 0.189964 -0.173034 -0.406344 -0.909178 -0.465092 -0.073407 0.402102 -0.247632 0.388997 -0.263108 -0.415488 0.161999 0.259945 0.121927 0.090025 0.025454 -0.201163 0.564991 0.388974 0.232786 0.365544 0.591318 -0.001396 0.301406 0.075720 -0.434201 0.076747 0.041241 0.427040 0.179364 -0.024990 0.669544 0.155055 -0.079528 0.047142 -0.034087 -0.297153 -0.086933 -0.023036 -0.165080 0.791717 -0.048938 0.308196 0.255567 0.137960 -0.163751 0.579373
green 0.591421 0.772576 0.181119 -0.397239 -0.084175 0.246562 -0.603770 -0.374596 0.081579 -0.039765 -0.321342 -0.470125 -0.562355 -0.218292 0.574566 -0.546844 -0.531408 0.412292 0.442902 0.261543 -1.058908 0.534042 -0.704501 -0.374866 -0.162320 -0.299637 -0.046321 -1.051714 0.945127 -0.705251 -0.240464 -0.078396 0.228121 -0.406842 -0.097461 -0.380438 0.876803 0.003694 -0.274621 0.456961 -0.253032 0.236649 0.068138 -0.530807 -0.006087 0.585705 -0.083112 0.232300 0.693963 0.276859
problem 0.060057 -0.009556 -0.287649 0.400576 -0.197404 -0.242730 0.155873 -0.146292 0.115255 0.311621 -0.187109 0.040749 -0.514287 -0.290633 -0.423589 -0.599798 0.153164 0.171796 -0.144101 -0.168059 0.269370 0.253475 0.633146 0.240067 0.519130 -0.059962 -0.040834 0.255887 -0.625934 -0.003524 -0.325660 -0.563995 0.415531 0.153752 -0.121089 0.430293 0.558497 -0.971260 -0.254826 0.202297 -0.164814 -0.238860 0.012125 0.503901 -0.112120 0.424523 -0.321358 0.237570 0.023647 0.343954
cafe -0.712260 -0.213915 -0.702291 -0.269876 -0.073910 -0.831665 -0.750057 0.010928 -0.418394 -0.041860 0.206165 0.492416 -0.178638 1.113803 0.322014 0.154094 -0.742330 0.219901 0.162981 0.647931 0.382554 -0.220970 0.043401 -0.060454 -0.241713 0.700381 -0.093203 0.440308 -0.247270 0.300734 0.084596 -0.469326 0.258207 0.331382 0.565127 0.974210 -0.703766 -0.034868 0.135638 -0.743157 0.028726 -0.738881 0.286372 -0.411814 -0.172491 0.641375 -0.168540 1.142701 0.551241 -0.416370
cheapest -0.451155 0.067151 -0.084418 -0.078640 -1.155446 0.215700 0.253095 0.655895 -0.411998 -0.317394 -0.521735 0.484449 0.421550 0.111344 -0.110516 0.173918 -0.180873 -0.324233 -0.093833 0.040202 0.014466 -0.418132 -0.130193 0.137531 0.290296 -0.298278 -0.715860 -0.056872 0.650728 0.527674 -0.180098 0.736929 -0.478174 -0.072225 0.082582 0.528296 0.068126 0.286375 -0.133404 -0.204565 0.571334 0.244878 -0.607900 0.604481 0.269803 0.004929 -0.568573 0.031268 -0.298796 0.501284
rate -0.272644 -0.197136 -0.248360 0.174717 0.203357 0.051565 0.129509 -0.430613 -0.636792 0.253091 -0.115940 0.274615 0.088517 1.003955 1.018635 0.234028 0.288242 -0.175904 0.368019 -0.023407 -0.863313 -0.267944 0.492928 -0.088734 -0.611305 0.062910 0.053921 -0.188672 0.075813 -0.131473 -0.327239 -0.613773 -0.902964 0.936302 -0.917094 -0.745490 -0.199764 0.319951 1.029188 -0.351730 0.448798 -0.554394 -0.493219 0.387281 0.556409 0.425285 0.076678 0.688118 0.565378 0.413844
recommend 0.061841 0.116901 -0.044132 -0.463624 -0.413722 0.052570 -0.162581 0.353636 -0.146369 0.326640 -0.472412 0.199612 0.850799 -0.019326 -0.086144 0.062799 0.670149 -0.362420 -0.460564 0.313228 0.658450 0.591867 -0.295397 0.714559 0.679855 0.067646 0.312943 -0.336150 -0.109046 1.199317 0.132607 -0.111122 -0.096212 0.748998 -0.101948 0.350710 0.059142 0.301328 -0.304164 0.080603 0.362567 0.355919 -0.344837 0.342444 -0.188233 0.224353 0.370436 -0.525306 0.097578 0.093893
within 0.902476 -0.629672 0.135671 0.347543 0.013412 0.866554 0.596596 0.103198 -0.265527 -0.189032 0.651654 0.021624 -0.280710 0.218077 -0.365603 0.167131 0.758248 -0.281909 0.163414 0.318751 0.134254 -0.195493 0.170302 -0.217479 -0.823693 0.390979 0.023908 0.054610 0.109936 -0.709357 -0.588095 -0.045555 -0.012394 0.467822 -0.352114 -0.253036 -0.430615 -0.460012 -0.508334 -0.074804 -0.879363 -0.252648 0.286511 0.465454 -0.210114 -0.119505 -0.768426 -0.601346 -0.128132 -0.106678
beautiful 0.184365 -0.632505 -0.280658 0.684592 -0.566231 0.190596 -0.131080 -0.166534 -0.638395 -0.227425 -0.488891 -0.284276 -0.454047 -0.026493 0.522183 -0.267565 -0.312143 0.534487 0.136158 -0.335368 -0.157673 0.784442 0.093452 -0.419770 -0.090497 -0.095303 -0.317631 -0.402168 0.302006 -0.295142 -0.710393 -0.038513 0.201944 0.305976 0.340211 0.144722 0.034632 0.056972 0.387842 0.110452 0.007001 -0.258660 0.155989 0.073790 -0.043338 0.089359 0.080359 0.618164 -0.558649 -0.087546
definitely -0.025944 0.407778 0.247830 -0.456804 -0.092932 0.176113 -0.348629 0.217756 0.138136 0.288024 -0.147853 0.032260 1.198005 0.332460 -0.414225 -0.071881 0.292977 -0.015671 -0.390090 0.341697 -0.280091 0.261542 -0.417419 0.443707 0.166334 0.031734 -0.244722 -0.618025 -0.000789 0.754626 0.051365 -0.226414 -0.132696 0.261732 -0.576244 -0.127930 0.040785 0.319516 -0.745533 0.186266 0.665220 0.042157 -0.386969 0.284161 -0.195247 0.023466 0.332005 -0.030753 0.410308 0.634764
may 0.169390 0.390906 -0.313185 -0.036307 0.554831 0.095802 0.063332 -0.270100 0.191417 0.262984 -0.044865 0.191525 -0.253472 0.043362 0.106532 -0.170481 -0.079006 -0.367784 0.087552 0.311085 0.276299 -0.205955 -0.542650 -0.047506 0.742258 -0.018458 0.374068 -0.683796 -0.478941 0.064142 0.303598 -0.199776 0.447830 -0.074966 -0.021733 -0.514811 0.350807 -0.188252 0.327944 0.343454 0.058001 0.141965 -0.404925 0.275404 -0.430516 -0.588251 0.214375 0.082282 0.078526 0.121926
suggest 0.492641 -0.355926 -0.173500 -0.590208 0.145574 0.538504 0.358331 0.298007 -0.005760 0.094069 -0.047561 0.134142 0.799952 -0.019271 -0.615431 -0.293228 0.543113 -0.043707 -0.080623 -0.220285 0.617686 0.564567 -0.182457 0.526956 0.680152 0.397549 -0.076648 -0.273517 -0.018848 1.049787 0.654557 -0.058718 -0.160665 0.008416 -0.293166 -0.319870 0.332440 0.378641 -0.628575 -0.088304 -0.326162 -0.081414 -0.798599 0.854594 -0.143855 -0.114479 -0.463432 -0.580166 0.048600 0.006087
anywhere 0.476963 -0.577619 0.109244 0.259935 0.322352 0.642518 0.192448 0.140260 -0.115083 -0.509925 0.535967 0.308229 1.145674 -0.127580 -0.765875 -0.934137 0.136808 0.271787 0.193896 -0.089960 0.127619 -0.071313 -0.577658 -0.181516 -0.312371 -0.124029 -0.314278 0.088361 -0.141795 0.075716 0.536709 0.161816 0.558425 -0.617558 -0.414391 -0.233211 0.624126 -0.121555 -0.773065 -0.135104 -0.491727 0.156929 -0.205181 0.368268 -0.544782 -0.432063 0.089310 -0.415591 -0.311457 0.213035
fairly 0.149205 0.015455 0.660881 0.058257 0.056314 0.086483 0.210716 0.131276 -0.270814 -0.998625 -0.204394 -0.181895 0.348126 0.414995 0.421765 -0.319907 -0.910537 0.401730 -0.013954 -0.310218 -0.874597 -0.597429 -0.338947 -1.214859 -0.539960 -0.263567 0.050019 0.007204 0.212182 -0.249783 0.395459 0.522487 -0.771836 -0.465913 -0.235340 0.088428 0.148073 0.035059 0.039356 -0.884432 -0.103347 0.071712 -0.033608 0.372739 -0.070993 -0.579262 -0.850110 -0.326283 -0.513573 0.472961
month 0.238647 -0.352401 -0.657200 0.084588 -0.618332 0.171860 0.058810 -0.166752 -0.293083 -0.203655 -0.484060 -0.036264 0.512529 -0.592747 -0.265705 0.447824 0.544070 -0.642934 0.287790 0.474287 0.997015 0.364914 0.282237 0.412188 -0.285703 0.480574 -0.382729 0.093326 -0.138613 -0.140232 -0.695962 -0.250029 -0.237650 0.208977 0.739061 0.131761 -0.623768 -0.151287 -0.161562 -0.245076 -0.460359 0.331395 0.317478 0.097554 -0.491693 0.787549 0.225796 -0.414154 0.091873 -0.674521
visit 0.402714 0.515128 -0.009925 -0.008997 -0.382302 -0.289500 -0.216402 0.346596 -0.090665 -0.140528 0.038129 0.091429 0.288834 -0.323056 0.032884 -0.536025 0.132457 0.047252 -0.281730 0.633623 0.123148 0.496566 -0.426744 0.658497 0.480876 0.192261 0.330195 0.096767 0.425716 0.342981 0.535289 0.357713 -0.020474 -0.557433 -0.170127 0.199593 0.170669 0.525535 -0.311083 0.593001 -0.105308 0.143303 -0.176127 -0.237181 -0.182703 0.426789 -0.227015 -0.275072 -0.313641 0.112992
cool 0.655773 0.067419 0.013302 -0.499078 0.010304 -0.075552 -0.130857 -0.370037 -0.086246 0.097237 0.288036 0.281775 -0.231670 0.746521 0.261730 -0.230248 0.364807 0.898112 0.162669 0.870994 0.310534 0.315820 -0.353310 0.183209 0.623751 0.224319 0.474934 -0.207655 -0.568867 0.164094 0.420481 -0.283804 0.438066 0.343942 0.224037 0.109881 -0.335605 0.635808 0.120270 -0.173072 -0.018170 -0.211418 -0.182308 -0.091886 0.607681 -0.172086 0.124162 -0.427115 -0.152503 -0.160676
family 0.661071 0.201211 -0.447716 0.618102 -0.538524 -0.484059 -0.170664 -0.312974 -0.096571 -0.180993 -1.287252 -0.516085 0.052499 -0.383731 -0.091832 0.081075 0.230153 0.157189 0.052613 0.368723 -0.178960 0.363973 0.192267 0.234999 0.126781 0.424961 0.249071 0.017656 -0.089697 -0.249487 -0.076521 -0.669294 0.095772 -0.478403 0.597345 0.177401 -0.221887 0.032851 0.541006 -0.131499 -0.510711 -0.158665 0.151853 -0.349229 0.293262 0.489165 0.090296 0.287073 -0.464537 0.701182
friend 0.084947 0.931097 0.205955 0.278167 -0.414813 -0.198869 -0.813449 0.312718 -0.080448 0.434302 -0.706015 0.118578 -0.083169 -0.976971 -0.082268 0.157955 1.119792 -0.574158 0.450947 0.118226 0.404986 0.571897 -0.274676 0.343147 0.501618 0.224392 0.675516 -0.079184 -0.091239 0.404784 -0.023505 0.395222 0.120431 0.286187 0.294046 0.512764 -0.159592 -0.526139 -0.371604 -0.114896 -0.222640 0.430967 0.059697 0.581541 0.083303 0.643339 0.642608 -0.195404 -0.143248 0.605545
mean -0.610288 -0.572875 0.557238 -0.201856 -0.752611 0.135208 0.021567 0.218913 0.207535 0.479931 -0.352629 0.197809 0.592257 0.019053 0.525169 0.224812 0.407517 -0.482361 -0.239490 -0.079593 -0.263414 -0.414208 0.335403 0.448366 -0.220782 0.285808 -0.275126 0.022486 0.023891 0.203429 -0.024062 0.084736 -0.414955 0.449566 -0.019878 -0.163471 -0.351958 0.747732 0.552915 0.131848 0.918280 0.336935 0.426542 -0.486343 -0.388943 0.078512 0.658827 0.168752 0.124674 -0.253454
student 0.736717 -0.079044 -0.190943 1.226190 0.159519 -0.261109 -0.366614 -0.298000 0.042901 0.108449 -0.606729 0.463584 -0.016148 0.122506 -1.218391 -0.046919 0.369536 -0.052225 0.247909 -0.566993 0.070868 0.315710 0.116198 0.310505 0.071662 0.507347 0.133297 0.115635 -0.405476 -0.752255 0.325051 -0.028480 -0.248190 -1.341673 0.294007 -0.687754 0.183153 0.049599 -0.184927 0.095832 -0.680121 0.179907 0.945641 0.554619 -0.031957 0.243282 0.056780 0.308175 -0.784606 -0.708126
another 0.361548 0.306307 0.076701 0.166803 -0.059262 0.145693 -0.114050 -0.230992 0.019312 -0.047532 -0.091079 0.203323 -0.346039 0.341786 0.742031 -0.336275 -0.133768 0.723185 0.318022 -0.221701 0.229327 0.652576 -0.253854 -0.120016 0.774518 -0.229371 0.788260 -0.442740 0.541821 0.281524 0.305236 0.036053 0.405161 -0.244930 0.105936 0.130210 0.631104 0.118667 0.220160 0.271267 0.199140 0.326269 -0.145466 0.069171 0.329396 0.091682 0.381751 -0.387806 -0.020730 0.738556
budget 0.517416 0.326870 0.085753 -0.191134 -0.516314 0.339002 -0.299380 -0.391644 0.279016 0.202246 0.528025 0.715675 0.312580 -0.045906 0.261536 -0.443093 0.626432 0.638200 -0.140423 0.706326 0.250473 0.416100 -0.092369 0.715727 1.381697 -0.187809 0.029928 -0.692963 -0.880720 0.100796 -0.077414 -0.624941 0.496373 -0.073638 0.490404 0.210116 -0.002291 0.426901 -0.159270 -0.052850 0.400765 -0.035202 0.306113 -0.036553 0.012851 -0.272042 0.748294 -0.428315 -0.030869 -0.096752
coming 0.497327 0.021344 0.207110 -0.393218 -0.245455 0.437607 0.470984 -0.768353 0.206644 -0.022147 -0.000863 -0.456480 -0.083336 -0.119255 0.022451 -0.305161 0.222325 0.437685 0.026936 0.200116 -0.286496 0.124577 0.291458 -0.007840 -0.004273 -0.126505 0.019733 -0.098675 0.109271 -0.171839 -0.170016 -0.261647 -0.149573 0.132638 0.103143 -0.326920 0.329362 0.230889 0.105049 -0.334573 -0.290450 -0.109222 -0.630706 -0.052578 0.714776 -0.387920 -0.347098 -0.177767 -0.269311 0.535723
first 0.079231 -0.546326 -0.425362 -0.170444 0.286469 -0.542575 0.490175 0.891711 0.251997 -0.023503 -0.528243 0.073901 -0.137944 -0.687195 -0.531992 -0.482236 0.324137 0.096427 -0.227821 0.075596 0.640816 0.620048 0.277003 0.867970 0.156074 -0.092398 -0.144547 0.223949 -1.013787 0.194196 0.718103 -0.654629 -0.056964 0.029327 0.201191 0.380150 0.244301 -0.664986 -0.539498 0.357572 0.369289 -0.010373 0.068257 0.357576 -0.031379 0.404788 -0.140524 -0.350244 -0.811105 -0.239167
home 0.049891 -0.674374 -0.253412 -0.053951 -0.167000 0.515239 0.212258 -0.689528 0.487973 -0.028083 -0.236901 0.137339 0.089196 0.415488 -0.085972 -0.136529 -0.082662 -0.368903 0.303553 -0.107519 0.386575 -0.146594 -0.028938 0.357398 -0.714273 0.262868 -0.321243 -0.339778 -0.176237 -0.281522 0.281621 -0.515260 0.293815 0.059592 0.026428 -0.781655 0.078933 -0.092381 0.200120 -0.090264 0.131414 0.341901 -0.054380 0.037608 0.459406 -0.719032 -0.291724 0.055628 -0.279701 0.166099
maybe 0.070963 0.011683 -0.091981 -0.383753 -0.944295 0.554099 -0.005986 -0.242398 0.285740 -0.035473 0.176610 0.231815 -0.013658 -0.077629 0.647426 -0.786572 -0.265714 0.431498 0.101541 0.202288 0.724767 0.509488 -0.088006 0.344792 0.729312 -0.179290 -0.063015 -0.718757 -0.011894 0.299714 -0.547198 -0.181964 0.201986 0.021266 0.688200 -0.213420 -0.363290 0.197251 0.113003 0.620726 0.393638 0.328843 0.229168 -0.121602 0.079864 -0.585480 -0.052855 -0.276451 -0.276858 0.044944
new 0.221368 -0.335288 -0.114226 -0.047449 -0.240885 0.100942 0.165246 -0.249005 -0.305324 0.276943 0.309505 -0.026290 -0.471460 -0.850406 0.220053 0.354130 0.414258 -0.014255 0.570248 -0.150732 -0.021924 -0.167681 0.622590 -0.003256 0.121634 -0.225154 -0.349616 0.174752 0.254223 -0.610714 -0.697613 0.371725 -0.180028 -0.097425 -0.094744 -0.349278 0.003871 0.002164 0.339373 0.149391 -0.053173 -0.511720 -0.214764 0.287322 0.108154 0.544097 0.027957 -0.075613 0.472792 0.242530
personally 0.134956 0.167169 -0.013007 0.039785 -0.240198 0.709201 0.313559 -0.297247 -0.004643 0.261495 0.074542 -0.697274 0.857618 -0.590167 -0.481232 -0.356179 0.691954 -0.085031 -1.014235 0.190723 0.415878 0.766669 0.250832 0.467272 0.748125 0.084430 0.055212 -0.222163 -0.549260 0.373899 -0.581995 -0.231973 0.029767 0.359588 0.029919 -0.010885 -0.139151 0.131029 -0.298445 0.179803 -0.039020 -0.094246 -0.737404 0.335912 -0.564272 0.160646 0.574180 -0.174089 0.299063 -0.344835
travel 0.119637 -0.307023 -0.003486 -0.563100 -0.116715 0.333062 0.424961 0.822900 -0.013100 -0.510679 0.618213 -0.077772 -0.522319 0.700002 0.164290 -0.276474 -0.322186 -0.276800 -0.282463 -0.277486 -0.534057 -0.612854 -0.152690 -0.128822 0.157838 -0.125464 -0.207636 -0.747939 0.033976 -0.242043 0.660652 0.316410 -0.358327 -0.051822 -0.045976 0.194326 -0.136868 0.041888 -0.127819 0.186249 0.683628 0.335356 0.113491 0.327979 -0.814077 -0.502108 -0.904641 -0.542409 -0.356161 -0.028726
30 -0.480082 -0.224899 -0.273846 -0.103961 0.060164 0.055068 0.890790 0.703027 0.039171 0.021945 -0.151879 -0.007543 -0.054698 -0.619787 -0.871030 -0.047546 -0.290175 -0.257599 -0.148899 -0.224746 0.365142 0.006257 -0.154017 -0.148494 -0.342122 -0.029506 -0.509749 0.397430 0.463852 -0.085368 -0.318931 0.074026 0.683828 0.179844 -0.045873 0.047780 0.694590 -0.903150 -1.013293 0.856853 -0.360704 -0.142597 0.078540 -0.278529 -0.649285 0.452275 0.019517 -0.107668 -0.269743 0.055684
although 0.056636 -0.666923 -0.267910 0.151235 -0.233836 0.364443 0.243386 -0.233547 -0.148718 0.146931 -0.218355 0.232256 -0.253583 -0.342236 0.160738 0.206844 0.322391 0.093284 -0.157063 0.013332 0.077671 -0.453946 0.075673 0.026862 0.127869 -0.422990 -0.583998 0.153559 0.087956 -0.229857 0.120979 0.126373 0.507950 0.169793 0.060422 0.088260 0.319224 -0.033229 0.363786 0.107759 0.330212 0.061053 -0.597309 -0.169004 -0.034184 0.131649 0.534557 0.400911 0.356445 0.359371
dangerous -0.082687 0.131270 0.351808 -0.102176 -0.251599 0.174092 0.016098 0.113394 -0.026742 -0.068130 0.265716 -0.045772 -0.175224 -0.614996 0.468979 -0.460653 0.094247 0.279159 0.114747 -0.543851 -0.280825 -0.043331 0.199356 -0.128206 0.508359 -0.575610 -0.046712 -0.139231 0.202339 0.046804 -0.321999 0.458455 0.276385 0.198549 -0.082076 0.403963 0.366332 -0.111008 -0.216198 -0.048096 0.217639 -0.189816 -0.665542 0.359553 -0.068029 -0.062635 -0.105442 -0.216755 0.049173 0.436353
decent 0.101656 -0.098417 0.133976 0.615809 -0.722831 0.605745 -0.133686 -0.078758 -0.046263 -0.013408 0.025572 0.610634 0.913629 0.042714 0.244904 -0.212751 -0.328450 0.192065 0.696211 -0.429104 0.182497 0.421141 0.110083 -0.012717 0.106664 -0.141934 -0.939079 0.000834 0.491045 0.334498 -0.017212 0.682113 -0.081518 -0.348987 0.189829 -0.324567 0.178067 0.804078 0.288531 -0.539222 -0.071185 -0.278716 -0.382215 0.482261 0.111925 0.058100 -0.170762 0.204150 -0.015776 0.014517
depends 0.108684 -0.354768 0.595117 -0.520576 -1.051694 0.084606 -0.269640 -0.014321 0.235576 0.165842 0.715929 0.728817 0.397757 0.139401 0.439835 -0.416346 0.363718 0.216299 -0.435366 0.822833 -0.756241 -0.028853 0.100990 0.611227 1.215584 0.313979 -0.483934 -0.507134 -0.744918 -0.149870 -0.163944 -0.298978 0.757052 0.160210 0.421556 0.864800 -0.219410 0.781335 -0.117980 -0.474177 0.928814 -0.297262 0.335892 -0.557158 -0.261726 -0.219273 0.611034 0.050880 0.323166 -0.362375
different -0.097883 -0.251000 -0.216918 0.230027 -0.307122 -0.262905 0.055563 -0.129972 -0.005351 0.020251 0.031069 -0.369994 -0.259057 0.381430 -0.053852 0.341868 -0.103480 0.626283 -0.387564 -0.251787 -0.307822 -0.334554 0.672235 0.008228 -0.054619 0.020255 -0.166205 0.582047 -0.293090 -0.193089 -0.122497 -0.137557 -0.082693 0.240780 0.120074 0.627456 -0.578035 0.048477 -0.105798 -0.398297 0.319205 -0.715578 0.305469 -0.098126 0.212778 0.318478 -0.144176 0.087256 0.112064 0.049520
estate 0.251214 -1.020482 -0.013679 0.075051 -0.494475 0.527994 -0.198325 0.074891 -0.035215 -0.244306 -0.369680 -0.790575 -0.012234 -0.187635 0.585646 0.096682 -0.249545 -0.184000 0.486972 0.424125 -0.009543 -0.096606 -0.070576 -0.418179 -0.605407 0.559950 0.167577 0.149032 1.086846 -0.122865 -0.163358 0.721932 -0.181574 -0.361837 0.467574 -0.073327 -0.058340 0.696184 0.532449 0.336744 -0.075046 0.734442 0.445291 -0.317938 -0.490661 -0.597100 0.080522 0.607574 -0.866045 -0.508000
main -0.974493 -0.020315 -0.538122 -0.547334 0.034925 0.031819 0.286907 0.011145 -0.378182 -0.026763 0.132901 0.271798 0.015985 0.144435 0.621952 0.362343 -0.053505 -0.875442 -0.493425 -0.285026 0.268865 -0.742466 0.225350 0.205291 -0.516784 -0.485717 -0.234396 -0.199209 0.351152 0.294997 0.395829 0.099159 -1.031191 0.563624 -0.301555 -0.117821 -0.050216 -0.102719 0.604090 -0.172348 0.365090 0.197576 -0.999177 -0.285733 0.099622 0.213642 0.111888 0.461168 0.333037 0.126008
moving -0.371124 -0.171769 0.245018 -0.385485 -0.250108 -0.030750 0.359051 0.638513 -0.147851 -0.124096 -0.277983 -0.258380 0.726486 -0.906813 0.055175 -0.418292 0.676136 -0.808078 -0.192423 -0.546996 0.079792 -0.008735 0.066793 0.322386 -0.054805 0.001424 0.141982 -0.100277 0.021159 -0.158698 -0.325564 0.017370 0.402894 0.462849 0.194938 0.014043 -0.390077 -0.034214 -0.446230 0.525840 0.191413 0.249082 0.421676 -0.452077 -0.758594 0.319327 0.523063 -0.547010 -0.148817 -0.086984
next 0.150832 -0.759233 0.407837 -0.405552 0.091869 0.016474 -0.676424 0.096183 -0.597464 0.238842 0.096808 -0.360838 -0.543594 -0.323307 0.753259 -0.252485 0.515672 0.097511 0.457424 -0.328190 0.736554 0.295475 -0.300065 -0.263963 0.184494 0.107021 0.421786 0.077454 0.279501 0.289096 0.602333 0.647913 -0.136104 0.509947 -0.053579 0.211319 -0.312177 0.293992 0.027535 0.325178 -0.010275 0.189268 0.268046 0.701571 -0.179042 0.129238 -0.019224 -0.045860 0.451109 -0.107630
posh 0.160282 -0.460833 0.331556 -0.034166 -1.228612 0.459387 -0.038666 0.023137 -0.445546 -0.560482 0.407902 0.264036 0.299331 0.009452 0.368310 -0.717293 0.012791 0.347642 -0.198242 -0.250530 -0.035407 -0.074123 0.324116 -0.268485 -0.139351 -0.241403 -0.057697 -0.000047 0.810017 0.164375 -0.185355 0.352831 -0.047023 -0.027159 -0.072280 0.571348 0.372544 0.173491 0.082362 -0.272648 -0.333745 0.086082 -0.052147 -0.048637 -0.535329 0.201095 -0.247515 0.000397 -0.109269 0.474079
side -0.344509 -0.325627 0.396156 -0.561831 -0.100851 0.559605 0.043366 0.464198 -0.235371 -0.189435 0.740898 0.605379 0.074408 -0.439699 0.624046 -0.215849 0.373082 -0.482503 -0.136232 -0.487240 0.251033 0.257021 0.238038 0.198894 0.179375 -0.343515 -0.028004 0.140422 0.735062 0.423429 -0.220294 0.583267 -0.044071 0.631423 -0.162626 0.490845 -0.125951 0.105947 -0.125988 -0.088296 -0.140446 0.523969 -0.515756 0.263836 0.319331 -0.009561 0.142441 -0.183727 0.267495 -0.023671
space 0.888111 0.586500 -0.382891 -0.678957 0.326649 0.099406 -0.456177 -0.818180 -0.018362 0.313291 0.107922 -0.625253 -0.444111 -0.011900 0.269628 -1.034242 -0.390919 0.880386 0.408430 0.199472 -0.950840 0.538518 -0.130901 0.008499 0.137084 -0.795231 -0.236509 -0.818027 0.877197 -0.347113 -0.645596 -0.412246 0.259287 -0.245585 -0.263331 -0.764914 0.909408 0.186876 -0.023189 0.613570 -0.174642 -0.168219 0.111091 -0.315148 0.133337 0.540267 -0.114807 0.372256 0.894614 0.556350
st 0.274476 0.551696 0.254680 0.356618 -0.379691 0.257928 -0.047316 -0.658698 -0.052531 0.123200 0.165117 -0.282577 0.316423 0.076028 0.027520 -0.007032 0.553191 -0.025999 -0.085151 0.128682 -0.652726 -0.410630 0.266151 0.243706 -0.320902 -0.116492 0.287902 0.231884 -0.230832 -0.127711 -0.367572 -0.082152 0.181080 -0.035026 -0.625659 -0.311353 0.032661 -0.090954 0.076069 0.077470 0.031487 0.480336 0.624392 0.032167 -0.263922 0.217510 0.040147 -0.160115 0.432157 -0.203625
yes -0.076564 0.009181 0.357971 -0.117898 -0.142441 -0.073750 -0.242505 0.121097 0.016557 0.317478 -0.484717 -0.211183 0.093484 -0.430212 -0.158115 0.139722 0.286283 -0.261001 -0.075243 -0.051812 -0.285831 0.455655 -0.188142 0.403391 0.443467 0.308345 -0.102666 -0.224374 -0.338465 -0.073342 0.262215 0.038452 0.473585 -0.030000 0.322187 0.183038 -0.057482 0.316178 -0.249347 0.231268 0.477793 -0.158846 -0.383235 -0.194091 0.047358 0.313464 0.371417 -0.281819 -0.013191 0.145278
zone -0.010356 0.345620 0.040459 0.380011 -0.043841 -0.232790 0.091347 0.335455 -0.545343 0.077283 -0.119132 -0.464046 -0.643275 -0.362202 -0.090758 -0.314673 0.553658 -0.462546 -0.189321 -1.153140 -0.017307 -0.526020 0.361965 0.010929 0.360961 -0.457402 0.580777 -0.077640 -0.155955 -0.342053 -0.210989 0.667600 0.013962 -0.055919 0.131027 0.365687 -0.160508 -0.555184 -0.535001 -0.129303 -0.112127 0.173529 -0.131565 0.512244 -0.450956 0.380475 -0.195823 -0.071353 -0.291376 -0.259070
housing 0.312699 -0.801447 0.027138 0.630031 -0.051141 0.302767 -0.096198 -0.066136 0.029688 -0.532294 -0.297772 -0.455678 0.458791 -0.114171 0.280227 -0.188452 -0.442398 0.296515 0.312878 0.380219 -0.115787 -0.024810 -0.410193 -0.039409 -0.095350 0.124472 -0.333184 -0.083560 0.124753 0.116125 0.599368 0.190050 0.038336 -1.072823 0.202146 -0.175117 0.147819 0.593022 0.631450 0.221811 0.355171 0.287272 0.161930 -0.265249 -0.512257 -0.584650 0.304515 0.661915 -0.417847 -0.016473
long -0.163800 -0.335138 -0.068357 -0.307584 -0.318452 0.014015 0.363186 -0.085107 -0.477980 -0.418289 0.832186 0.128622 -0.559203 -0.737126 -0.351895 -0.479268 0.060990 -0.202507 -0.259055 -0.368241 -0.429147 -0.287558 0.321194 0.100367 -0.074917 -0.664190 -0.520340 0.272940 0.791864 -0.187407 -0.163397 0.171644 -0.123251 -0.416282 -0.208192 0.338007 0.700648 -0.439653 -0.049576 0.223935 -0.150817 -0.212170 -0.292352 -0.132502 0.001853 0.239157 -0.629167 0.129810 -0.119155 -0.113198
trendy 0.354365 0.012840 -0.156428 0.197941 -0.092169 0.735865 0.421990 -1.024625 -0.269458 0.277611 -0.482294 -0.719381 0.037183 0.741811 0.281719 -0.482221 0.092763 0.935246 -0.116764 0.118270 -0.947554 -0.211890 0.371716 -0.362044 0.093808 0.122291 0.324508 0.166163 -0.419367 -0.175957 -0.635739 -0.515245 0.071418 0.130850 0.011070 0.216991 -0.111553 -0.123939 0.153058 -0.955487 -0.473630 -0.604266 -0.381390 -0.412033 0.533896 0.124304 -0.029722 0.433749 0.502048 0.016165
especially 0.245040 -0.476198 -0.155423 0.115817 -0.155131 0.325492 0.016751 0.343743 -0.086298 -0.006030 -0.600586 0.100694 -0.010723 -0.442486 0.217640 -0.506704 -0.105208 0.090386 0.310913 -0.245437 0.135581 0.797496 -0.128093 -0.139249 -0.224023 0.335167 -0.320639 -0.040661 0.593395 -0.197617 -0.102058 0.090513 0.467682 0.147097 0.314653 -0.265537 0.039667 0.018038 -0.102210 0.310592 -0.578359 0.202223 0.037082 -0.144594 0.036899 0.433509 0.024689 0.109436 -0.286759 0.041164
quiet 0.491868 0.040162 0.035581 0.768367 -0.532480 0.313938 -0.177348 -0.612593 0.272219 -0.537000 -0.181984 -0.449193 0.411909 0.280071 0.333384 -0.011379 -0.217404 0.483603 0.200039 -0.416013 -0.607181 -0.370794 0.031560 -0.179408 -0.254809 0.206936 -0.183296 -0.397512 0.462444 -0.326083 -0.352181 -0.043590 0.051205 -0.412200 -0.240407 -0.169685 -0.379208 0.492078 0.063893 -0.832547 -0.104590 0.279845 0.197677 -0.183867 0.468502 -0.610036 -0.303721 -0.012673 -0.021855 0.028418
uk 0.080733 -0.171042 0.045611 0.275886 -0.197346 -0.488225 0.379173 0.222547 0.030185 -0.309551 0.130480 -0.009489 0.543036 0.052746 -0.380316 -0.859188 0.309920 0.272698 0.240902 -0.449498 -0.235889 -0.110101 0.084084 0.019263 -0.226177 -0.268837 0.169911 0.033949 -0.598164 -0.469464 0.498504 -0.063892 -0.134493 -0.353942 0.012310 -0.606754 0.160092 0.179993 -0.151461 -0.191431 0.293385 0.050366 0.644395 0.124279 0.106213 -0.350781 -0.119859 -0.372610 -1.329425 -0.370109
essex -0.143873 -0.161480 0.362274 0.182863 -0.433710 0.053993 -0.208141 0.366630 0.073257 -0.016314 0.092991 0.153809 -0.137316 -0.352033 0.045920 0.147259 0.007425 -0.371337 -0.454287 0.368727 -0.483880 -0.536701 -0.034424 -0.105171 -0.226144 0.003189 -0.571165 -0.158992 -0.100874 -0.559326 -0.075502 0.382705 0.270953 0.169693 -0.082248 0.090036 -0.193626 0.131630 -0.003725 0.265941 0.376302 0.330505 -0.299712 -0.019256 -0.426279 -0.246921 0.281178 0.459603 -0.195900 0.421839
fine -0.072521 -0.375777 -0.558217 -0.007272 0.162074 0.143445 -0.033019 -0.380735 0.022052 0.568848 0.094782 -0.104126 -0.076059 0.064396 -0.381327 0.095466 0.121655 -0.074893 -0.336837 0.418511 0.317163 -0.013399 -0.173489 0.391491 0.185740 -0.211562 -0.440573 0.301379 -0.645377 -0.200146 0.282928 -0.267107 0.490901 -0.208925 -0.003383 0.185974 0.189444 -0.024179 -0.156264 0.045063 0.197701 -0.322701 -0.498634 -0.201234 0.087688 0.358533 0.449855 0.294917 0.817496 -0.139966
found 0.269494 0.294965 -0.174342 0.326114 -0.589171 -0.562504 -0.271581 -0.013827 -0.249013 0.176317 -0.816430 0.142705 0.269425 -0.384515 -0.371166 0.133962 0.718504 -0.274427 -0.568820 0.089272 0.161603 0.023540 0.270629 0.560790 -0.062549 0.225724 0.078064 0.117090 -0.490883 -0.044002 -0.137653 -0.116717 0.048878 0.366645 0.222292 0.319363 -0.429880 -0.032767 -0.169541 -0.094969 0.010162 0.130636 0.006995 0.112157 -0.242156 0.690945 0.355506 0.081643 -0.183889 0.147845
underground -0.961635 -0.112677 -0.594051 -0.402863 0.230890 -0.316724 0.445410 0.139239 -0.213832 0.112610 0.220812 0.568442 -0.657293 0.770486 0.052075 0.071607 -0.105100 -0.148646 -0.234350 -1.286127 0.884060 -0.250876 0.477054 -0.118236 -0.550058 -0.546769 0.117857 0.003011 0.396175 0.511656 0.748065 0.076735 -1.165691 0.427581 -0.593765 -0.578483 0.453447 -0.399540 0.181510 0.332123 0.087980 0.253794 -0.147171 0.372202 -0.006403 0.399733 -0.410444 0.371021 0.008788 0.079776
along -0.448662 -0.138920 0.969848 -0.488023 0.783884 0.729080 -0.320972 0.037562 -0.144983 0.053030 -0.162797 -0.001842 0.026952 0.029075 0.770857 0.371359 -0.123734 -0.997252 0.358560 0.519900 -0.426134 0.387733 -0.535959 -0.195515 -0.598082 0.636654 0.017097 0.178397 0.004112 0.002867 0.109679 0.016089 0.150192 0.732111 0.122366 -0.447600 -0.659345 0.354941 0.406883 -0.289726 -0.496744 0.339490 -0.051184 0.136396 0.343371 -0.385373 -0.336527 0.091392 0.268337 -0.435858
class -0.430292 -0.165743 0.106454 0.394754 -0.724580 0.086000 0.117647 0.281261 -0.185662 -0.105609 -0.735530 -0.230431 0.494765 0.331908 0.080792 0.013238 0.247289 -0.832749 0.221931 0.198588 0.112512 -0.836306 -0.641920 0.542647 -0.765613 -0.327782 -0.725958 -0.299235 -0.033882 -0.522567 -0.653398 -0.157817 0.762571 0.065361 -0.262974 -0.159385 -1.053633 0.002531 -0.098486 -0.176338 0.390929 0.717219 0.258578 -0.801485 -0.375538 -0.240470 0.029481 -0.091447 0.604169 -1.206271
commute 0.244326 0.126313 0.027693 -0.606444 0.237464 -0.217350 0.633042 0.574414 -0.409164 -0.188539 0.173436 0.231043 -0.129021 0.313365 0.013616 -0.958122 0.369806 -0.043032 -0.647040 -0.775532 -0.066428 -0.489839 -0.180778 0.040344 -0.047309 -0.391143 0.750576 -0.378911 -0.470659 -0.339635 0.523812 0.229171 0.170669 0.440412 -0.285295 0.095624 -0.028198 -0.393036 -0.851453 0.484073 0.215566 0.002786 0.250003 -0.084761 -0.891298 0.018633 -0.041903 -0.683270 -0.424155 -0.012078
council -0.061118 -0.872609 -0.379294 0.187438 0.018030 0.415736 -0.020097 0.127015 0.022394 -0.483698 -0.624186 -0.911683 0.410254 0.111913 0.077737 -0.120667 -0.757242 0.289279 0.417287 -0.035584 -0.166851 0.030593 -0.205553 -0.212108 -0.461084 0.238007 -0.244240 -0.035443 0.905558 0.401412 0.127925 0.249473 -0.165860 -0.751048 0.296076 -0.148643 0.171540 0.422770 0.314622 0.243985 0.308363 0.682115 0.244705 -0.380188 -0.336367 -0.462667 0.254049 0.435140 -0.423171 -0.761520
known 0.166420 -0.556895 -0.274091 0.108921 -0.115878 0.089293 -0.365560 -0.407545 0.106154 0.430055 -0.104932 -0.123014 -0.099970 0.319258 -0.091095 0.180010 0.385010 0.029436 0.039180 -0.408541 -0.324789 0.054425 0.078813 0.222624 0.073941 0.586900 0.009701 -0.600059 -0.299161 -0.736505 -0.058872 -0.110772 0.483221 0.039161 0.047522 -0.273660 -0.369867 0.551090 -0.102842 -0.045828 0.315180 -0.307518 -0.628848 0.360108 0.263842 -0.073875 0.192514 0.024991 0.217318 0.139997
nicer -0.071857 -0.000077 -0.079309 0.021634 -0.020147 0.323503 0.386471 0.050411 -0.000730 0.300743 0.378281 0.043995 -0.414154 -0.249574 -0.104419 -0.735465 0.017168 -0.045657 -0.177610 -0.063143 -0.058975 0.360498 -0.007565 0.000253 1.028025 0.006958 0.097964 0.075512 -0.442837 -0.438402 -0.109888 0.423772 0.256744 -0.163143 0.265654 0.334385 0.261420 -0.001248 -0.574382 -0.019860 -0.162061 -0.327197 -0.445728 0.251429 -0.158085 0.089761 -0.138304 0.524446 0.131676 -0.772830
open 0.784495 0.356578 -0.856673 -0.255422 0.639124 -0.187011 -0.087395 -0.858124 -0.005316 0.095494 -0.205057 -0.904010 -0.268125 -0.136727 -0.290415 -0.526863 -0.688390 1.200226 0.090855 0.331500 -0.462340 0.709560 -0.113922 -0.063079 0.071896 -0.843672 -0.472526 -0.284546 0.246315 -0.279180 -0.559784 -0.689097 -0.042690 -0.362082 0.120497 -0.488399 0.931589 -0.077066 -0.092299 0.459929 -0.026587 -0.348192 -0.014909 -0.238110 0.140466 0.452252 0.103786 0.490552 0.317474 0.208341
plenty -0.035519 0.336683 -0.438285 -0.338510 -0.061923 -0.257330 -0.593988 -0.285996 0.022994 -0.052184 0.292388 -0.457774 -0.818278 0.217137 0.188272 0.206599 -0.615282 0.146320 0.094059 0.620452 0.431947 0.617278 -0.228849 0.214820 0.057923 0.057003 0.191546 0.226567 0.415449 0.097452 -0.011383 -0.222688 0.547312 0.012631 0.454629 0.287588 -0.487740 0.167327 0.519228 0.339542 -0.096014 0.002041 -0.023913 -0.516895 0.568924 0.103808 -0.188886 0.308331 0.457494 -0.072087
