location1 -0.189461 -0.822699 -0.311581 -0.350748 0.185692 0.237059 -1.211791 -0.273969 0.713574 0.727037 -0.561670 -0.228307 0.275496 0.562174 0.177151 -0.715337 0.250428 -1.676043 0.189159 -1.174812 0.270286 0.679868 -0.044966 -0.264855 -0.141113 -0.988344 -0.939691 0.795666 0.137542 0.352477 -0.705734 0.633756 0.653553 -1.050372 -0.150343 -0.468677 0.154208 0.879659 -0.307975 0.126841 0.162946 -0.798580 -0.830697 -1.539119 -0.936005 0.052953 -0.082115 1.321343 0.581075 0.447623
location2 -0.319726 -0.974915 -0.261807 -0.093890 0.025947 0.506440 -1.123081 -0.191577 0.649767 0.620654 -0.529024 0.149767 -0.106700 0.718656 -0.065749 -0.498616 0.742226 -1.391121 0.531172 -0.793272 0.195944 0.753613 0.137905 -0.248444 -0.009892 -0.854602 -0.451379 1.120421 -0.009475 0.492166 -0.261781 0.452353 0.414166 -1.207573 -0.041114 -0.102632 0.007419 0.421165 -0.044499 0.342545 0.268657 -0.838506 -0.755722 -1.328320 -0.711255 -0.202398 -0.178704 1.146243 0.597940 0.416812
london 0.409651 -0.838122 -0.292396 -0.223408 0.451717 0.850970 -0.397475 -0.573970 1.498888 0.087460 0.327632 -0.529962 0.408443 0.215045 -0.482224 -0.365444 0.980918 -0.649475 0.402219 -1.212428 0.256613 0.233787 -0.147038 0.082113 -0.530636 -0.547501 -0.192940 2.398718 1.429044 0.258980 0.119796 0.211451 0.177598 -0.966234 0.288849 0.323868 0.104632 0.587721 0.191853 0.083813 -0.249991 -0.661848 0.418538 -0.368225 -0.785613 -0.864850 -0.228732 -0.027938 0.119928 1.205261
area 0.160804 -0.561671 0.032019 0.152040 0.729094 0.119567 -0.891311 0.267530 0.905845 0.352569 -0.973084 0.548325 -0.446133 0.983084 -1.230528 -0.327122 -0.014435 -1.311966 -0.023327 -0.402241 0.843248 0.581614 -0.809033 -0.964508 -0.494327 -0.972689 -0.617856 0.501828 0.791621 0.804629 0.061879 0.104938 -0.188881 -0.688495 0.199481 -0.014895 -0.335484 0.473973 -0.746177 0.015910 -0.060474 -0.508723 -0.303985 -1.243515 -0.415015 -0.543849 0.328776 0.426476 0.591841 0.687113
live 0.072644 -0.820749 0.361964 -0.694259 -0.439093 0.042645 0.099179 0.374293 0.649061 0.831122 -0.306727 -0.180411 -0.008436 0.825185 -1.362415 -0.253165 -0.426288 -1.261146 0.718124 -0.912180 -0.722663 0.856651 -0.400635 0.063759 0.096017 -0.211432 -0.385717 1.105661 -0.240865 -0.171381 -0.356372 0.447595 0.114838 -0.578238 -0.226768 -0.027580 -0.268605 0.580711 -0.450150 0.322713 -0.098623 -0.554947 -0.768848 -0.815063 -0.766236 -0.225053 -0.390282 1.163340 0.556704 0.000447
place -0.038817 -0.598762 0.264734 -0.568141 -0.260456 -0.154487 -0.205507 0.836789 0.767904 0.586457 -0.181530 0.678856 -0.537615 0.708665 -1.236606 -0.348197 -0.126012 -0.904360 0.474110 -0.342911 -0.120291 0.611051 -0.055151 0.038000 -0.198692 0.081853 -0.247687 0.978271 -0.025472 0.008137 -0.150897 0.570670 -0.264004 -0.486776 -0.469344 0.206743 -0.207704 0.566730 -0.031286 0.441959 0.229777 -0.505324 -0.592742 -1.110858 -0.555621 -0.554671 -0.468671 0.502693 0.486147 0.642615
nice 0.029234 -0.450590 0.049824 -0.052320 0.044962 0.040452 -0.836752 0.075292 0.851642 0.298971 -0.315151 0.504591 -0.604558 0.593993 -0.863528 -0.406508 0.391730 -1.227740 0.276193 -0.425523 0.701867 0.191942 -0.071770 -0.679077 -0.317126 -0.673887 -0.487773 0.717901 0.457694 0.668531 0.022792 0.839199 -0.096512 -0.579071 -0.362411 0.309650 -0.093653 0.178127 -0.674893 0.356490 0.052791 -0.457094 -0.079635 -1.172655 -0.422518 -0.660422 0.203969 0.024477 0.461206 0.827185
good 0.268201 -0.381016 0.159514 -0.284017 -0.486545 -0.054544 -0.894574 0.603834 0.552877 -0.396304 0.033472 0.832096 -0.951700 -0.019265 -0.465123 -1.082736 0.089372 -1.823674 0.516778 -0.118399 0.401678 -0.234463 0.473197 -0.060620 -0.430936 0.268270 -0.407138 0.890420 -0.078499 0.323830 -0.727865 0.628576 0.369382 -0.255504 -0.644904 0.365929 0.592742 0.319745 0.329829 -0.353658 0.506393 0.137565 -0.210101 -1.014424 -0.017699 -0.304543 -0.280957 -0.051798 -0.415472 1.145185
like -0.323224 -0.677732 0.197678 -0.478524 -0.176053 -0.001697 -0.417202 0.358979 -0.043908 0.372523 -0.289380 0.419108 -0.590622 0.662432 -0.999482 0.143835 0.323418 -0.483014 0.425351 -0.356169 -0.065069 0.406756 -0.399071 -0.142087 0.070221 -0.357776 -0.013710 0.684599 -0.137556 0.272477 -0.125544 0.067133 -0.015645 -0.775507 -0.325731 0.006343 -0.395631 0.455799 -0.449527 0.264981 0.242139 -0.666213 -0.510189 -0.802656 -0.412142 -0.142730 -0.212670 0.695072 0.524840 0.282596
would -0.305196 -0.723941 0.469906 -0.316481 -0.397361 0.228806 0.020765 1.165116 0.434082 0.720381 -0.240755 0.012081 0.053183 0.498753 -0.959267 -0.295151 -0.573675 -0.550462 0.668659 -0.272746 -0.845965 0.540011 -0.473225 0.163883 0.318390 0.162893 -0.473796 0.830549 -0.550546 -0.197035 -0.328154 -0.158341 0.195239 -0.677396 -0.080066 -0.074746 -0.275789 0.468389 0.135376 0.153082 0.138505 -0.351103 -0.938502 -0.833215 -0.342774 -0.011635 -0.487415 1.356526 0.299709 -0.079785
also -0.144227 -0.717763 0.099551 -0.410815 -0.173104 0.086651 -0.569966 0.249499 -0.021207 0.289614 -0.325589 0.361886 -0.368518 0.372125 -0.658874 -0.431276 0.303322 -0.899105 0.257413 -0.373882 0.139349 0.400963 0.060068 -0.326895 -0.155192 -0.248078 -0.291814 0.577187 -0.066864 0.330476 -0.257642 0.177653 0.103959 -0.595323 -0.368202 0.062098 -0.107638 0.449958 -0.373330 0.030029 0.273752 -0.449061 -0.351097 -0.857061 -0.499940 -0.079415 -0.154396 0.547460 0.304005 0.474345
expensive 0.036226 -0.330357 0.095339 0.146640 0.285960 0.312426 -0.557145 0.259256 0.694292 0.193816 -0.274332 0.504926 -0.381387 0.431875 -0.642704 -0.307243 0.054205 -0.781313 0.369130 -0.052422 0.327399 -0.015154 -0.475560 -0.566974 -0.206492 -0.404220 -0.054672 0.917172 0.534557 0.505518 0.231662 0.152648 -0.171501 -0.632054 0.273668 0.323915 -0.406115 0.052113 -0.295790 0.134571 0.194038 -0.457491 -0.145748 -0.619679 -0.484121 -0.866625 -0.089168 0.065652 0.212082 0.660763
part 0.165433 -0.289441 0.025892 0.160349 0.462625 0.362679 -0.573702 -0.112486 0.720320 0.221600 -0.052759 0.121433 -0.201070 0.335147 -0.564447 -0.043427 0.451912 -0.429034 0.242241 -0.317840 0.556687 -0.081055 -0.429823 -0.662815 -0.302922 -0.523431 -0.110875 1.162044 0.869778 0.532350 0.298120 0.152891 -0.141288 -0.697610 0.198469 0.371439 -0.242851 0.108926 -0.451551 0.077157 -0.017668 -0.387407 0.304447 -0.471452 -0.489246 -0.729140 0.040782 -0.060468 0.306633 0.850171
lot -0.054354 -0.121841 -0.003596 -0.327815 -0.174847 -0.432128 -0.116782 0.484697 0.414726 0.032794 -0.171653 0.335838 -0.639399 0.531936 -0.968318 -0.403768 -0.388114 -0.876389 -0.045871 -0.140391 0.198342 0.141852 0.183765 -0.440485 -0.396972 -0.142429 -0.540606 -0.175587 -0.176745 0.491692 -0.456190 0.760455 -0.036289 0.003712 -0.480949 0.031176 0.207415 0.265832 -0.269364 0.163810 0.127938 0.099942 -0.400861 -0.993070 0.071393 0.040415 0.219845 0.219931 0.119517 0.435957
around -0.058673 -0.385291 -0.015195 -0.004509 0.235286 0.213346 -0.162650 0.157224 0.301600 0.384780 -0.334206 0.051134 0.117836 0.382125 -0.351184 -0.159978 -0.121800 -0.381593 0.193633 -0.372492 0.000122 0.218304 -0.111998 -0.162745 -0.055320 -0.350843 -0.376934 0.261315 0.045402 0.061160 -0.231499 0.217830 0.014130 -0.474115 -0.091378 -0.224419 -0.082955 0.389950 -0.231147 0.240345 -0.059598 -0.364687 -0.305142 -0.570334 -0.218268 -0.049381 0.018038 0.428032 0.300166 0.085187
one -0.035799 -0.358710 -0.213208 0.076032 0.128637 0.255848 -0.327786 0.130988 0.745685 0.315925 -0.168078 0.053530 0.089993 0.297350 -0.173524 -0.340023 0.002867 -0.519012 -0.031233 -0.271321 0.165071 0.191292 -0.131790 -0.033690 -0.311588 -0.319893 -0.179866 0.674147 0.318001 0.263059 0.095677 0.322650 0.002513 -0.420261 0.193191 0.002349 -0.254676 0.223532 0.015600 0.292641 0.140211 -0.548034 -0.247659 -0.532902 -0.573529 -0.567556 -0.218302 0.352018 0.249583 0.451695
great 0.038772 -0.306636 0.128906 -0.466237 -0.518665 -0.139300 -0.343619 0.388597 0.391940 -0.006147 0.084189 0.381451 -0.450349 0.093868 -0.573107 -0.716647 0.003215 -1.060168 0.348835 -0.106498 0.042434 0.102092 0.389043 0.110826 -0.143968 0.097298 -0.423919 0.490716 -0.144216 0.044106 -0.566880 0.437338 0.034387 -0.181686 -0.505654 0.277784 0.387068 0.259170 0.315206 -0.108662 0.276915 0.095158 -0.372493 -0.843265 -0.062258 0.053605 -0.171284 0.132322 -0.058607 0.663738
central 0.239143 -0.437909 -0.238297 0.202654 0.095764 0.771415 -0.490669 -0.244810 0.899759 -0.256351 0.121600 0.045706 0.093453 0.254526 0.011821 -0.300074 0.579022 -0.711366 0.424174 -0.406849 0.170382 0.053214 0.185888 0.334152 -0.190249 -0.165467 0.016999 1.413190 0.692044 0.191819 0.130220 0.281031 0.157943 -0.726441 0.241295 0.186657 -0.004872 0.169220 0.632254 0.187489 -0.006061 -0.632915 0.183725 -0.178790 -0.340696 -0.840226 -0.365917 -0.130651 -0.170366 0.801092
go -0.155110 -0.494784 0.056017 -0.299442 -0.202600 0.298875 -0.219268 0.294013 0.315788 0.146135 -0.069713 0.102918 -0.047944 0.302808 -0.390888 -0.264990 0.134397 -0.563932 0.350005 -0.292439 -0.225759 0.398308 0.197171 0.220891 -0.020197 0.054036 -0.233196 0.786762 -0.032846 0.018575 -0.284204 0.116983 0.124246 -0.662277 -0.234365 0.036542 0.158048 0.429488 0.381731 0.076839 0.199927 -0.330050 -0.363517 -0.585676 -0.203679 -0.055661 -0.321096 0.402733 0.112285 0.288021
quite -0.006093 -0.109049 0.010391 0.318029 0.449859 0.085280 -0.701085 0.100906 0.579478 0.221020 -0.570076 0.650637 -0.531071 0.522096 -0.612705 -0.175490 0.061767 -0.890727 0.239124 -0.109025 0.536591 0.046774 -0.462404 -0.814671 -0.178226 -0.653566 -0.211724 0.278156 0.447678 0.650041 0.076362 0.319971 -0.084243 -0.350688 0.161343 0.135383 -0.245653 0.023748 -0.485760 0.094965 0.037287 -0.261360 -0.102908 -0.755982 -0.279868 -0.582894 0.225601 0.066177 0.344313 0.451754
really -0.047307 -0.373985 0.293253 -0.235771 -0.066787 -0.087225 -0.355755 0.355937 0.253531 0.370825 -0.305909 0.396145 -0.527974 0.661586 -1.007916 -0.123843 0.103275 -0.534793 0.181367 -0.123958 0.178180 0.301420 -0.343628 -0.459437 0.005095 -0.334177 -0.219929 0.371196 0.110918 0.332030 0.020562 0.194769 -0.230008 -0.445300 -0.288342 0.167784 -0.319296 0.198206 -0.575061 0.211913 0.002088 -0.349723 -0.305714 -0.735849 -0.395519 -0.284501 0.010593 0.388151 0.444125 0.415171
lived 0.256630 -0.667768 -0.225493 -0.144135 -0.008466 0.124691 -0.063805 -0.339113 0.058689 0.485561 -0.120254 -0.674362 0.665977 -0.144614 0.274386 -0.174293 -0.023750 -0.472719 -0.154242 -0.863578 -0.128323 0.689020 -0.288429 0.349514 0.048127 -0.304295 -0.176743 0.253854 -0.039035 -0.265299 -0.075972 -0.149746 0.265105 -0.143285 0.307799 -0.556801 -0.294217 0.316782 -0.196517 0.190042 -0.227607 -0.393537 -0.120378 -0.111318 -0.686080 0.117126 -0.202986 0.722352 0.479701 -0.285498
get 0.201806 -0.387295 -0.234608 0.216382 0.074299 0.625337 -0.391421 0.200046 0.455812 -0.169783 0.033817 0.216810 -0.147661 0.478159 -0.068656 -0.158272 0.246214 -0.598867 0.189109 -0.180584 -0.008208 0.295005 0.169521 0.454167 -0.061710 -0.021107 0.096665 0.784751 0.281007 0.315093 0.053290 0.286413 0.192925 -0.704450 0.085803 -0.168701 -0.149630 0.273758 0.602215 0.437190 0.165784 -0.673328 0.044745 -0.382342 -0.187532 -0.569318 -0.521304 0.139262 -0.015514 0.554033
bit -0.073377 -0.328458 0.144010 0.174064 0.046332 0.169339 -0.570818 0.129766 0.055334 0.222824 -0.274786 0.496912 -0.447373 0.422274 -0.412369 0.030157 0.337146 -0.450920 0.338860 0.011356 0.264826 0.238401 -0.369274 -0.342892 0.143053 -0.524280 0.139756 0.275676 0.055987 0.472423 0.189732 0.012693 -0.010936 -0.460488 0.051991 0.060024 -0.333724 -0.050408 -0.416909 0.203229 0.081270 -0.457460 -0.163197 -0.542907 -0.234607 -0.360929 0.018905 0.233205 0.358737 0.144539
near -0.074718 -0.515805 -0.065626 -0.197549 -0.209090 0.317936 -0.248846 -0.055491 0.525899 0.301448 -0.096870 -0.198288 0.063979 0.401561 -0.213574 -0.213143 0.063581 -0.805225 0.374645 -0.613951 -0.202080 0.258828 0.037669 0.266877 -0.091604 -0.160275 -0.244658 0.956016 0.028379 0.070210 -0.188606 0.465762 0.211259 -0.470217 -0.152810 -0.092788 -0.032609 0.344302 0.146085 0.253253 0.077586 -0.671485 -0.301839 -0.515576 -0.279335 -0.318666 -0.244290 0.496393 0.148408 0.260758
people -0.000475 -0.111728 0.090112 -0.333143 -0.091228 -0.264722 0.157538 0.277325 0.089416 0.231954 -0.127850 -0.162831 -0.396620 0.941510 -0.882455 0.333917 -0.397453 -0.326598 0.237830 -0.086573 -0.219275 0.251431 -0.555012 -0.353185 -0.031251 -0.241263 -0.247514 -0.144498 -0.358684 0.510669 -0.249034 0.211838 -0.008931 -0.243713 0.037858 -0.240081 -0.091375 0.135620 -0.472879 0.217115 -0.127757 -0.149897 -0.459000 -0.665683 0.018991 0.155716 0.263304 0.769154 0.174916 -0.015304
south 0.019729 -0.710269 0.222551 -0.381677 0.106826 0.385686 -0.466219 -0.719344 0.360309 0.369384 -0.074382 -0.017788 0.466167 0.189450 -0.310758 0.040158 1.262078 -0.182278 0.767323 -0.590873 -0.028120 0.727905 -0.005539 -0.021380 0.330560 -0.494290 0.117624 1.523850 0.559984 -0.484353 0.188278 -0.387098 -0.170515 -0.924984 0.062404 0.633978 0.187084 0.139466 -0.313319 -0.254818 -0.233239 -0.218520 0.007740 -0.157119 -0.502294 -0.099177 -0.291914 0.120355 0.330114 0.229389
tube -0.235889 -0.227121 -0.707974 0.260977 -0.472519 0.536147 -0.362178 -0.275632 0.633792 -0.331305 0.254553 -0.490563 0.255712 -0.020726 0.899710 -0.447525 -0.062539 -0.858708 -0.074953 -0.440020 -0.242450 -0.110066 0.673272 0.832282 -0.251741 0.094497 -0.354956 0.747370 -0.104747 0.213530 -0.374572 0.798140 0.721418 -0.224102 0.030876 -0.142035 0.396712 0.202416 1.129685 0.092522 0.365870 -0.627244 -0.086197 -0.264231 0.115298 -0.299578 -0.335436 0.194558 -0.489548 0.457724
think 0.019861 -0.353788 0.047976 -0.153630 -0.133119 0.091166 -0.266400 0.234221 0.190152 0.293388 -0.182058 -0.008786 -0.179494 0.586011 -0.427762 -0.103221 -0.069834 -0.610513 0.341865 -0.190784 -0.117773 0.366331 -0.250349 -0.097740 -0.004011 -0.191459 -0.157931 0.379178 -0.206202 0.304813 -0.133658 0.059345 0.063885 -0.440584 -0.006721 -0.090151 -0.148303 0.158438 -0.072902 0.173801 0.056345 -0.384034 -0.477435 -0.676352 -0.271747 -0.082432 -0.052172 0.717787 0.206806 0.128067
well -0.165293 -0.262255 -0.052090 -0.138287 -0.093021 0.069614 -0.163512 0.087749 0.143581 -0.082363 -0.050642 0.022915 -0.212857 0.243279 -0.051846 -0.148880 -0.197193 -0.455435 0.051292 -0.151642 -0.056423 0.154010 -0.027120 -0.036644 -0.089594 -0.133100 -0.287046 0.144560 -0.236340 0.199791 -0.100980 0.255539 0.271952 -0.123623 0.021749 -0.024338 0.005818 0.116914 0.035608 -0.044348 0.079713 -0.138149 -0.145408 -0.469790 -0.071379 -0.020159 -0.040312 0.218093 0.082572 0.165453
much -0.047033 -0.280944 0.096968 0.217462 0.163774 0.215171 -0.419405 0.474728 0.328256 0.030920 -0.149827 0.366778 -0.126867 0.416675 -0.032891 0.028644 0.129033 -0.341490 0.006322 0.058516 0.048083 0.446569 -0.158684 -0.113093 -0.069512 -0.210573 0.069991 0.211391 -0.046803 0.189764 0.221500 0.127576 0.140320 -0.589683 0.152565 0.046104 -0.115320 -0.008099 0.048922 0.445156 0.093237 -0.356432 -0.294649 -0.495126 -0.499402 -0.251596 -0.128392 0.419614 0.397996 -0.007846
station -0.243910 -0.284301 -0.602441 0.222713 -0.491101 0.584041 -0.264604 -0.308333 0.646132 -0.209551 0.227231 -0.589670 0.450191 0.031387 0.919664 -0.406681 -0.027989 -0.742001 0.112952 -0.477555 -0.323183 -0.032101 0.590526 0.891479 -0.089894 0.140664 -0.240735 0.883923 -0.090096 0.070324 -0.302582 0.688965 0.680207 -0.250040 0.058694 -0.097741 0.326900 0.193572 1.072008 0.168719 0.274372 -0.666983 -0.125331 -0.144147 0.001745 -0.347935 -0.358282 0.388301 -0.489646 0.311950
year 0.430176 -0.558881 -0.340258 -0.162798 -0.088834 0.067971 0.361825 -0.431545 0.073901 0.433481 0.078474 -0.950670 0.874813 -0.280055 0.339196 0.107360 -0.309287 -0.172657 -0.309393 -0.815137 -0.425751 0.706956 -0.485553 0.556828 0.145238 -0.151657 -0.041810 0.039288 -0.019788 -0.461933 0.015632 -0.226090 0.210323 0.148478 0.538655 -0.704587 -0.336847 0.154930 -0.188907 0.305141 -0.339386 -0.221898 0.027168 0.360864 -0.596688 0.028678 -0.216831 0.715669 0.432672 -0.571369
best 0.121662 -0.397988 0.000221 -0.194875 -0.125720 0.161716 -0.275380 0.313750 0.566636 0.437107 -0.070619 0.541465 -0.222876 0.526415 -0.650528 -0.268919 0.299389 -0.335748 0.319594 -0.080660 -0.082931 0.482951 0.118595 0.083478 -0.018085 -0.163380 0.123452 0.756621 0.132368 0.074977 -0.048638 0.168364 -0.158760 -0.411303 0.000400 0.126884 -0.102631 0.372028 0.049524 0.253242 0.039181 -0.378127 -0.219868 -0.602408 -0.244162 -0.433275 -0.497541 0.203633 0.219240 0.344283
safe -0.011715 -0.085166 0.096858 0.180818 0.232067 0.022249 -0.451580 0.239748 0.450248 0.262956 -0.334476 0.514530 -0.297198 0.303399 -0.645066 0.029848 0.073113 -0.539386 0.239340 -0.087763 0.222149 0.145206 -0.269616 -0.510338 0.023160 -0.342718 -0.093588 0.380997 0.243779 0.355093 0.051080 0.233613 -0.058110 -0.259369 0.062005 0.139350 -0.170559 -0.010807 -0.292784 0.097875 -0.100048 -0.177612 -0.160672 -0.493757 -0.224113 -0.407159 0.030806 0.086404 0.259290 0.245468
street -0.196808 0.249622 -0.528671 -0.272691 0.140453 -0.307113 -0.359616 -0.264916 0.231361 0.018678 -0.319161 0.054420 -0.089423 -0.116036 -0.224526 -0.228329 -0.169374 -0.270479 -0.320241 -0.255294 0.272414 -0.592151 0.441451 -0.324619 -0.661161 -0.798542 -0.565721 -0.324841 -0.075033 0.295653 -0.942066 0.450081 -0.092933 -0.058492 -0.347212 -0.358475 0.400554 0.437325 0.029574 -0.162911 -0.001238 0.047874 -0.096214 -0.628998 0.565689 0.660892 0.699759 -0.205930 -0.084765 0.466215
line -0.287996 -0.068723 -0.557576 0.549180 -0.313309 0.577514 -0.233456 -0.478098 0.426226 -0.322735 0.305668 -0.562767 0.630873 -0.164093 1.241619 -0.304439 -0.090609 -0.305017 -0.091032 -0.046187 -0.112600 -0.294363 0.563050 0.845133 -0.015421 0.218796 0.013724 0.692655 0.011676 -0.007763 -0.175880 0.297229 0.573330 -0.143296 0.366853 -0.151117 0.061704 -0.083565 1.017869 -0.005163 0.264983 -0.478093 -0.088669 0.349215 -0.007672 -0.390248 -0.412395 0.264479 -0.579360 0.233988
road -0.050081 -0.051015 -0.227848 0.003157 0.294771 0.210209 -0.346696 -0.249646 0.224785 0.223969 -0.236238 -0.097725 0.215835 0.063292 0.058608 -0.103963 0.173571 -0.106401 -0.015977 -0.448945 0.061459 -0.062533 -0.062526 -0.171844 -0.176393 -0.610002 -0.194652 0.247137 0.092056 -0.082070 -0.246962 0.033941 0.086343 -0.332519 0.040717 -0.146697 0.106127 0.258250 -0.047940 0.049205 0.025316 -0.160334 -0.106732 -0.308762 -0.197977 0.156748 0.084245 0.182629 0.164779 0.110342
want -0.070044 -0.428258 0.395767 -0.406608 -0.269800 -0.103952 0.073959 0.393450 0.106966 0.402950 -0.277449 0.209730 -0.348631 0.782626 -1.118273 0.131709 -0.143620 -0.387770 0.395235 -0.180588 -0.412186 0.414697 -0.355442 -0.227838 0.162758 -0.024962 -0.078679 0.393282 -0.163943 0.122907 -0.077863 0.124329 -0.189774 -0.398785 -0.252921 -0.033315 -0.275011 0.302400 -0.533959 0.188356 -0.029640 -0.382279 -0.420987 -0.485204 -0.350043 -0.158703 -0.089739 0.645595 0.288705 0.021391
train -0.034324 -0.297568 -0.681863 0.370222 -0.370472 0.740420 -0.308049 -0.341515 0.451387 -0.399944 0.239079 -0.475219 0.309031 -0.115356 1.153135 -0.248819 0.275044 -0.558961 0.240934 -0.333149 -0.249374 0.020021 0.700220 0.798178 0.031377 0.146971 -0.043926 0.788983 -0.009209 0.278093 -0.229176 0.436068 0.768091 -0.435361 0.249653 -0.146697 0.312099 0.013195 1.184337 0.053947 0.260184 -0.512836 0.021788 0.041459 0.069983 -0.302296 -0.352882 0.225985 -0.516678 0.284697
crime -0.433711 0.315714 -0.413289 0.222975 0.498865 -0.280533 0.022403 -0.145364 0.442542 -0.314738 -0.534534 0.207141 -0.477790 0.208509 -0.078055 0.001566 -0.245540 -0.108556 -0.463059 -0.039436 0.320301 -0.151773 0.423372 -0.572245 -0.800101 -0.582407 -0.173115 -0.550660 0.006992 0.618425 -0.291157 0.166573 -0.210564 0.195190 -0.023914 -0.152289 0.236588 0.064723 -0.038203 0.015215 0.132943 0.251022 0.043408 -0.331797 0.555329 0.125948 0.661436 -0.328882 0.039426 0.146188
restaurant 0.081757 0.140899 0.003208 -0.249369 -0.433968 -0.677014 -0.286716 0.410132 0.598152 -0.463306 0.257133 0.672593 -1.036219 0.147019 -0.565193 -0.739413 0.060049 -0.953687 -0.304901 0.016905 0.867319 -0.318801 0.569421 -0.477794 -0.658544 -0.026504 -0.646872 -0.497966 -0.001175 0.546393 -0.248562 1.325418 -0.039418 0.393473 -0.886192 0.378146 0.694616 -0.032762 -0.309090 0.131766 0.232190 0.488251 0.143913 -1.109274 0.272233 -0.048514 0.511931 -0.652751 -0.233620 0.817613
west 0.103507 -0.607058 0.136822 -0.313732 0.333595 0.531168 -0.637692 -0.803014 0.481963 0.199935 -0.050564 -0.053511 0.489869 0.025357 -0.144790 -0.031501 1.303714 -0.224158 0.688935 -0.580295 0.161839 0.500747 0.034368 -0.078357 0.184007 -0.600144 0.043110 1.582387 0.728887 -0.352768 0.132474 -0.436691 -0.191987 -0.923544 0.197995 0.572290 0.234946 0.071494 -0.214603 -0.326567 -0.281943 -0.164948 0.147288 -0.094881 -0.432276 -0.095548 -0.238727 -0.133349 0.229288 0.387005
close 0.286905 -0.172836 0.111273 -0.174976 0.056522 0.144461 -0.293158 0.043612 0.419429 0.087963 0.002005 0.106640 -0.223489 0.180888 -0.463527 -0.133259 0.131347 -0.431144 0.197619 -0.318560 0.150599 -0.056488 -0.053752 -0.140699 -0.134117 0.001384 -0.129480 0.742293 0.292266 0.077343 -0.073605 0.211550 -0.105129 -0.341391 -0.129297 0.202209 -0.006611 0.285214 -0.227577 0.056103 0.125198 -0.154902 0.083740 -0.338271 -0.104512 -0.422903 -0.103972 -0.112546 0.021250 0.513757
try -0.486890 -0.514189 0.189818 -0.436485 -0.226986 0.006106 -0.277429 0.283843 -0.461459 0.368250 -0.289217 0.255766 -0.258845 0.429689 -0.512412 -0.034495 0.294806 -0.325423 0.291908 -0.150907 -0.269692 0.485244 -0.015914 -0.112231 0.112376 -0.054948 -0.049796 0.295804 -0.334922 0.076486 -0.085003 -0.069868 0.037386 -0.564051 -0.328079 -0.020198 -0.165361 0.296901 -0.286107 0.106010 0.340580 -0.471791 -0.483963 -0.496152 -0.399635 0.124463 -0.252620 0.748471 0.342369 -0.017590
bad 0.022323 -0.049209 0.055054 0.002201 0.199290 -0.104168 -0.420309 0.257739 0.061835 0.149802 -0.197019 0.287169 -0.323840 0.438248 -0.142775 -0.177579 -0.086658 -0.495931 0.106159 -0.046393 0.299480 0.060056 -0.238034 -0.423683 -0.013372 -0.177044 -0.203233 0.060720 -0.096261 0.329502 -0.062487 0.144318 0.062059 -0.279069 -0.107331 0.125578 0.025960 0.068089 -0.284018 0.117772 0.127170 0.022646 -0.265169 -0.627666 -0.184025 -0.086912 0.109431 0.482448 0.139674 0.297160
centre 0.457470 0.046116 0.117864 -0.275089 0.085691 0.237192 -0.578741 -0.054247 0.256385 -0.010822 0.271168 0.064625 -0.242491 -0.068204 -0.145896 -0.240802 0.357665 -0.589980 0.179048 -0.364382 0.362310 -0.358507 0.149856 -0.105208 -0.244113 0.204207 -0.215915 1.003466 0.333323 0.076929 -0.332434 0.239772 -0.065602 -0.394557 -0.257039 0.200085 0.244181 0.500401 -0.107128 -0.174731 0.394983 -0.047607 0.224446 -0.311030 0.089295 -0.390500 -0.209125 -0.358588 -0.313223 0.841063
know -0.070651 -0.351281 0.061443 -0.137216 0.058799 0.090288 -0.195912 0.129309 0.124562 0.193742 -0.157857 0.063790 -0.129882 0.435387 -0.280429 -0.003198 0.016344 -0.328609 0.126404 -0.202325 -0.098363 0.427554 -0.206574 -0.146494 0.019934 -0.340608 -0.094826 0.186317 -0.170105 0.155510 -0.034078 0.040294 0.130309 -0.342249 0.070972 -0.079785 -0.130405 0.165556 -0.217120 0.104024 0.009643 -0.258938 -0.274770 -0.465261 -0.293586 -0.005843 -0.038903 0.507572 0.315468 -0.015223
borough 0.178004 -0.274669 -0.071720 0.121265 0.355744 0.504929 -0.341248 -0.263563 0.676228 0.074918 0.171117 -0.142497 0.101510 0.098460 -0.244629 -0.032662 0.586621 -0.084223 0.297959 -0.340399 0.295589 -0.032883 -0.200538 -0.242610 -0.199570 -0.318599 0.014305 1.205137 0.826973 0.192943 0.333128 -0.064252 -0.051930 -0.600308 0.209658 0.334612 -0.050893 0.049966 -0.071470 0.001018 -0.144699 -0.255128 0.351129 -0.115278 -0.380347 -0.551171 -0.087065 -0.155094 0.124266 0.635141
north 0.056319 -0.516853 0.218544 -0.313622 0.261138 0.365496 -0.514484 -0.686383 0.206056 0.294697 -0.156714 -0.014407 0.396437 0.072275 -0.123022 0.042024 1.047488 -0.109307 0.619998 -0.482833 0.027970 0.517471 0.007840 -0.124072 0.368330 -0.551395 0.088552 1.148653 0.343578 -0.395777 0.093673 -0.453251 -0.222959 -0.784576 0.140986 0.462833 0.166066 0.043338 -0.329892 -0.283996 -0.227071 -0.097716 0.005262 -0.110661 -0.349771 0.093394 -0.200376 0.035195 0.297313 0.079226
look -0.058901 -0.430717 0.243854 -0.116601 0.190965 0.150280 -0.125490 0.339020 -0.114422 0.195130 -0.291105 0.391627 -0.192556 0.476839 -0.562094 -0.121317 -0.069602 -0.217752 0.183859 -0.142591 -0.018046 0.421541 -0.130506 -0.237150 0.051372 -0.141050 -0.086847 0.205656 -0.021620 0.075547 0.035007 -0.172904 -0.203647 -0.511199 -0.283253 -0.085446 -0.242209 0.334199 -0.402984 0.234511 0.076018 -0.326286 -0.167880 -0.496931 -0.248307 0.005963 -0.245845 0.295492 0.283070 0.038538
park -0.042451 -0.043646 0.033082 -0.152951 -0.158419 -0.209070 -0.256824 0.058793 -0.021064 0.204461 -0.091729 0.188543 -0.285587 -0.022385 -0.190212 -0.139928 0.176814 -0.240192 -0.058160 -0.040536 0.228405 -0.004833 0.080087 -0.212050 0.044784 -0.203547 -0.207791 -0.175510 -0.061668 0.108433 -0.049938 0.354415 -0.080440 0.089984 -0.312830 0.121490 0.010093 0.085317 -0.281892 0.136882 0.083232 0.027700 -0.084820 -0.394625 -0.031911 0.042697 0.198156 -0.077319 0.231866 0.130776
pretty -0.007980 -0.216588 0.150261 0.120490 0.126808 0.023636 -0.584619 0.455349 0.468583 0.189149 -0.344376 0.551520 -0.417886 0.425139 -0.512569 -0.175346 0.018750 -0.813016 0.211561 -0.050325 0.260318 0.232492 -0.206447 -0.509789 -0.134342 -0.271940 -0.170026 0.328203 0.045381 0.331642 0.051806 0.299578 0.063041 -0.352684 -0.071246 0.178367 -0.075253 0.040148 -0.274524 0.183310 0.050048 -0.201398 -0.269719 -0.747259 -0.346293 -0.388353 0.051631 0.279684 0.324648 0.267169
shop 0.004809 0.130812 -0.062461 -0.309645 -0.325666 -0.643964 -0.211099 0.291810 0.410102 -0.262006 0.039683 0.485855 -0.748231 0.057838 -0.573213 -0.583589 -0.181441 -0.722029 -0.261158 -0.034855 0.581396 -0.371616 0.486249 -0.366450 -0.589007 -0.146783 -0.608123 -0.551642 -0.117645 0.344252 -0.462454 0.995045 -0.072946 0.270969 -0.728225 0.131432 0.555297 0.147388 -0.251436 0.046847 0.152090 0.425381 0.022052 -0.964053 0.255326 0.203845 0.523679 -0.416298 -0.152333 0.650213
bar -0.071702 0.087775 0.072845 -0.395684 -0.482720 -0.782845 -0.072913 0.499753 0.418258 -0.213614 0.203119 0.634561 -0.907867 0.175011 -0.663567 -0.697904 0.006849 -0.691804 -0.387674 -0.042250 0.721678 -0.014784 0.523190 -0.462607 -0.392696 0.013464 -0.533042 -0.524722 -0.114706 0.476647 -0.233579 1.252854 -0.070148 0.353373 -0.889935 0.395445 0.566937 0.029742 -0.332618 0.133812 0.177963 0.474460 -0.102014 -1.010090 0.068993 0.029961 0.361997 -0.469424 0.045750 0.638924
house -0.047166 -0.009508 0.146792 0.022798 0.034576 -0.146855 -0.037831 0.305679 0.045001 0.102933 -0.368389 0.153885 -0.207536 0.219302 -0.295677 -0.241522 -0.147885 -0.368801 -0.017549 0.008012 0.218999 0.035852 -0.102891 -0.272050 -0.080041 -0.025082 -0.171598 -0.235250 -0.017220 0.176731 -0.012857 0.251338 -0.062571 0.101650 -0.134388 0.040652 -0.036361 -0.018450 -0.270342 0.025245 0.005706 -0.024773 -0.240709 -0.337798 -0.142203 -0.110561 0.185834 0.119858 0.216205 0.050464
many 0.065033 -0.130489 0.045675 -0.198165 -0.015051 -0.192791 0.061337 0.150770 0.329550 0.027577 -0.085107 -0.009723 -0.397756 0.562497 -0.681978 0.120144 -0.164618 -0.381576 0.060173 -0.154168 0.044125 0.127506 -0.308932 -0.336974 -0.247681 -0.208549 -0.229122 0.043591 0.021131 0.397551 -0.075180 0.278641 -0.092397 -0.128160 0.013405 -0.091442 -0.074283 0.111366 -0.359576 0.146533 -0.086255 -0.095340 -0.062445 -0.524560 0.022277 -0.130274 0.226421 0.236515 0.120094 0.206793
time 0.143381 -0.113953 -0.050653 0.030839 0.195140 0.133043 -0.093633 -0.136673 0.160716 0.082556 0.001446 -0.149440 0.239695 -0.008051 0.035882 -0.027638 0.127726 -0.085568 -0.030537 -0.260210 -0.039656 0.114305 -0.065395 0.063007 -0.030605 -0.163651 -0.033487 0.256361 0.281131 -0.038128 -0.036530 -0.071532 -0.025266 -0.205503 0.109881 -0.108332 -0.031431 0.114136 -0.072800 0.083875 -0.105401 -0.122497 0.075402 0.003586 -0.196639 -0.038088 -0.032228 0.044726 0.076724 0.045275
living -0.057528 -0.251953 0.095224 -0.217918 -0.108242 0.021969 0.026735 0.102042 0.002675 0.288289 -0.131973 -0.157940 -0.076127 0.539509 -0.320921 0.158293 -0.098872 -0.258321 0.287110 -0.219265 -0.261426 0.267132 -0.325813 -0.059997 0.174106 -0.114350 -0.112245 0.153059 -0.204645 0.186532 -0.097892 0.039160 0.065834 -0.303269 0.052678 -0.169040 -0.112928 0.168776 -0.179585 0.119098 -0.009604 -0.285998 -0.391452 -0.349259 -0.216111 0.053595 -0.017792 0.659042 0.197273 -0.093302
say -0.192688 -0.461413 0.214973 -0.235744 -0.188384 0.144618 -0.111107 0.372490 0.275049 0.420618 -0.141378 0.048987 0.038877 0.339235 -0.543666 -0.043422 -0.092787 -0.310136 0.449472 -0.197321 -0.394080 0.361533 -0.283384 0.004391 0.171572 -0.038873 -0.215768 0.596852 -0.200951 -0.020331 -0.120289 -0.079234 0.107501 -0.454419 0.021200 0.061628 -0.133800 0.205864 -0.068342 0.093234 0.043253 -0.263951 -0.456132 -0.460145 -0.240601 -0.035734 -0.260678 0.703405 0.203872 -0.020900
could -0.483812 -0.567746 0.198937 -0.437164 -0.262785 0.012463 -0.121567 0.393730 -0.480738 0.461945 -0.384979 0.199511 -0.218261 0.500468 -0.649429 -0.066736 0.150500 -0.333170 0.265645 -0.151674 -0.383627 0.531074 0.009318 -0.126110 0.115066 0.013564 -0.049866 0.266465 -0.355135 0.029761 -0.084191 -0.078680 -0.006763 -0.536743 -0.333172 -0.047171 -0.254662 0.326841 -0.280173 0.165406 0.281368 -0.516663 -0.525995 -0.423869 -0.460069 0.066850 -0.269401 0.831536 0.401521 -0.077076
going -0.089781 -0.235425 0.087996 -0.122985 -0.004122 0.011509 -0.128934 0.105439 0.150497 0.090176 -0.071264 0.066743 -0.047314 0.150785 -0.242889 -0.087062 0.095957 -0.238908 0.085197 -0.075812 -0.066524 0.208059 0.013423 -0.067989 0.001227 -0.017549 -0.030966 0.292952 0.019667 0.024929 -0.086472 0.083373 0.028549 -0.250303 -0.007802 0.090804 -0.037081 0.083439 -0.005840 0.038943 0.095417 -0.083206 -0.224344 -0.244082 -0.122599 -0.031072 -0.104435 0.242342 0.114938 0.040807
night -0.073410 0.001528 -0.185236 0.038946 -0.233132 -0.098073 -0.097570 0.086249 0.087232 -0.132406 0.087837 0.073205 -0.071123 -0.222831 0.248053 -0.335068 0.054492 -0.292535 -0.290548 -0.076111 0.198875 0.151156 0.434219 0.091798 -0.057291 0.092331 -0.197237 -0.157775 -0.140026 0.223576 -0.220355 0.479538 0.339389 0.030311 -0.164215 -0.070130 0.362159 0.150545 0.383001 -0.096044 0.162861 0.146758 -0.087605 -0.217578 0.103348 0.107195 -0.089234 -0.175746 -0.028696 0.098871
still 0.062139 -0.151921 -0.045951 0.069954 0.135448 0.101951 -0.368879 0.015052 0.325170 -0.008126 -0.149116 0.245817 -0.338124 0.325297 -0.360176 -0.119064 0.163922 -0.538811 0.122479 -0.119770 0.294326 0.013741 -0.097704 -0.282178 -0.182111 -0.272146 -0.081329 0.385814 0.210654 0.374399 -0.059771 0.201540 -0.027500 -0.258752 -0.039024 0.081499 -0.035294 0.060941 -0.055931 0.049549 0.030646 -0.191440 0.006918 -0.469486 -0.103385 -0.282198 0.018570 0.056366 0.078182 0.448656
transport 0.301435 0.005903 0.077655 -0.197636 -0.407434 -0.083229 -0.614824 0.246915 0.022518 -0.552261 0.228501 0.604579 -0.698219 -0.411922 0.277965 -1.034200 0.197425 -1.355926 0.263192 0.244912 0.291673 -0.353369 0.792053 0.143260 -0.270981 0.454726 -0.268586 0.467723 -0.094588 0.052294 -0.832809 0.175538 0.252980 0.115510 -0.422589 0.225146 0.689198 0.176167 0.773097 -0.547097 0.630944 0.510940 -0.102163 -0.432112 0.292094 0.055571 -0.363675 -0.201373 -0.500319 0.905462
far -0.007138 -0.424928 0.057611 0.012303 0.078657 0.370437 -0.428560 -0.068535 0.359321 0.235905 -0.207484 0.264999 -0.055288 0.388441 -0.314289 -0.014923 0.474943 -0.404461 0.503182 -0.210305 0.055512 0.327149 -0.136448 -0.110904 0.152801 -0.456376 0.072744 0.681166 0.179711 0.135114 0.136839 0.015724 0.000879 -0.593441 0.161885 0.064082 -0.159703 0.099831 -0.142956 0.202469 -0.066416 -0.467158 -0.142479 -0.379223 -0.322913 -0.333114 -0.113166 0.287424 0.322143 0.123098
better -0.026556 -0.288157 0.109941 0.011887 0.013282 0.165873 -0.180456 0.412622 0.304606 0.227177 -0.142829 0.204859 -0.064134 0.375698 -0.261137 -0.083870 -0.053043 -0.312093 0.121807 -0.041782 -0.082141 0.346175 -0.207135 -0.066049 0.002485 -0.194761 -0.051181 0.261126 -0.079381 0.095405 0.084718 0.076580 0.048645 -0.410167 0.085995 0.060024 -0.118122 0.075783 -0.035519 0.344127 0.064186 -0.311221 -0.377934 -0.458591 -0.444386 -0.143057 -0.125481 0.488127 0.302616 -0.015178
probably 0.087515 -0.367797 0.096212 -0.062083 0.098883 0.153808 -0.350059 0.303682 0.301245 0.353039 -0.264016 0.486213 -0.243206 0.487299 -0.639656 -0.122473 0.160352 -0.318000 0.229718 0.004312 0.086545 0.409151 -0.249154 -0.216858 0.001375 -0.277377 0.078972 0.482690 0.175654 0.255189 0.076855 -0.045652 -0.140356 -0.444906 0.105152 0.061491 -0.283474 0.267627 -0.254645 0.160820 0.085355 -0.391475 -0.214479 -0.600273 -0.241691 -0.377501 -0.252720 0.268638 0.272246 0.235871
east -0.077015 -0.506998 0.162058 -0.215363 0.132314 0.369650 -0.434262 -0.815946 0.271229 0.259692 0.007936 -0.064649 0.630976 -0.040559 -0.064976 0.003974 1.189138 -0.108456 0.586659 -0.488720 0.080391 0.644927 0.070654 0.010213 0.349372 -0.500515 0.081965 1.264133 0.629088 -0.562501 0.137430 -0.470543 -0.078545 -0.747616 0.100729 0.659495 0.373296 0.103453 -0.269216 -0.452439 -0.149489 -0.020780 0.029435 -0.023754 -0.413051 0.104213 -0.154155 0.027095 0.200151 0.131881
find -0.054679 -0.327531 0.200599 -0.351443 -0.146287 -0.163133 -0.032588 0.550426 -0.203804 0.210934 -0.188611 0.407497 -0.375454 0.379783 -0.731565 -0.029460 -0.167521 -0.293593 0.205907 0.020241 -0.127317 0.211265 -0.066606 -0.191656 0.006076 0.078454 0.033781 0.071972 -0.261433 0.050326 -0.201431 0.014966 -0.109744 -0.206163 -0.359536 -0.046908 -0.100350 0.254701 -0.275494 0.047511 0.121493 -0.115344 -0.388921 -0.459847 -0.151741 0.040702 -0.120569 0.343950 0.148362 0.043190
market -0.086907 0.056181 -0.055209 -0.358746 -0.227121 -0.355021 -0.210876 0.157701 0.092670 0.039594 -0.089844 0.306639 -0.341496 -0.011682 -0.428670 -0.314923 -0.196891 -0.396821 -0.091010 -0.032809 0.225651 -0.174276 0.222715 -0.163476 -0.244027 -0.205991 -0.363651 -0.273156 -0.202151 0.137678 -0.511874 0.369150 -0.126615 0.046475 -0.448026 -0.026691 0.245397 0.215213 -0.119937 -0.055133 0.054097 0.141674 -0.171032 -0.619388 0.172197 0.343422 0.250941 -0.059343 0.032795 0.358022
used -0.056919 -0.355494 0.149091 -0.231970 -0.123918 0.162619 0.070129 0.131498 0.174832 0.379976 -0.183059 -0.106252 0.062570 0.445312 -0.454588 0.006045 -0.201333 -0.370597 0.315824 -0.357529 -0.406775 0.399406 -0.222494 0.040296 0.179503 -0.141771 -0.094164 0.430520 -0.170966 -0.081683 -0.095013 0.076124 0.099146 -0.379220 -0.026221 0.003552 -0.167142 0.253233 -0.117845 0.220623 -0.041725 -0.356702 -0.408160 -0.271401 -0.397282 -0.055866 -0.161075 0.647416 0.299973 -0.129540
right -0.159949 -0.305535 0.084183 -0.221339 -0.150791 0.104517 -0.108285 -0.181825 0.105246 0.281146 -0.126190 -0.105869 0.145524 0.222527 -0.088625 -0.124724 0.243722 -0.313951 0.252511 -0.299517 -0.140760 0.360042 0.114351 0.159193 0.211081 -0.163925 0.037950 0.449629 -0.151336 -0.123735 -0.019722 0.077206 0.023971 -0.241055 -0.165743 0.106464 0.073982 0.123898 0.033841 0.020761 -0.037219 -0.189847 -0.269966 -0.298818 -0.190360 0.101841 -0.083849 0.375960 0.214938 -0.137749
take -0.054213 -0.188111 -0.314799 0.244509 -0.033624 0.392027 -0.217984 -0.145228 0.113668 -0.127961 0.030216 -0.153490 0.159168 -0.023002 0.604905 -0.153660 0.088502 -0.201614 -0.021617 -0.118289 -0.060668 0.060357 0.303195 0.311426 0.007035 0.017922 -0.048500 0.211733 -0.034351 0.145809 -0.073391 0.212109 0.354325 -0.285697 0.108926 -0.197096 0.047388 0.040524 0.492034 0.107474 0.179825 -0.319474 -0.000247 -0.020632 -0.021987 -0.059635 -0.190870 0.174449 -0.148367 0.109963
town 0.312642 -0.135316 0.071372 -0.153624 0.149344 0.258258 -0.585591 0.014050 0.403460 0.186106 0.038141 0.187803 -0.322013 0.182037 -0.459407 -0.152564 0.287188 -0.551323 0.173931 -0.353743 0.410850 -0.153239 -0.073091 -0.329308 -0.216811 -0.120252 -0.182861 0.955482 0.423653 0.291648 -0.072984 0.268048 -0.146234 -0.529148 -0.171287 0.185591 -0.080090 0.387033 -0.356314 0.124461 0.238755 -0.329071 0.152120 -0.494880 -0.164858 -0.576642 -0.127899 -0.200335 0.071172 0.785974
cheap -0.050523 -0.196818 0.117671 -0.053584 0.102628 0.030523 -0.347562 0.147345 0.327580 0.288854 -0.302437 0.406531 -0.231119 0.392013 -0.603333 0.005821 0.223815 -0.374189 0.258676 -0.118274 0.075759 0.229368 -0.126345 -0.368167 0.029954 -0.295518 -0.078906 0.413154 0.148439 0.176031 0.055346 0.112033 -0.145061 -0.317899 -0.052504 0.161137 -0.120231 0.091159 -0.331973 0.147995 -0.056798 -0.201796 -0.160771 -0.470703 -0.242900 -0.303434 -0.013441 0.158288 0.286407 0.194478
lovely -0.008429 -0.334545 0.065624 -0.199745 0.011588 0.045753 -0.310823 0.101578 0.073132 0.364625 -0.235169 0.148825 -0.165198 0.279195 -0.456588 -0.091172 0.088503 -0.408911 0.090829 -0.254286 0.134288 0.242283 -0.155070 -0.259956 -0.068146 -0.248797 -0.196348 0.323071 0.039641 0.192871 -0.054084 0.117818 -0.055612 -0.321784 -0.135516 -0.047756 -0.211808 0.259658 -0.357998 0.179586 0.089362 -0.336739 -0.205259 -0.481379 -0.302015 -0.124481 -0.062260 0.330380 0.361516 0.209216
shopping 0.334295 0.146767 0.099627 -0.196907 0.062031 -0.018315 -0.521888 0.188119 0.148901 -0.073870 0.135637 0.313848 -0.412583 -0.039322 -0.241794 -0.339453 0.107610 -0.649795 0.036351 -0.161987 0.491877 -0.369208 0.091655 -0.302394 -0.309994 0.073439 -0.338056 0.352863 0.195715 0.200636 -0.388992 0.286325 -0.047873 -0.110517 -0.325076 0.146367 0.334170 0.397020 -0.214090 -0.213224 0.382874 0.157169 0.042919 -0.511589 0.086284 -0.167877 0.034207 -0.279251 -0.302992 0.701683
etc 0.098668 -0.134399 -0.037201 -0.165302 -0.243045 -0.191372 -0.242718 0.194108 0.461761 -0.237292 0.153594 0.378051 -0.549869 0.159578 -0.382808 -0.457028 0.197291 -0.622344 -0.038136 -0.096656 0.456392 -0.111595 0.367809 -0.088228 -0.301741 -0.019593 -0.286885 0.047681 0.061846 0.258418 -0.119583 0.707527 0.000746 -0.012512 -0.461457 0.215580 0.357992 0.063394 0.000280 0.157848 0.134739 0.129214 0.046990 -0.692060 0.051025 -0.138445 0.131761 -0.252314 -0.082264 0.613945
cheaper 0.041498 -0.306670 0.068947 0.047117 -0.017596 0.191678 -0.309154 0.124818 0.206312 0.230765 -0.160670 0.152454 -0.159589 0.400251 -0.335360 -0.044636 0.081055 -0.489423 0.169286 -0.169922 0.053506 0.244457 -0.255119 -0.177885 0.027465 -0.293328 -0.068141 0.390701 0.088001 0.328923 0.064267 0.097955 0.048435 -0.391509 0.013533 0.019188 -0.233086 0.113459 -0.263378 0.197038 -0.016000 -0.400742 -0.147222 -0.422510 -0.270114 -0.303118 -0.054941 0.312511 0.244820 0.152159
even 0.002372 -0.161552 0.026509 -0.086124 0.003024 0.118064 -0.161163 -0.143189 0.161370 0.194536 -0.023066 -0.073013 0.058714 0.192769 0.015492 -0.045005 0.103111 -0.207721 0.116929 -0.170766 -0.065248 0.161417 -0.159086 -0.071379 0.004926 -0.136944 -0.048992 0.249035 -0.003368 0.084035 0.049011 -0.073165 -0.005997 -0.223286 0.077467 -0.049623 -0.095393 0.087910 -0.046766 0.000648 0.042819 -0.232201 -0.150345 -0.223250 -0.188071 -0.031988 -0.068133 0.323454 0.154164 0.004414
feel -0.030028 -0.073248 0.139921 0.123121 0.127920 0.011658 -0.235515 0.280644 0.231298 0.205140 -0.246575 0.369965 -0.263777 0.228723 -0.516763 0.082324 -0.053240 -0.266146 0.210842 -0.003275 0.066383 0.078660 -0.282115 -0.270101 0.055426 -0.146437 -0.006247 0.211907 0.095536 0.225968 0.043200 0.092492 -0.062393 -0.216321 0.058729 0.070420 -0.221057 0.003582 -0.186570 0.063235 -0.032411 -0.138591 -0.154052 -0.272533 -0.123185 -0.254408 -0.065566 0.141041 0.197103 0.140524
flat -0.151890 0.019606 0.078342 0.020015 -0.026458 -0.145399 0.080427 0.192417 -0.127998 0.158227 -0.274364 0.086679 0.026122 0.148676 -0.114694 -0.059055 -0.128274 0.001991 -0.036801 0.001578 0.027991 -0.003173 -0.063429 -0.086010 0.026585 -0.064970 -0.104157 -0.423826 -0.250356 0.051006 0.029455 0.061680 -0.065283 0.103903 -0.087420 -0.086293 -0.086606 -0.031450 -0.254297 0.058783 -0.055972 -0.010267 -0.267442 -0.188595 -0.188556 0.116793 0.133436 0.196255 0.269528 -0.194530
suburb 0.131434 -0.215985 0.104457 -0.082573 0.168291 0.167871 -0.262491 -0.204469 0.526249 0.071875 0.107571 0.036141 0.047031 0.105599 -0.263317 -0.109956 0.552650 -0.295846 0.198443 -0.271566 0.284063 0.049508 -0.070530 -0.122317 -0.187225 -0.235788 0.001193 0.824642 0.500834 0.106478 0.142004 0.140038 -0.099642 -0.351980 0.040274 0.322755 0.031443 0.098526 -0.154829 0.033639 -0.133151 -0.153281 0.152883 -0.174033 -0.298341 -0.353433 -0.032644 -0.202647 0.102310 0.458925
though 0.013929 -0.157282 0.069037 -0.080096 -0.063061 0.102233 -0.231600 0.030983 0.282999 0.159307 -0.040628 0.190324 -0.160491 0.203007 -0.148103 -0.165032 0.009442 -0.398471 0.174383 -0.091766 0.037236 0.032988 -0.142420 -0.136739 -0.017641 -0.094815 -0.098847 0.310995 0.057291 0.193564 0.023822 0.107410 -0.028196 -0.211142 -0.040132 0.069279 -0.084428 0.086815 -0.046903 0.029483 0.165023 -0.244819 -0.157731 -0.374714 -0.191616 -0.233431 -0.091017 0.196173 0.103430 0.183455
avoid -0.116433 -0.190295 -0.028714 -0.032381 0.058610 0.041321 -0.257627 -0.015952 0.053585 0.233011 -0.155828 0.055988 -0.025095 0.250142 -0.050437 -0.028603 0.137846 -0.235500 0.107980 -0.165579 0.030404 0.228333 -0.096331 -0.114695 0.077110 -0.236526 -0.108644 0.159618 -0.066625 0.074403 -0.013312 0.044424 0.021945 -0.313588 0.014761 -0.053452 -0.059642 0.124621 -0.110020 0.076612 0.031321 -0.207518 -0.262746 -0.350767 -0.192087 0.029638 -0.029139 0.375276 0.244623 0.045103
bus 0.011211 -0.143435 -0.408834 0.145791 -0.274956 0.381143 -0.152535 -0.165030 0.196092 -0.410266 0.248215 -0.320513 0.174399 -0.287814 0.768352 -0.316485 0.138085 -0.442929 -0.022060 -0.206224 -0.141939 0.021192 0.562962 0.628091 -0.058405 0.244444 -0.088843 0.447280 -0.048776 0.094823 -0.245424 0.281312 0.572119 -0.140380 0.057509 -0.142604 0.393065 0.148658 0.975345 -0.143769 0.210174 -0.156205 0.055921 0.027612 0.126349 -0.034377 -0.313669 -0.071270 -0.335343 0.246744
high -0.300586 0.172227 -0.471892 0.028747 0.427329 -0.152400 -0.291532 -0.339190 0.434309 -0.063708 -0.529313 0.057686 -0.171574 0.092420 -0.094348 -0.164798 -0.069927 -0.320119 -0.282241 -0.303424 0.298824 -0.254568 0.291671 -0.476472 -0.620349 -0.834103 -0.343663 -0.207529 0.125302 0.443343 -0.532082 0.185130 -0.071468 -0.070305 -0.028328 -0.243248 0.252125 0.301898 -0.033666 -0.122536 0.044133 0.027832 -0.071162 -0.475889 0.330064 0.277045 0.612950 -0.124763 0.067470 0.302985
somewhere -0.444751 -0.528475 0.299214 -0.443908 -0.156977 -0.007764 -0.172139 0.268308 -0.348480 0.478772 -0.285540 0.253160 -0.245488 0.555167 -0.782571 0.250142 0.256477 -0.102754 0.393494 -0.192565 -0.310231 0.533100 -0.391694 -0.046113 0.210290 -0.214613 0.069216 0.395522 -0.277661 0.016908 0.004558 -0.148987 -0.049189 -0.648809 -0.266529 -0.076087 -0.358230 0.309636 -0.478901 0.208218 0.215794 -0.559691 -0.526600 -0.473773 -0.394544 0.099910 -0.230520 0.796912 0.499697 -0.154285
link 0.218118 -0.103761 0.033310 -0.184110 -0.298193 0.028049 -0.567092 0.116770 0.080782 -0.422241 0.204157 0.384974 -0.485312 -0.283199 0.205904 -0.816930 0.246544 -1.146898 0.232917 0.020443 0.245432 -0.241970 0.619896 0.150613 -0.241043 0.319466 -0.193836 0.594587 -0.008428 0.101068 -0.636789 0.199628 0.259975 -0.087696 -0.351496 0.130971 0.490017 0.240485 0.546319 -0.412663 0.505350 0.205647 -0.052402 -0.403259 0.120255 -0.048536 -0.343207 -0.127628 -0.383405 0.782511
looking -0.248304 -0.267730 0.197814 -0.155371 0.053073 -0.030005 0.010999 0.316364 -0.056192 0.346018 -0.261119 0.201020 -0.177749 0.410984 -0.507441 0.078817 -0.067780 -0.085846 0.142980 -0.105965 -0.165769 0.351599 -0.263797 -0.161111 0.073477 -0.190693 -0.089265 0.094109 -0.163368 0.023842 0.009633 -0.095426 -0.064806 -0.288160 -0.083800 -0.042110 -0.185454 0.166476 -0.302485 0.205595 0.116661 -0.244492 -0.400336 -0.396251 -0.210183 0.013893 -0.020247 0.512486 0.334640 -0.094648
large 0.192148 0.170518 0.110566 0.042332 0.212567 -0.176081 0.028990 0.013137 -0.203388 0.077685 -0.077810 -0.125056 0.033599 -0.031908 0.160849 0.101644 -0.164432 -0.010003 -0.102341 -0.151454 0.153207 -0.132640 -0.353854 -0.092062 0.034166 -0.063643 -0.142696 -0.300691 0.368494 0.012533 0.103768 0.028157 -0.000068 0.185811 0.056285 -0.198836 -0.102781 0.016245 -0.395275 -0.183290 -0.063192 0.061983 0.054532 0.137150 -0.240192 -0.048603 0.035967 -0.102728 0.073917 -0.137404
minute 0.194919 -0.108082 -0.463787 0.257391 0.045292 0.563539 0.018929 -0.598340 0.120070 -0.202806 0.312757 -0.503445 0.521370 -0.320064 1.080168 0.166936 0.417941 0.273727 0.319753 -0.165983 -0.185517 -0.045148 0.362533 0.433473 0.154942 0.105359 0.146201 0.373691 0.235707 -0.112028 0.115739 -0.071280 0.430346 -0.204834 0.457023 -0.126729 0.048893 -0.201137 0.666847 0.028689 -0.148190 -0.176333 0.261765 0.622555 0.033069 -0.200427 -0.131987 -0.047992 -0.354381 -0.062380
life 0.082574 -0.220517 -0.069884 -0.084425 -0.013776 -0.043396 -0.020531 -0.187887 -0.013783 0.231819 -0.036915 -0.306458 0.342598 -0.191716 0.228037 -0.131507 0.057108 -0.144726 -0.100574 -0.390295 -0.017482 0.316646 0.007445 0.215788 0.058236 -0.100496 -0.045819 0.104675 -0.061332 -0.174909 -0.109386 -0.018811 0.175244 -0.044603 0.104989 -0.224341 -0.050458 0.217921 0.040207 -0.014583 -0.055914 -0.087181 -0.107080 -0.023743 -0.298679 0.147494 -0.119145 0.221722 0.185618 -0.114654
need 0.052962 -0.270168 0.205626 -0.089714 0.135872 0.116607 0.005975 0.389183 0.084537 0.078810 -0.086787 0.266364 -0.173605 0.389467 -0.513096 -0.068845 -0.128109 -0.180545 0.127704 -0.111089 -0.048735 0.291024 -0.100521 -0.018045 0.006888 0.017847 -0.007733 0.277623 0.077678 -0.005784 0.117524 -0.005353 -0.167658 -0.367970 -0.192171 0.011521 -0.175642 0.246245 -0.131381 0.213308 0.008070 -0.231133 -0.018769 -0.309748 -0.223845 -0.196414 -0.236271 0.092020 0.217107 0.137716
big -0.044769 0.091569 0.052769 -0.096064 -0.037329 -0.145284 -0.025320 0.082669 -0.126440 0.083888 -0.086889 0.080319 -0.072945 -0.047849 -0.180215 -0.060602 -0.017099 0.044706 -0.131608 -0.000088 0.064076 -0.091671 -0.021516 -0.205867 -0.128616 0.030794 -0.130605 -0.152650 -0.058208 0.101298 -0.107168 0.049249 -0.043326 0.078802 -0.112144 0.061471 0.014105 0.164083 -0.260273 -0.085484 0.013497 0.056945 -0.114648 -0.157657 0.031719 0.091344 0.058061 -0.010362 0.001962 0.109176
end -0.118494 -0.272079 0.053157 -0.034765 0.016299 0.286566 -0.200256 -0.679989 0.199894 0.118977 0.157089 -0.221318 0.641319 -0.151272 0.213272 -0.033542 0.747750 -0.027212 0.269481 -0.318087 0.043026 0.363056 0.167674 0.213557 0.231206 -0.203615 0.080562 0.860339 0.478410 -0.459641 0.085410 -0.249514 0.070910 -0.377216 0.095589 0.456008 0.322274 0.064148 -0.036910 -0.361456 -0.080417 0.012301 0.069297 0.162274 -0.288176 0.092393 -0.119598 0.022021 -0.013219 0.056540
village -0.100697 -0.185953 0.061036 -0.087500 0.007948 -0.019159 -0.079746 0.049291 0.048106 0.135610 -0.101594 0.023485 -0.049670 0.108050 -0.246460 0.070515 0.058338 -0.096535 0.116028 -0.164197 -0.044298 0.106144 -0.149383 -0.014393 -0.023516 -0.113146 -0.019699 0.224400 0.035049 0.045715 -0.037760 0.002232 0.002441 -0.206030 -0.061856 -0.015102 -0.171766 0.143933 -0.167671 0.029341 -0.021108 -0.242279 -0.090189 -0.158706 -0.133614 -0.017033 -0.054576 0.195818 0.127959 0.039425
way 0.039765 -0.095197 -0.121317 0.188738 0.240508 0.337912 -0.156613 -0.158037 0.237080 0.036483 -0.047321 0.007620 0.141739 0.007856 0.193332 -0.080319 0.223021 -0.108939 0.040873 -0.136355 0.132207 0.051484 -0.071394 -0.002787 -0.020561 -0.112543 0.047380 0.281214 0.250958 0.072882 0.168605 -0.020944 0.046723 -0.208880 0.234120 -0.007597 -0.032054 -0.014634 0.159582 0.110528 -0.056528 -0.178000 0.093175 0.051883 -0.175739 -0.253733 -0.053529 0.025902 0.090522 0.037433
never 0.120733 -0.272533 -0.103158 -0.050565 -0.206382 0.021367 0.218467 -0.043585 -0.137611 0.226974 -0.035729 -0.444296 0.411318 -0.151050 0.266895 0.022232 -0.350150 -0.118371 -0.127513 -0.332813 -0.419316 0.421131 -0.219036 0.445875 0.218728 0.071692 0.006917 -0.226908 -0.331703 -0.305288 -0.033571 -0.207898 0.122778 0.084503 0.212222 -0.356043 -0.226241 0.100218 -0.014679 0.148989 -0.127889 -0.080930 -0.103087 0.101724 -0.238943 0.201005 -0.178132 0.509824 0.203210 -0.499209
rough -0.027490 -0.209178 0.046395 0.141639 0.159934 0.155528 -0.507280 0.120345 0.350186 0.200482 -0.203488 0.314777 -0.312071 0.315164 -0.374414 -0.123910 0.143723 -0.568082 0.201474 -0.066413 0.315096 0.082993 -0.267351 -0.463487 -0.096796 -0.396510 -0.099498 0.378739 0.242531 0.404790 0.094999 0.142879 -0.006138 -0.384652 0.073387 0.144302 -0.171171 0.021818 -0.308624 0.088902 0.051851 -0.281752 -0.056753 -0.529336 -0.269621 -0.357268 0.052010 0.129805 0.281483 0.353742
price -0.014815 0.201798 0.044022 0.078890 0.141155 -0.160685 0.012732 0.150264 -0.026265 -0.074853 -0.236720 0.103600 -0.111776 0.014742 0.075564 -0.147125 -0.162626 -0.060056 -0.189792 0.132862 0.229014 -0.121425 0.030245 -0.214536 -0.135510 0.015450 -0.078239 -0.480845 -0.002867 0.077732 -0.048897 0.127544 -0.047292 0.196073 -0.114892 -0.043363 0.050236 -0.051356 -0.084619 -0.049138 0.034223 0.133236 -0.078119 -0.106277 0.023523 0.032473 0.255755 -0.092170 0.039880 -0.048903
pub -0.025461 0.049596 0.080621 -0.246229 -0.367305 -0.582887 -0.124469 0.348908 0.359265 -0.159568 0.051702 0.481828 -0.718041 0.159272 -0.550976 -0.514043 -0.063960 -0.638431 -0.201946 0.026949 0.542132 -0.121425 0.375992 -0.395855 -0.359557 -0.055664 -0.473331 -0.466835 -0.093543 0.394945 -0.206974 0.950662 -0.072153 0.324919 -0.709559 0.320931 0.423263 -0.009027 -0.347002 0.143708 0.150482 0.339251 -0.018179 -0.852910 0.148795 0.039380 0.414028 -0.316425 -0.041557 0.463222
see 0.043894 -0.156790 0.068574 -0.158067 0.044568 0.034381 -0.106618 0.047417 0.186795 0.045633 -0.009350 0.053554 -0.064247 0.077945 -0.201374 -0.115680 0.095089 -0.228930 0.115959 -0.143691 0.044271 0.059782 0.023584 -0.043797 -0.085584 0.019838 -0.067327 0.354975 0.128881 -0.002254 -0.091535 0.022584 -0.049142 -0.209853 -0.051676 0.070261 -0.028006 0.161129 -0.021683 0.007041 0.059530 -0.087228 -0.070989 -0.206941 -0.131643 -0.105091 -0.074655 0.095685 0.044993 0.252781
might -0.110317 -0.463436 0.255404 -0.384007 -0.247698 -0.094301 -0.099307 0.512825 -0.284964 0.252794 -0.220216 0.383139 -0.338633 0.411502 -0.719386 -0.013794 -0.140361 -0.351871 0.275587 -0.069137 -0.260035 0.291693 -0.156756 -0.138133 0.098981 0.057954 0.022260 0.190648 -0.330230 0.017877 -0.207067 -0.052913 -0.006996 -0.347185 -0.366526 -0.077186 -0.175124 0.326880 -0.338584 0.067894 0.153315 -0.263976 -0.430384 -0.462498 -0.233331 0.053865 -0.213921 0.539385 0.167326 -0.035413
walk -0.026909 -0.130560 -0.188519 0.128846 0.098416 0.311842 -0.096437 -0.164078 0.123549 0.071069 -0.013993 -0.175168 0.272392 -0.047935 0.371552 -0.012489 0.127037 -0.020669 0.150814 -0.205911 -0.094786 -0.037122 0.092898 0.113351 0.074647 -0.132283 -0.089077 0.253455 0.066197 -0.056111 -0.093611 0.084108 0.200572 -0.249527 0.126354 -0.130995 0.055750 0.103671 0.188640 0.052252 -0.024083 -0.228710 -0.063078 0.002446 -0.061757 -0.045241 -0.027921 0.125005 -0.017644 0.016526
away -0.035181 -0.329628 -0.109938 0.058528 -0.031144 0.416912 -0.231436 -0.072372 0.052174 0.182302 -0.044303 0.038736 0.139002 0.038244 0.315614 0.100581 0.433820 0.014339 0.488716 0.016403 -0.145710 0.164316 0.072751 0.176548 0.239147 -0.138614 0.109863 0.335995 0.003472 -0.024388 0.087594 -0.040865 0.175176 -0.400392 0.198752 -0.238855 -0.122259 0.008075 0.237846 0.246416 0.025721 -0.433846 -0.161817 -0.007097 -0.163946 -0.120965 -0.198445 0.362375 0.174646 -0.121433
day 0.060415 0.010111 0.016562 0.005142 0.034682 -0.018474 -0.094076 0.041266 0.067000 -0.012625 0.030978 0.077375 -0.003535 -0.060800 0.011695 -0.057633 0.042969 -0.120911 -0.055921 -0.029081 0.100664 0.039146 0.099407 -0.031162 -0.047080 -0.000580 -0.068624 -0.042905 0.126077 0.032803 -0.035473 0.096059 0.007538 -0.075704 -0.086788 -0.018454 0.036911 0.071334 -0.020174 0.071661 0.008029 0.020133 0.073379 -0.084345 -0.080838 -0.049563 -0.038481 -0.090521 0.052957 0.063970
love -0.005797 -0.278280 0.167870 -0.239873 -0.153791 0.012953 0.022921 0.202121 0.102079 0.340836 -0.132708 -0.065861 0.048621 0.261331 -0.354729 -0.060107 -0.159120 -0.313928 0.243111 -0.254313 -0.300460 0.325348 -0.204225 0.055159 0.118250 -0.012301 -0.090882 0.273013 -0.177324 -0.074526 -0.100172 0.068143 0.073022 -0.258256 -0.072009 -0.045314 -0.118976 0.205547 -0.147042 0.152947 -0.004046 -0.210548 -0.328325 -0.273477 -0.298714 0.009359 -0.165772 0.513020 0.218553 -0.100080
always 0.054108 -0.189521 0.089292 -0.108314 -0.028557 0.021356 -0.176380 0.141963 0.073596 0.136868 -0.095522 0.150530 -0.092024 0.138760 -0.325227 -0.102420 0.036748 -0.362937 0.154310 -0.113763 0.044138 0.141879 -0.051978 -0.104260 0.010219 -0.060533 -0.091742 0.244411 0.024714 0.057194 -0.118648 0.032415 0.024759 -0.216860 -0.085458 0.026768 0.018119 0.143697 -0.116582 0.002167 0.013649 -0.051964 -0.149488 -0.259659 -0.130422 -0.013065 -0.062720 0.186087 0.100211 0.113073
easy 0.230991 -0.224610 -0.143569 0.172440 0.184759 0.460878 -0.194525 -0.103482 0.173909 -0.276988 0.039286 0.058930 0.028671 0.145861 0.043747 -0.117829 0.386000 -0.174615 0.037457 -0.104444 0.108253 0.125897 0.084179 0.307031 -0.041669 -0.029691 0.187097 0.555029 0.427563 0.058535 0.192220 -0.159803 -0.016282 -0.393600 0.108845 0.039522 -0.078904 0.134502 0.414729 0.174976 -0.006899 -0.345310 0.279060 0.021931 -0.137111 -0.310167 -0.349599 -0.157631 -0.057182 0.410451
stay -0.107363 -0.285626 0.081050 -0.159943 -0.123472 0.141187 0.002499 0.257161 -0.140886 0.291015 -0.052487 0.103685 -0.023505 0.090897 -0.085834 0.105600 0.169689 0.090439 0.370230 0.068588 -0.248234 0.178952 -0.028673 0.095343 0.237426 0.049536 0.057585 0.131830 -0.171011 -0.126495 0.011949 -0.077969 0.002680 -0.211954 -0.026114 -0.211249 -0.152586 0.117113 0.040261 0.244104 0.089748 -0.295427 -0.303839 -0.085449 -0.159185 0.008649 -0.179475 0.418122 0.262665 -0.181194
work 0.103497 -0.183716 0.040968 -0.053132 0.114599 0.240955 -0.039328 -0.096247 0.221699 0.104052 -0.019540 -0.131598 0.170476 0.186526 -0.215036 0.008584 0.071143 -0.134765 0.152408 -0.263722 -0.119420 0.164291 -0.114160 0.047983 0.000645 -0.112439 -0.000330 0.465461 0.190236 -0.086023 0.009379 -0.063870 0.037873 -0.294719 0.062086 0.032015 -0.055255 0.155975 -0.004687 0.064029 -0.116359 -0.237230 0.027171 -0.013144 -0.176878 -0.138897 -0.106868 0.154600 0.095062 0.055122
either -0.036508 -0.109789 0.012170 0.029133 0.104883 0.035458 -0.265694 0.192795 0.112824 0.158123 -0.086323 0.132299 -0.110169 0.274973 -0.058449 -0.156108 -0.063048 -0.348624 0.100950 -0.087772 0.124825 0.088410 -0.140226 -0.160428 0.041139 -0.119974 -0.131934 0.203328 -0.047561 0.157575 0.001726 0.086503 0.048352 -0.250212 -0.003078 0.056111 -0.046331 0.050212 -0.099403 0.132896 0.127780 -0.117239 -0.250010 -0.400486 -0.195618 -0.157279 -0.020762 0.385595 0.098829 0.186656
come 0.038774 -0.084692 -0.009287 -0.055471 0.101170 0.064211 -0.069686 -0.181681 0.070348 0.128466 -0.058701 -0.147726 0.167822 0.084903 -0.004409 0.065624 0.179834 0.038064 0.155058 -0.144399 0.007604 0.157927 -0.073296 -0.067758 -0.001638 -0.124955 -0.009588 0.246325 0.104171 -0.047465 0.053083 -0.128610 -0.061235 -0.178718 0.072753 0.025918 -0.009340 0.035180 -0.083052 -0.014652 -0.107106 -0.067144 -0.085104 -0.058567 -0.114865 0.008480 0.040491 0.161418 0.074676 -0.005712
however 0.022229 -0.214757 0.021887 -0.079745 0.090624 0.070735 -0.198383 0.025133 0.166102 0.161692 -0.107853 0.103749 -0.105089 0.198744 -0.321189 -0.058363 0.095419 -0.304645 0.144514 -0.195250 0.073489 0.131252 -0.140251 -0.227490 -0.081165 -0.195123 -0.051796 0.384035 0.132024 0.135724 -0.044685 0.055709 -0.003989 -0.295266 0.042452 0.052327 -0.127737 0.150423 -0.217337 0.031450 0.003098 -0.166409 -0.057863 -0.314111 -0.237775 -0.180056 -0.070851 0.162538 0.157757 0.190491
money -0.044918 -0.034050 0.107713 -0.078356 -0.100837 -0.099003 0.082988 0.371021 0.047010 0.161201 -0.115779 0.073538 -0.070905 0.103391 -0.438620 0.014173 -0.330284 -0.052183 0.082447 0.033487 -0.197849 0.138824 -0.066494 -0.013287 0.055350 0.061018 -0.085536 -0.117602 -0.236908 -0.049250 -0.099537 -0.009664 -0.065174 0.041187 -0.115849 -0.007219 -0.051305 0.071902 -0.105538 0.091950 -0.003472 0.059400 -0.186521 -0.187293 0.121225 0.112084 0.039994 0.217234 0.104993 -0.141090
thing -0.023095 -0.030175 0.059036 -0.031573 0.001254 0.006006 -0.103010 0.159310 0.012654 0.059242 -0.028097 0.139221 -0.081434 0.132664 -0.033844 -0.007919 -0.021292 -0.080325 0.028491 -0.018655 0.007045 0.077811 -0.003375 0.016718 0.029925 0.000307 -0.012948 -0.028051 -0.077024 0.035515 -0.043893 0.050476 0.005714 -0.109916 -0.051817 -0.025613 0.010096 0.103158 -0.023269 0.060830 0.034342 -0.073865 -0.090398 -0.179781 -0.092398 -0.029805 -0.097614 0.094888 0.096418 0.016959
called 0.026377 -0.118382 0.040381 -0.168922 -0.006476 0.021661 -0.122996 -0.041411 0.147921 0.182894 0.020454 0.025646 0.032468 0.092549 -0.109925 -0.034736 0.161530 -0.162626 0.117768 -0.194132 0.051234 0.096176 -0.036442 -0.012234 0.002656 -0.072352 -0.052688 0.350188 0.092891 -0.030415 -0.032074 0.094167 -0.045259 -0.192339 -0.105267 0.089280 0.006746 0.159940 -0.108823 0.079873 0.023300 -0.120001 -0.060713 -0.172094 -0.194519 -0.103536 -0.084803 0.065062 0.104647 0.147147
rent -0.045767 0.019674 0.054389 0.028741 0.079442 -0.060300 -0.004772 0.137529 0.130162 0.021137 -0.090866 0.106811 -0.116874 -0.003662 -0.184756 -0.083261 -0.089778 -0.099602 0.021308 0.011049 0.085691 -0.082107 -0.097294 -0.142979 -0.082000 -0.006779 -0.030501 0.053483 0.101024 0.047300 0.037441 0.039827 -0.036649 0.014190 -0.048420 0.082996 -0.070939 0.042099 -0.056221 -0.015747 0.026551 0.009772 -0.004908 -0.043940 -0.069392 -0.146912 0.029727 -0.021840 0.026161 0.059979
full -0.057846 0.140545 -0.029240 -0.068108 0.010131 -0.181895 -0.033173 -0.002560 -0.016260 0.016214 -0.055284 0.007519 -0.114091 0.177345 -0.126097 0.070812 -0.120264 -0.031128 -0.098244 0.051790 0.072209 -0.062422 -0.079881 -0.153409 -0.073098 -0.141898 -0.151771 -0.293373 -0.094802 0.137518 -0.140341 0.095295 -0.048716 0.034745 -0.078037 -0.140377 0.067201 0.022915 -0.190827 0.015201 -0.027187 0.054309 -0.078410 -0.208659 0.118522 0.199910 0.188941 0.089444 0.010716 -0.000688
little -0.011172 -0.040187 -0.011242 -0.033525 0.069714 0.020455 -0.160138 -0.046072 0.010882 0.103737 -0.085042 0.044727 -0.023366 0.106181 -0.083260 -0.008388 0.053444 -0.072155 -0.012357 -0.029735 0.117679 0.041971 -0.068755 -0.107228 -0.042731 -0.151186 -0.046370 0.024304 0.051516 0.135783 0.001075 0.020341 -0.027243 -0.113453 -0.027359 -0.037579 -0.057056 0.047904 -0.114512 0.050819 -0.009176 -0.114941 -0.026402 -0.135696 -0.047704 0.013189 0.047505 0.078200 0.102028 0.055162
afford -0.127259 -0.280307 0.194302 -0.248834 -0.235440 -0.037117 0.172924 0.295993 -0.161926 0.351933 -0.206329 -0.068053 0.047365 0.226750 -0.450569 -0.001345 -0.248829 -0.177149 0.187674 -0.124728 -0.445326 0.305405 -0.195805 0.045336 0.173968 0.121586 -0.076119 0.141553 -0.282771 -0.121702 -0.063172 -0.028259 0.037133 -0.151356 -0.101289 -0.024426 -0.178980 0.178498 -0.152478 0.104528 0.047152 -0.192563 -0.328379 -0.092049 -0.247900 0.022227 -0.183356 0.593032 0.181074 -0.221094
community 0.146665 0.092176 0.111999 -0.022634 0.081387 -0.150559 0.168962 -0.050673 -0.267126 0.075324 -0.036570 -0.221804 0.168049 -0.046608 0.261531 0.142475 -0.154460 0.073172 -0.022445 -0.160483 -0.056488 -0.006411 -0.296007 0.084706 0.114653 0.040533 -0.070429 -0.281895 0.195470 -0.090344 0.088548 -0.021220 0.059538 0.151056 0.092788 -0.223414 -0.072972 -0.020902 -0.231402 -0.169928 -0.115756 0.044678 -0.003888 0.276142 -0.218922 0.063438 -0.059893 0.059723 0.062415 -0.279045
kent -0.028849 -0.097457 -0.043084 0.019505 0.230651 0.224746 -0.110602 -0.260502 0.278928 -0.041752 0.199331 -0.196213 0.196471 -0.055268 0.085622 -0.033870 0.348117 0.132960 0.078996 -0.192086 0.118645 -0.112066 0.004424 -0.035409 -0.082635 -0.122175 0.000905 0.618004 0.454725 0.037799 0.151392 0.009259 0.033713 -0.182434 0.130476 0.186538 0.086334 0.022619 0.078970 -0.022531 -0.102116 -0.082301 0.211827 0.081457 -0.161954 -0.172315 -0.013243 -0.069717 -0.044953 0.306646
load 0.094971 -0.021592 0.023464 -0.178180 -0.243240 -0.300887 -0.206027 0.317019 0.240907 -0.136331 0.007050 0.368962 -0.530790 0.114766 -0.427721 -0.419520 -0.045235 -0.598318 -0.104582 -0.062428 0.406769 -0.068905 0.150127 -0.258965 -0.218174 -0.019335 -0.327616 -0.115765 -0.037037 0.291985 -0.245865 0.534933 0.005016 0.097886 -0.389695 0.201629 0.291464 0.109806 -0.164504 -0.017104 0.120252 0.229382 -0.084719 -0.609984 0.050777 -0.004118 0.173774 -0.169084 -0.026625 0.462853
location 0.080773 -0.336563 0.084921 -0.208838 0.026948 0.206400 -0.431504 -0.298755 0.281621 0.014626 0.051342 0.164500 0.035943 -0.021505 -0.107755 -0.212301 0.624315 -0.354108 0.427945 -0.226257 0.115972 0.169857 0.121318 -0.019906 0.076481 -0.226523 -0.002072 0.827843 0.232539 -0.132955 -0.079116 -0.120859 -0.066623 -0.432399 -0.020044 0.330627 0.213178 0.041023 -0.012558 -0.185049 -0.050477 -0.022034 -0.002254 -0.210861 -0.181628 -0.052958 -0.157167 -0.104626 0.016853 0.345577
old 0.240723 -0.403165 -0.165146 -0.174777 -0.094220 0.123011 0.179213 -0.337497 0.090729 0.334897 0.069466 -0.587896 0.570965 -0.117405 0.163793 0.054086 -0.080176 -0.106484 -0.080444 -0.562896 -0.334491 0.453716 -0.279215 0.403886 0.142068 -0.080472 -0.000476 0.311624 0.032623 -0.355184 0.001839 -0.110827 0.161745 -0.031953 0.285563 -0.343197 -0.198299 0.170513 -0.069850 0.156238 -0.179809 -0.217710 -0.003556 0.236325 -0.422566 -0.043755 -0.248077 0.475778 0.248588 -0.282154
affordable 0.038863 -0.093604 0.061155 0.000235 0.116498 -0.021393 -0.153023 0.187207 0.116032 0.084183 -0.206883 0.291113 -0.271358 0.216572 -0.413944 -0.022650 0.010671 -0.217415 0.074617 0.025051 0.178187 0.070237 -0.152316 -0.280967 -0.074524 -0.137827 -0.025266 0.085198 0.130409 0.141981 0.088419 0.011025 -0.136607 -0.065497 -0.051602 0.105343 -0.103021 0.022006 -0.177907 0.036838 0.012450 -0.057239 -0.076152 -0.258360 -0.075813 -0.197619 0.063601 -0.058041 0.114045 0.146565
museum -0.097694 0.346257 -0.030577 -0.048891 0.225040 -0.150401 -0.044429 -0.107735 -0.342145 -0.080843 -0.153257 -0.315928 0.408294 -0.066079 0.399987 0.315510 -0.074817 0.479135 -0.183090 0.126083 0.028671 -0.140700 -0.112862 0.006690 0.150193 0.024873 0.067928 -0.558009 0.014570 -0.273026 -0.075028 -0.360410 0.151425 0.037907 0.008922 -0.178553 0.075464 -0.010326 0.123009 -0.083221 -0.049373 0.051865 -0.095218 0.271934 0.104338 0.276377 0.149923 0.064899 -0.030609 -0.348954
river 0.032402 -0.370004 0.146641 -0.224462 0.154652 0.291083 -0.329962 -0.933955 0.049611 0.209515 -0.075984 -0.197848 0.601399 -0.107025 0.223543 0.123275 1.144902 0.195606 0.573733 -0.428922 -0.010135 0.466177 0.141612 0.033318 0.466667 -0.486873 0.235305 0.969802 0.337500 -0.560823 0.226257 -0.506503 -0.225613 -0.649443 0.154625 0.518810 0.249649 -0.135642 -0.207815 -0.340086 -0.292301 0.021783 0.104532 0.197209 -0.224151 0.203991 -0.162384 -0.090103 0.198586 -0.137951
young -0.005803 0.234499 0.060392 0.031112 0.122495 -0.257524 0.102576 0.175342 -0.144320 0.035461 -0.141373 0.079243 -0.259759 0.300066 -0.365285 0.234068 -0.284259 0.099818 -0.093638 0.246076 0.061537 -0.028217 -0.258558 -0.311650 -0.052326 -0.092953 -0.056352 -0.458621 -0.140668 0.150725 -0.048983 -0.123583 -0.175413 0.164272 0.004707 -0.110334 -0.113824 -0.063454 -0.292669 0.061365 -0.080261 0.138550 -0.068060 -0.073078 0.212275 0.131335 0.251090 0.072985 0.059673 -0.093700
born -0.012179 0.018502 -0.027684 -0.035499 0.006353 -0.078399 0.046183 -0.132461 -0.186725 0.000678 -0.019344 -0.128392 0.111582 -0.096119 0.252413 0.035778 -0.034434 0.115274 -0.056433 -0.000596 -0.058105 0.037948 0.033006 0.063568 0.076337 0.007244 0.046390 -0.224413 -0.161106 -0.113766 -0.026020 -0.067269 0.074049 0.093610 0.041868 -0.104001 0.005557 -0.023617 0.007588 0.016672 -0.071201 0.039767 -0.024586 0.105729 -0.029694 0.187205 0.013694 0.098183 0.026384 -0.234951
club -0.019361 0.164342 -0.005397 -0.164250 -0.248822 -0.398078 0.058898 0.185305 0.145094 -0.217906 0.217323 0.277922 -0.382192 -0.111487 -0.158851 -0.358033 0.032461 -0.156057 -0.326849 0.048020 0.423104 -0.059565 0.339745 -0.153840 -0.204090 0.109364 -0.152553 -0.303424 -0.004960 0.246653 -0.124882 0.626200 -0.018015 0.286704 -0.417816 0.190525 0.320957 -0.021680 -0.029241 -0.048138 0.082631 0.370752 0.067981 -0.237131 0.148265 0.046015 0.115180 -0.437788 -0.068107 0.308074
greater 0.177039 -0.201265 -0.049777 0.098987 0.289895 0.431599 -0.180415 -0.325333 0.504525 -0.050495 0.216587 -0.220018 0.201115 -0.041123 -0.065507 0.021815 0.517449 -0.015854 0.238779 -0.288962 0.223228 -0.058894 -0.097746 -0.025586 -0.159446 -0.184041 0.064969 1.028465 0.734317 0.050048 0.240906 -0.069935 -0.007475 -0.376684 0.178117 0.248304 0.017710 0.005962 0.080721 -0.045905 -0.138143 -0.154256 0.397725 0.093771 -0.246393 -0.400589 -0.109278 -0.211349 0.013930 0.474268
surrey -0.021701 -0.017650 -0.058043 0.007867 0.081880 0.088897 -0.072602 -0.203073 0.054052 0.074900 0.043782 -0.151148 0.156600 -0.023118 0.150155 0.055055 0.132396 0.060116 0.034297 -0.103663 0.013441 0.005110 -0.032893 -0.015499 -0.013833 -0.105342 0.012844 0.162809 0.091464 0.015661 0.044506 -0.042480 0.031684 -0.067961 0.098983 -0.024888 0.011362 -0.022418 0.005483 -0.022816 -0.043180 -0.065347 0.037719 0.033297 -0.044962 0.045752 -0.011534 0.071490 0.049155 -0.001157
actually -0.018004 -0.041421 0.040931 -0.006392 0.072751 -0.011378 -0.094601 0.041373 -0.022093 0.068178 -0.087454 0.088252 -0.058038 0.118336 -0.071960 -0.020157 0.034396 -0.138729 0.045193 -0.048765 0.049481 0.071759 -0.082454 -0.093129 0.018237 -0.090246 -0.028813 0.027299 0.018325 0.059050 0.004125 -0.003256 0.018743 -0.082485 -0.018806 -0.032731 -0.070065 0.055970 -0.103717 0.034116 0.014591 -0.065666 -0.068287 -0.131927 -0.130575 -0.024471 -0.028039 0.145049 0.103296 0.028791
le -0.003823 0.049816 0.036627 0.141183 0.108139 0.036261 -0.145096 0.059984 0.095813 0.012468 -0.092569 0.199114 -0.126158 0.004470 -0.087534 0.002751 -0.016449 -0.095271 0.074199 0.136659 0.134753 -0.091071 -0.158805 -0.212489 -0.009717 -0.099027 0.053152 0.029505 0.122616 0.187899 0.130614 0.016472 -0.089064 -0.066578 0.120260 0.043343 -0.149761 -0.155472 -0.123554 0.000708 0.026362 -0.052082 -0.007553 -0.020566 -0.023249 -0.210729 0.042936 -0.122292 0.046358 0.066052
move -0.066776 -0.143907 0.082333 -0.113039 0.033566 -0.022188 -0.020026 0.039268 -0.030941 0.145697 -0.082134 0.053934 -0.012411 0.076616 -0.250038 0.022333 -0.007841 -0.075792 0.052012 -0.079846 -0.065547 0.164829 -0.192027 -0.078807 0.003491 -0.086034 -0.043933 0.141704 0.014538 -0.064044 0.023001 -0.052099 -0.026088 -0.136069 -0.012609 -0.024335 -0.104829 0.079681 -0.210505 0.030479 0.024667 -0.098803 -0.091403 -0.119931 -0.136111 -0.000179 -0.034900 0.194328 0.136551 -0.016686
ok -0.058698 -0.176070 -0.009887 -0.100256 -0.106949 0.079828 -0.097130 0.059176 0.102971 0.183642 -0.099318 0.060238 -0.050630 0.154410 -0.149497 -0.071827 0.009348 -0.275632 0.178452 -0.119203 -0.121511 0.171822 -0.019585 0.019002 0.055374 -0.062265 -0.030441 0.237447 -0.087220 0.028163 -0.066029 0.037295 0.034639 -0.179260 -0.031992 -0.016402 -0.044330 0.103479 0.003591 0.054816 0.064114 -0.188335 -0.203250 -0.217435 -0.122697 -0.076230 -0.111501 0.261908 0.119712 0.045261
school 0.098464 -0.040953 0.036311 -0.096345 -0.136906 -0.118660 -0.254095 0.182357 0.112614 -0.170275 -0.005705 0.316218 -0.370139 -0.035195 -0.115541 -0.366021 -0.032089 -0.546012 0.091232 0.053457 0.191353 -0.159152 0.219398 -0.007882 -0.174912 0.127229 -0.141640 0.091611 -0.063364 0.104819 -0.295742 0.195364 0.113163 0.035950 -0.249790 0.081889 0.234530 0.100935 0.141659 -0.173126 0.157737 0.151691 -0.042256 -0.283114 0.058703 -0.004411 -0.000282 -0.073839 -0.171984 0.394747
two 0.007637 -0.189780 -0.043947 -0.030377 -0.031315 0.123583 -0.021376 0.075005 0.150248 0.137759 0.000988 -0.085526 0.091294 0.078609 -0.169475 -0.031968 -0.008139 -0.055313 0.076263 -0.174255 -0.080526 0.072132 -0.123568 0.022573 0.015769 -0.042832 -0.039133 0.326180 0.059845 -0.017732 0.047895 -0.017401 -0.013874 -0.164151 0.070559 -0.011021 -0.123506 0.107261 0.017215 0.095690 -0.023957 -0.180362 -0.079131 -0.080095 -0.159811 -0.128354 -0.082718 0.170694 0.091014 0.105334
generally 0.014951 -0.128565 0.018570 0.110382 0.139632 0.148208 -0.312727 0.052721 0.288011 0.135980 -0.124632 0.135848 -0.093024 0.235699 -0.237090 -0.045602 0.135989 -0.352514 0.083151 -0.116750 0.139729 0.108117 -0.204513 -0.270722 -0.051098 -0.265373 -0.101955 0.373950 0.224699 0.247910 0.053359 0.079134 0.009627 -0.273155 0.026830 0.094419 -0.111324 0.072671 -0.178385 0.060239 -0.036611 -0.222437 -0.038315 -0.313794 -0.151177 -0.255676 -0.016176 0.098952 0.106810 0.187557
got -0.028653 -0.088214 0.051584 -0.103727 -0.106468 -0.079640 -0.049024 0.144360 -0.031097 0.103696 -0.042909 0.041284 -0.083257 0.045247 -0.126628 -0.144365 -0.110678 -0.233304 0.045234 -0.070043 -0.045641 0.052179 0.008368 -0.039602 0.004220 0.010803 -0.113154 -0.047815 -0.129896 0.026485 -0.107459 0.131642 0.080049 0.009863 -0.097780 -0.009809 -0.047105 0.112235 -0.100212 -0.016827 0.061541 -0.022410 -0.175805 -0.197416 -0.147780 0.032048 -0.058140 0.185294 0.046479 0.028770
green -0.004189 -0.014271 -0.014825 0.006118 0.049648 -0.077089 -0.180968 -0.001435 -0.052566 0.201292 -0.227433 0.153693 -0.170316 0.033955 -0.223239 0.014133 -0.023946 -0.138608 0.011373 0.140833 0.151293 0.087276 -0.139245 -0.211261 0.038730 -0.191822 -0.112996 -0.181598 0.011911 0.147508 0.090226 0.031164 -0.113607 -0.024901 -0.018347 -0.041677 -0.251867 -0.055384 -0.183662 0.074051 0.103811 -0.026118 -0.093337 -0.093716 0.027457 -0.066856 0.116269 0.076804 0.274757 -0.017939
problem 0.045077 -0.136783 -0.033475 -0.032809 -0.047070 -0.035184 0.092607 0.018592 -0.028121 0.097023 -0.065442 -0.190956 0.155572 -0.012293 0.049946 0.028784 -0.206076 -0.107546 -0.117565 -0.172770 -0.187912 0.249726 -0.136622 0.132591 0.052977 -0.026502 -0.034257 -0.202611 -0.131428 -0.088346 -0.020199 -0.074245 0.035592 0.015936 0.084458 -0.204718 -0.119447 0.096714 -0.088967 0.096397 -0.085004 -0.028805 -0.029230 -0.031037 -0.103274 0.100965 -0.027160 0.259874 0.155845 -0.249389
cafe 0.025290 0.092894 0.035430 -0.257745 -0.358129 -0.540298 -0.000331 0.261534 0.329023 -0.244561 0.117005 0.378903 -0.630954 0.120371 -0.489247 -0.387408 -0.144885 -0.444617 -0.227270 0.019078 0.422372 -0.225698 0.326554 -0.275236 -0.354337 0.022706 -0.406307 -0.513752 -0.100807 0.316860 -0.193629 0.884373 -0.063630 0.308196 -0.578080 0.234763 0.427207 0.029182 -0.296677 0.121511 0.119998 0.396216 0.063332 -0.692503 0.140579 0.048244 0.402037 -0.334228 -0.119512 0.442453
cheapest 0.115023 -0.184274 0.016430 0.039028 0.201547 0.155491 -0.287513 0.102071 0.460347 0.094419 -0.072391 0.101775 -0.102397 0.175627 -0.408761 -0.141107 0.139579 -0.303779 0.111199 -0.175522 0.243223 0.048993 -0.232296 -0.281212 -0.153482 -0.204910 -0.142764 0.569979 0.389316 0.185894 0.098532 0.033434 -0.072954 -0.316449 0.054367 0.196436 -0.089372 0.158259 -0.147697 0.033073 -0.025494 -0.151322 0.049359 -0.333822 -0.214731 -0.332097 -0.033029 0.019475 0.109742 0.392205
rate -0.319761 0.225920 -0.384607 0.196325 0.418453 -0.121809 0.028710 -0.297479 0.379613 -0.255731 -0.352821 -0.057585 -0.175947 0.066490 0.153993 -0.036538 -0.082945 -0.043437 -0.366365 -0.133796 0.214695 -0.114356 0.387163 -0.346274 -0.591429 -0.462525 -0.096666 -0.275675 0.097551 0.397567 -0.206815 0.054391 -0.109390 0.100626 0.062741 -0.129683 0.222008 0.051747 0.074866 -0.051666 0.065950 0.160811 0.097809 -0.120101 0.374046 0.104146 0.477404 -0.240954 -0.014338 0.117096
recommend -0.183204 -0.415384 0.246109 -0.243002 -0.226997 0.104450 -0.047065 0.549188 0.170750 0.471596 -0.146480 0.039340 0.054953 0.264769 -0.504124 -0.126274 -0.198915 -0.219484 0.361895 -0.157955 -0.439720 0.314755 -0.279936 0.049373 0.194693 0.021444 -0.274286 0.405783 -0.312937 -0.067597 -0.171945 -0.073364 0.104994 -0.384767 -0.082354 -0.017231 -0.142026 0.259383 -0.052925 0.136084 0.096930 -0.212383 -0.531169 -0.501285 -0.244013 0.085293 -0.229145 0.780896 0.177323 -0.115752
within 0.059330 0.005262 -0.060446 0.080153 0.242937 0.099931 -0.006793 -0.129509 0.029651 -0.026355 -0.056535 -0.044249 0.057225 0.045552 -0.009546 0.082887 0.156024 0.106117 -0.047792 -0.010154 0.116367 0.020236 -0.131380 -0.075701 -0.030455 -0.141106 0.071571 0.054114 0.208166 0.021320 0.137454 -0.167509 -0.069530 -0.040322 0.142051 0.008446 -0.094935 0.016429 -0.052959 0.048090 -0.121738 -0.081886 0.120113 0.077264 -0.056799 -0.031797 0.026640 -0.080141 0.054848 0.046226
beautiful -0.006961 -0.083821 0.065483 0.046223 0.111921 0.002792 -0.088628 0.115438 0.132293 0.150998 -0.263329 0.077390 -0.090114 0.226973 -0.269448 -0.082257 -0.029465 -0.228301 0.026956 -0.033816 0.176217 0.129913 -0.203214 -0.256156 -0.029670 -0.135961 -0.117462 0.008225 0.103282 0.153997 0.066156 0.089041 -0.071110 -0.061574 0.039298 0.034740 -0.102073 0.001443 -0.218792 0.040577 -0.007442 -0.094204 -0.174110 -0.251142 -0.149898 -0.146218 0.104542 0.177045 0.217742 0.051822
definitely -0.129364 -0.307105 0.156752 -0.145905 -0.120703 0.151832 -0.040453 0.312691 0.206024 0.271701 -0.042504 -0.005742 0.033271 0.226637 -0.364625 -0.071156 -0.132081 -0.197835 0.315845 -0.161036 -0.321489 0.173809 -0.207825 0.058489 0.103782 0.037056 -0.126314 0.511769 -0.098211 -0.021534 -0.082137 -0.012201 0.055842 -0.315164 -0.005217 0.012491 -0.128293 0.181612 -0.002442 0.102128 0.055088 -0.227119 -0.301729 -0.297798 -0.193585 -0.082307 -0.199656 0.475484 0.096874 0.018248
may -0.040677 -0.062506 -0.023140 -0.066276 -0.071783 -0.006737 -0.102251 0.008022 -0.045659 0.014961 -0.068951 0.056206 -0.088763 0.071683 -0.023405 -0.066294 0.030018 -0.138612 -0.032307 -0.003682 0.040639 0.014699 0.068521 -0.042279 -0.043957 -0.002471 -0.048497 -0.032526 -0.124047 0.107140 -0.084069 0.041754 0.038477 -0.028575 -0.063537 -0.067048 0.005797 0.058705 0.003487 0.008559 0.062249 -0.037597 -0.099137 -0.164259 -0.004305 0.086161 0.003432 0.111438 0.003871 0.005292
suggest -0.171408 -0.332749 0.301195 -0.142836 -0.153860 0.133744 0.040309 0.542557 0.139663 0.368236 -0.114502 0.056871 0.030513 0.285168 -0.439025 -0.072747 -0.213047 -0.122585 0.336276 -0.073589 -0.403355 0.303227 -0.250142 0.074952 0.186359 0.081896 -0.189362 0.393980 -0.254990 -0.133079 -0.063010 -0.138102 0.063794 -0.341704 -0.061597 -0.015212 -0.149412 0.166875 0.002052 0.110834 0.070755 -0.186962 -0.414083 -0.385932 -0.169489 0.014305 -0.263461 0.652529 0.158019 -0.088531
anywhere 0.031554 -0.131442 0.031233 -0.002922 0.112371 0.211317 0.003141 0.060444 0.013967 0.068279 0.001034 0.060662 0.036487 0.120758 -0.073608 0.094864 0.121932 0.062824 0.130882 -0.067092 -0.142973 0.132783 -0.026403 0.156521 0.110870 0.025245 0.127906 0.260460 0.096776 -0.062585 0.108002 -0.040647 0.029338 -0.219402 -0.000163 -0.050419 -0.083378 0.087191 0.074204 0.116223 -0.043155 -0.175882 0.049293 0.034031 -0.096045 -0.146048 -0.182281 0.014386 0.051028 -0.008847
fairly 0.126117 -0.022936 0.018318 0.083590 0.102032 0.169325 -0.259683 -0.049519 0.285225 -0.129803 -0.017277 0.228411 -0.106774 0.030692 -0.152199 -0.078249 0.314714 -0.219645 0.204065 0.008875 0.179631 -0.052319 0.047214 0.004042 -0.107036 -0.061961 0.056893 0.483362 0.359056 0.010094 0.095150 0.011825 -0.078514 -0.155921 0.063603 0.215312 0.033294 -0.038625 0.200003 -0.060857 -0.008555 -0.056325 0.124783 0.008917 -0.022142 -0.330859 -0.076599 -0.291308 -0.084934 0.376019
month -0.022735 -0.114212 0.016790 0.010932 0.028563 0.006250 0.108515 -0.081217 -0.064454 0.171962 -0.050657 -0.225249 0.288433 -0.049628 0.122735 -0.013828 -0.021000 0.133012 -0.022964 -0.162970 -0.047066 0.096459 -0.101051 0.121602 0.078273 -0.099263 -0.044222 -0.083153 -0.082547 -0.133151 0.019723 -0.096361 0.016917 0.035307 0.058034 -0.175467 -0.059809 0.035606 -0.104878 0.057056 -0.120648 -0.083372 -0.044005 0.041822 -0.192313 0.167400 -0.012553 0.162225 0.184935 -0.227161
visit -0.033851 -0.194535 0.078922 -0.073405 -0.052718 0.006992 0.024966 0.143170 0.069734 0.119701 -0.024143 0.110941 -0.132016 0.101044 -0.214662 -0.052232 -0.076965 -0.098062 0.101756 -0.065556 -0.084623 0.106285 -0.036052 -0.003824 0.018956 0.017320 -0.027942 0.153115 -0.032005 -0.036200 0.021956 0.047188 -0.075713 -0.095219 -0.073643 0.055511 -0.093318 0.109989 -0.081993 0.120657 0.017214 -0.126333 -0.091556 -0.192860 -0.132670 -0.071017 -0.074759 0.123739 0.129752 0.094954
cool -0.054278 -0.067899 0.079790 -0.278423 -0.215698 -0.291261 -0.114706 0.301920 0.110057 0.019379 0.003551 0.341690 -0.403847 0.150962 -0.369867 -0.290037 -0.015781 -0.330242 -0.066039 -0.018043 0.188203 0.075822 0.157289 -0.148636 -0.098801 0.031167 -0.188280 -0.077124 -0.118705 0.160038 -0.142863 0.393548 -0.048209 0.032475 -0.408879 0.138308 0.100040 0.061575 -0.116251 0.093811 0.115052 0.059153 -0.152830 -0.479866 -0.068267 -0.008357 0.027989 -0.014244 0.102539 0.280456
family 0.055939 -0.072872 0.082914 -0.117330 -0.072932 -0.183650 -0.027465 0.181762 0.037018 0.115339 -0.136460 0.146124 -0.209914 0.124521 -0.367574 -0.086407 -0.185728 -0.268218 -0.030857 -0.015846 0.084996 0.112262 -0.095974 -0.174046 -0.052305 -0.061445 -0.127009 -0.099399 -0.069251 0.084260 -0.091851 0.109431 -0.083622 0.061483 -0.112196 0.002216 -0.080985 0.086481 -0.235457 0.110833 0.015605 0.032768 -0.126369 -0.247050 -0.015979 -0.019631 0.074993 0.090091 0.140945 0.065017
friend 0.033281 -0.160683 0.029033 -0.096865 -0.069530 -0.034331 0.033167 -0.053104 -0.049467 0.219115 -0.057039 -0.211369 0.212684 -0.018489 0.075940 -0.056941 -0.064141 -0.115628 0.043198 -0.215608 -0.108768 0.211544 -0.057869 0.152186 0.079972 0.000428 -0.043147 0.045325 -0.110004 -0.143915 -0.047104 -0.024727 0.104259 -0.011888 0.030398 -0.135920 -0.105455 0.119156 -0.051974 0.022953 -0.037039 -0.091009 -0.163858 -0.034318 -0.236580 0.116704 -0.091670 0.282745 0.093692 -0.136376
mean -0.011151 -0.042857 0.044079 -0.010260 0.098442 0.066311 -0.026837 -0.073921 0.124097 0.085182 0.008811 -0.105126 0.141567 0.037394 -0.054375 0.009265 0.077383 0.012526 0.050868 -0.082987 -0.034585 0.046736 -0.052721 -0.044054 -0.055829 -0.089109 -0.035072 0.233078 0.175378 -0.034961 0.000093 -0.058962 -0.031792 -0.141601 0.034953 0.028730 -0.001767 0.049642 -0.089948 -0.049221 -0.012058 -0.068575 0.024909 -0.006628 -0.075642 -0.001649 0.010859 0.087905 0.012798 0.046128
student -0.002885 0.090556 0.099602 -0.048081 0.069998 -0.175158 0.255010 0.183291 -0.301276 0.002840 -0.031356 -0.009624 -0.067403 0.068985 -0.172245 0.073882 -0.341172 0.183625 -0.072291 0.102049 -0.069731 -0.011238 -0.056530 -0.065711 0.067572 0.127222 0.034053 -0.380831 -0.137240 -0.099101 -0.036608 -0.042648 -0.104451 0.197184 -0.132454 -0.087538 -0.084536 0.035625 -0.190617 -0.027449 -0.053159 0.167910 -0.022731 0.089249 0.063112 0.138656 0.029370 0.004316 0.024035 -0.245211
another -0.043258 -0.152629 0.010488 -0.064098 -0.018576 0.032029 -0.190590 0.082202 0.164705 0.166320 -0.109847 0.172171 -0.154257 0.166843 -0.229918 -0.114687 0.013960 -0.317291 0.045924 -0.070428 0.137965 0.134415 -0.046661 -0.144772 -0.022368 -0.146585 -0.105494 0.194742 0.072734 0.108634 -0.000808 0.085267 -0.046627 -0.139094 -0.078131 0.065029 -0.079016 0.091148 -0.150848 0.061400 0.045584 -0.166481 -0.147627 -0.322904 -0.183848 -0.159615 -0.044533 0.097117 0.166430 0.172222
budget -0.225036 -0.149343 0.197458 -0.192098 -0.104523 -0.113777 -0.054593 0.257173 -0.257446 0.217365 -0.170307 0.114993 -0.170156 0.264222 -0.380513 0.006406 -0.007021 -0.032720 0.048185 0.069583 -0.117473 0.175863 -0.101202 -0.126567 0.087996 0.020279 -0.011852 -0.078928 -0.174367 0.057334 -0.017608 -0.058184 -0.061589 -0.172787 -0.164376 -0.028290 -0.172380 0.093711 -0.235995 0.071755 0.100463 -0.165960 -0.247247 -0.174210 -0.206256 0.103858 -0.054079 0.348245 0.191617 -0.052041
coming -0.006510 -0.046160 0.036757 0.039533 0.138613 -0.043698 -0.161118 0.074579 0.025523 0.083462 -0.186238 0.175114 -0.134615 0.148683 -0.225091 0.023861 0.019959 -0.126672 -0.003414 0.059052 0.151584 0.120158 -0.153556 -0.262292 -0.015745 -0.195121 -0.063166 -0.018870 0.080669 0.112575 0.031716 -0.072621 -0.060671 -0.093936 0.025672 -0.019519 -0.105972 0.031578 -0.195790 -0.003979 0.017556 -0.046377 -0.067897 -0.170886 -0.041941 -0.004201 0.055212 0.086644 0.174635 0.030555
first 0.046843 -0.184638 0.068950 -0.059817 -0.041139 0.106696 0.095648 0.123987 0.097219 0.098748 0.041600 -0.129554 0.152880 -0.003940 -0.094142 0.003736 -0.060899 0.018005 0.073801 -0.153138 -0.230205 0.171414 -0.119024 0.149860 0.083151 0.051869 -0.015615 0.205289 -0.046222 -0.135816 0.001655 -0.148080 0.025036 -0.094142 0.065030 -0.072350 -0.070838 0.099227 0.043062 0.044424 -0.063119 -0.033400 -0.051787 0.008130 -0.146428 0.000831 -0.150081 0.213548 0.067886 -0.090146
home -0.008002 -0.080701 0.006094 0.007239 0.090383 0.028402 -0.105905 0.060498 0.038800 -0.034481 -0.061132 0.060526 -0.093546 0.052338 -0.130728 -0.057027 0.079568 -0.157430 -0.013894 -0.025183 0.129943 0.041735 0.004549 -0.151895 -0.081207 -0.122734 -0.082787 0.117715 0.101613 0.125684 -0.004749 0.003478 0.034341 -0.120074 0.011977 -0.022617 0.011034 0.082133 -0.031669 -0.084134 0.004883 -0.064417 -0.000720 -0.146943 -0.006263 -0.022387 0.032875 -0.054966 0.049858 0.158861
maybe -0.101157 -0.166977 0.155237 -0.099031 -0.001171 -0.025313 -0.232575 0.257617 0.040284 0.136477 -0.151250 0.241064 -0.226833 0.203637 -0.363651 -0.139364 0.002385 -0.310986 0.143907 -0.035244 0.056334 0.128470 -0.105716 -0.204501 -0.024469 -0.091940 -0.086595 0.167290 0.007898 0.094030 -0.006696 0.044093 -0.029006 -0.255705 -0.144044 0.084759 -0.084135 0.120053 -0.199007 0.040182 0.095417 -0.151693 -0.159961 -0.365096 -0.183667 -0.094352 -0.068309 0.157461 0.144815 0.150859
new 0.007935 0.016279 -0.051468 0.103330 0.163751 0.092090 0.059931 -0.150473 -0.006644 0.019477 0.024817 -0.163569 0.168655 -0.027241 0.109369 0.084168 0.097919 0.194869 -0.055896 -0.049476 0.001857 -0.011422 -0.082282 0.040613 -0.012241 -0.075784 0.061017 0.064195 0.155181 -0.035134 0.131293 -0.144336 -0.020407 -0.001464 0.144644 -0.045412 -0.096570 -0.019052 -0.002076 0.007626 -0.085213 -0.094424 0.091035 0.191974 -0.079077 -0.045042 0.019317 -0.050808 0.040856 -0.021285
personally -0.116688 -0.183917 0.162120 -0.124562 -0.176449 0.029767 0.102216 0.332952 -0.022154 0.278565 -0.152807 -0.074181 0.062555 0.175893 -0.290443 0.046602 -0.251510 -0.029715 0.174057 -0.070401 -0.383938 0.211741 -0.240920 0.074856 0.160664 0.023659 -0.086620 0.097549 -0.308615 -0.066245 -0.060069 -0.077216 0.089277 -0.138935 -0.029274 -0.095054 -0.176408 0.106891 -0.049103 0.073837 -0.013790 -0.165243 -0.319213 -0.151469 -0.132075 0.091579 -0.113784 0.495693 0.151254 -0.244631
travel 0.127148 -0.129973 -0.069840 0.118354 0.163934 0.363575 -0.212314 -0.208080 0.356555 -0.107787 0.043251 -0.038518 0.122577 0.073653 -0.083656 -0.047844 0.338233 -0.147563 0.132551 -0.167451 0.158420 0.015084 -0.025361 0.034485 -0.154659 -0.169300 0.042336 0.651498 0.453964 0.076420 0.169621 -0.060994 -0.019248 -0.317218 0.183400 0.065359 -0.065950 0.034588 0.128200 0.036209 -0.092587 -0.265191 0.185561 0.043424 -0.138125 -0.330846 -0.072362 -0.149766 -0.006930 0.279378
30 0.127958 -0.038444 -0.275268 0.111907 0.044840 0.265703 0.081350 -0.417734 -0.031510 -0.028033 0.195585 -0.382017 0.406742 -0.255187 0.717140 0.140745 0.206141 0.286804 0.158111 -0.122972 -0.134677 0.000381 0.180405 0.214024 0.153021 0.068131 0.074752 0.055163 0.074294 -0.145495 0.072754 -0.122177 0.235894 -0.041691 0.300680 -0.124734 0.005568 -0.127014 0.298309 -0.003539 -0.150280 -0.020866 0.130645 0.462669 -0.004479 -0.014151 -0.048255 0.009858 -0.194276 -0.175615
although 0.007592 -0.091267 -0.014682 0.018892 0.111115 0.063984 -0.099719 -0.011760 0.062709 0.108559 -0.102931 0.009102 -0.017322 0.164281 -0.108773 0.030805 0.038785 -0.098192 0.037192 -0.047862 0.048065 0.110790 -0.116003 -0.126058 -0.002082 -0.132981 -0.004343 0.158217 0.085689 0.118145 0.047828 -0.035851 -0.003503 -0.169447 0.096228 -0.005546 -0.093712 0.052085 -0.107558 0.045870 -0.025653 -0.111112 -0.053367 -0.122685 -0.084769 -0.078943 -0.010168 0.134174 0.119619 0.056999
dangerous -0.000179 -0.136465 0.023080 -0.000050 0.083949 0.108292 -0.173559 -0.026366 0.156819 0.135020 -0.079014 0.036337 0.008040 0.125838 -0.088291 -0.007436 0.089102 -0.187208 0.110424 -0.086310 0.065863 0.138769 -0.163445 -0.088046 0.010050 -0.139708 -0.031171 0.249337 0.139927 0.076247 0.080248 -0.011748 0.009746 -0.196544 0.104574 0.032054 -0.103035 0.059758 -0.109389 0.022849 0.010902 -0.172844 -0.042278 -0.156185 -0.174995 -0.140183 -0.054615 0.153245 0.132664 0.081347
decent 0.017790 -0.002609 0.124840 0.000184 0.150101 -0.044857 -0.044013 0.192040 0.071975 0.154377 -0.148956 0.190531 -0.085885 0.091292 -0.194396 0.014966 -0.083845 -0.042534 0.047757 -0.010952 0.029319 0.072361 -0.118066 -0.170376 -0.056602 0.000059 -0.052437 -0.015718 0.018545 -0.026747 0.035281 0.031074 -0.094339 -0.039041 -0.068805 -0.016798 -0.074962 0.080111 -0.168600 0.063542 0.033386 -0.037037 -0.059645 -0.164160 -0.113481 -0.113538 0.027360 0.024373 0.156011 -0.034921
depends -0.086112 -0.155244 0.227816 -0.111438 -0.034383 -0.055764 -0.111116 0.188530 -0.024932 0.191750 -0.154113 0.145488 -0.193840 0.367041 -0.482411 0.017201 0.015874 -0.118580 0.068964 0.044469 -0.013258 0.158445 -0.179676 -0.224406 0.049412 -0.079989 -0.026684 0.077214 0.023812 0.120481 0.051467 0.020017 -0.131526 -0.215999 -0.098658 0.037246 -0.200640 0.062683 -0.329639 0.081827 0.017350 -0.195012 -0.157355 -0.215526 -0.236886 -0.073906 0.000668 0.242054 0.202938 0.063396
different 0.067944 -0.021654 0.037511 0.034490 0.144676 -0.017257 -0.016131 -0.023793 0.189267 -0.024102 -0.046823 0.073724 -0.079766 0.093959 -0.243918 0.024864 0.055274 -0.065922 -0.051133 -0.036378 0.134518 -0.013717 -0.160322 -0.205754 -0.099585 -0.112604 -0.033631 0.039913 0.256453 0.105938 0.103147 -0.042117 -0.079223 -0.012421 0.056208 0.050285 -0.058510 0.017753 -0.160249 -0.009468 -0.075290 -0.006878 0.122998 -0.062803 -0.005920 -0.150160 0.093589 -0.134870 0.064613 0.109115
estate 0.031403 0.053086 0.010504 0.018624 0.087790 -0.075976 0.016613 -0.052884 -0.095486 0.003582 -0.081668 0.002888 0.027196 -0.034369 -0.072185 0.063435 -0.035725 0.056877 -0.129611 0.069214 0.094554 -0.058823 -0.081844 -0.145392 -0.022513 -0.080247 -0.039502 -0.181515 0.087363 0.044869 0.031062 -0.097319 -0.067594 0.067173 -0.010062 -0.009034 -0.063456 -0.090516 -0.099879 -0.087720 -0.069228 0.008351 -0.002425 0.033255 0.010944 0.060563 0.082978 -0.048347 0.001519 -0.025975
main -0.073786 0.106716 -0.233320 0.024705 0.130791 0.116851 -0.234745 -0.163160 0.127212 0.033292 -0.073817 -0.130048 0.200245 -0.027931 0.231296 -0.110901 0.014527 -0.062271 -0.084526 -0.165509 0.042221 -0.199926 0.076406 0.009644 -0.143225 -0.305071 -0.146826 0.096716 0.036152 -0.004824 -0.249931 0.050955 0.100067 -0.132902 0.028871 -0.147509 0.125170 0.150905 0.164887 -0.039837 0.115568 -0.103750 -0.081524 -0.144103 -0.015418 0.121410 0.063307 0.079457 -0.076236 0.138393
moving 0.092167 -0.165993 -0.030554 -0.013356 0.069117 0.238863 -0.009283 -0.287107 0.175651 0.044355 0.158606 -0.279730 0.300777 -0.073563 0.082844 -0.029548 0.258711 0.031523 0.097814 -0.249819 -0.066199 0.051760 -0.039689 0.159741 0.031398 -0.072600 0.070926 0.536633 0.307694 -0.137708 0.056720 -0.106951 0.085915 -0.199080 0.135932 0.053238 0.021334 0.085110 0.093834 -0.086962 -0.113433 -0.133973 0.155830 0.177434 -0.184767 -0.110582 -0.117929 -0.035077 0.003062 0.108140
next -0.152912 -0.192591 -0.035585 -0.068525 -0.136639 0.134018 -0.073142 -0.133476 0.064792 0.153074 -0.057104 -0.171568 0.185324 0.137767 0.163222 -0.131863 0.074721 -0.261144 0.097702 -0.188310 -0.130958 0.208594 0.114807 0.235777 0.141112 -0.059259 0.031598 0.271229 -0.170791 -0.028455 -0.026615 0.108693 0.133111 -0.131843 -0.060765 -0.036064 0.039362 0.096861 0.193360 0.029306 0.005826 -0.215838 -0.214883 -0.172128 -0.136005 0.044944 -0.098199 0.349273 0.086898 -0.136691
posh -0.033196 -0.147239 0.065842 0.032959 0.126296 0.072950 -0.270350 0.079423 0.223796 0.194093 -0.192720 0.215759 -0.165318 0.278809 -0.345468 -0.081533 0.087025 -0.394265 0.143647 -0.110485 0.103256 0.156943 -0.162517 -0.227934 -0.042498 -0.236371 -0.077917 0.299065 0.163538 0.167490 0.017110 0.087410 -0.061021 -0.247675 -0.018641 0.031057 -0.145346 0.075269 -0.207702 0.072061 0.016665 -0.215613 -0.141251 -0.343473 -0.201396 -0.221319 -0.030296 0.136359 0.198211 0.180178
side -0.055507 -0.157835 -0.039604 0.007435 0.122721 0.161386 -0.142623 -0.180071 0.017011 0.197108 -0.113091 -0.116888 0.235095 0.061369 0.107668 0.053527 0.230185 0.063011 0.090637 -0.166413 -0.053441 0.166965 -0.053709 0.002462 0.120928 -0.248816 0.051360 0.238907 0.041897 -0.118096 0.048670 -0.127477 0.027549 -0.264760 0.108564 -0.001725 -0.029799 0.038676 -0.053381 0.031304 -0.007706 -0.177826 -0.122085 -0.048068 -0.187004 0.038419 -0.064744 0.219943 0.121570 -0.073050
space -0.029536 0.090653 -0.025002 0.015395 0.047312 -0.070812 -0.001278 -0.053028 -0.235330 0.158349 -0.144686 0.021671 -0.051930 -0.100432 -0.049659 0.117168 -0.086762 0.109755 -0.024610 0.244079 0.017042 0.019499 -0.129605 -0.072138 0.144511 -0.063145 -0.010612 -0.316713 -0.050074 0.006414 0.141065 -0.103963 -0.122541 0.041763 0.062315 -0.129756 -0.296704 -0.137699 -0.062083 0.002996 0.124448 0.049287 -0.087917 0.219315 0.107912 0.007634 0.076736 0.070603 0.244951 -0.177126
st -0.054243 -0.005915 0.034782 0.025454 0.047802 -0.005978 0.028522 -0.014147 -0.124647 0.040728 -0.075652 0.004099 0.010411 0.022622 0.035007 0.055597 -0.077253 0.112398 -0.017015 0.026808 -0.021067 -0.031553 -0.022206 -0.048128 -0.025849 -0.015100 0.014203 -0.134539 -0.051722 0.013547 -0.024411 -0.044220 -0.053793 0.048879 -0.056015 -0.112122 -0.072704 0.000272 -0.039635 -0.005096 -0.001599 -0.015687 -0.076153 0.040744 0.037967 0.045548 0.038713 0.013574 0.031621 -0.084690
yes 0.003813 -0.106137 0.018228 -0.082747 0.014380 0.027345 -0.018636 -0.036784 -0.003410 0.080800 -0.028779 -0.044625 0.075937 0.044846 -0.021273 -0.038417 0.017031 -0.078214 0.047921 -0.102580 -0.081751 0.074569 -0.065435 -0.000045 0.048299 -0.044762 -0.044397 0.109379 0.010134 -0.011302 -0.019405 0.009324 0.038617 -0.082238 0.015280 -0.033969 -0.044613 0.093844 -0.031167 -0.035379 -0.029696 -0.075557 -0.077219 -0.044945 -0.133365 -0.027803 -0.052091 0.170523 0.074045 0.007374
zone -0.013106 -0.069774 -0.056095 0.037913 0.014320 0.053700 0.042819 -0.094076 0.052221 0.117947 0.020413 -0.128872 0.145317 0.043629 0.051553 0.029135 -0.083752 -0.006645 -0.003532 -0.079384 -0.091210 0.077523 -0.083001 0.082843 0.011241 0.011798 0.040941 0.049201 0.036525 -0.035343 0.070994 -0.029879 0.069881 0.026721 0.128771 -0.012418 -0.100136 -0.015698 0.002948 0.050264 -0.077514 -0.095843 -0.074729 0.068603 -0.133556 -0.086752 -0.057050 0.160462 0.006485 -0.072198
housing 0.121827 0.020472 0.083832 -0.004696 0.062715 -0.088425 -0.093445 0.155752 0.019710 -0.073188 -0.077050 0.234668 -0.216220 0.017772 -0.228279 -0.084788 -0.087531 -0.196827 -0.039136 0.120251 0.158145 -0.110452 -0.088017 -0.225655 -0.096272 -0.013085 -0.049697 -0.072307 0.098002 0.126006 -0.028679 -0.030173 -0.059318 0.049973 -0.073693 0.064133 -0.031840 -0.026884 -0.112120 -0.086273 0.012659 0.078588 0.021968 -0.128696 0.044443 -0.098950 0.051581 -0.122244 -0.063215 0.154705
long 0.042617 0.042492 -0.081328 0.166485 0.234681 0.180169 -0.059819 -0.164706 0.061315 0.009749 -0.058363 0.005258 0.095442 -0.024456 0.150537 0.011402 0.093031 0.033104 -0.043351 -0.052714 0.146519 -0.036270 -0.114484 -0.063526 0.018431 -0.099354 0.073071 -0.037759 0.175034 0.059252 0.114609 -0.063057 -0.001484 0.001389 0.169901 -0.055707 -0.031569 -0.063753 0.020732 0.033849 -0.086056 -0.038134 0.117018 0.136535 -0.033455 -0.117816 0.062970 -0.074706 0.045507 -0.063429
trendy -0.057420 0.048803 0.067786 0.028768 0.063122 -0.125806 -0.124498 0.159604 0.087366 0.080808 -0.166186 0.218239 -0.235509 0.260996 -0.342256 0.011980 -0.128434 -0.155137 0.032542 0.083640 0.137446 0.020235 -0.167465 -0.270833 -0.112520 -0.115583 -0.116999 -0.121990 0.009617 0.170125 -0.060802 0.060140 -0.078623 -0.005747 -0.072493 0.016740 -0.054938 0.014645 -0.212074 0.039691 0.033368 0.001630 -0.112657 -0.274993 0.025224 -0.046647 0.120294 0.073318 0.105188 0.045321
especially -0.009518 -0.175423 0.031897 -0.049105 0.060481 0.085373 -0.111741 0.075251 0.083482 0.171457 -0.131380 0.129407 -0.058420 0.157609 -0.156227 -0.064171 0.012408 -0.179671 0.149165 -0.081337 0.026838 0.112912 -0.065200 -0.142416 0.045830 -0.092414 -0.097334 0.133964 -0.002821 0.034347 -0.022539 0.047805 -0.018694 -0.197762 -0.015024 0.027693 -0.048905 0.113457 -0.131709 0.085074 0.011617 -0.113763 -0.121112 -0.238858 -0.082304 -0.088894 -0.008845 0.138674 0.127425 0.044477
quiet -0.002234 0.066264 0.058007 0.089941 0.115156 -0.009236 -0.064522 0.023640 0.010389 -0.033326 -0.111439 0.165073 -0.138475 0.106553 -0.179766 0.099415 -0.021102 0.009391 -0.026409 0.103448 0.125864 0.009321 -0.178613 -0.159085 -0.037838 -0.057880 0.054782 -0.045605 0.130605 0.087442 0.074671 -0.086429 -0.096514 0.012692 0.055184 0.044679 -0.064718 -0.023266 -0.118626 -0.030565 0.005339 -0.008264 0.019944 0.001074 0.084601 -0.096258 0.077106 -0.080541 0.025599 0.040412
uk 0.064877 -0.032518 0.034314 0.035640 0.087703 0.156023 0.045806 -0.003682 0.041033 -0.068783 0.113759 0.002435 0.040500 -0.047998 -0.036979 0.005289 0.123963 0.114483 0.031654 0.012521 0.020104 -0.041550 -0.015643 0.092315 -0.017396 0.047576 0.125163 0.241239 0.237653 -0.068983 0.153213 -0.094537 -0.019462 -0.073070 0.021492 0.103382 -0.012687 -0.011250 0.118236 -0.049661 -0.057291 -0.034556 0.192376 0.169127 -0.034036 -0.117391 -0.054352 -0.211170 -0.056618 0.117278
essex 0.069897 -0.106941 -0.036053 0.036792 0.113269 0.155424 -0.178983 -0.072670 0.242288 0.059640 0.005725 -0.006998 -0.007875 0.102652 -0.161412 -0.037269 0.126470 -0.197498 0.112830 -0.150054 0.120389 -0.017946 -0.088783 -0.140255 -0.098788 -0.147926 -0.045546 0.447330 0.249179 0.153505 0.031817 0.064491 -0.020497 -0.232932 0.055589 0.090539 -0.053673 0.047180 -0.080137 0.006925 -0.009946 -0.144694 0.090617 -0.131115 -0.152201 -0.193670 -0.048719 -0.014089 0.065525 0.264919
fine -0.068726 -0.014970 0.034120 -0.036668 0.011504 -0.022332 -0.034318 0.006083 -0.089731 0.038074 -0.044560 -0.039856 0.047845 0.047374 0.092293 0.011489 -0.103727 0.007714 -0.018215 -0.010973 -0.071750 0.064172 -0.021245 0.051242 0.007590 -0.010002 -0.047738 -0.143577 -0.144165 -0.018330 -0.046678 0.007407 0.060525 -0.010510 -0.013913 -0.094845 0.000901 0.036133 -0.022793 -0.020411 -0.007676 -0.033106 -0.063249 -0.065679 -0.028725 0.114979 -0.026095 0.115475 0.048058 -0.107159
found 0.097296 -0.208794 -0.039944 -0.115767 -0.006952 0.015707 0.047707 0.012340 0.080056 0.181803 -0.047632 -0.096421 0.095595 0.060604 -0.132428 -0.016265 -0.073374 -0.170548 0.018566 -0.244874 -0.091707 0.226652 -0.147859 0.056491 0.032211 -0.059946 -0.076007 0.125949 0.004373 -0.060567 -0.005457 -0.004131 0.020239 -0.024410 0.053981 -0.102836 -0.105611 0.138893 -0.093205 0.105470 -0.022420 -0.107350 -0.091851 -0.093579 -0.223641 -0.055743 -0.082677 0.260824 0.171028 -0.001156
underground -0.089789 -0.004004 -0.312722 0.208934 -0.167743 0.275853 0.042136 -0.268755 0.192471 -0.171454 0.179682 -0.412576 0.377584 -0.151632 0.648851 -0.066942 -0.007273 0.007481 -0.067063 -0.080960 -0.162539 -0.084862 0.286423 0.455449 0.012488 0.157508 0.007261 0.282882 0.003263 -0.034993 -0.078856 0.153831 0.297147 -0.014685 0.166147 -0.050409 0.146758 -0.023226 0.571420 -0.015782 0.077834 -0.175487 0.072864 0.248080 0.072274 -0.120838 -0.125214 0.064400 -0.322683 0.011492
along -0.063228 0.037775 -0.071514 -0.001518 0.044224 -0.029048 -0.075032 -0.210332 -0.018247 0.000921 -0.065506 -0.046709 0.030010 -0.069965 0.163592 -0.034492 0.160104 0.035154 0.009847 -0.054698 0.054260 -0.051823 0.104909 -0.096988 -0.028003 -0.179097 -0.028664 -0.082601 -0.035354 0.002391 -0.062531 0.024630 0.010622 -0.030071 0.003892 -0.003437 0.125410 -0.004765 -0.056502 -0.065515 -0.023429 0.055544 -0.002590 -0.041110 0.084665 0.186160 0.107593 -0.051712 0.023707 -0.038396
class -0.008899 0.149309 -0.000693 0.083408 0.124230 -0.092384 0.172295 -0.107018 0.015314 -0.052653 0.150591 -0.046608 0.089585 -0.018971 0.107754 0.117527 0.012413 0.155299 -0.177336 0.089113 0.053119 -0.160731 -0.134196 -0.010135 -0.065386 0.017153 0.131934 -0.172061 0.017957 0.126628 0.113056 -0.039560 0.001171 0.103844 0.238092 -0.031224 0.007927 -0.041600 0.029402 -0.035696 -0.083024 0.000971 0.009369 0.130762 0.041555 0.012755 0.127463 -0.210745 -0.008339 -0.031505
commute 0.020182 -0.215288 -0.062001 -0.006894 0.042106 0.323424 -0.040013 -0.165230 0.134401 -0.016607 0.081806 -0.199384 0.189885 0.074072 0.049833 0.034845 0.268645 -0.017294 0.161227 -0.197290 -0.136089 0.108557 0.017794 0.196891 0.006876 0.026785 0.115447 0.610992 0.242224 -0.071868 0.100397 -0.113535 0.054473 -0.302273 0.159465 0.042749 -0.081931 0.060221 0.225888 0.040972 -0.048274 -0.243765 0.070483 0.144642 -0.172287 -0.221929 -0.233472 0.097172 -0.014428 0.127272
council 0.048402 0.045362 0.064782 -0.047380 -0.022899 -0.177645 0.099048 0.105831 -0.028239 0.017885 -0.097053 0.077487 -0.095653 0.045517 -0.262657 -0.007215 -0.214877 -0.044985 -0.103388 0.095446 0.048842 -0.038052 -0.075950 -0.148033 -0.048375 -0.027430 -0.089164 -0.266963 -0.017695 0.064038 -0.044471 0.021358 -0.067257 0.132978 -0.080909 -0.022110 -0.077077 -0.078383 -0.134096 -0.043341 -0.055598 0.075332 -0.057518 -0.065581 0.059670 0.061120 0.084414 -0.009541 0.001037 -0.027521
known -0.058814 -0.138314 -0.023457 -0.089511 0.035824 0.046759 -0.125843 0.003158 0.052082 -0.017661 -0.073910 0.049687 -0.126817 0.172955 -0.115548 -0.039913 0.021691 -0.198404 0.032974 -0.064483 0.066064 0.105508 -0.022016 -0.127389 -0.022562 -0.158321 -0.153825 0.082687 -0.022387 0.130631 -0.012781 0.031161 0.070678 -0.119630 0.031529 0.021499 -0.023757 0.041612 -0.049898 -0.045982 -0.018209 -0.069419 -0.049854 -0.258166 -0.056955 0.004950 0.035581 0.098806 0.102916 0.134476
nicer -0.010647 -0.021846 0.033136 0.111464 0.101572 0.017605 -0.089808 0.066117 0.010717 0.000254 -0.099201 0.074042 0.042679 0.089708 0.083979 0.048073 -0.051405 -0.035910 -0.108382 0.068228 0.035957 0.141944 -0.062288 -0.061492 -0.041529 -0.055576 0.000653 -0.123633 -0.023319 0.031047 0.074398 -0.004507 0.047194 -0.100947 0.086156 -0.052264 -0.041812 -0.024095 -0.043228 0.083009 0.007175 -0.063973 -0.064019 -0.073057 -0.108137 -0.004627 0.009125 0.121574 0.117390 -0.132873
open 0.027203 0.166386 -0.017952 0.041673 0.040464 -0.097011 0.097657 -0.006077 -0.231499 0.073619 -0.080709 -0.024695 -0.006779 -0.138027 0.037441 0.121742 -0.180681 0.169573 -0.082594 0.244374 -0.023426 -0.033339 -0.085320 -0.003781 0.132539 0.055158 0.003063 -0.397743 -0.066773 -0.042774 0.087187 -0.085847 -0.084095 0.155582 0.070988 -0.148002 -0.202868 -0.137704 0.014311 -0.024802 0.077905 0.118168 -0.047170 0.281584 0.161870 0.049248 0.058381 0.027312 0.130415 -0.202060
plenty -0.008579 0.072211 0.045850 -0.109370 -0.172042 -0.270657 -0.040956 0.168452 0.055000 -0.040601 0.027594 0.243084 -0.282885 -0.010085 -0.182851 -0.167981 -0.082844 -0.155680 -0.128370 0.062715 0.194739 -0.056948 0.113339 -0.136648 -0.108384 0.024203 -0.177667 -0.289407 -0.110730 0.107484 -0.054344 0.346603 -0.022722 0.194842 -0.291334 0.108777 0.126349 -0.018762 -0.112129 0.050617 0.063113 0.183080 -0.005213 -0.280223 0.074825 0.048966 0.120598 -0.156357 0.002067 0.104696
