location1 0.347992 -0.428725 -0.352726 -0.705062 0.321622 0.533126 -0.252647 0.009613 0.262311 -0.571578 0.223108 0.236103 0.404941 -1.722155 0.518610 -0.661759 -0.238046 -0.109429 -0.424790 -0.830693 0.129251 0.129971 0.685128 0.123948 0.635467 -0.351119 0.471475 -1.223049 1.085882 -0.450566 0.406357 0.141471 -0.181774 0.048481 -0.840263 0.136012 1.882274 0.024483 -0.338073 -1.170455 -0.114764 -2.225641 -0.100965 -0.055899 -0.877241 0.591497 0.466499 -0.620297 0.376130 0.773911
location2 0.172113 -0.568515 -0.127283 -0.499250 0.150534 0.383607 -0.218843 0.057967 0.502383 -0.266237 0.117599 -0.409548 0.291861 -1.398778 0.469028 -0.393853 0.153080 0.303096 -0.508116 -1.015553 0.249620 0.055678 0.492195 0.301402 0.271652 -0.485807 0.484031 -0.952388 0.949463 -0.290121 0.338160 -0.029992 -0.648019 -0.228681 -0.751489 0.289726 1.787269 -0.048039 -0.014678 -1.042962 0.100585 -2.121693 -0.444204 0.286842 -0.992320 0.379013 0.232997 -0.500419 0.678792 0.624844
london -0.144234 0.541320 -0.133843 -0.073157 -0.194246 0.321625 -1.191319 0.480317 0.798215 -0.556001 -0.147238 -1.275092 0.658636 -0.656514 0.319929 0.238500 0.396428 -0.543681 -0.683394 -0.849165 1.230060 0.061958 0.023431 -0.842372 0.250630 0.179669 0.661148 -0.960283 0.452855 -0.618882 -0.459559 0.060639 -0.717428 0.437110 -0.424593 0.593661 1.647301 1.024384 0.674107 -0.982060 -0.456058 -0.993508 -0.669936 -0.579593 -0.578771 0.393726 -0.703478 0.276505 0.053521 1.237412
area 0.409564 -0.546750 0.758780 -0.808134 -0.176947 0.457357 -0.681291 0.125679 -0.082481 0.002089 0.360064 -0.031348 0.123048 -0.681161 0.604398 -0.839813 0.882974 0.717863 -0.445317 -0.845061 -0.099797 -0.728832 0.376335 0.521495 -0.296277 -0.803037 0.606524 -0.406772 0.500213 -0.046128 0.750129 0.644971 -0.574067 0.368460 -0.594220 -0.161356 1.573663 0.737046 -0.299870 -1.025579 -0.870984 -1.027549 -0.758733 0.130614 -0.982606 0.197844 -0.013269 0.554925 0.273416 0.707802
live 0.551913 -0.835399 -0.136383 -0.452290 -0.139022 0.657510 -0.759118 -0.702934 0.398841 0.427551 0.233919 -0.860434 -0.583175 -1.120307 0.242934 -0.464054 0.521866 -0.011113 -0.412350 -0.821640 0.393725 -0.597114 -0.037203 0.709026 0.459626 0.092244 0.062570 -0.911578 0.123445 -0.793934 0.099143 -0.148044 0.031310 0.523013 -0.007327 0.245932 1.680165 -0.351473 -0.780927 -0.792946 -0.092134 -1.046376 0.228718 -0.509890 -0.073226 -0.407809 0.491261 -0.434294 0.245948 0.977920
place 0.585731 -0.806910 -0.173914 -0.568110 -0.665437 -0.084504 -0.596944 -0.395970 0.371304 0.173442 -0.209362 -0.564130 -0.531699 -0.377024 0.290971 -0.298639 0.643228 0.685645 -0.474804 -1.201583 0.453969 -0.643642 0.076045 0.449953 0.049038 0.222320 0.239089 -0.585803 0.102487 -0.693718 0.142668 -0.192483 -0.335373 0.182463 -0.386499 0.144426 1.344960 0.023200 -0.678095 -0.799121 -0.147981 -0.940017 -0.256608 -0.068311 0.021505 -0.375591 0.407748 -0.409852 0.795337 0.690587
nice 0.365005 -0.101461 -0.157560 -0.630490 -0.434243 0.297467 -0.704957 0.092300 -0.189253 -0.076294 -0.077892 -0.290377 0.162260 -0.522233 0.650029 -0.656373 0.449589 0.778715 -0.512426 -0.882207 -0.000526 -0.352570 0.248417 -0.017871 -0.474066 -0.440608 0.599600 -0.463290 0.398438 -0.225599 0.439789 0.016394 -0.959639 0.412978 -0.870202 -0.386492 1.533592 0.617981 -0.233169 -0.837242 -0.545816 -1.228645 -0.536607 0.139076 -0.717528 -0.027834 0.180585 0.127138 0.216764 0.366309
good 1.016752 0.355691 -1.020174 -0.318329 -0.872411 -0.533461 -0.209692 0.190781 0.098264 -0.155827 -0.057601 -0.422813 -0.080890 0.672961 0.285835 0.227184 0.263327 0.760009 -0.703600 -1.095443 0.079087 -0.416737 0.478187 -0.145145 -0.537467 -0.058999 0.106152 -0.541980 -0.175521 -0.476532 0.788089 -0.291472 -0.453347 -0.032828 -0.410087 0.019725 1.120024 0.780306 -0.622077 -0.477659 -0.497868 -1.592319 0.461440 0.086843 0.144550 0.635148 0.566232 -0.606088 -0.012621 0.403146
like 0.129914 -0.568415 0.003394 -0.237754 -0.036219 0.496928 -0.510095 -0.515254 0.304142 0.263465 0.241975 -0.409152 -0.317749 -0.468640 0.194309 -0.260268 0.304435 0.420519 -0.131340 -0.652357 0.067112 -0.334623 -0.209023 0.645167 0.029778 -0.323943 0.227575 -0.316782 0.260553 -0.290326 0.391857 -0.123577 -0.484339 0.074884 -0.520608 0.014088 1.039564 -0.179643 -0.339771 -0.819583 0.069215 -1.010724 -0.158045 0.117648 -0.086626 -0.157361 0.278838 -0.195088 0.699589 0.174536
would 0.333901 -1.025270 -0.233216 -0.272984 -0.556314 0.520279 -0.135279 -0.518049 0.499651 0.524773 0.334721 -0.474784 -0.933491 -0.883010 0.179885 -0.410126 0.349409 0.298652 -0.396322 -0.723670 0.005957 -0.549505 0.360820 1.280120 0.764370 0.275875 0.136254 -0.665453 -0.047025 -0.592334 -0.062370 0.013336 -0.153450 0.007569 0.081069 0.223472 0.994865 -0.518532 -0.795785 -0.856141 0.388332 -0.695958 0.261081 -0.377503 0.010758 -0.251665 0.164787 -0.423756 0.459264 0.895203
also 0.265914 -0.406739 -0.375545 -0.361485 -0.110873 0.181564 -0.372891 -0.342787 0.055565 -0.003870 0.102499 -0.322976 -0.114342 -0.579957 0.456640 -0.181478 0.095019 0.582215 -0.323176 -0.666426 0.107972 -0.282841 -0.096038 0.375884 -0.044995 -0.268561 0.419233 -0.427203 0.137133 -0.162616 0.336696 -0.098937 -0.418244 0.077672 -0.473162 0.047319 1.136489 0.069856 -0.253139 -0.756576 -0.121127 -1.106010 -0.049076 -0.038406 -0.285786 0.052749 0.196177 -0.274729 0.354520 0.231503
expensive 0.247217 -0.187157 0.142584 -0.484403 -0.408379 0.217005 -0.438751 0.100665 0.451519 -0.014106 0.201590 -0.453866 0.185401 -0.329101 0.347275 -0.304476 0.636899 0.676144 -0.484212 -0.601833 0.069920 -0.501848 -0.032292 0.350747 -0.312880 -0.273888 0.072807 -0.309848 0.107985 -0.060967 0.374986 0.018667 -1.075207 0.166940 -0.539435 -0.102788 0.913393 0.642437 0.158069 -0.933448 -0.729056 -0.447371 -0.711344 -0.227746 -0.558034 0.306773 -0.142389 0.425022 0.279001 0.282325
part -0.050626 0.237945 0.075792 -0.168857 -0.242723 0.414751 -0.707893 0.140727 0.204835 -0.267622 0.156625 -0.562137 0.476622 -0.424766 0.280894 -0.170031 0.450223 0.155666 -0.337592 -0.439662 0.284124 -0.184206 -0.042302 -0.067576 -0.143732 -0.451650 0.424422 -0.357012 0.342606 0.028514 0.085613 0.059942 -0.939132 0.417125 -0.540127 -0.071234 0.905150 0.752114 0.253256 -0.817658 -0.601811 -0.492446 -0.740715 -0.209983 -0.492755 0.294582 -0.354112 0.577647 0.162484 0.301617
lot 0.510849 -0.275597 -0.335846 -0.392674 -0.373804 0.092511 -0.236601 -0.021089 -0.373475 0.260896 -0.246572 0.224095 -0.510559 0.053831 0.355160 -0.476770 0.201673 0.636231 -0.318642 -0.554612 -0.244406 -0.396293 0.248288 0.016815 -0.304952 -0.242682 0.244632 -0.102115 -0.167510 -0.356292 0.544626 0.074439 -0.061090 0.322349 -0.094492 -0.443866 0.910273 0.303800 -0.877585 -0.185146 -0.421426 -0.833539 0.219838 0.238730 -0.215211 -0.195566 0.579551 -0.245458 -0.023257 0.212013
around 0.008039 -0.210503 0.034893 -0.403061 0.114925 0.392984 -0.322542 0.014135 0.195398 0.078156 0.184640 -0.077443 -0.048218 -0.637603 0.121002 -0.421674 0.248252 0.045683 -0.070966 -0.485141 0.076876 -0.152949 0.247713 0.355259 0.128398 -0.181375 0.260845 -0.220372 0.309605 -0.200126 0.027555 0.333703 -0.002734 0.200813 -0.172033 -0.035321 0.649552 -0.042681 -0.159197 -0.431413 -0.192472 -0.502312 0.049938 0.020668 -0.358915 -0.095559 -0.012476 0.012234 0.173467 0.447648
one 0.122735 -0.198050 0.022648 -0.533965 -0.182902 0.180988 -0.240723 0.030142 0.446354 -0.172249 -0.008900 -0.175566 0.094825 -0.534613 0.099851 -0.194466 0.333702 0.211659 -0.344738 -0.553954 0.480998 -0.148207 0.107189 -0.065270 0.149864 -0.035518 0.085742 -0.484896 0.127877 -0.269530 0.008323 0.031456 -0.352204 0.115507 -0.245143 0.041515 0.707197 0.331058 0.052644 -0.662615 -0.340589 -0.497204 -0.434815 -0.253183 -0.335104 -0.007765 0.028981 -0.103835 0.328353 0.371453
great 0.741864 -0.104040 -0.685318 -0.179636 -0.569386 -0.424229 -0.193577 0.066645 0.002289 0.028002 -0.261362 -0.238813 -0.322442 0.132961 0.443620 0.025306 0.209288 0.439923 -0.414156 -0.774331 0.053402 -0.276939 0.270454 0.051736 -0.142396 0.231387 0.156209 -0.479633 -0.146848 -0.443291 0.353647 -0.264289 -0.056904 0.038194 -0.226170 -0.074217 0.798881 0.197940 -0.640022 -0.283313 -0.030692 -1.038508 0.338659 0.043011 0.120452 0.108544 0.492089 -0.378215 0.134539 0.538214
central 0.011561 0.256484 0.047176 -0.153222 -0.146622 -0.197288 -0.288495 0.465498 0.868082 -0.334023 -0.382371 -0.897589 0.337930 -0.255517 0.110094 0.278917 0.420010 0.021451 -0.510993 -0.784890 0.685738 -0.055768 0.173291 -0.315986 -0.269925 0.342418 0.099070 -0.358404 0.298944 -0.247105 -0.031379 -0.124074 -0.729186 -0.357651 -0.251996 0.609101 0.710813 0.591080 0.802733 -0.519253 -0.229092 -0.636236 -0.401344 -0.067551 -0.471200 0.342234 -0.265686 0.174732 0.165939 0.714688
go 0.192324 -0.356906 -0.131741 -0.048261 -0.230417 -0.092863 -0.066960 -0.153032 0.406330 -0.023528 -0.251035 -0.365980 -0.144795 -0.438078 0.237645 -0.062862 0.109453 0.145979 -0.310567 -0.695841 0.195973 -0.095024 0.232968 0.260797 0.218064 0.215395 0.181048 -0.428844 0.167827 -0.384824 0.054846 -0.116025 -0.168235 -0.330311 -0.221843 0.359982 0.683837 -0.114379 -0.085373 -0.431998 0.209412 -0.756163 0.146326 0.093989 -0.089237 0.136644 0.104924 -0.280997 0.374919 0.647563
quite 0.344001 -0.284108 0.342201 -0.354204 -0.195278 0.245669 -0.276135 0.155236 0.042261 0.024040 0.221920 0.073851 0.276510 -0.164597 0.282907 -0.498214 0.640782 0.669535 -0.181270 -0.417284 -0.258503 -0.422262 0.187449 0.239744 -0.470716 -0.671976 0.146827 -0.152294 0.436708 0.092834 0.602882 0.093222 -0.774492 0.127587 -0.550461 -0.260320 0.919031 0.537990 -0.076488 -0.581981 -0.726300 -0.554904 -0.634630 0.257750 -0.685328 0.344965 0.052651 0.354943 0.249011 0.083295
really 0.147619 -0.415474 0.027649 -0.392975 -0.191695 0.325464 -0.475505 -0.304239 -0.007634 0.131183 0.137655 -0.243613 -0.218897 -0.400071 0.332536 -0.413146 0.437662 0.540753 -0.182518 -0.467042 -0.029360 -0.365290 -0.045365 0.406563 -0.226793 -0.295889 0.264028 -0.266542 0.139557 -0.204457 0.374326 -0.103908 -0.478161 0.316735 -0.403755 -0.168449 0.885150 0.177076 -0.338006 -0.678455 -0.124544 -0.655792 -0.353216 -0.082212 -0.202624 -0.216851 0.266752 0.121652 0.326280 0.205204
lived -0.074399 -0.068728 -0.083499 -0.598410 0.822046 0.667037 -0.199459 -0.238539 0.077115 -0.162759 0.461704 0.030254 0.088439 -1.007329 -0.097744 -0.059910 -0.311983 -0.618603 0.140757 0.258309 0.447399 0.283977 -0.170556 0.039617 0.740653 -0.140361 -0.099919 -0.789708 0.401902 -0.119844 -0.394618 0.091810 0.432467 0.434352 -0.027486 0.250987 0.536368 -0.092407 -0.013786 -0.394594 0.124214 -0.485067 -0.018396 -0.705621 -0.072582 -0.049360 0.034576 -0.450908 -0.075068 0.160827
get -0.050104 -0.010190 0.151205 -0.361940 0.097628 -0.040241 -0.072336 0.202689 0.736328 -0.171087 -0.391186 -0.502252 0.013064 -0.279055 -0.171821 0.108577 0.445465 0.135249 -0.305097 -0.672750 0.399607 -0.142397 0.187916 0.069677 -0.259906 0.186099 -0.046108 -0.192688 0.460678 -0.122305 0.168487 -0.187587 -0.435792 -0.488501 -0.182109 0.529493 0.439678 0.348190 0.576904 -0.433591 -0.168472 -0.690936 -0.287785 0.095379 -0.360937 0.192095 0.033688 -0.010092 0.412928 0.427117
bit 0.182944 -0.266154 0.210481 -0.197938 0.035159 0.284845 -0.296089 -0.030647 0.099374 0.154377 0.159089 -0.235293 0.067708 -0.305915 0.242223 -0.351589 0.367737 0.471839 -0.094392 -0.236794 -0.226304 -0.199586 -0.028345 0.562929 -0.217737 -0.417889 0.037711 -0.112917 0.297158 0.143577 0.352239 -0.015706 -0.655655 -0.107568 -0.451458 -0.088736 0.610114 0.047813 0.134651 -0.486844 -0.230231 -0.531412 -0.495506 0.247656 -0.466513 0.183578 0.016352 0.199352 0.336918 -0.062292
near 0.166350 -0.084601 -0.107953 -0.263265 -0.056618 0.147211 -0.172653 -0.077412 0.472105 -0.072979 -0.102367 -0.469335 0.044367 -0.651921 0.128747 -0.137274 0.107494 -0.149660 -0.298026 -0.638405 0.449939 -0.096383 0.218383 0.077743 0.157524 0.171701 0.120343 -0.452013 0.213282 -0.579240 0.080353 -0.032485 -0.231341 -0.013705 -0.196834 0.126502 0.772814 -0.065162 -0.038992 -0.537548 0.032710 -0.828715 0.067926 -0.101618 -0.195312 -0.020108 0.211583 -0.238009 0.196683 0.632463
people 0.081963 -0.401590 0.206494 -0.224570 0.070052 0.633638 -0.418524 -0.380091 -0.252564 0.517807 -0.052421 0.026503 -0.585760 -0.449703 0.241417 -0.566930 0.208693 0.113277 0.023199 -0.061763 -0.244918 -0.330567 0.092052 0.432350 -0.028206 -0.140312 0.179043 -0.142209 -0.061420 -0.471049 0.474046 0.122730 -0.098440 0.592713 0.250568 -0.315155 0.638255 -0.025550 -0.777537 -0.292551 -0.143239 -0.514281 0.095817 -0.021763 -0.002252 -0.290829 0.546934 0.226582 -0.092632 0.345508
south -0.161841 -0.357902 0.334571 0.610046 -0.298161 -0.162879 -0.576814 -0.172932 0.135634 -0.216537 -0.091372 -1.226594 0.404642 -0.968793 0.712215 0.139656 0.148161 -0.330105 -0.447193 -0.329234 0.494661 0.153153 -0.074266 -0.092561 0.257290 0.226642 0.574700 -0.807156 0.473067 0.041264 -0.251658 -0.108777 -0.509755 -0.002219 -0.365679 0.795437 0.971726 -0.273703 0.475269 -0.247418 0.303123 -0.541210 -0.541294 -0.205091 -0.296691 0.120375 -0.540632 0.229263 0.128018 0.745589
tube 0.083147 0.578626 -0.232600 -0.333566 -0.091896 -0.382551 0.627246 0.602083 0.748328 -0.603671 -0.592239 0.037538 0.282184 -0.241117 -0.285281 0.163963 -0.210339 -0.390339 -0.492464 -0.701683 0.728868 0.338978 0.831419 -0.647593 0.052800 0.535649 -0.028287 -0.158515 0.252114 -0.683478 0.103968 0.026206 -0.216859 -0.766060 0.021597 0.149313 0.061780 0.194677 0.540627 -0.237659 0.181535 -0.962740 0.352988 0.263946 -0.239129 0.389790 0.387478 -0.486871 -0.037395 0.521968
think 0.168406 -0.309645 0.032381 -0.254744 0.020335 0.289620 -0.225274 -0.211284 0.203855 0.211515 0.045259 -0.239161 -0.261156 -0.574904 0.237893 -0.309671 0.234130 0.185224 -0.154342 -0.389965 0.004200 -0.214431 0.151030 0.501891 0.106448 -0.022901 0.081676 -0.378006 0.138676 -0.321189 0.287915 -0.024004 -0.223740 0.131997 -0.154582 -0.019529 0.714031 -0.003793 -0.303280 -0.543179 0.007350 -0.831369 -0.071747 -0.101247 -0.171292 0.017183 0.273719 -0.081433 0.153137 0.388339
well 0.178188 -0.143392 -0.150262 -0.192412 -0.095649 0.104620 -0.073350 0.006508 -0.022135 -0.010957 -0.033678 0.038056 -0.044601 -0.168564 0.043017 -0.114139 -0.004291 0.057195 -0.192483 -0.255642 0.028104 -0.136192 0.172102 0.088723 -0.008698 -0.037079 0.114845 -0.177526 0.061708 -0.150566 0.124199 0.105725 -0.177955 -0.116008 0.030531 -0.091274 0.406393 0.057061 -0.190813 -0.275159 0.030033 -0.490691 0.049708 0.151509 -0.047033 0.009517 0.309779 -0.219627 0.055653 0.054640
much -0.094271 -0.252500 -0.048651 -0.298532 0.147996 0.457167 -0.293609 -0.158257 0.209992 0.031671 -0.070975 -0.263992 -0.082821 -0.197134 0.086785 -0.303815 0.344113 0.232335 0.032768 -0.248641 -0.044016 -0.036468 -0.108218 0.335520 0.040890 -0.193354 -0.041221 -0.271083 0.198844 0.156831 0.194123 -0.220391 -0.407393 -0.311842 -0.230298 0.208508 0.613741 0.085909 0.170224 -0.361086 -0.094530 -0.532321 -0.331963 0.231877 -0.266479 0.188894 0.106031 -0.232551 0.302286 -0.160677
station -0.001147 0.446258 -0.254550 -0.242527 -0.071847 -0.303343 0.562029 0.472816 0.858674 -0.496315 -0.523620 -0.170022 0.295363 -0.519951 -0.308517 0.171634 -0.248914 -0.558332 -0.468547 -0.715554 0.784007 0.378476 0.753167 -0.560545 0.158729 0.614314 -0.080899 -0.229291 0.211187 -0.742356 -0.005727 0.038035 -0.201755 -0.707657 0.053420 0.228474 0.092244 0.085218 0.588517 -0.339925 0.264788 -0.870420 0.314153 0.099341 -0.270395 0.322127 0.302642 -0.487155 -0.077910 0.621501
year -0.159946 0.007248 0.058882 -0.644538 0.974405 0.695752 -0.149120 -0.313343 0.109097 -0.071290 0.486409 0.113378 -0.001360 -0.826621 -0.377789 0.058102 -0.313328 -0.946713 0.255269 0.581324 0.602530 0.312526 -0.313448 -0.011474 0.932685 0.029500 -0.403126 -0.758360 0.253832 -0.167907 -0.579476 0.058509 0.648805 0.551740 0.235498 0.341114 0.197619 -0.084316 -0.063655 -0.096927 0.092809 0.042294 0.063639 -0.953936 0.186578 -0.240799 0.061190 -0.443110 -0.236660 0.086904
best 0.265811 -0.444186 -0.043821 -0.197317 -0.430606 -0.233187 -0.435601 -0.138680 0.476023 0.024230 -0.102522 -0.473119 -0.102797 -0.363634 0.352029 -0.015619 0.566168 0.403836 -0.326099 -0.705018 0.355007 -0.259913 0.029960 0.362448 0.049330 0.199014 0.174757 -0.416398 0.155604 -0.252272 -0.015929 -0.240119 -0.275891 0.080872 -0.237116 0.237819 0.772020 0.022796 -0.190715 -0.545273 -0.212952 -0.500327 -0.343203 -0.068245 -0.110072 -0.175299 0.111237 -0.256200 0.550434 0.503793
safe 0.263361 -0.323714 0.284768 -0.244685 -0.245837 0.206800 -0.209141 0.001860 0.110093 0.003640 0.109383 -0.237773 0.074512 -0.163567 0.207448 -0.299617 0.476057 0.402258 -0.242301 -0.426303 -0.147812 -0.362598 0.048351 0.274466 -0.245616 -0.410679 0.129663 -0.208136 0.356712 0.017396 0.276868 -0.054743 -0.561125 0.188869 -0.414832 -0.102770 0.758310 0.261439 -0.072757 -0.359809 -0.436031 -0.402726 -0.404684 0.143528 -0.319120 0.088482 -0.041588 0.159019 0.280377 0.124932
street 0.509490 0.561032 -0.428621 0.052445 0.213450 0.064883 -0.242370 0.558585 0.316037 -0.284602 -0.110796 1.000254 0.106720 0.259897 0.432884 -0.228965 -0.112411 0.041926 0.447460 -0.261186 -0.061298 0.163056 0.494265 -0.221779 -0.195124 -0.336338 0.169046 -0.020101 0.327776 -0.482521 0.313472 0.084275 0.298768 0.272938 -0.389700 -0.706678 0.525593 -0.096026 -0.697044 0.104458 -0.296097 -0.681136 0.639979 0.520147 0.104922 0.483012 0.366837 0.101884 0.280182 0.027514
line -0.178659 0.482814 -0.086743 -0.167909 0.019335 -0.387492 0.703029 0.541554 0.924340 -0.497408 -0.249240 0.141287 0.472056 -0.384387 -0.490639 0.286490 -0.339362 -0.518719 -0.264685 -0.480114 0.673145 0.616151 0.568145 -0.701841 0.248516 0.477654 -0.331153 -0.175580 0.130938 -0.275967 -0.021686 0.111309 -0.122293 -0.814296 0.148192 0.259218 -0.388897 0.139420 0.887051 -0.195506 0.128714 -0.276680 0.154115 -0.052667 -0.178433 0.349989 0.120724 -0.376866 -0.217565 0.343710
road -0.072189 0.084473 -0.130638 0.075170 0.368007 0.370696 -0.216208 0.219508 0.328016 -0.126446 0.243600 0.077388 0.221003 -0.277090 0.200632 -0.083610 0.075379 -0.256131 0.117301 -0.063163 0.144198 0.214337 0.153443 -0.016969 0.261892 -0.148113 0.224325 -0.236092 0.390752 -0.119533 -0.056847 0.109164 0.110404 0.188074 -0.141281 -0.116278 0.506798 -0.074811 -0.078900 -0.220445 -0.130691 -0.541570 -0.097139 0.047398 -0.197588 0.106874 -0.121844 -0.005037 0.147601 0.188066
want 0.066866 -0.626878 0.144060 -0.217222 -0.085775 0.364204 -0.446858 -0.582187 0.099487 0.393100 0.099085 -0.384739 -0.475479 -0.455480 0.048244 -0.382305 0.349455 0.290431 -0.161524 -0.376728 0.007961 -0.414742 -0.198774 0.555242 -0.077011 -0.170530 0.104806 -0.253777 -0.025002 -0.432999 0.370272 -0.210037 -0.231732 0.361167 -0.045544 0.017694 0.820891 -0.178260 -0.461362 -0.452175 -0.006969 -0.412395 0.054795 -0.172322 0.044591 -0.338238 0.403067 -0.032153 0.221733 0.313221
train -0.163749 0.513875 -0.051868 -0.195843 0.208010 -0.265837 0.575212 0.542531 0.819032 -0.392758 -0.494577 -0.332914 0.364974 -0.255090 -0.479965 0.305794 -0.170124 -0.421887 -0.483652 -0.445242 0.699815 0.397756 0.651369 -0.512292 -0.009382 0.391886 -0.141467 -0.140027 0.365005 -0.411459 -0.081675 -0.157718 -0.374910 -0.867264 0.079632 0.550430 -0.044272 0.163017 0.915832 -0.124500 0.425506 -0.876929 0.224381 0.268722 -0.356827 0.450028 0.031443 -0.339519 0.009429 0.321286
crime 0.173441 0.161243 0.122871 0.295263 0.002378 -0.272877 0.189737 0.441352 0.036616 -0.027754 -0.243018 1.014664 0.202813 0.453081 0.035925 -0.234348 0.004604 0.464525 0.122471 -0.020223 -0.048275 0.107348 0.315587 -0.385550 -0.248606 -0.783228 0.004840 0.076546 -0.040236 -0.101670 0.494285 0.278572 -0.115824 -0.093286 0.144284 -0.435355 0.134856 0.232039 -0.450136 0.287928 -0.455387 -0.151032 0.043015 0.718285 -0.292418 0.448018 0.265781 0.055488 0.183479 -0.165215
restaurant 0.587561 0.280118 -1.117949 -0.321872 -0.736034 -0.419069 -0.246763 0.312185 -1.006812 -0.040623 -0.488604 0.436156 -0.242920 0.988246 0.615311 -0.311110 -0.012551 1.043118 -0.538649 -0.417056 -0.468033 -0.128818 0.393180 -0.735079 -0.654134 -0.218515 0.527338 0.103118 -0.382493 -0.248857 0.526289 -0.099748 -0.156717 0.234745 -0.346894 -0.669381 0.846871 0.804137 -0.938130 0.119518 -0.405493 -1.061536 0.165782 0.514187 -0.119293 -0.168952 0.709170 -0.535152 -0.292541 -0.255710
west -0.169384 -0.122064 0.315859 0.659367 -0.240836 -0.220315 -0.583178 0.124749 0.188358 -0.404092 -0.080929 -1.128344 0.550422 -0.827697 0.736454 0.259010 0.132743 -0.389879 -0.404137 -0.287231 0.498796 0.198315 -0.015781 -0.251987 0.202007 0.149309 0.617480 -0.767457 0.541702 0.116423 -0.270050 -0.051064 -0.580838 -0.045123 -0.376029 0.755348 0.935226 -0.116681 0.638120 -0.189137 0.204805 -0.553498 -0.602861 -0.163538 -0.376598 0.347087 -0.699872 0.334836 0.085825 0.771149
close 0.129231 0.108668 -0.090073 -0.118737 -0.349308 -0.047475 -0.409179 0.055263 0.065891 -0.155109 -0.001747 -0.476407 0.068757 -0.114802 0.346518 0.033063 0.208868 0.171337 -0.317679 -0.383438 0.259153 -0.247777 0.031682 -0.066695 -0.188254 0.057414 0.369076 -0.271634 0.110159 -0.125199 0.126185 0.000922 -0.420952 0.305783 -0.118318 0.060920 0.609993 0.387818 -0.104544 -0.332370 -0.326748 -0.273260 -0.202488 -0.233458 -0.004840 0.049767 -0.123749 0.165948 0.077480 0.320056
try 0.027837 -0.658548 -0.226061 -0.153721 0.030739 0.162348 -0.033141 -0.535582 0.216261 0.110260 0.145296 -0.156934 -0.211753 -0.610295 0.142922 -0.198103 -0.016488 0.427026 -0.167597 -0.397305 -0.060227 -0.175573 -0.263280 0.524978 0.122677 -0.252732 0.192437 -0.119754 0.099225 -0.047757 0.232367 -0.154458 -0.218001 -0.176919 -0.295092 0.128189 0.619860 -0.517142 -0.136867 -0.519236 0.264384 -0.603198 0.004786 0.104159 -0.118597 -0.099875 0.227191 -0.329020 0.511883 0.063507
bad 0.074839 -0.194738 -0.081019 -0.171271 -0.092145 0.234833 -0.042002 -0.169708 -0.109876 0.024585 0.057449 0.118786 -0.039634 -0.161108 0.180662 -0.247423 0.119511 0.312343 -0.122162 -0.113418 -0.189276 -0.140586 0.196913 0.262847 -0.215014 -0.323644 0.113642 -0.146521 0.121220 -0.034936 0.396145 -0.043496 -0.207148 0.166846 -0.241479 -0.200414 0.513642 0.088077 -0.347806 -0.327691 -0.158187 -0.643364 -0.341352 -0.002306 -0.275209 0.088264 0.276319 0.017341 0.127972 0.070934
centre 0.194788 0.548169 -0.374903 0.008462 -0.548282 -0.372843 -0.456016 0.264124 -0.015574 -0.502851 0.007461 -0.352066 0.173372 0.117202 0.541101 0.290875 -0.051566 0.159380 -0.371558 -0.458974 0.353488 -0.229307 0.173568 -0.242044 -0.239077 0.175367 0.523889 -0.308493 0.128843 -0.093320 0.184427 0.026417 -0.447115 0.306016 -0.171515 0.030813 0.488883 0.653522 -0.254892 -0.459869 -0.492471 -0.457163 -0.109929 -0.342180 0.312035 0.361530 -0.109637 0.096888 0.027535 0.343989
know 0.069817 -0.331144 0.084581 -0.130854 0.127201 0.354216 -0.304780 -0.205022 -0.023223 0.134844 0.066794 -0.149667 -0.111786 -0.428505 0.168757 -0.246221 0.143513 0.090374 -0.053051 -0.181681 0.003079 -0.070590 0.023369 0.331430 0.119585 -0.156928 0.100424 -0.293097 0.183069 -0.011369 0.125026 0.007867 -0.114590 0.035713 -0.057433 0.042138 0.617101 -0.036115 -0.177594 -0.365523 -0.047214 -0.557137 -0.116485 0.062758 -0.184204 -0.005595 0.191764 -0.112562 0.159727 0.120181
borough -0.194689 0.294468 0.079601 0.083602 -0.139296 0.233522 -0.521918 0.168307 0.291072 -0.277611 0.060917 -0.755287 0.452338 -0.376568 0.122146 0.122942 0.258851 -0.224776 -0.297432 -0.350949 0.491975 0.030348 -0.055813 -0.227139 0.037794 -0.014818 0.355384 -0.371100 0.304873 -0.088178 -0.197085 -0.012243 -0.613524 0.242192 -0.302641 0.240476 0.637385 0.491844 0.444215 -0.446857 -0.199788 -0.234455 -0.528881 -0.229573 -0.344051 0.215436 -0.496187 0.350776 0.061148 0.421692
north -0.170008 -0.286624 0.312177 0.691795 -0.158022 -0.180423 -0.439075 0.005110 0.062696 -0.265724 -0.012657 -0.898410 0.407192 -0.809262 0.694299 0.161136 0.043943 -0.285451 -0.263854 -0.139687 0.263504 0.222097 -0.017308 -0.042306 0.237522 0.085294 0.496988 -0.652312 0.517019 0.231594 -0.195415 -0.087772 -0.427430 -0.051097 -0.306835 0.627971 0.745050 -0.337138 0.414288 -0.063034 0.279079 -0.448910 -0.475274 -0.068935 -0.283223 0.194209 -0.545463 0.211403 0.116294 0.580291
look -0.097666 -0.534672 0.180116 -0.192798 0.001644 0.173393 -0.311912 -0.289375 0.030709 0.145121 0.063695 -0.244986 -0.197308 -0.467943 0.025761 -0.314350 0.193628 0.327169 -0.058861 -0.320783 -0.016753 -0.290635 -0.069726 0.566523 0.073717 -0.138540 0.141197 -0.077800 0.108785 0.077425 0.128783 0.028832 -0.143498 0.046957 -0.314288 0.112982 0.442879 -0.082680 -0.103406 -0.427775 -0.090815 -0.203620 -0.137747 -0.059328 -0.233217 -0.275764 -0.041249 0.073903 0.312230 0.268693
park 0.205546 -0.026374 -0.265235 -0.226675 -0.069885 0.081815 -0.203420 -0.044598 -0.321678 -0.085146 -0.038924 0.179967 -0.018095 0.014111 0.285513 -0.171653 -0.111251 0.280704 0.096686 -0.184353 -0.245906 0.026061 0.054853 -0.051686 -0.165310 -0.057402 0.165508 -0.088283 0.095275 0.021509 0.048867 -0.088863 -0.055727 0.259454 -0.434669 -0.360567 0.266150 -0.025214 -0.337138 -0.180886 0.053096 -0.357903 -0.034048 0.143140 -0.130829 -0.147307 0.197874 -0.025007 0.057474 0.016568
pretty 0.304262 -0.268705 0.033940 -0.394178 -0.222740 0.286304 -0.304228 -0.082753 0.027577 0.043802 0.130328 -0.246442 0.003762 -0.126266 0.209995 -0.377684 0.448136 0.460402 -0.229057 -0.505520 -0.145964 -0.349327 0.063608 0.339676 -0.269271 -0.385986 0.117636 -0.274679 0.133897 -0.028591 0.400094 -0.090154 -0.528381 0.108396 -0.376580 -0.150092 0.849873 0.306034 -0.195837 -0.444436 -0.398021 -0.613028 -0.305267 0.164661 -0.284052 0.164445 0.126075 -0.004375 0.242003 0.003733
shop 0.610562 0.275908 -0.971327 -0.244066 -0.436584 -0.246408 -0.200555 0.247640 -0.636205 -0.024908 -0.362379 0.622739 -0.201027 0.704177 0.496010 -0.337082 -0.085467 0.731913 -0.191728 -0.364407 -0.388285 -0.093911 0.385857 -0.509306 -0.451376 -0.243515 0.334795 0.058844 -0.243227 -0.350263 0.461922 -0.092034 0.090342 0.272668 -0.304659 -0.685439 0.680821 0.452981 -0.934558 0.145348 -0.347307 -0.851046 0.427486 0.446313 0.042607 -0.055136 0.658716 -0.370694 -0.122233 -0.158279
bar 0.572216 -0.051076 -1.040764 -0.287816 -0.662762 -0.381873 -0.144864 0.117562 -1.022017 -0.063381 -0.494540 0.434502 -0.280457 0.706155 0.609469 -0.352682 -0.093115 1.007673 -0.516643 -0.347222 -0.451877 -0.080357 0.244004 -0.719136 -0.476163 -0.203746 0.510981 0.019509 -0.350789 -0.187370 0.327798 -0.184544 0.017685 0.147642 -0.358715 -0.576923 0.799234 0.523881 -0.951465 0.163628 -0.247483 -0.863799 0.152146 0.482853 -0.118049 -0.369113 0.650373 -0.658350 -0.088093 -0.263407
house 0.206534 -0.172071 -0.064277 -0.366592 -0.201195 0.045165 -0.036878 -0.084176 -0.207621 0.216197 0.119213 0.099922 -0.033086 -0.075547 0.096638 -0.333196 0.138392 0.316204 -0.122310 -0.202662 -0.215969 -0.264913 0.122973 0.145619 -0.136421 -0.149050 -0.013900 0.011214 -0.158041 -0.126539 0.209447 0.209032 0.016878 0.113518 -0.217342 -0.335728 0.290969 0.183339 -0.251667 -0.121639 -0.147414 -0.169357 0.031995 0.048164 -0.104470 -0.039069 0.051122 -0.047967 0.036607 -0.072784
many 0.118990 -0.149833 0.030408 -0.217576 -0.035807 0.364880 -0.415613 -0.151014 -0.225694 0.204038 -0.042020 0.050130 -0.267962 -0.211755 0.206858 -0.373923 0.177484 0.145634 -0.092819 -0.095326 -0.054712 -0.225597 0.079229 0.055253 -0.057172 -0.238331 0.193706 -0.140830 -0.004310 -0.333163 0.292707 0.087584 -0.182813 0.449429 0.080050 -0.238899 0.599071 0.278613 -0.499181 -0.311254 -0.279249 -0.447726 -0.048941 -0.014152 -0.011807 -0.160736 0.360610 0.170341 -0.070421 0.259088
time -0.048508 0.089244 0.054071 -0.062855 0.191259 0.142248 -0.179824 0.029355 0.134886 -0.133346 0.003129 -0.122659 0.132862 -0.241856 0.048330 0.016074 0.035273 -0.232017 0.039128 -0.003445 0.115977 0.102765 -0.052709 0.022483 0.175855 0.039409 0.022864 -0.156460 0.154996 0.011691 -0.078070 0.043154 0.040408 0.072459 -0.080377 0.151165 0.105630 0.076605 0.158336 -0.142375 -0.053474 -0.070584 -0.082126 -0.171027 -0.094227 0.095644 -0.182433 0.105430 -0.032260 0.153167
living 0.010951 -0.362734 0.112875 -0.078963 0.099275 0.328432 -0.153021 -0.309327 0.039901 0.187569 0.097764 -0.132545 -0.217988 -0.522988 0.083928 -0.304896 0.038779 -0.047512 -0.016018 -0.135440 -0.111035 -0.113548 0.050325 0.335060 0.155312 -0.013942 0.064647 -0.197132 0.113164 -0.277225 0.172408 0.023497 -0.031962 0.175662 0.017825 0.011380 0.440082 -0.241146 -0.285621 -0.297221 0.112391 -0.440282 0.018354 -0.085364 -0.068622 -0.097570 0.259905 0.005796 0.051572 0.294175
say 0.085165 -0.561863 0.011252 -0.083848 -0.294359 0.301118 -0.157094 -0.323415 0.251983 0.257846 0.178658 -0.336708 -0.389507 -0.596923 0.184158 -0.240039 0.206383 0.132696 -0.243392 -0.417963 0.057307 -0.257105 0.097158 0.618378 0.339619 0.096709 0.158665 -0.409718 0.042573 -0.254031 0.024505 -0.049473 -0.266581 0.015788 -0.040768 0.173093 0.643273 -0.262982 -0.335080 -0.485827 0.212582 -0.473374 0.008658 -0.176302 -0.056928 -0.134821 0.065731 -0.152551 0.272519 0.450627
could 0.028106 -0.764612 -0.133191 -0.172374 0.032906 0.209298 -0.070900 -0.652771 0.369669 0.229521 0.123582 -0.191871 -0.320595 -0.756800 0.111815 -0.209971 0.056789 0.433219 -0.141196 -0.478281 0.031298 -0.285663 -0.327730 0.662237 0.165881 -0.172962 0.105788 -0.140570 0.030186 -0.122013 0.175318 -0.187428 -0.108328 -0.156895 -0.241389 0.188961 0.627482 -0.568221 -0.211546 -0.557799 0.251232 -0.457270 0.136993 0.021963 -0.132882 -0.185103 0.226021 -0.370729 0.548920 0.154782
going 0.045148 -0.234465 -0.051240 -0.021488 -0.099278 0.141928 -0.197691 -0.128093 0.065195 0.046659 0.052719 -0.225581 -0.123686 -0.194410 0.128782 -0.076425 0.048901 0.072964 -0.084632 -0.249521 -0.005146 -0.071876 -0.004716 0.109268 0.124943 -0.047146 0.028705 -0.182286 0.001190 -0.094043 0.120692 -0.009249 -0.036078 -0.006094 -0.074647 0.090500 0.392760 -0.033516 -0.053677 -0.218513 -0.047361 -0.327793 -0.068888 0.011282 -0.133317 0.056367 0.008453 -0.142026 0.115310 0.146329
night 0.223423 0.129581 -0.282874 -0.144869 -0.064750 -0.206688 0.381042 0.230016 -0.181666 -0.347635 -0.319644 0.278691 0.093715 0.158436 0.055190 -0.010306 -0.180263 0.150289 -0.206041 -0.166021 -0.080014 0.165342 0.285996 -0.531718 -0.086617 -0.048623 0.123263 -0.017039 0.113998 0.002929 -0.029966 -0.058115 0.166362 -0.402668 -0.054340 -0.022659 0.032729 0.169133 0.036544 0.156419 0.029564 -0.381567 0.216821 0.393722 -0.117041 0.139972 0.138266 -0.435209 -0.021845 0.007521
still 0.176174 -0.009842 0.001652 -0.132762 -0.135429 0.038213 -0.222599 0.127556 0.135416 -0.023569 -0.080733 -0.173904 0.054785 -0.049104 0.180385 -0.086659 0.330503 0.286930 -0.195230 -0.365065 0.018346 -0.202097 0.110765 0.046698 -0.277772 -0.216660 0.113523 -0.138204 0.175132 -0.057114 0.319486 0.017779 -0.432622 0.057697 -0.258858 -0.033265 0.574244 0.323727 -0.027378 -0.294737 -0.314044 -0.512778 -0.268042 0.089566 -0.295613 0.204865 0.063292 0.156429 0.130779 0.199070
transport 0.987635 0.572450 -1.067305 -0.006140 -0.612847 -0.901268 0.139505 0.404424 0.042450 -0.287820 -0.129193 -0.020454 -0.013911 0.981637 0.104900 0.590075 0.035162 0.447477 -0.332956 -0.667958 0.074023 -0.067574 0.254390 -0.416396 -0.412520 0.126031 -0.139986 -0.337769 -0.263205 -0.065208 0.621080 -0.317451 0.065658 -0.211698 -0.007936 0.086644 0.209668 0.586704 -0.472775 -0.102490 -0.357782 -1.062082 0.626794 0.007158 0.428444 0.723738 0.488037 -0.464004 -0.234902 0.391814
far 0.001740 -0.299319 0.202022 0.021459 0.004858 0.180111 -0.354570 -0.059625 0.343303 0.074164 -0.021117 -0.518221 0.121418 -0.577506 0.294785 -0.096024 0.325452 0.165640 -0.132417 -0.293159 0.192875 -0.033816 0.026520 0.287843 0.039656 -0.044503 0.087534 -0.374691 0.378493 0.017665 0.008958 -0.107845 -0.461148 -0.107521 -0.249397 0.298722 0.712480 -0.064450 0.220587 -0.400200 -0.038452 -0.486839 -0.367957 0.060931 -0.446646 0.134486 -0.097319 0.045949 0.273923 0.318266
better 0.098309 -0.357416 -0.116956 -0.287676 0.025674 0.377240 -0.286421 -0.177767 0.135484 0.115609 0.059773 -0.239713 -0.260709 -0.295136 0.145318 -0.322980 0.336294 0.276527 -0.049645 -0.258532 -0.046591 -0.175624 -0.022008 0.408599 0.156311 -0.092721 0.023698 -0.265760 0.085712 -0.016081 0.104597 -0.044826 -0.165957 -0.040430 -0.106626 0.058411 0.651358 -0.022296 -0.107829 -0.410105 -0.081550 -0.446606 -0.226904 -0.023286 -0.156425 0.002760 0.120513 -0.174316 0.252525 0.085298
probably 0.164612 -0.413203 0.207939 -0.242929 -0.195557 0.038890 -0.374140 -0.123558 0.293060 0.078166 0.122045 -0.272122 -0.058769 -0.369887 0.262174 -0.215332 0.487738 0.451864 -0.197967 -0.449240 0.002406 -0.343452 -0.011310 0.544575 0.009520 -0.121897 0.121656 -0.177432 0.176476 -0.044484 0.169566 0.024830 -0.390071 0.063409 -0.307225 0.056780 0.605521 0.072638 0.011886 -0.610547 -0.342247 -0.329001 -0.468959 -0.041466 -0.279204 0.003059 -0.046291 0.097803 0.426739 0.265178
east -0.144731 -0.229398 0.315453 0.710378 -0.312876 -0.271567 -0.334298 -0.036775 -0.011310 -0.337575 -0.046341 -0.995992 0.472170 -0.822604 0.696570 0.147807 -0.090266 -0.437632 -0.483227 -0.143322 0.271030 0.322973 0.124150 -0.271865 0.390486 0.165328 0.477096 -0.783362 0.439995 0.259101 -0.240144 0.085427 -0.286130 -0.126034 -0.297392 0.764255 0.692428 -0.203435 0.535462 -0.134780 0.240060 -0.402845 -0.487520 -0.199421 -0.277686 0.342162 -0.576307 0.244295 -0.076731 0.689781
find 0.173386 -0.498154 -0.035326 -0.122135 -0.148949 0.025439 -0.177132 -0.467978 0.067912 0.297895 0.083011 -0.196399 -0.409792 -0.132729 0.012159 -0.181601 0.185861 0.436223 -0.105143 -0.347102 -0.094817 -0.385987 -0.064630 0.461783 0.004116 -0.099114 -0.023983 -0.062188 -0.067215 -0.213918 0.295947 -0.154333 -0.005910 0.116293 -0.126010 0.031819 0.451007 -0.162826 -0.348985 -0.226417 -0.088765 -0.271580 0.114399 -0.035000 0.119761 -0.127461 0.303167 -0.205249 0.378588 0.094608
market 0.486644 0.092952 -0.464256 -0.106886 -0.143274 -0.144736 -0.158524 0.085035 -0.154809 -0.039215 -0.095275 0.416882 -0.159035 0.247606 0.358047 -0.137670 -0.027144 0.342846 0.067964 -0.298863 -0.198130 -0.154229 0.203769 0.078052 -0.138212 -0.121838 0.156173 -0.092338 0.018763 -0.251354 0.279109 -0.038650 0.163716 0.197764 -0.277148 -0.398411 0.358826 0.010309 -0.685004 0.015945 -0.082319 -0.495050 0.411274 0.202880 0.150573 0.023518 0.414338 -0.163441 0.140125 0.036515
used 0.160234 -0.476286 -0.043442 -0.160225 0.072925 0.407189 -0.288644 -0.367743 0.249084 0.224194 0.131418 -0.426543 -0.279816 -0.613204 0.075295 -0.252588 0.221087 -0.086984 -0.083836 -0.292299 0.110287 -0.216268 -0.022636 0.413670 0.250359 -0.005785 -0.020423 -0.357432 0.101780 -0.313542 0.046693 -0.055269 0.072759 0.143489 0.054885 0.144444 0.728232 -0.347571 -0.230295 -0.371160 0.031660 -0.432861 0.045843 -0.159808 -0.054113 -0.150253 0.244861 -0.175175 0.220798 0.373257
right 0.155692 -0.309095 -0.098947 0.095462 -0.042078 0.007501 -0.025579 -0.165371 0.053313 -0.013297 -0.071451 -0.336015 0.018199 -0.540543 0.303873 -0.014364 -0.098813 -0.151316 -0.152809 -0.198100 0.089802 0.079679 0.056312 0.156780 0.206544 0.125254 0.102150 -0.342240 0.113536 -0.112198 -0.060844 -0.063435 0.010832 0.006888 -0.171648 0.113846 0.449280 -0.318547 -0.134228 -0.166018 0.215065 -0.373880 -0.006265 -0.062995 -0.100248 -0.044621 0.015277 -0.139748 0.141520 0.359666
take -0.178833 0.137143 0.043545 -0.171504 0.246052 -0.025703 0.297745 0.231044 0.396273 -0.252373 -0.160435 0.000610 0.200313 -0.266636 -0.265408 0.084147 -0.112486 -0.192831 -0.136343 -0.195028 0.269883 0.224605 0.292246 -0.218904 0.018224 0.094027 -0.045765 -0.018886 0.325866 -0.106836 -0.035326 -0.008673 -0.082314 -0.442525 0.010635 0.244748 -0.083133 0.014292 0.460286 -0.076006 0.137656 -0.388217 0.033310 0.150829 -0.239536 0.178681 0.004369 -0.140526 0.081023 0.085598
town 0.126183 0.254522 -0.132444 -0.207984 -0.392167 0.003438 -0.560876 0.099792 0.055953 -0.335136 0.067222 -0.409301 0.202841 -0.261129 0.505430 -0.042192 0.199897 0.308950 -0.352918 -0.498387 0.272605 -0.281107 0.045873 -0.033029 -0.255315 -0.099497 0.485503 -0.307072 0.248346 -0.003131 0.180388 0.008047 -0.652382 0.405906 -0.424637 -0.103938 0.699627 0.626942 -0.150404 -0.659808 -0.565730 -0.468184 -0.374790 -0.269952 -0.051351 0.142729 -0.126833 0.296281 0.187511 0.298777
cheap 0.110702 -0.297978 0.191607 -0.169514 -0.193698 0.126360 -0.343043 -0.069227 0.092147 0.051046 -0.002315 -0.279972 0.017182 -0.280538 0.247830 -0.257147 0.361966 0.337182 -0.220457 -0.389275 0.009600 -0.232999 -0.016580 0.231704 -0.193493 -0.246525 0.217587 -0.236605 0.210004 -0.024066 0.205170 -0.109978 -0.469178 0.195839 -0.334174 -0.038903 0.711257 0.145272 -0.073473 -0.339770 -0.237723 -0.400918 -0.310843 0.063671 -0.257267 -0.019197 -0.017305 0.137713 0.207470 0.205595
lovely 0.107062 -0.237212 -0.036199 -0.316076 -0.004948 0.251746 -0.314825 -0.189570 0.027823 -0.046402 0.126167 -0.192808 -0.050377 -0.489528 0.282644 -0.199032 0.113575 0.237557 -0.107623 -0.321607 0.101964 -0.193907 -0.019413 0.264816 -0.003749 -0.196197 0.240393 -0.285613 0.195032 -0.095685 0.138803 0.022078 -0.243211 0.249076 -0.276551 -0.051734 0.624861 0.070095 -0.212631 -0.533013 -0.149227 -0.513800 -0.216701 -0.084149 -0.158369 -0.077975 0.104047 -0.000618 0.302820 0.168222
shopping 0.343705 0.388859 -0.420562 -0.057644 -0.467858 -0.254394 -0.410806 0.203433 -0.224588 -0.294658 0.094111 -0.028691 0.013415 0.336967 0.496940 0.087369 0.018522 0.357979 -0.256258 -0.357594 -0.014603 -0.294009 0.193801 -0.117236 -0.256870 -0.045753 0.416438 -0.149373 0.007603 -0.054894 0.314596 0.091418 -0.206507 0.301847 -0.168819 -0.132441 0.496066 0.581804 -0.473178 -0.344939 -0.504081 -0.513297 -0.008797 -0.157154 0.229070 0.331795 0.053009 -0.000847 -0.055539 0.139345
etc 0.292501 0.110706 -0.611678 -0.201723 -0.355981 -0.215591 -0.204502 0.190422 -0.303139 -0.023881 -0.295970 -0.023416 -0.124575 0.412870 0.319554 -0.089044 0.061973 0.531475 -0.374700 -0.420825 -0.121867 -0.056791 0.236225 -0.375618 -0.335087 -0.082047 0.303238 -0.055768 -0.092153 -0.156342 0.231303 -0.101060 -0.178964 0.050796 -0.256443 -0.182737 0.653628 0.426300 -0.338476 -0.004330 -0.169679 -0.846730 0.030917 0.291417 -0.146922 -0.059375 0.291353 -0.342144 0.002031 -0.016791
cheaper 0.124385 -0.167820 0.103002 -0.255882 0.075611 0.279314 -0.278846 -0.079507 0.141011 0.046895 0.067884 -0.229458 -0.051196 -0.382028 0.135104 -0.269414 0.256985 0.155823 -0.107848 -0.246037 0.039466 -0.155894 0.006825 0.379652 -0.057359 -0.171166 0.064036 -0.243510 0.213651 -0.099717 0.198917 -0.028837 -0.313182 0.070799 -0.233023 -0.018394 0.556156 0.067079 -0.008284 -0.405835 -0.152967 -0.434913 -0.237487 -0.015090 -0.277518 0.046967 0.100788 0.065336 0.111391 0.181217
even -0.053997 -0.094445 0.080728 -0.018913 0.029309 0.101983 -0.140330 -0.062790 0.122985 -0.043113 0.103279 -0.109324 0.004679 -0.356078 0.114620 -0.131946 0.030767 -0.010339 -0.082758 -0.101592 -0.007135 0.003851 0.012528 0.122646 0.149639 0.029838 0.062443 -0.200409 0.164923 -0.036885 0.032161 -0.022691 -0.137566 0.152759 -0.144539 -0.025397 0.347131 -0.050626 0.000027 -0.286524 -0.007333 -0.264794 -0.157662 -0.148469 -0.172259 0.121244 0.005423 0.017282 0.022782 0.164892
feel 0.138935 -0.308457 0.224517 -0.114162 -0.186821 0.168201 -0.067157 -0.065726 0.108806 0.090836 0.143988 -0.178726 -0.048664 -0.048993 0.042247 -0.178958 0.337529 0.292068 -0.119599 -0.226434 -0.142258 -0.301913 -0.026525 0.300908 -0.108287 -0.280270 -0.017322 -0.068187 0.218841 -0.005892 0.186429 0.006830 -0.392999 0.106800 -0.193922 -0.049746 0.414756 0.101824 -0.048785 -0.239882 -0.246459 -0.136250 -0.298431 0.065121 -0.145470 0.026125 -0.049721 0.118015 0.272437 0.048997
flat 0.016402 -0.221739 -0.038289 -0.218293 0.065750 0.189609 0.053922 -0.151611 -0.224863 0.237224 0.062165 0.184661 -0.085109 -0.145761 -0.024771 -0.237094 -0.022301 0.159337 0.082839 0.126241 -0.137441 -0.038926 0.011863 0.115377 -0.004671 -0.141375 0.013500 -0.042037 -0.136125 0.000885 0.060255 0.074791 0.195617 0.190922 -0.029689 -0.243625 0.044788 -0.068993 -0.280912 0.034914 0.047021 -0.072055 0.054446 -0.000456 -0.045933 -0.241532 0.120776 -0.106245 0.046726 -0.140853
suburb 0.004766 0.163166 0.001148 0.037836 -0.272811 0.008889 -0.525104 0.176469 0.060929 -0.207618 -0.111909 -0.534223 0.170537 -0.209575 0.366097 0.023726 0.194041 0.013947 -0.287215 -0.286969 0.315558 -0.070311 -0.052151 -0.266050 -0.040481 0.042117 0.420708 -0.296591 0.149798 -0.081979 -0.134056 0.024487 -0.450255 0.172031 -0.246753 0.162166 0.594196 0.280221 0.237223 -0.321549 -0.189436 -0.320629 -0.372693 -0.164181 -0.198894 0.079747 -0.307061 0.152701 0.017197 0.320673
though 0.126965 -0.090743 -0.000571 -0.124982 -0.189217 0.014420 -0.143035 -0.006352 0.153137 -0.054964 0.064970 -0.107843 -0.014769 -0.170090 0.139772 -0.167679 0.186499 0.254139 -0.192814 -0.280050 -0.063664 -0.150989 0.060529 0.126290 -0.052446 -0.021342 0.027032 -0.137040 0.119263 -0.055476 0.157828 -0.070502 -0.344446 0.124978 -0.265666 -0.130051 0.395029 0.100606 -0.038597 -0.403160 -0.202361 -0.305325 -0.190580 -0.063180 -0.195117 0.150216 0.060842 0.063843 0.096165 0.148940
avoid -0.017657 -0.230124 0.059762 -0.114365 0.044605 0.157074 -0.049686 -0.088697 0.023041 -0.025226 0.059905 -0.028144 0.009902 -0.407261 0.139665 -0.153164 0.033380 0.072757 -0.035488 -0.154340 -0.044975 -0.005473 0.087183 0.165095 0.104035 -0.126523 0.129252 -0.159512 0.221745 0.000680 0.074547 0.001872 -0.108765 -0.011677 -0.175410 0.011380 0.347101 -0.129301 -0.061833 -0.228039 0.053199 -0.389175 -0.148291 0.039327 -0.179377 0.015137 0.043322 -0.053983 0.180771 0.066416
bus 0.082651 0.473192 -0.193618 -0.065754 0.041032 -0.345029 0.481152 0.415076 0.372597 -0.448218 -0.439739 -0.091019 0.233494 0.123817 -0.277417 0.328642 -0.219996 -0.307203 -0.292664 -0.277934 0.392503 0.250776 0.456331 -0.537671 -0.026897 0.325722 -0.095722 -0.101628 0.176365 -0.233640 -0.085444 -0.106289 -0.004837 -0.659960 0.093246 0.354477 -0.131183 0.154876 0.512176 0.082033 0.259166 -0.524271 0.318336 0.240342 -0.032001 0.408101 0.071926 -0.360318 -0.029146 0.232750
high 0.311472 0.237732 -0.014515 0.150891 0.159180 -0.008594 -0.051853 0.496491 0.273221 -0.201130 -0.038785 0.896816 0.299081 0.109796 0.266794 -0.265813 0.001701 0.202887 0.254545 -0.162665 -0.023936 0.148547 0.414375 -0.242596 -0.107716 -0.638792 0.098591 -0.125388 0.292616 -0.243978 0.384238 0.255373 -0.008371 0.051453 -0.185018 -0.440832 0.511058 0.065635 -0.385128 0.009667 -0.414733 -0.529578 0.167329 0.541808 -0.282529 0.580075 0.189592 0.111717 0.233496 0.038012
somewhere 0.001011 -0.720009 0.025151 -0.154615 0.095979 0.424234 -0.260658 -0.630345 0.255758 0.270557 0.250604 -0.261247 -0.273283 -0.599671 0.115242 -0.264764 0.175955 0.290053 -0.026320 -0.336438 -0.052100 -0.234777 -0.299663 0.721537 0.205904 -0.238561 0.158982 -0.181844 0.209611 -0.156816 0.204238 -0.100789 -0.222519 -0.044717 -0.285686 0.093367 0.660088 -0.572316 -0.218174 -0.565596 0.284049 -0.558295 -0.081159 0.075467 -0.037782 -0.240226 0.223406 -0.203839 0.586116 0.114183
link 0.674576 0.439098 -0.798872 -0.089177 -0.472536 -0.592487 0.024537 0.269618 0.090608 -0.293983 -0.103232 -0.131305 0.067064 0.542466 0.107984 0.385849 -0.011495 0.333710 -0.359552 -0.603014 0.159144 -0.031929 0.231859 -0.338646 -0.305003 0.100955 -0.024061 -0.357183 -0.124347 -0.095424 0.481070 -0.234652 -0.102880 -0.144835 -0.142131 0.113119 0.372277 0.493615 -0.295066 -0.234484 -0.294099 -0.963788 0.415786 -0.033795 0.225051 0.558863 0.345193 -0.383107 -0.119533 0.324623
looking 0.045817 -0.542304 0.024199 -0.215107 0.028962 0.276423 -0.111947 -0.302070 0.093205 0.239328 0.200388 -0.051946 -0.230889 -0.349862 0.049148 -0.318446 0.213946 0.275468 -0.077788 -0.228506 -0.102996 -0.189958 -0.087403 0.530555 0.123422 -0.240796 0.070581 -0.098606 0.113015 -0.076987 0.158296 0.070638 -0.062626 0.000823 -0.113701 -0.025195 0.458771 -0.321420 -0.271694 -0.321735 0.100516 -0.277124 -0.067724 0.092019 -0.100563 -0.186184 0.168086 -0.102736 0.375569 0.120283
large 0.018291 0.039782 0.301938 -0.158343 0.184070 0.012093 -0.078601 0.006639 -0.243575 -0.118733 0.288639 0.143610 0.254997 -0.062068 -0.249904 -0.124845 0.024060 -0.171056 0.153093 0.029785 -0.120069 -0.194077 -0.011662 -0.013314 -0.009901 0.029883 -0.005503 0.268506 0.121687 0.062717 -0.030034 0.169616 0.247024 0.087861 -0.092967 0.007436 -0.182479 -0.032146 0.046246 0.004270 -0.044856 0.325295 -0.120544 -0.046244 -0.131032 -0.100627 -0.201752 0.274199 -0.093646 -0.054432
minute -0.526557 0.448643 0.282053 0.150536 0.442394 -0.052000 0.220236 0.400255 0.498422 -0.198003 -0.169113 -0.425344 0.480605 -0.204796 -0.384394 0.423798 -0.231115 -0.658663 -0.124783 0.205571 0.484414 0.365243 0.067369 -0.360672 0.078712 0.268524 -0.079740 0.004755 0.212093 0.048882 -0.514838 -0.103242 -0.178518 -0.393861 0.188969 0.662654 -0.402738 0.027924 0.963059 0.202961 0.461798 0.031256 -0.097712 -0.011411 -0.181907 0.217175 -0.430549 0.161543 -0.080710 -0.035712
life 0.026215 -0.011196 -0.113194 -0.189424 0.350131 0.245124 -0.005664 -0.076473 -0.019904 -0.131823 0.125735 0.114660 0.099155 -0.439158 0.028603 0.012380 -0.215812 -0.271716 0.107697 0.124924 0.151917 0.206243 -0.076547 -0.111238 0.306499 -0.022652 0.027631 -0.404460 0.220092 -0.027939 -0.232245 0.016555 0.262329 0.173621 -0.035763 0.054471 0.234294 -0.093788 -0.008651 -0.128289 0.105660 -0.256533 0.027441 -0.233587 -0.050663 0.042869 -0.036316 -0.289081 -0.030482 0.110128
need -0.017026 -0.322032 0.146734 -0.177686 -0.042725 0.164332 -0.307088 -0.220695 0.072129 0.137141 -0.106336 -0.311929 -0.238966 -0.154185 0.009804 -0.157865 0.316701 0.269798 -0.039351 -0.321176 0.022339 -0.310328 -0.076921 0.365984 -0.025151 0.038603 0.038338 -0.026029 0.018366 -0.020230 0.037887 0.041126 -0.105387 0.036329 -0.129253 0.120976 0.328932 0.048028 -0.008047 -0.287718 -0.160809 -0.103632 -0.160474 -0.071118 -0.089127 -0.205654 -0.064563 0.149900 0.204445 0.259552
big 0.090191 -0.010299 -0.190550 -0.005308 -0.079703 0.066283 -0.066815 -0.131624 -0.229817 0.001642 0.018318 0.167907 -0.197286 0.005647 0.263672 -0.042633 -0.103532 0.117310 0.022911 0.040397 -0.112185 -0.074934 -0.037405 0.059868 -0.026608 -0.054439 0.154601 0.070834 -0.097989 -0.014407 -0.002326 0.047901 0.040165 0.106437 -0.012477 -0.164200 0.097488 -0.028676 -0.243358 -0.025672 -0.044794 -0.069785 0.016617 -0.010877 0.091445 -0.012227 0.064241 -0.055516 -0.035957 -0.163564
end -0.128071 -0.010606 0.123576 0.481488 -0.204486 -0.247728 -0.057716 0.013341 -0.003464 -0.306716 -0.064627 -0.570827 0.353731 -0.513283 0.339020 0.159026 -0.278163 -0.435865 -0.354859 -0.074883 0.192437 0.375002 0.173167 -0.351177 0.386131 0.210275 0.219114 -0.503193 0.220318 0.216366 -0.238769 0.116178 -0.029411 -0.203550 -0.167323 0.514805 0.222932 -0.079892 0.462510 -0.071052 0.184766 -0.171954 -0.195841 -0.212320 -0.129598 0.261389 -0.353650 0.041313 -0.223475 0.458050
village 0.017316 -0.082269 -0.021809 -0.054661 0.002319 0.149139 -0.154840 -0.099994 0.106071 0.019356 0.073074 -0.133472 -0.065337 -0.192856 0.040071 -0.047246 0.072183 0.021126 -0.048980 -0.157375 0.041258 -0.097915 -0.055920 0.099585 0.031255 -0.093003 0.094038 -0.126803 0.095340 -0.144793 0.056151 -0.004349 -0.147755 0.078277 -0.172786 0.002254 0.323761 -0.007244 -0.032943 -0.310088 -0.012700 -0.265086 -0.061112 -0.019711 -0.071788 -0.009255 0.024074 0.010041 0.152075 0.123289
way -0.070805 -0.001376 0.125242 -0.062839 0.084699 0.070737 -0.056686 0.105138 0.226897 -0.141584 0.018716 -0.140630 0.227343 -0.235298 -0.045096 0.078384 0.111196 -0.100817 0.031272 -0.046235 0.143009 0.042622 0.001167 -0.125081 0.053111 -0.036296 0.030104 -0.169921 0.269797 0.004743 -0.096166 -0.050950 -0.152638 -0.185677 -0.099556 0.206142 0.094173 0.115873 0.394585 -0.153068 -0.128709 -0.093198 -0.230164 -0.002662 -0.258087 0.170123 -0.208573 0.048763 0.090989 0.137966
never -0.039538 -0.160035 -0.003734 -0.333253 0.447708 0.291157 0.017363 -0.210382 0.017116 0.013943 0.254164 0.083227 -0.205606 -0.429168 -0.241490 -0.040589 -0.246961 -0.413718 0.128555 0.305462 0.135197 0.124284 -0.115652 0.240998 0.542173 0.030173 -0.282371 -0.313535 0.120764 -0.077079 -0.216349 0.011535 0.382230 0.131049 0.206238 0.221328 -0.013067 -0.325678 -0.100193 0.039943 0.212347 0.054229 0.171284 -0.369637 0.105413 -0.095872 0.180151 -0.351621 -0.108734 -0.034308
rough 0.216717 -0.111860 0.069615 -0.237399 -0.097851 0.233557 -0.278562 0.039992 0.077886 -0.027481 0.156235 -0.181684 0.153612 -0.263614 0.191839 -0.270650 0.325732 0.331148 -0.196976 -0.349788 -0.080967 -0.216691 0.045429 0.280727 -0.138030 -0.376171 0.139990 -0.220674 0.196489 0.043282 0.275411 0.012713 -0.550743 0.056781 -0.369628 -0.125623 0.632973 0.333627 -0.025745 -0.484713 -0.361823 -0.486633 -0.361680 0.095879 -0.400521 0.229034 0.017106 0.187102 0.211155 0.045751
price 0.115926 -0.089824 -0.078431 -0.162875 -0.088422 -0.041181 0.138010 0.001216 -0.239443 0.110577 0.114053 0.285668 0.033336 0.109482 0.040208 -0.185909 -0.006277 0.172537 0.055651 0.005161 -0.294755 -0.104134 0.089217 -0.004400 -0.107118 -0.147246 -0.072374 0.139508 -0.165050 -0.008770 0.158054 0.214288 0.176526 0.005451 -0.079471 -0.302058 -0.024900 0.120692 -0.142129 0.084688 -0.103486 0.069851 0.067592 0.097660 0.001913 0.071530 0.023030 -0.012690 -0.019430 -0.208741
pub 0.494484 0.023709 -0.741947 -0.229667 -0.501801 -0.245551 -0.134698 0.088365 -0.767913 0.068894 -0.314461 0.378767 -0.285231 0.537004 0.461047 -0.330352 -0.040231 0.769664 -0.327232 -0.299198 -0.423392 -0.115746 0.222438 -0.362954 -0.409149 -0.191613 0.345850 0.053745 -0.303388 -0.174878 0.387242 -0.086766 -0.007153 0.210420 -0.295513 -0.586049 0.605279 0.366789 -0.817775 0.073201 -0.226312 -0.697620 0.183584 0.366476 -0.110766 -0.237047 0.563570 -0.376169 -0.137613 -0.184756
see 0.058801 -0.094092 -0.065728 -0.008233 -0.108625 0.033694 -0.203479 -0.056845 0.020730 -0.031955 -0.010449 -0.151302 -0.035714 -0.101211 0.118486 -0.041221 0.058993 0.082129 -0.092701 -0.201207 0.067708 -0.061802 -0.011054 0.014913 0.041618 0.020975 0.087090 -0.154159 -0.008522 -0.059121 0.090916 -0.023317 -0.057474 0.094094 -0.125019 0.056366 0.308581 0.105949 -0.106345 -0.215492 -0.084968 -0.224317 -0.016727 -0.110690 -0.037929 0.018174 -0.022951 -0.035132 0.081866 0.183136
might 0.106413 -0.551141 -0.034239 -0.147662 -0.055363 0.177117 -0.167863 -0.567689 0.092346 0.293341 0.230195 -0.222345 -0.411556 -0.260416 -0.070794 -0.208891 0.134704 0.363744 -0.074713 -0.330042 -0.089583 -0.340688 -0.127234 0.573411 0.075501 -0.169501 -0.011169 -0.080028 -0.030826 -0.235521 0.340150 -0.177937 -0.046505 0.101853 -0.166695 0.044942 0.478042 -0.247725 -0.310834 -0.375273 0.000381 -0.368744 0.121891 -0.092850 0.118749 -0.155014 0.341779 -0.244252 0.394597 0.065482
walk -0.163303 0.115226 0.037059 -0.049691 0.211572 0.134912 0.027696 0.181035 0.279549 -0.167437 0.051113 -0.145039 0.198735 -0.349704 -0.081131 0.020780 -0.024955 -0.275935 -0.025815 -0.129192 0.190657 0.151786 0.207676 -0.018407 0.104119 0.045282 0.063774 -0.082513 0.263983 -0.050711 -0.162057 0.111534 0.005874 -0.099864 -0.045931 0.133734 0.049149 0.001813 0.277354 -0.104240 0.030646 -0.183722 0.018885 0.029856 -0.215159 0.134089 -0.170117 0.042222 0.027935 0.194031
away -0.146455 -0.234631 0.178274 0.084077 0.196431 0.093964 0.019124 -0.007606 0.438697 -0.004976 -0.134906 -0.287291 0.127664 -0.453281 -0.016089 0.112428 0.101968 -0.037934 -0.009391 -0.063771 0.177060 0.078082 0.038450 0.303088 0.138919 0.082142 -0.114141 -0.104173 0.336644 -0.018817 -0.191645 -0.174470 -0.224457 -0.441660 -0.015480 0.372458 0.146864 -0.266958 0.379880 -0.150973 0.276673 -0.286604 -0.129750 0.163831 -0.278365 0.047383 -0.059352 -0.082464 0.328926 0.024982
day 0.033662 0.056302 -0.134804 -0.057037 -0.018430 -0.020419 -0.031968 0.018320 -0.069557 -0.079574 -0.096032 0.059082 0.075942 -0.033289 0.040492 -0.054897 -0.067790 0.023583 0.022030 -0.051654 -0.041083 0.038654 -0.013910 -0.118382 0.041608 -0.002205 0.031685 -0.055626 0.063078 0.025101 -0.026324 -0.063876 0.028386 -0.051445 -0.111447 0.009426 0.073440 0.088589 0.048673 -0.043247 -0.069769 -0.033392 -0.005874 0.021564 -0.072169 0.081987 0.005060 -0.063476 0.000225 -0.026775
love 0.124135 -0.327713 -0.040602 -0.133445 0.004902 0.232109 -0.165660 -0.280046 0.110516 0.171169 0.130483 -0.190337 -0.222244 -0.370272 0.061571 -0.161966 0.093600 -0.028478 -0.057366 -0.162088 0.036195 -0.148592 -0.023045 0.325990 0.212041 0.046156 -0.024996 -0.282711 0.055724 -0.191602 0.017766 -0.066983 0.039681 0.129857 0.025786 0.074393 0.410554 -0.210170 -0.281304 -0.180715 0.064138 -0.265682 0.085585 -0.157860 0.047492 -0.109479 0.167500 -0.191684 0.124515 0.200284
always 0.151667 -0.095436 -0.048344 -0.112396 -0.099402 0.053101 -0.154381 -0.101829 -0.001096 0.010828 0.093205 -0.180313 -0.060147 -0.150574 0.149828 -0.074425 0.097409 0.081600 -0.146568 -0.265538 -0.018881 -0.153133 0.042784 0.148302 0.007251 -0.090624 0.091000 -0.200564 0.075690 -0.062095 0.104327 -0.016462 -0.059995 0.113076 -0.134910 0.051308 0.374541 0.066177 -0.169684 -0.212817 -0.099679 -0.371035 0.032728 -0.025486 -0.025628 0.051841 0.040184 -0.054728 0.096594 0.190609
easy -0.135906 0.149882 0.182544 -0.013195 0.124229 -0.151097 -0.111126 0.214890 0.533778 -0.222176 -0.267523 -0.471527 0.118376 -0.020151 -0.085291 0.341033 0.308721 -0.023664 -0.070717 -0.274694 0.358099 -0.055143 -0.052191 -0.107042 -0.198444 0.180998 -0.061961 -0.110678 0.238461 0.090486 -0.000186 -0.112452 -0.224282 -0.290462 -0.117820 0.495916 0.074290 0.276984 0.655411 -0.160875 -0.071298 -0.140668 -0.324658 -0.080574 -0.188526 0.172921 -0.205416 0.193125 0.171151 0.332568
stay -0.006209 -0.434423 0.009437 0.013113 0.044064 0.109889 -0.019958 -0.263653 0.256178 0.133711 -0.033902 -0.145238 -0.155687 -0.331200 0.032671 0.013630 0.099205 0.116352 0.038257 -0.083418 0.026380 -0.084786 -0.078022 0.461728 0.192642 0.070693 -0.107524 -0.037268 0.109853 -0.116441 -0.113824 -0.159773 -0.010817 -0.259307 0.032016 0.192749 0.167477 -0.391658 -0.057584 -0.154823 0.268239 -0.161145 0.043783 0.084736 -0.016687 -0.160389 0.105555 -0.231265 0.355355 -0.003630
work -0.049775 -0.056963 0.104380 0.007949 0.071334 0.175489 -0.263604 -0.073362 0.270862 0.000724 0.055299 -0.401000 0.027091 -0.332355 0.064047 -0.033235 0.157324 -0.189058 -0.084046 -0.132958 0.241483 -0.053569 -0.030091 0.064418 0.145146 0.049301 0.030699 -0.191681 0.119970 -0.081132 -0.057804 -0.007301 -0.027473 0.072421 -0.008595 0.221530 0.357319 -0.012879 0.134552 -0.208111 -0.076695 -0.160460 -0.111365 -0.141398 -0.093166 0.018446 -0.085056 0.096404 0.055529 0.326789
either 0.020043 -0.201325 -0.046073 -0.204141 -0.078179 0.181228 -0.001624 -0.105282 0.098691 0.003698 0.077478 -0.006662 -0.029678 -0.259117 0.084027 -0.177281 0.090315 0.193128 -0.168691 -0.190589 0.004884 -0.073297 0.140051 0.216052 -0.038641 -0.154640 0.047345 -0.146845 0.119080 -0.081849 0.195654 -0.042841 -0.182074 0.006767 -0.171717 -0.046343 0.390223 0.012211 -0.115305 -0.330177 -0.072047 -0.448523 -0.260989 -0.067920 -0.214367 0.023970 0.151271 -0.041713 0.161775 0.159021
come -0.096365 -0.040637 0.139298 0.113463 0.033511 0.097732 -0.109651 -0.011036 0.010985 -0.053490 -0.002066 -0.176747 0.067957 -0.309222 0.157777 -0.030715 0.011199 -0.146475 -0.003045 0.038238 0.066037 0.057147 0.015439 -0.012446 0.113117 0.013570 0.138148 -0.159815 0.123428 -0.057167 -0.092702 0.043285 -0.063067 0.086821 -0.000800 0.114211 0.127253 -0.024828 0.125844 -0.066734 0.030712 -0.059907 -0.126697 -0.103277 -0.087614 0.016653 -0.150319 0.133742 -0.028877 0.167683
however 0.069417 -0.137853 -0.012637 -0.098982 -0.033634 0.164486 -0.222694 -0.072247 0.078605 -0.010187 0.079342 -0.151006 0.035578 -0.267650 0.161485 -0.079196 0.163485 0.141403 -0.118961 -0.173427 0.071822 -0.130557 -0.043866 0.119220 -0.003774 -0.163311 0.112146 -0.199522 0.121302 -0.021879 0.131299 -0.018527 -0.249050 0.172688 -0.181619 -0.010230 0.465348 0.146992 -0.065979 -0.328251 -0.226835 -0.302481 -0.164286 -0.078830 -0.155345 0.076429 0.004771 0.070828 0.117217 0.135981
money 0.146281 -0.283016 -0.075019 -0.082515 -0.150446 0.158240 -0.024959 -0.153567 -0.077684 0.304912 0.017024 0.009434 -0.371655 -0.056063 0.066501 -0.140011 0.085740 0.155391 -0.015416 -0.053292 -0.206029 -0.237839 0.022532 0.355183 0.019211 -0.003944 0.019402 0.022588 -0.118726 -0.052357 0.023414 -0.012949 0.052015 0.075536 0.118769 -0.113357 0.118812 -0.181865 -0.354399 -0.003928 -0.006594 0.037624 0.150464 0.007284 0.071869 -0.144177 0.149309 -0.130883 -0.046245 0.030883
thing 0.017894 -0.067151 -0.078350 -0.051572 -0.032883 0.061668 -0.043598 -0.053455 0.003496 -0.028459 -0.033518 0.024980 -0.061322 -0.079457 0.063537 -0.100449 0.046691 0.046792 -0.007406 -0.083878 -0.050668 -0.038003 0.045507 0.112981 0.078896 0.041395 -0.000266 -0.060274 0.103250 0.013409 0.049327 -0.063238 -0.024119 -0.060596 -0.073676 0.020835 0.095468 -0.019190 -0.068067 -0.074619 0.015874 -0.202643 0.001086 0.056401 0.041017 0.010882 0.076895 -0.108777 0.091480 -0.022605
called 0.061774 -0.070305 -0.030322 -0.046796 -0.130439 -0.005511 -0.222053 -0.056091 0.006808 -0.092577 -0.037769 -0.196521 0.009039 -0.247302 0.144509 -0.059226 0.049648 -0.021378 -0.120758 -0.201627 0.162972 -0.099210 0.007672 -0.040828 0.087449 0.067548 0.160558 -0.178711 0.118481 -0.109690 -0.041394 -0.034279 -0.114302 0.082200 -0.193360 0.067569 0.326842 -0.010496 -0.080012 -0.181260 -0.008226 -0.237432 -0.111610 -0.090489 -0.015458 -0.035995 0.003202 -0.051090 0.110136 0.179889
rent 0.068777 -0.060174 0.007969 -0.060495 -0.168961 0.039360 -0.044529 -0.018149 0.041695 0.065005 0.076751 0.047846 0.011731 0.066383 0.013893 -0.080322 0.090886 0.155637 -0.055868 -0.123051 -0.013261 -0.136132 -0.017141 0.047502 -0.001453 -0.053368 -0.000062 -0.019105 -0.064438 -0.056160 0.033307 0.086516 -0.098738 0.002824 -0.076863 -0.093779 0.106064 0.072883 -0.035660 -0.149349 -0.114422 0.053982 -0.048466 -0.031454 -0.080292 0.041128 -0.057176 0.018086 0.020093 0.045468
full 0.087385 -0.014082 -0.000169 -0.076539 0.064784 0.080465 -0.011913 -0.011617 -0.198023 0.043509 -0.035950 0.297735 -0.109439 -0.011781 0.121499 -0.173056 -0.037776 0.060786 0.101865 0.048440 -0.189434 -0.033592 0.082363 0.052890 -0.011800 -0.092263 0.083951 0.048897 0.017442 -0.072317 0.201005 0.048163 0.100940 0.185011 -0.007048 -0.246095 0.035899 -0.029681 -0.348272 0.039493 -0.038074 -0.090996 0.121591 0.082841 0.020587 -0.057467 0.208396 0.063576 -0.069866 -0.026904
little 0.048233 -0.046728 0.038724 -0.070607 0.040140 0.072594 -0.071158 0.012221 0.016020 -0.048710 0.013293 -0.018190 0.017881 -0.134908 0.134447 -0.080451 0.055256 0.071799 0.005461 -0.066576 -0.008254 -0.058007 0.026113 0.094119 -0.052760 -0.079004 0.096922 -0.031805 0.107309 0.000471 0.057356 0.031871 -0.107174 0.036104 -0.128043 -0.040667 0.142985 0.013805 -0.020295 -0.138358 -0.084390 -0.166167 -0.119803 0.052630 -0.089254 0.046027 -0.006142 0.107534 0.133611 -0.009676
afford 0.084153 -0.451303 -0.030125 -0.092637 -0.005063 0.251593 -0.054237 -0.422484 0.196353 0.235633 0.157041 -0.147135 -0.289314 -0.444455 -0.011744 -0.161431 0.084447 0.029901 -0.062734 -0.186191 0.030217 -0.244478 -0.174786 0.470308 0.214903 0.031438 -0.048437 -0.169374 -0.024905 -0.174496 0.000709 -0.073478 0.090083 0.044698 0.050331 0.072588 0.319845 -0.376144 -0.261935 -0.224519 0.122346 -0.056703 0.172605 -0.163962 0.032802 -0.178784 0.150611 -0.180472 0.185743 0.222940
community -0.053341 0.003112 0.273358 -0.081159 0.255475 0.010884 0.011603 -0.045383 -0.142378 -0.080498 0.239806 0.070773 0.193842 -0.161298 -0.300370 -0.033644 -0.054823 -0.358348 0.153233 0.066412 0.008206 -0.070887 -0.044277 0.019335 0.087709 0.156404 -0.075339 0.202940 0.081708 0.016082 -0.137099 0.115935 0.329303 -0.009027 0.016628 0.143497 -0.252625 -0.177784 0.079070 0.082987 0.109863 0.337142 -0.019787 -0.094302 -0.077841 -0.132004 -0.169719 0.145668 -0.107841 0.009746
kent -0.158133 0.233607 -0.014133 0.175607 -0.037127 0.051075 -0.208301 0.178314 0.185125 -0.197307 -0.104522 -0.286798 0.281083 -0.179571 0.029640 0.163733 -0.034760 -0.262930 -0.127545 -0.070539 0.234703 0.154766 0.006799 -0.323051 0.068792 0.035080 0.163083 -0.125783 0.131477 -0.031242 -0.185833 0.021643 -0.190110 0.019830 -0.066347 0.162713 0.139610 0.234267 0.367006 -0.137784 -0.040366 -0.003952 -0.219790 -0.093093 -0.186687 0.140225 -0.309993 0.177652 -0.060723 0.224701
load 0.428409 0.063879 -0.497698 -0.220863 -0.360660 -0.159610 -0.171756 0.093353 -0.441923 -0.019414 -0.119291 0.144824 -0.165461 0.395261 0.336335 -0.151469 0.065728 0.520366 -0.259303 -0.296170 -0.233016 -0.184784 0.215945 -0.191987 -0.325870 -0.160074 0.237630 -0.061901 -0.170561 -0.145541 0.360816 -0.056145 -0.030070 0.179506 -0.233441 -0.313898 0.552557 0.386560 -0.585544 -0.064211 -0.257241 -0.618034 0.141914 0.173349 -0.035851 -0.039879 0.374689 -0.210867 -0.049481 0.008449
location 0.133759 -0.004613 -0.056161 0.274015 -0.237233 -0.252414 -0.279651 0.098015 0.082432 -0.183394 -0.067085 -0.592023 0.195263 -0.163912 0.423442 0.189569 0.106783 0.022211 -0.289242 -0.287999 0.180634 0.027821 0.029424 -0.123003 -0.066527 0.080238 0.250426 -0.374485 0.184348 0.026098 0.006646 -0.176214 -0.341077 -0.016397 -0.234294 0.316875 0.531641 0.071475 0.119251 -0.069811 0.036947 -0.502205 -0.150451 -0.011790 -0.106476 0.235737 -0.175841 0.038175 0.017890 0.341213
old -0.101915 -0.038446 0.007085 -0.289978 0.514298 0.362787 -0.113886 -0.194757 0.179993 -0.110407 0.246023 -0.136698 0.023202 -0.568810 -0.192107 0.083123 -0.147224 -0.609030 0.082588 0.213665 0.434055 0.181933 -0.214491 -0.041766 0.528299 0.107290 -0.184476 -0.491463 0.186109 -0.174930 -0.387635 0.023950 0.332525 0.289502 0.110575 0.250347 0.266443 -0.089874 0.036938 -0.151619 0.054052 -0.043338 -0.009508 -0.589145 0.097811 -0.155321 -0.015578 -0.271668 -0.046434 0.167331
affordable 0.100654 -0.155896 0.202088 -0.105674 -0.149674 -0.008926 -0.182426 -0.035813 -0.010873 0.077211 0.068199 -0.136176 -0.022531 0.029150 0.118769 -0.095840 0.292612 0.305778 -0.130932 -0.217348 -0.021897 -0.252698 0.016289 0.134949 -0.202449 -0.173618 0.108402 -0.012718 0.048375 0.040809 0.154237 0.032052 -0.188474 0.079000 -0.146341 -0.016769 0.268370 0.186045 -0.077608 -0.151937 -0.188498 -0.060855 -0.183947 0.036696 -0.143980 -0.009562 0.001363 0.119246 0.100879 0.086613
museum -0.297257 -0.006762 0.171317 0.352122 0.130268 -0.123002 0.233175 -0.011889 -0.066024 0.043743 0.086087 0.401831 0.186882 0.015410 -0.246320 -0.054589 -0.180274 -0.190013 0.314035 0.332361 -0.214569 0.164511 -0.114688 0.035486 0.116601 -0.134984 -0.076407 0.000541 0.053174 0.390344 0.098943 -0.033978 0.287898 0.007037 -0.063148 0.072213 -0.431882 -0.214086 0.103743 0.188811 0.085227 0.428586 0.083564 -0.048250 0.136641 -0.071300 -0.028478 -0.011764 0.091210 -0.189023
river -0.275458 -0.201676 0.309456 0.788112 -0.095161 -0.313306 -0.174111 0.028201 0.018732 -0.290908 -0.120634 -0.822615 0.515368 -0.768430 0.598461 0.282306 -0.150865 -0.484418 -0.235094 0.104180 0.277803 0.407024 -0.014629 -0.251657 0.268623 0.223922 0.392193 -0.534082 0.419562 0.267448 -0.294523 -0.095323 -0.230408 -0.126775 -0.163211 0.673505 0.374265 -0.469012 0.515981 0.194420 0.461096 -0.154207 -0.413595 -0.082888 -0.175091 0.123198 -0.570318 0.193422 0.001888 0.430337
young 0.014538 -0.212132 0.307558 -0.074771 0.028696 0.165515 -0.007429 -0.126336 -0.280350 0.258539 0.051069 0.265129 -0.243460 0.149734 -0.002927 -0.245127 0.145569 0.164873 0.189370 0.177498 -0.304564 -0.172086 0.001301 0.236058 -0.148561 -0.108973 -0.014953 0.212757 -0.103489 0.040535 0.269923 0.154502 0.054977 0.218889 0.112353 -0.270865 -0.128836 -0.044596 -0.338313 0.087460 -0.099278 0.200378 -0.005495 0.100538 0.024306 -0.138693 0.167382 0.223427 -0.081614 -0.096137
born -0.057052 -0.029330 -0.016332 0.035774 0.178118 0.038958 0.142617 -0.037451 -0.070081 0.008936 0.050659 0.149294 0.016803 -0.077619 -0.029218 0.020032 -0.162268 -0.126473 0.130429 0.216599 -0.041437 0.151718 -0.040035 -0.043603 0.123950 -0.038074 -0.040521 0.003471 0.084031 0.049378 -0.102794 -0.021677 0.188107 -0.010801 0.057734 0.017817 -0.121885 -0.164973 -0.019348 0.143867 0.157967 0.027037 0.101746 -0.009574 0.020937 -0.005493 0.043536 -0.149596 -0.035123 -0.135429
club 0.289147 0.117074 -0.593743 -0.056716 -0.368535 -0.330482 0.045907 0.153323 -0.595032 -0.134253 -0.291224 0.301609 -0.085781 0.560665 0.248536 -0.055340 -0.158241 0.471337 -0.246968 -0.065182 -0.209843 0.029502 0.098308 -0.557769 -0.273278 -0.035887 0.227224 0.100370 -0.247720 -0.036041 0.077496 -0.116203 0.130103 0.006853 -0.154328 -0.290402 0.178957 0.379807 -0.445478 0.232600 -0.155013 -0.222932 0.139980 0.261381 0.008158 -0.186268 0.252043 -0.398801 -0.123571 -0.205757
greater -0.215401 0.341000 0.063546 0.116982 -0.056131 0.104344 -0.435259 0.204711 0.277019 -0.240128 -0.011135 -0.699940 0.415740 -0.202746 0.031454 0.232892 0.152596 -0.332924 -0.229137 -0.190348 0.460368 0.066704 -0.035886 -0.326775 0.054896 0.039000 0.235530 -0.289343 0.221749 -0.048820 -0.260353 0.024842 -0.422862 0.170567 -0.143075 0.281817 0.395778 0.410873 0.538051 -0.286512 -0.121355 -0.114509 -0.412798 -0.238767 -0.237244 0.218271 -0.501223 0.333930 -0.047955 0.390537
surrey -0.118317 0.068663 0.019014 0.080162 0.101534 0.046421 -0.021055 0.033641 0.040605 -0.099539 0.054371 -0.030671 0.142499 -0.185272 0.003587 0.025307 -0.131710 -0.182307 0.017712 0.042634 0.045159 0.149663 0.005783 -0.087830 0.135266 -0.042199 0.044751 -0.101147 0.110031 0.003879 -0.059045 0.000644 -0.020705 0.061472 -0.049467 -0.008984 0.076121 -0.010043 0.074685 -0.027874 0.031025 -0.083081 -0.069656 -0.039481 -0.079915 0.090710 -0.070999 0.036989 -0.020268 0.050039
actually 0.030973 -0.131688 0.032651 -0.023209 0.018741 0.112864 -0.050569 -0.079101 -0.025532 0.022961 0.030404 -0.000793 0.002357 -0.098991 0.051667 -0.106216 0.045347 0.059564 -0.039175 -0.013966 -0.054618 -0.061081 -0.022903 0.129777 0.019218 -0.103845 0.038923 -0.066890 0.074579 0.026026 0.070768 -0.025097 -0.059694 -0.012794 -0.123930 0.015311 0.175617 -0.010128 -0.054276 -0.141715 -0.066538 -0.145058 -0.094689 -0.010063 -0.102298 0.010296 0.014322 0.000851 0.077824 0.015033
le 0.047957 -0.056092 0.184210 -0.129161 -0.067963 0.051147 -0.006958 0.090043 0.068253 -0.011424 0.082423 -0.038042 0.101675 0.049620 0.019300 -0.064886 0.158517 0.214142 -0.086433 -0.029708 -0.112625 -0.151909 -0.053534 0.128678 -0.183496 -0.171023 -0.084452 0.034597 0.055175 0.115216 0.110805 0.026674 -0.333080 0.031651 -0.149109 -0.044744 0.022805 0.169504 0.152492 -0.127390 -0.232248 0.066795 -0.237384 -0.004078 -0.154210 0.094140 -0.097883 0.171658 0.056357 -0.121216
move 0.041601 -0.176658 0.048893 -0.070278 0.026139 0.118766 -0.112749 -0.139973 0.064180 0.051135 0.153026 -0.013744 -0.040790 -0.126877 0.031186 -0.049010 0.087780 0.066244 -0.031253 -0.053615 0.002657 -0.102244 -0.128267 0.192062 0.082704 -0.093764 0.025050 -0.078827 0.054003 0.003212 0.006985 0.034342 -0.028287 0.054537 -0.108599 0.001936 0.166811 -0.063990 -0.117428 -0.159879 -0.042591 -0.043841 -0.015506 -0.069898 -0.010085 -0.038330 0.028478 -0.009970 0.097056 0.040814
ok 0.097455 -0.179145 -0.005713 -0.076283 -0.037427 0.034961 -0.043709 -0.072611 0.156221 0.040312 0.011612 -0.110875 -0.060897 -0.214471 0.047757 -0.048447 0.111852 0.083590 -0.086164 -0.226793 0.059759 -0.073470 0.026042 0.159959 0.051649 0.027819 0.003984 -0.157495 0.099736 -0.111304 0.055064 -0.075021 -0.096555 -0.035866 -0.106778 0.080690 0.289902 -0.093044 -0.092052 -0.147035 0.040331 -0.284185 0.002061 0.023975 -0.070370 0.004794 0.085243 -0.102393 0.141904 0.153011
school 0.407678 0.145513 -0.389398 -0.069779 -0.285893 -0.258005 -0.036033 0.046106 -0.033086 -0.023949 -0.041730 0.010900 -0.045694 0.398932 0.102114 0.093113 0.038335 0.340496 -0.142276 -0.315374 -0.107165 -0.122335 0.162370 -0.070042 -0.228612 -0.048608 0.011292 -0.096742 -0.121008 -0.118270 0.322981 -0.068672 -0.026683 0.007457 -0.136578 -0.044478 0.267752 0.240610 -0.333158 -0.029256 -0.187560 -0.476089 0.251031 0.104795 0.120538 0.219849 0.253764 -0.192121 -0.026130 0.079160
two -0.056419 -0.059973 0.037281 -0.118398 -0.030351 0.157738 -0.102472 -0.075092 0.187147 -0.020478 0.069634 -0.236028 -0.043675 -0.227414 -0.001920 -0.004526 0.079091 -0.049222 -0.080932 -0.138680 0.212139 -0.070900 -0.009976 0.084209 0.134566 0.065710 0.057628 -0.131100 0.023714 -0.132282 -0.124186 -0.006720 -0.064901 0.107122 -0.007010 0.043380 0.209423 0.046148 0.038943 -0.217619 0.042398 -0.103750 -0.117399 -0.188376 -0.026640 -0.107797 -0.064512 -0.005138 0.094271 0.185727
generally 0.087550 -0.083143 0.173407 -0.117918 -0.070052 0.138389 -0.193303 0.039588 0.116820 -0.065863 0.043376 -0.171335 0.076184 -0.229057 0.168347 -0.162450 0.235578 0.127217 -0.151341 -0.232877 0.027357 -0.123225 0.084327 0.170844 -0.089989 -0.166557 0.137168 -0.167600 0.202342 -0.025241 0.168538 0.034579 -0.333524 0.057954 -0.213486 -0.008587 0.432040 0.151829 0.049615 -0.316364 -0.224662 -0.278211 -0.283055 0.019441 -0.253227 0.107896 -0.037079 0.120492 0.051478 0.187324
got 0.149693 -0.139805 -0.149211 -0.102172 -0.060927 0.103602 -0.029986 -0.123537 -0.092438 0.079500 0.062585 0.029226 -0.111327 -0.071465 0.067403 -0.089917 -0.001758 0.120178 -0.063733 -0.074176 -0.071674 -0.098697 -0.009176 0.091463 0.012343 -0.040435 0.018816 -0.050225 -0.026495 -0.059521 0.058273 -0.053194 0.067849 0.105591 -0.050768 -0.107091 0.197268 -0.042017 -0.218496 -0.091464 -0.016440 -0.224387 0.088153 -0.006183 -0.030754 -0.043013 0.126664 -0.140957 0.027749 -0.014435
green 0.022958 -0.179512 0.206524 -0.187205 0.045526 0.157139 0.055082 0.010637 -0.114362 0.029554 0.202978 0.115827 0.011181 -0.066685 0.000770 -0.146108 0.023798 0.231724 0.091382 -0.110345 -0.294345 -0.185674 -0.028308 0.192142 -0.230671 -0.235296 -0.016536 0.058456 0.192091 0.164808 0.127889 0.135513 -0.217538 0.166464 -0.221934 -0.185947 0.056491 0.018983 0.003557 -0.169590 -0.068822 -0.073904 -0.151117 0.033087 -0.240054 -0.047128 -0.003114 0.079550 0.120259 -0.094160
problem -0.008899 -0.130534 0.054532 -0.178164 0.220418 0.155637 -0.032178 -0.111135 -0.062985 0.002823 0.090788 0.156775 -0.109301 -0.213182 -0.083109 -0.133260 -0.106847 -0.168063 0.069119 0.157591 0.002910 0.037943 -0.038847 0.117361 0.260556 -0.050829 -0.113825 -0.144962 0.096882 -0.029503 -0.039266 0.014821 0.209183 0.068573 0.041443 0.047275 0.037470 -0.116654 -0.122813 0.027517 0.048238 0.019126 0.073943 -0.115684 -0.004632 -0.032982 0.142126 -0.131885 -0.064542 -0.036676
cafe 0.395552 0.096837 -0.775233 -0.168649 -0.399399 -0.200402 -0.098273 0.098457 -0.673432 0.040110 -0.320180 0.407253 -0.256935 0.562306 0.347097 -0.262165 -0.117366 0.585858 -0.264726 -0.190777 -0.351289 -0.043831 0.222035 -0.486313 -0.372346 -0.149680 0.290569 0.101280 -0.304273 -0.209844 0.321783 -0.116286 0.056909 0.204146 -0.133763 -0.509107 0.480536 0.363325 -0.742321 0.185636 -0.221454 -0.568271 0.270966 0.293150 0.030550 -0.213134 0.541612 -0.367329 -0.165301 -0.226945
cheapest 0.064166 -0.001694 0.082393 -0.135800 -0.208729 0.157317 -0.335122 0.061883 0.116247 -0.067198 0.078082 -0.311481 0.084811 -0.165112 0.181093 -0.115390 0.299607 0.121300 -0.220392 -0.318070 0.162631 -0.189668 0.029154 0.067078 -0.011843 -0.102581 0.240342 -0.203459 0.103609 -0.058063 0.031030 0.085748 -0.343189 0.192948 -0.188267 0.024140 0.519337 0.344534 0.069087 -0.406408 -0.271621 -0.208275 -0.336169 -0.137216 -0.229643 0.087120 -0.186871 0.204963 0.045824 0.312685
rate 0.039870 0.197929 0.098568 0.307063 0.070892 -0.229070 0.180604 0.416915 0.108351 -0.142162 -0.194073 0.722202 0.299766 0.230193 0.004147 -0.085196 -0.106072 0.150918 0.091423 0.050253 0.097538 0.213773 0.264879 -0.440283 -0.070821 -0.531678 0.017073 -0.039055 0.015994 -0.098671 0.267116 0.235764 -0.084014 -0.116918 0.145499 -0.212121 0.063939 0.163367 -0.168309 0.228131 -0.290677 -0.115437 0.020469 0.481395 -0.269992 0.454173 0.094448 0.041938 0.073655 -0.043059
recommend 0.083410 -0.552151 -0.109876 -0.104551 -0.234964 0.292402 -0.091710 -0.316622 0.187192 0.288834 0.157591 -0.159404 -0.450458 -0.463630 0.181527 -0.207210 0.113987 0.211595 -0.123409 -0.272802 -0.033589 -0.202929 0.140755 0.642311 0.388051 0.122463 0.141400 -0.319740 -0.011861 -0.243083 -0.064255 -0.047377 -0.091031 0.018806 -0.027545 0.113657 0.483520 -0.333449 -0.412239 -0.397722 0.268670 -0.346389 0.059810 -0.165148 -0.018133 -0.180237 0.074304 -0.220419 0.240335 0.371264
within -0.132618 0.033923 0.242019 -0.006011 0.113844 0.055464 -0.121729 0.058222 0.057455 -0.062562 0.035403 -0.106966 0.082260 -0.060989 0.014749 0.054537 0.143779 -0.064696 0.041620 0.042835 0.044217 -0.056151 -0.053100 -0.006005 -0.038601 -0.070878 0.058749 0.037600 0.118288 0.103501 -0.045678 0.118341 -0.043426 0.007087 -0.035569 0.108252 0.006849 0.072276 0.211490 -0.022058 -0.036590 0.062091 -0.205235 -0.024658 -0.142623 0.017071 -0.149057 0.213163 0.036965 0.029394
beautiful 0.068466 -0.201124 0.132016 -0.231778 -0.066291 0.138864 -0.094910 -0.052849 -0.098055 0.129884 0.123249 0.011972 0.003654 -0.189000 0.119441 -0.245417 0.163227 0.185414 -0.083313 -0.119639 -0.125705 -0.176150 0.046113 0.194137 -0.041469 -0.185708 0.033182 -0.054966 0.023287 -0.017200 0.137878 0.188842 -0.102624 0.117336 -0.163095 -0.159659 0.296519 0.133957 -0.106606 -0.169705 -0.138751 -0.125085 -0.137871 -0.002455 -0.222655 -0.035116 -0.036103 0.065846 0.055984 0.030682
definitely 0.057004 -0.340227 -0.031967 -0.098719 -0.181138 0.194781 -0.101765 -0.184167 0.245362 0.191073 0.080703 -0.261533 -0.246663 -0.354842 0.073684 -0.106227 0.126338 0.096140 -0.142170 -0.278290 0.067141 -0.182483 0.054667 0.418237 0.197437 0.114600 0.070522 -0.234911 0.011471 -0.241820 -0.041118 -0.065215 -0.189629 0.016972 -0.031450 0.108273 0.389668 -0.135876 -0.208991 -0.352149 0.105959 -0.195541 0.009933 -0.154536 -0.055970 -0.078500 0.010995 -0.090978 0.170356 0.329125
may 0.017179 -0.060660 -0.082198 -0.047392 0.038228 0.029241 0.043198 -0.023672 -0.016760 0.005372 -0.007697 0.043463 -0.072426 -0.043622 0.024451 -0.045303 -0.040491 0.099497 -0.021894 -0.050610 -0.040502 0.021490 0.004252 0.042538 0.001273 -0.051298 0.043529 -0.022641 0.031527 -0.020115 0.080095 -0.031556 0.010872 -0.015617 -0.039756 -0.032642 0.140505 -0.026996 -0.078448 -0.063965 0.021043 -0.203594 0.025663 0.057397 -0.034612 0.042384 0.087757 -0.109642 0.048686 -0.037110
suggest 0.070498 -0.577185 -0.072181 -0.050310 -0.229210 0.233832 -0.074655 -0.304279 0.200833 0.257150 0.149712 -0.275685 -0.425129 -0.432021 0.075337 -0.223721 0.194579 0.150676 -0.143747 -0.258873 -0.059189 -0.253438 0.107719 0.638333 0.367598 0.135494 0.098576 -0.217684 0.017539 -0.199016 -0.070056 0.016808 -0.043813 -0.040140 0.060987 0.123158 0.386503 -0.374000 -0.273780 -0.347327 0.265237 -0.199479 0.051383 -0.138730 0.038285 -0.192278 0.023500 -0.125364 0.266506 0.386279
anywhere -0.091581 -0.071087 0.149423 0.012905 0.063102 0.021218 -0.078880 -0.102789 0.213974 0.010671 -0.061265 -0.283153 0.025315 -0.156042 -0.088244 0.054061 0.124324 -0.026263 -0.022162 -0.151186 0.098499 -0.041043 -0.087425 0.107869 0.011414 0.078117 -0.004082 -0.043647 0.171626 0.008025 -0.061009 -0.099141 -0.081520 -0.069565 -0.038085 0.235935 0.115102 -0.049389 0.243202 -0.074182 -0.026912 -0.072100 -0.080461 -0.028684 -0.049593 0.041234 -0.095172 0.031985 0.182187 0.135325
fairly 0.121607 0.083310 0.065990 0.048666 -0.199896 -0.224680 -0.150151 0.213960 0.188691 -0.107925 -0.092744 -0.307979 0.128484 0.154643 0.103552 0.172531 0.236666 0.132741 -0.153410 -0.266773 0.175848 -0.075603 0.026452 -0.106917 -0.258137 0.067321 0.053187 -0.041774 0.069508 0.002261 0.050253 -0.049805 -0.271756 -0.061535 -0.091085 0.172897 0.179658 0.261205 0.212878 -0.077279 -0.150914 -0.052742 -0.164297 0.033510 -0.036513 0.167248 -0.158438 0.208210 0.030763 0.212010
month -0.112258 -0.033316 0.004319 -0.060753 0.244209 0.256138 -0.040129 -0.116197 -0.052792 0.050967 0.116323 0.034442 0.008400 -0.267281 -0.045846 -0.079665 -0.131403 -0.201224 0.132783 0.192950 0.050271 0.119335 -0.063369 0.047310 0.200934 -0.044561 0.030374 -0.153720 0.026400 -0.019149 -0.157265 0.074174 0.218932 0.154353 0.019312 -0.020245 0.002717 -0.130024 -0.038178 -0.020836 0.120092 0.056753 0.059955 -0.165299 -0.032151 -0.143182 -0.002712 -0.059998 -0.056441 0.021083
visit 0.056543 -0.198234 0.014258 -0.094320 -0.082743 0.036260 -0.105867 -0.134953 0.048604 0.045801 -0.013156 -0.150376 -0.109654 -0.090073 0.032031 -0.070279 0.057429 0.119834 -0.067909 -0.149268 0.085764 -0.103705 -0.040868 0.160749 0.044074 0.050615 0.021813 -0.071326 -0.024061 -0.072418 0.010825 -0.063507 -0.066241 0.014372 -0.071734 0.000424 0.177699 -0.031187 -0.100817 -0.131720 -0.001695 -0.052268 -0.034806 -0.047504 -0.014072 -0.149369 0.011199 -0.001915 0.136293 0.096279
cool 0.275842 -0.161671 -0.360831 -0.173973 -0.256546 -0.139749 -0.121060 -0.114694 -0.222525 0.043082 -0.124577 0.070972 -0.178956 0.178630 0.226337 -0.092627 0.070173 0.451330 -0.156682 -0.263764 -0.103624 -0.155578 0.010238 -0.035852 -0.167418 -0.068725 0.151449 -0.085302 -0.111950 -0.122808 0.172485 -0.147503 -0.068845 0.065464 -0.174661 -0.168003 0.381167 0.071547 -0.412120 -0.105452 -0.047858 -0.410447 0.049377 0.100412 0.042325 -0.137357 0.316409 -0.258015 0.148597 -0.068324
family 0.206398 -0.126940 -0.002764 -0.228520 -0.043842 0.095309 -0.135383 -0.099320 -0.143474 0.104914 0.070843 0.088243 -0.141308 -0.007492 0.073314 -0.167740 0.143989 0.224819 -0.012665 -0.129732 -0.062983 -0.167918 -0.023922 0.128919 -0.100598 -0.120200 0.039071 -0.076098 -0.043215 -0.063237 0.162532 0.027888 0.014106 0.207686 -0.075781 -0.199006 0.239298 0.090621 -0.308429 -0.139973 -0.141328 -0.146672 0.014976 -0.026683 -0.012043 -0.106823 0.178682 -0.045615 0.024036 0.028583
friend 0.029621 -0.141727 -0.071709 -0.102569 0.153944 0.192178 -0.000473 -0.166152 -0.015363 0.038071 0.141595 0.019577 -0.025934 -0.338724 0.021541 -0.042952 -0.109745 -0.138845 0.048210 0.068073 0.054137 0.061251 -0.079207 0.067296 0.190652 0.030246 0.011879 -0.246942 0.090748 -0.074010 -0.111146 -0.034405 0.179835 0.159037 -0.010178 0.031548 0.173939 -0.160667 -0.119702 -0.111803 0.118140 -0.169066 0.058624 -0.203377 0.003198 -0.064344 0.023922 -0.205845 0.001268 0.090615
mean -0.059263 -0.008542 0.040793 0.088819 -0.026016 0.062917 -0.093802 -0.018158 0.042951 -0.079294 0.007460 -0.122943 0.062967 -0.159837 0.069594 -0.033446 -0.008581 -0.120809 -0.047746 -0.009044 0.050051 0.044403 0.024022 -0.003395 0.120651 0.015646 0.078393 -0.079791 0.055698 -0.005539 -0.039585 0.071779 -0.039911 0.040732 -0.041296 0.065760 0.084447 0.001384 0.026562 -0.123053 0.000840 -0.027177 -0.082019 -0.117092 -0.043860 0.052562 -0.106361 0.109552 -0.021400 0.122564
student 0.015071 -0.158804 0.063965 0.033199 0.040874 0.051868 0.024036 -0.161195 -0.194744 0.173502 0.069535 0.086032 -0.211915 0.070153 -0.128139 -0.070103 -0.016236 -0.011253 0.128089 0.074478 -0.117146 -0.140876 -0.098173 0.136065 0.034829 0.017709 -0.097971 0.187522 -0.167977 0.036526 -0.012218 0.100829 0.282050 0.081791 0.196467 -0.069111 -0.175707 -0.143586 -0.168124 0.156478 -0.027903 0.277176 0.184609 -0.061072 0.106287 -0.214354 0.024171 0.026556 -0.058324 -0.080308
another 0.141411 -0.182727 0.073798 -0.191113 -0.136084 0.033957 -0.123262 -0.008325 0.002455 -0.005772 -0.001651 -0.082666 -0.036224 -0.164151 0.128765 -0.114955 0.165224 0.194526 -0.147282 -0.243170 0.036265 -0.169397 0.018612 0.088051 -0.079314 -0.033488 0.087751 -0.099083 0.055732 -0.002885 0.071326 -0.005036 -0.156356 0.057263 -0.194865 -0.038543 0.281324 0.094690 -0.070744 -0.212789 -0.085202 -0.205647 -0.155810 -0.033314 -0.120165 -0.010267 0.033536 0.036565 0.106549 0.124628
budget -0.000749 -0.284786 -0.072907 -0.104176 -0.017227 0.110157 -0.031867 -0.305150 0.057399 0.124406 0.104651 0.016246 -0.198481 -0.231248 0.060654 -0.138655 0.057930 0.278635 0.000760 -0.081050 -0.062491 -0.111708 -0.178317 0.271102 0.025254 -0.134543 0.034117 -0.019856 -0.033627 -0.023290 0.115870 -0.090745 -0.072517 0.047171 -0.081323 0.007638 0.218908 -0.202228 -0.180217 -0.217885 0.110639 -0.097250 0.034413 -0.043798 0.017050 -0.115478 0.117807 -0.135584 0.166341 -0.055095
coming 0.080042 -0.177417 0.177925 -0.127375 -0.017817 0.119592 -0.101511 -0.012547 -0.065034 0.056358 0.124157 0.045362 0.006893 -0.051434 0.101021 -0.141916 0.170383 0.204406 0.007171 -0.084019 -0.126359 -0.154648 0.002430 0.169964 -0.070189 -0.216755 0.073016 -0.016665 0.084525 0.104453 0.183430 0.099490 -0.104696 0.071228 -0.140717 -0.080305 0.178620 0.079535 -0.114646 -0.146325 -0.140461 -0.108838 -0.142121 0.070912 -0.172300 0.016070 -0.006574 0.132468 0.052856 0.048097
first -0.021734 -0.125286 -0.053351 -0.001556 -0.005191 0.130512 -0.075029 -0.105688 0.069762 0.067046 0.047876 -0.152727 -0.128595 -0.148897 -0.001886 -0.003863 0.020330 -0.103011 -0.016687 0.005118 0.089613 -0.031748 -0.022138 0.186330 0.285243 0.125745 -0.026034 -0.185643 -0.019416 -0.065482 -0.159866 0.017839 0.048931 0.038206 0.088268 0.130098 0.128239 -0.074570 -0.040972 -0.100006 0.099721 -0.017355 0.019730 -0.194318 0.031717 -0.039921 -0.096729 -0.070488 0.030574 0.191140
home 0.015955 -0.005439 0.053431 -0.026276 -0.015161 0.033978 -0.103032 0.054500 -0.004510 -0.050096 0.001313 -0.052242 0.064873 -0.047274 0.104862 -0.024130 0.044821 0.092018 -0.072146 -0.124503 0.004360 -0.036321 0.036270 0.015229 -0.057589 -0.072668 0.101788 -0.018150 0.038248 0.046192 0.047033 0.047886 -0.086620 -0.013774 -0.075579 0.008573 0.129783 0.173482 0.025791 -0.131934 -0.088852 -0.114171 -0.028351 0.035752 -0.096731 0.082503 -0.063407 0.105731 0.009834 0.111096
maybe 0.150837 -0.190244 -0.100529 -0.157357 -0.125461 0.076254 -0.101457 -0.130314 -0.022549 0.063335 0.081799 -0.054179 -0.072564 -0.140872 0.172110 -0.190325 0.113180 0.313268 -0.133871 -0.209596 -0.104943 -0.176284 -0.022867 0.208569 -0.050777 -0.152685 0.084263 -0.089371 -0.010606 -0.005162 0.165014 -0.006930 -0.189046 0.043697 -0.195928 -0.052969 0.359044 0.043770 -0.173554 -0.282749 -0.111305 -0.265538 -0.102178 -0.001690 -0.120093 0.032470 0.081987 -0.010017 0.115645 0.058051
new -0.140269 0.065971 0.144360 0.025609 0.148284 0.092308 -0.027012 0.074538 0.068355 -0.070661 0.058948 0.014642 0.163054 -0.089626 -0.112205 0.020296 0.029171 -0.181898 0.027883 0.120822 0.071854 0.077067 -0.081242 -0.070672 0.065123 -0.047608 -0.032454 0.031170 0.092342 0.075189 -0.114984 0.115974 0.019414 0.015450 0.010847 0.049004 -0.127510 0.005939 0.219198 -0.018778 0.002373 0.218618 -0.115694 -0.070077 -0.082715 -0.015971 -0.153512 0.165983 -0.044954 0.023250
personally 0.042182 -0.380467 0.031179 -0.084762 0.007825 0.273624 -0.030573 -0.306493 0.125142 0.246014 0.183807 -0.105794 -0.282356 -0.285144 0.008719 -0.158555 0.046003 0.056615 0.006510 -0.072179 -0.038610 -0.164668 -0.003193 0.452379 0.271140 0.034405 -0.056675 -0.132720 -0.029944 -0.149586 0.004135 0.001141 -0.003792 0.025907 0.095829 0.024528 0.223493 -0.316054 -0.236432 -0.180554 0.158723 -0.107044 0.119772 -0.104507 0.052043 -0.151813 0.089536 -0.146175 0.118114 0.134340
travel -0.125774 0.183603 0.182942 0.034918 0.024076 0.014644 -0.254533 0.205079 0.391426 -0.151600 -0.078377 -0.484036 0.230939 -0.183209 0.123958 0.157486 0.223978 -0.061359 -0.123874 -0.213325 0.375938 0.020431 -0.011398 -0.121393 -0.048136 0.114217 0.097873 -0.170564 0.206172 0.011870 -0.117440 0.012630 -0.332205 -0.033956 -0.147194 0.294678 0.260264 0.268609 0.464608 -0.271934 -0.116355 -0.105826 -0.330955 -0.108042 -0.268214 0.168066 -0.344592 0.269514 0.030904 0.346066
30 -0.370564 0.245115 0.172308 0.076077 0.362159 0.019116 0.139596 0.201551 0.176112 -0.087341 0.019843 -0.164184 0.266899 -0.190370 -0.235818 0.226142 -0.240399 -0.471658 0.007392 0.281856 0.193044 0.253942 -0.029749 -0.199645 0.144580 0.099272 -0.055411 -0.005065 0.107457 0.074239 -0.368408 -0.010156 0.013915 -0.119943 0.172976 0.382930 -0.308620 -0.084329 0.537775 0.212531 0.308752 0.135433 -0.073736 -0.088648 -0.070613 0.091703 -0.288459 0.086686 -0.081335 -0.122918
although -0.024740 -0.058795 0.134320 -0.047949 0.049440 0.108397 -0.109673 -0.022520 0.077141 -0.007967 0.069482 -0.065409 0.076704 -0.200985 0.032129 -0.078581 0.084967 0.001026 -0.030269 -0.070228 0.025238 -0.063619 0.022332 0.130208 0.000089 -0.089219 0.068336 -0.065856 0.102031 0.014228 0.034078 0.050275 -0.087936 0.046011 -0.097258 0.011765 0.186274 0.071284 -0.011341 -0.157393 -0.094580 -0.119347 -0.139384 -0.037581 -0.148843 0.049208 -0.029547 0.101467 0.066113 0.102160
dangerous 0.035006 -0.106613 0.089463 -0.065963 -0.049210 0.078354 -0.115766 -0.023985 0.058968 -0.047984 0.075850 -0.127410 0.050620 -0.179443 0.070549 -0.082249 0.133957 0.070724 -0.088003 -0.145479 0.034385 -0.096771 0.003022 0.097060 0.014366 -0.086449 0.060269 -0.123346 0.095159 0.021965 0.039642 0.013793 -0.167394 -0.005334 -0.118112 0.078497 0.251716 0.080308 0.040967 -0.200060 -0.111380 -0.169865 -0.189987 -0.043211 -0.172345 0.059246 -0.043915 0.055311 0.090335 0.107544
decent 0.044689 -0.157107 0.087076 -0.146201 -0.060656 0.082577 -0.103717 -0.105420 -0.018912 0.082688 0.119318 -0.048228 -0.029620 -0.055614 0.024966 -0.121117 0.144991 0.110325 0.037902 -0.082811 -0.054970 -0.139143 -0.076169 0.173959 -0.042589 -0.074484 0.026815 -0.002581 -0.001599 -0.001391 0.023970 0.068783 -0.020426 0.098138 -0.032958 -0.049156 0.112610 -0.017591 -0.106177 -0.068520 -0.081814 0.063684 -0.089634 0.000412 0.024742 -0.033227 -0.056189 0.040180 0.148247 -0.005623
depends -0.034565 -0.223667 0.014771 -0.173515 -0.035267 0.191775 -0.181959 -0.252813 0.030643 0.113817 0.107376 -0.098089 -0.138630 -0.213917 0.088071 -0.215404 0.202539 0.257064 -0.001710 -0.061855 -0.056449 -0.144594 -0.162764 0.240982 -0.067627 -0.165255 0.059558 -0.050901 -0.003942 -0.022450 0.169122 -0.078101 -0.200048 0.139878 -0.055121 -0.040369 0.303931 -0.050284 -0.090031 -0.260963 -0.007789 -0.086533 -0.126392 -0.102683 -0.031676 -0.110356 0.107745 0.018627 0.083446 -0.056700
different 0.008402 0.021977 0.142776 -0.071740 -0.074210 0.073537 -0.177656 0.009432 -0.105391 0.020214 0.042866 -0.030999 0.057959 0.051352 0.082324 -0.101331 0.172779 0.106332 -0.029668 -0.024198 -0.004295 -0.111286 -0.033148 -0.029456 -0.057230 -0.115226 0.082458 0.025663 0.045873 0.021460 0.033624 0.089754 -0.136098 0.182957 -0.046408 -0.046552 0.163200 0.241345 0.027179 -0.076765 -0.200853 0.049014 -0.170551 0.028562 -0.137863 -0.012911 -0.106523 0.186934 -0.053539 0.057806
estate -0.029467 -0.027753 0.154304 -0.021025 0.063984 0.032280 0.035234 0.050286 -0.123878 0.050724 0.046825 0.027958 -0.013805 -0.024218 -0.014977 -0.015568 0.058693 -0.027548 0.004783 0.080681 -0.092352 -0.090761 -0.030735 0.116104 -0.054562 -0.081353 -0.001039 0.039748 -0.001205 0.079315 0.043457 0.176376 0.048690 0.003834 -0.037060 -0.091555 -0.073643 -0.016251 0.020946 0.015453 -0.062985 0.231839 -0.031193 0.005924 -0.061695 -0.005716 -0.075689 0.183214 -0.081898 -0.020039
main 0.002215 0.169882 -0.068326 0.073191 0.153497 0.051593 0.023975 0.255174 0.302519 -0.187182 0.046658 0.244647 0.152607 -0.105146 0.053780 -0.006726 -0.043738 -0.181502 0.081551 -0.087366 0.125426 0.160091 0.194650 -0.129293 0.125573 0.008160 0.041750 -0.106316 0.195496 -0.113908 0.025054 0.072016 0.107249 -0.004580 -0.053504 -0.101428 0.117854 -0.025070 -0.015846 -0.123404 -0.084970 -0.265030 0.044508 0.033377 -0.053179 0.177951 0.022152 -0.031624 0.072409 0.118479
moving -0.169691 0.136935 0.000207 0.125690 0.063432 0.083043 -0.192477 0.055401 0.202193 -0.159957 0.041991 -0.323813 0.201018 -0.220484 -0.013202 0.138870 -0.049530 -0.358600 -0.064732 0.009157 0.286804 0.144849 -0.076702 -0.208415 0.199977 0.121305 0.084602 -0.197260 0.115184 -0.093886 -0.258827 0.023185 -0.002382 0.046141 -0.028013 0.246767 0.123969 0.054075 0.293790 -0.119539 0.058800 0.003472 -0.080411 -0.242532 -0.043604 0.052015 -0.249777 0.049241 -0.088826 0.259751
next 0.098510 -0.132286 -0.109365 -0.014642 0.032245 0.037383 0.105803 -0.073255 0.134392 -0.076852 -0.055846 -0.114054 0.038759 -0.407920 0.110258 0.001333 -0.126107 -0.180019 -0.088323 -0.124171 0.103347 0.121547 0.096969 0.080031 0.189055 0.128167 -0.009298 -0.196263 0.093644 -0.113350 -0.068047 -0.022277 0.032730 -0.077505 -0.105760 0.058326 0.187480 -0.202824 -0.020016 -0.148933 0.158610 -0.257365 0.063588 -0.062004 -0.086853 0.031233 0.044625 -0.145389 0.061964 0.241366
posh 0.123963 -0.197418 0.139755 -0.168541 -0.076374 0.109940 -0.168756 -0.040793 0.109396 -0.002338 0.064349 -0.139034 0.043420 -0.244325 0.143342 -0.190422 0.268102 0.205484 -0.128285 -0.294264 0.007729 -0.145960 0.050779 0.181633 -0.090510 -0.163879 0.104715 -0.167222 0.190269 -0.041979 0.193707 0.021310 -0.269635 0.049264 -0.248958 -0.005145 0.472391 0.114973 -0.023802 -0.336987 -0.176722 -0.326863 -0.236526 0.031102 -0.239841 0.064968 0.036200 0.065845 0.181865 0.183449
side -0.127725 -0.132929 0.132388 0.088148 0.127640 0.101348 -0.028353 -0.041660 0.192013 -0.073621 0.072110 -0.150459 0.139431 -0.382206 0.102767 0.000495 0.006058 -0.152815 -0.036522 0.026310 0.124978 0.107499 0.008271 0.047715 0.192570 -0.002320 0.057348 -0.189344 0.201925 0.028391 -0.087669 -0.008729 -0.040985 -0.040021 -0.061851 0.150383 0.170432 -0.184191 0.146476 -0.095751 0.087524 -0.102914 -0.167339 -0.050578 -0.144958 0.023516 -0.122617 0.027148 0.114396 0.110357
space -0.128989 -0.204237 0.286214 -0.105804 0.136614 0.172316 0.211064 -0.037953 -0.073353 0.080736 0.240686 0.150113 0.016930 -0.017349 -0.179253 -0.033679 -0.104368 0.073585 0.178357 0.069383 -0.305887 -0.117034 -0.123375 0.188757 -0.158021 -0.164668 -0.177449 0.153416 0.167008 0.245970 0.015175 0.170158 -0.114210 0.100680 -0.080668 -0.106257 -0.251072 -0.105809 0.140198 -0.015483 0.052326 0.188566 -0.081932 -0.035939 -0.184835 -0.075145 -0.074521 0.033482 0.068289 -0.195817
st -0.016857 -0.036248 0.044556 0.040060 0.087819 0.033797 0.080631 -0.010863 -0.002853 -0.000030 0.036883 0.124121 -0.002998 0.023497 -0.005505 -0.043026 -0.056683 -0.034886 0.126603 0.023928 -0.063791 0.004273 -0.010251 0.108415 0.024701 -0.046221 -0.063532 0.079276 -0.013817 0.013365 0.033906 0.026149 0.052724 -0.037657 0.025439 -0.058103 -0.125918 -0.086338 -0.037250 -0.024053 0.015167 0.088791 0.012683 0.041923 0.033222 -0.017511 0.037609 0.033834 0.043162 -0.044544
yes -0.005535 -0.047925 -0.025914 -0.007976 0.020215 0.065123 -0.057720 -0.042828 0.033343 -0.035281 0.030200 -0.014257 0.026925 -0.161994 0.008408 -0.000350 -0.034844 -0.084280 -0.011745 -0.028048 0.040823 0.003936 -0.031890 0.045338 0.087149 0.029874 0.038498 -0.081576 0.053358 -0.019720 -0.058419 0.007518 0.021730 0.027794 -0.038820 0.005915 0.089492 -0.018556 -0.028514 -0.075989 0.020611 -0.049672 0.007388 -0.056685 -0.052547 0.001066 0.011640 -0.039819 0.003798 0.075827
zone -0.022241 -0.042058 0.109412 -0.037065 0.048308 0.096668 -0.040229 -0.001115 0.091911 -0.023007 0.035063 -0.101329 0.063610 -0.185432 -0.010338 0.014022 0.038106 -0.163421 -0.040904 -0.004180 0.163176 0.018624 -0.035478 -0.000872 0.148822 0.043343 -0.060649 -0.098806 0.015960 -0.012323 -0.107112 0.010596 0.052376 -0.004569 0.076348 0.096674 0.050026 0.003993 0.068448 -0.040465 -0.009696 0.038013 -0.032504 -0.126190 -0.045834 -0.018443 -0.073734 -0.015748 -0.044031 0.077683
housing 0.141301 0.033492 0.023704 -0.080776 -0.130396 -0.039104 -0.074881 0.014073 -0.109105 0.071867 0.069524 -0.038029 -0.058624 0.170593 0.072561 -0.030557 0.179872 0.192651 -0.093974 -0.066079 -0.104081 -0.212663 -0.025719 0.118507 -0.205054 -0.102991 0.005950 0.034006 -0.076816 0.057136 0.172809 0.078770 -0.096994 0.070234 -0.079006 -0.121891 0.084460 0.186054 -0.107605 -0.072231 -0.215040 0.074621 -0.033085 -0.026308 0.017075 0.065661 -0.000726 0.178595 -0.066169 0.015613
long -0.087715 -0.001572 0.183926 0.018546 0.118413 0.006230 0.020239 0.095569 0.057408 -0.083233 0.072028 0.070887 0.149491 -0.087714 -0.099323 0.062449 0.034770 -0.109086 0.116405 0.136770 0.003775 0.044017 -0.001504 -0.096439 -0.007938 -0.073245 -0.021688 0.021993 0.186363 0.076872 -0.048739 0.013496 0.011280 -0.106806 -0.011139 0.062109 -0.156933 0.030261 0.260929 0.020873 -0.115994 0.154558 -0.134605 0.021888 -0.136244 0.064891 -0.149372 0.098665 0.000502 -0.020426
trendy 0.144780 -0.240670 0.116889 -0.126899 -0.121450 0.061253 -0.055368 -0.037657 -0.108816 0.113519 0.051259 0.138494 -0.105407 0.048323 0.117404 -0.252371 0.190016 0.312352 -0.010260 -0.114777 -0.219949 -0.184909 0.101711 0.150655 -0.142491 -0.184937 0.045653 0.042127 0.048263 -0.018659 0.295907 0.068003 -0.148062 0.065053 -0.096505 -0.153760 0.246583 0.065568 -0.208073 -0.138559 -0.179167 -0.171702 -0.123157 0.161922 -0.123881 0.006232 0.141142 0.052137 0.084363 0.001397
especially 0.045193 -0.105068 0.003353 -0.163883 -0.010511 0.121767 -0.111836 -0.051693 0.021979 0.078380 0.080577 -0.100453 0.004374 -0.232572 0.122484 -0.150181 0.103959 0.113303 -0.099065 -0.191587 -0.015486 -0.104214 0.008110 0.175455 0.005249 -0.100708 0.087172 -0.096350 0.100698 -0.043742 0.050844 0.087095 -0.122917 0.078820 -0.099237 0.010102 0.286714 0.013212 -0.060688 -0.164146 -0.086798 -0.200166 -0.045632 -0.001161 -0.176844 -0.016130 -0.019616 -0.012751 0.069922 0.149031
quiet 0.017619 -0.053773 0.191074 -0.034088 -0.023470 0.032598 -0.056023 0.007729 -0.026709 0.035557 0.057334 0.033581 0.029523 0.098694 0.042569 -0.055900 0.155433 0.156111 -0.009425 -0.022744 -0.083095 -0.099643 0.002135 0.064748 -0.170709 -0.128041 0.063250 0.087755 0.006811 0.093879 0.154533 0.100439 -0.112622 0.041895 -0.030495 -0.045998 -0.006511 0.134312 0.006140 -0.023384 -0.117778 0.067051 -0.110526 0.072450 -0.068305 0.029325 -0.058796 0.178547 -0.019452 -0.023889
uk -0.087240 0.091289 0.091021 0.066746 -0.045561 -0.034102 -0.113990 0.014338 0.123097 -0.018128 -0.102332 -0.262809 0.074631 0.086772 -0.012341 0.148541 0.090782 -0.052515 -0.010263 -0.064608 0.132593 0.006258 -0.078661 -0.075152 -0.011971 0.130940 0.013953 0.020762 -0.011111 -0.009526 -0.131569 -0.014443 -0.044622 -0.026366 0.006343 0.147448 -0.050901 0.105377 0.244584 -0.038740 -0.026202 0.116788 -0.083692 -0.077971 0.019632 0.035971 -0.221907 0.148854 -0.024952 0.129746
essex -0.028426 0.107572 0.027954 -0.054693 -0.050430 0.109630 -0.197910 0.064353 0.141172 -0.094157 0.024158 -0.215881 0.166039 -0.138864 0.056487 -0.021994 0.136679 -0.026219 -0.118475 -0.129055 0.132092 -0.045506 0.009262 -0.052298 0.000649 -0.081306 0.090822 -0.150730 0.088772 -0.036853 -0.004637 0.007961 -0.240633 0.115686 -0.112249 0.041434 0.263349 0.177854 0.125213 -0.209490 -0.160528 -0.177699 -0.167770 -0.104595 -0.104919 0.122048 -0.103547 0.147023 0.007499 0.153881
fine -0.020153 -0.063074 -0.015063 0.005524 0.075601 0.054509 0.042085 -0.035378 -0.022850 -0.014374 0.024136 0.128888 -0.026188 -0.114646 0.014407 -0.057875 -0.098429 -0.055000 0.047830 0.071304 -0.075182 0.013446 0.029078 0.090429 0.107485 0.012375 -0.039952 -0.015488 0.063271 0.051405 -0.002341 0.014193 0.062665 -0.015922 0.023559 -0.028934 -0.029476 -0.085018 -0.110220 0.000915 0.076119 -0.064384 0.047684 0.027712 0.038903 -0.006336 0.070128 -0.084163 -0.011674 -0.067751
found 0.052825 -0.139829 -0.007645 -0.187684 0.089230 0.203362 -0.129751 -0.124267 0.031703 0.041534 0.078045 -0.084992 -0.086990 -0.248872 0.008533 -0.071568 0.027236 -0.118291 -0.035205 -0.021931 0.147776 -0.068070 -0.046762 0.096277 0.186164 0.021225 -0.002945 -0.227253 0.039221 -0.119375 -0.070914 -0.004775 0.061510 0.181487 0.016843 0.069224 0.270688 -0.024429 -0.113049 -0.174916 -0.029288 -0.113340 -0.039581 -0.198848 0.001100 -0.108176 0.043788 -0.081714 0.044941 0.131708
underground -0.171604 0.291025 0.003154 0.027040 0.076751 -0.151760 0.329314 0.237862 0.393314 -0.244189 -0.194970 0.021203 0.213501 -0.194310 -0.232096 0.171946 -0.233678 -0.427072 -0.106710 -0.111186 0.337449 0.327476 0.277933 -0.384941 0.126147 0.280462 -0.107720 0.003168 0.101439 -0.192999 -0.136517 0.054393 0.010589 -0.385019 0.147064 0.136225 -0.281570 0.004320 0.468713 -0.013881 0.182408 -0.067121 0.126084 0.015515 -0.085902 0.180823 -0.035622 -0.119191 -0.165843 0.193273
along -0.005431 0.076336 -0.102033 0.119375 0.057452 -0.036463 0.054148 0.118954 -0.078586 -0.120147 -0.041010 0.102518 0.106283 -0.032342 0.156969 0.033263 -0.139759 -0.027399 0.023228 0.102172 -0.072710 0.152762 0.093068 -0.104014 0.017447 -0.073963 0.104178 0.006724 0.061776 0.026949 -0.006372 0.061658 0.057766 -0.013126 -0.006324 -0.062579 0.001866 -0.052834 -0.021884 0.121456 0.032957 -0.115235 0.004295 0.140867 -0.059597 0.117022 -0.034188 -0.021148 -0.032026 -0.067653
class -0.093773 0.161816 0.249540 -0.008268 0.046641 0.037674 -0.045555 0.105124 0.033027 -0.071970 -0.046090 0.116534 -0.002114 0.044259 0.044819 -0.025415 -0.041960 -0.067855 0.130780 0.123998 0.084105 0.130626 -0.126963 -0.081154 0.023485 0.024608 0.129399 -0.003310 -0.051394 0.031991 -0.121537 0.139921 -0.047740 0.106145 0.175536 -0.048445 -0.234507 0.037864 0.166446 -0.010632 -0.131697 0.254492 -0.050963 -0.063136 0.034466 -0.016068 -0.128556 0.146806 -0.020159 -0.023763
commute -0.162201 0.024611 0.114278 0.052739 0.065507 0.060624 -0.128304 0.000180 0.407982 -0.082424 -0.066342 -0.399351 0.101247 -0.287101 -0.038171 0.176837 0.058850 -0.191694 -0.088112 -0.182282 0.351790 0.025615 -0.102877 -0.018026 0.093618 0.194611 0.014526 -0.175905 0.090727 -0.090326 -0.137103 -0.040996 -0.137098 -0.112785 -0.011011 0.329922 0.165979 0.006271 0.363385 -0.203940 0.088344 -0.059554 -0.114709 -0.174664 -0.103521 0.040113 -0.194717 0.047553 0.063988 0.300861
council 0.076993 -0.086769 0.066672 -0.109449 -0.024375 0.041380 -0.011400 -0.020632 -0.152630 0.189521 0.046966 0.087273 -0.154608 0.060002 -0.009686 -0.082237 0.107406 0.103060 -0.000304 0.030037 -0.149647 -0.177253 -0.021770 0.185860 -0.060501 -0.051670 -0.027274 0.040149 -0.091315 -0.015718 0.091427 0.151254 0.090058 0.078660 0.017413 -0.140225 0.006095 -0.011813 -0.178650 0.010618 -0.094097 0.166811 0.085662 0.013904 0.011638 -0.107104 0.051727 0.069158 -0.098606 -0.011654
known 0.075423 -0.105161 -0.011031 -0.060657 -0.036092 0.060882 -0.090304 0.007407 -0.057048 -0.029800 0.006966 -0.043569 0.007778 -0.141428 0.082442 -0.085690 0.037861 0.043939 -0.072589 -0.118579 -0.025810 -0.089318 0.055419 0.055028 -0.032473 -0.097326 0.131690 -0.085115 0.099372 -0.041698 0.093909 0.040229 -0.115355 -0.030979 -0.033892 -0.050392 0.244940 0.063728 -0.022434 -0.173464 -0.051770 -0.254653 -0.081791 0.070191 -0.052522 0.001477 0.060775 0.030862 0.054387 0.055685
nicer -0.053687 -0.073395 0.074040 -0.107539 0.100806 0.124859 -0.001013 -0.042983 -0.020029 -0.031586 -0.013467 0.050320 0.009770 -0.074126 0.012390 -0.141399 0.045614 0.033475 0.054458 0.052192 -0.090877 -0.002453 -0.030860 0.071234 0.045728 -0.086206 -0.036530 -0.011811 0.050494 0.108428 0.054859 0.026612 -0.038695 -0.095399 -0.028353 0.022735 0.039217 -0.037286 0.066952 -0.039905 -0.036698 -0.023820 -0.079936 0.095507 -0.081628 0.072786 0.020747 -0.009001 -0.015852 -0.086923
open -0.096294 -0.132121 0.219600 -0.049550 0.107169 0.093283 0.259048 -0.033471 -0.107582 0.090451 0.157803 0.182051 -0.039787 0.112106 -0.218961 -0.003998 -0.112140 0.001005 0.174072 0.151087 -0.286078 -0.079008 -0.091441 0.120850 -0.093574 -0.075320 -0.237949 0.197733 0.084907 0.209190 -0.002168 0.154750 0.036459 0.050567 0.041914 -0.092549 -0.358528 -0.072487 0.099905 0.131471 0.041425 0.300982 0.010343 -0.052881 -0.060825 -0.076864 -0.049716 0.006178 -0.022403 -0.193046
plenty 0.176974 0.013632 -0.302886 -0.098261 -0.199544 -0.079142 -0.016622 0.015142 -0.328744 0.021263 -0.072220 0.212194 -0.138179 0.271154 0.149776 -0.124603 -0.023602 0.302327 -0.080206 -0.065526 -0.216490 -0.048647 0.054107 -0.120137 -0.172671 -0.060717 0.113616 0.059104 -0.073089 -0.024035 0.104829 -0.042647 0.026213 0.099439 -0.124176 -0.292216 0.154961 0.109675 -0.327419 0.047298 -0.060469 -0.209963 0.084170 0.151052 0.024265 -0.142567 0.231495 -0.186152 -0.028015 -0.128173
